tree
version=v3
num_class=1
num_tree_per_iteration=1
label_index=0
max_feature_idx=11
objective=lambdarank
feature_names=color intensity shape_size integration choice visibility proximity2dp proximity2fe proximity2be uniqueness wellknownness relevance
feature_infos=[0:1] [0:1] [0:1.0000000000000002] [0:1] [0:1] [0:1] [0:1.0000000000000002] [0:0.99999999999999989] [0:0.93183904056685019] [0:1] [0:0.97986577180532408] [0:1]
tree_sizes=1695 1783 1361 1355

Tree=0
num_leaves=15
num_cat=0
split_feature=1 0 7 3 1 1 11 0 5 11 11 0 11 0
split_gain=15.9827 9.25202 4.25455 2.22429 1.24698 1.22668 0.775132 0.291437 0.0994076 0.200695 0.0393706 0.0188238 0.0132335 0.0131007
threshold=0.30847625175305093 0.57358709964519461 0.025384520271380974 0.019986404276603895 0.58355200773909133 0.13186544335975872 0.67688773599872754 0.51348607409480673 0.20945946249560674 0.67688773599872754 0.98202865771588765 0.60700420711197478 0.49459000568800598 0.39502600680593031
decision_type=2 2 2 2 2 2 2 2 2 2 2 2 2 2
left_child=5 4 3 -3 7 8 12 -2 13 -10 -4 -8 -7 -1
right_child=1 2 10 -5 -6 6 11 -9 9 -11 -12 -13 -14 -15
leaf_value=-0.058799999999999672 0.039924835393329527 0.039611372512946934 -0.074462983681133993 -0.0050662800913058234 0.097999999999999976 -0.048500069896131294 -0.019599999999999979 0.068097235518769714 -0.097999999999999893 -0.069999999999999951 -0.060241351026437615 -0.0085379615748034116 -0.055125039595066996 -0.068865182374206579
leaf_weight=0.54125338792801103 1.7447757162153748 4.4474073648452723 0.90143680572509832 6.7153373062610626 2.7902445197105408 1.0936650633811953 0.5412533879280087 1.7821636237204075 1.0339605808258057 1.5155094861984253 0.97062080726027489 1.1628490649163723 2.1414149850606918 0.7282397672533989
leaf_count=5 21 46 10 70 26 11 5 17 10 14 10 15 21 7
internal_value=0 0.0248561 0.00126975 0.012734 0.0735239 -0.054922 -0.038797 0.0541604 -0.0757771 -0.0813557 -0.0670894 -0.0120515 -0.0528854 -0.0645739
internal_weight=0 19.352 13.0348 11.1627 6.31718 8.75815 4.93918 3.52694 3.81896 2.54947 1.87206 1.7041 3.23508 1.26949
internal_count=288 200 136 116 64 88 52 38 36 24 20 20 32 12
shrinkage=0.049


Tree=1
num_leaves=16
num_cat=0
split_feature=1 0 11 1 0 5 1 11 11 0 0 0 11 1 11
split_gain=74.4968 34.9411 15.9493 8.95216 6.9871 6.35312 6.28527 1.30673 1.28043 1.17487 0.960291 0.182166 0.118699 0.0757764 0.000154352
threshold=0.30847625175305093 0.57358709964519461 0.45133336091856951 0.58355200773909133 0.59033361992249433 0.44338217292259219 0.13186544335975872 0.67688773599872754 0.67688773599872754 0.51348607409480673 0.20029640213204666 0.39502600680593031 0.53168496441549251 0.20976926485769415 0.42474782993232335
decision_type=2 2 2 2 2 2 2 2 2 2 2 2 2 2 2
left_child=6 3 4 9 -3 -4 7 10 12 -2 -1 -9 -8 -10 -5
right_child=1 2 5 14 -6 -7 8 11 13 -11 -12 -13 -14 -15 -16
leaf_value=-0.093480112039601465 0.033140236914419315 -0.010474946297383707 -0.030751430195566212 0.093399212826690822 0.044562398721741669 0.005593131420245809 -0.037525044534348129 -0.059630601856014216 -0.023094164265813538 0.055778151276193476 -0.060857138111509418 -0.047270862505501353 -0.045573863058293175 -0.01516938930624488 0.093728073651797111
leaf_weight=5.2490471303462982 12.050274014472961 7.2236588597297695 24.608319818973541 7.9766924381256086 23.737326800823212 21.758211836218834 15.479466497898104 9.4136947691440565 9.7520959973335248 10.132974445819855 3.6890197992324829 4.114541471004487 6.1458626091480246 4.1213358640670767 6.0075419247150421
leaf_count=10 21 11 47 15 41 37 23 14 15 17 5 7 9 5 11
internal_value=0 0.0230822 0.00448844 0.0628365 0.0317214 -0.0136962 -0.0451948 -0.065477 -0.0323587 0.0434809 -0.0800156 -0.0558715 -0.0398125 -0.02074 0.0935405
internal_weight=0 113.495 77.3275 36.1675 30.961 46.3665 57.9651 22.4663 35.4988 22.1832 8.93807 13.5282 21.6253 13.8734 13.9842
internal_count=288 200 136 64 52 84 88 36 52 38 15 21 32 20 26
shrinkage=0.049


Tree=2
num_leaves=12
num_cat=0
split_feature=5 5 9 1 0 1 0 11 1 11 11
split_gain=45.1731 24.1781 13.8306 4.16467 3.39802 3.03543 2.256 8.97978 0.547647 0.143676 0.00210515
threshold=0.66306536504090297 0.13317275513406593 1.0000000180025095e-35 0.13186544335975872 0.59033361992249433 0.41542385403513515 0.61341275555286834 0.45133336091856951 0.51298240439606357 0.91589751341782366 0.42474782993232335
decision_type=2 2 2 2 2 2 2 2 2 2 2
left_child=1 6 5 -4 10 -3 8 -8 -1 -6 -2
right_child=4 2 3 -5 9 -7 7 -9 -10 -11 -12
leaf_value=0.051427750822976147 0.089058061514007414 0.022482987622502282 -0.058314538350976698 -0.029404053285027688 0.053342110816489152 -0.0086595105541382219 0.068239872944295649 -0.031902057998671456 0.033523397653317563 0.040992479057447705 0.090505275227678414
leaf_weight=7.431286722421647 5.3937386125326157 10.695926658809183 17.30744580924511 38.747294396162033 5.9495452642440796 25.264767229557037 3.7507253885269183 5.0374066829681396 9.1551255583763123 3.649214468896389 4.3673602044582367
leaf_count=17 15 25 36 72 12 50 8 12 21 9 11
internal_value=0 -0.0114369 -0.0231147 -0.0383304 0.0693485 0.000603322 0.0309101 0.010838 0.0415452 0.0486471 0.0897056
internal_weight=0 117.39 92.0154 56.0547 19.3599 35.9607 25.3745 8.78813 16.5864 9.59876 9.7611
internal_count=288 241 183 108 47 75 58 20 38 21 26
shrinkage=0.049


Tree=3
num_leaves=12
num_cat=0
split_feature=5 5 1 2 0 11 5 11 11 11 11
split_gain=36.364 21.719 7.93348 3.44148 2.43601 1.95388 1.36524 1.03945 0.863531 0.00996534 0.00312681
threshold=0.66306536504090297 0.13317275513406593 0.13186544335975872 0.20208500400962315 0.59033361992249433 0.67688773599872754 0.10452880480595676 0.45133336091856951 0.45133336091856951 0.91589751341782366 0.42474782993232335
decision_type=2 2 2 2 2 2 2 2 2 2 2
left_child=1 6 5 -4 10 -3 7 -1 -8 -6 -2
right_child=4 2 3 -5 9 -7 8 -9 -10 -11 -12
leaf_value=0.046119694987151634 0.085774710882287469 -0.077319734442301488 -0.028037442533171482 -0.0057015027233265434 0.0507952691721449 -0.040669915606707109 0.03036885105236475 0.017215659833557093 0.066967515841892783 0.047532197380006753 0.087753309966734958
leaf_weight=3.9155866205692353 4.254563346505166 5.8643232434987995 29.575944989919662 37.6424460709095 5.4916774183511734 8.6356566995382309 2.7591350078582755 12.600908666849135 3.5259845554828644 3.8035027682781219 3.4913884103298187
leaf_count=8 15 15 63 84 12 21 7 33 10 9 11
internal_value=0 -0.0108214 -0.0226203 -0.0155293 0.0663721 -0.0554924 0.0314643 0.024068 0.0509009 0.0494601 0.0866665
internal_weight=0 104.52 81.7184 67.2184 17.0411 14.5 22.8016 16.5165 6.28512 9.29518 7.74595
internal_count=288 241 183 147 47 36 58 41 17 21 26
shrinkage=0.049


end of trees

feature_importances:
relevance=17
color=12
intensity=11
visibility=7
shape_size=1
integration=1
proximity2fe=1
uniqueness=1

parameters:
[boosting: gbdt]
[objective: lambdarank]
[metric: ndcg]
[tree_learner: serial]
[device_type: cpu]
[data: ]
[valid: ]
[num_iterations: 36]
[learning_rate: 0.049]
[num_leaves: 16]
[num_threads: -1]
[force_col_wise: 0]
[force_row_wise: 0]
[histogram_pool_size: -1]
[max_depth: 4]
[min_data_in_leaf: 5]
[min_sum_hessian_in_leaf: 0.001]
[bagging_fraction: 1]
[pos_bagging_fraction: 1]
[neg_bagging_fraction: 1]
[bagging_freq: 0]
[bagging_seed: 3]
[feature_fraction: 1]
[feature_fraction_bynode: 1]
[feature_fraction_seed: 2]
[extra_trees: 0]
[extra_seed: 6]
[early_stopping_round: 100]
[first_metric_only: 0]
[max_delta_step: 0]
[lambda_l1: 0]
[lambda_l2: 0]
[min_gain_to_split: 0]
[drop_rate: 0.1]
[max_drop: 50]
[skip_drop: 0.5]
[xgboost_dart_mode: 0]
[uniform_drop: 0]
[drop_seed: 4]
[top_rate: 0.2]
[other_rate: 0.1]
[min_data_per_group: 100]
[max_cat_threshold: 32]
[cat_l2: 10]
[cat_smooth: 10]
[max_cat_to_onehot: 4]
[top_k: 20]
[monotone_constraints: ]
[monotone_constraints_method: basic]
[monotone_penalty: 0]
[feature_contri: ]
[forcedsplits_filename: ]
[refit_decay_rate: 0.9]
[cegb_tradeoff: 1]
[cegb_penalty_split: 0]
[cegb_penalty_feature_lazy: ]
[cegb_penalty_feature_coupled: ]
[path_smooth: 0]
[interaction_constraints: ]
[verbosity: -1]
[saved_feature_importance_type: 0]
[max_bin: 255]
[max_bin_by_feature: ]
[min_data_in_bin: 3]
[bin_construct_sample_cnt: 200000]
[data_random_seed: 1]
[is_enable_sparse: 1]
[enable_bundle: 1]
[use_missing: 1]
[zero_as_missing: 0]
[feature_pre_filter: 1]
[pre_partition: 0]
[two_round: 0]
[header: 0]
[label_column: ]
[weight_column: ]
[group_column: ]
[ignore_column: ]
[categorical_feature: ]
[forcedbins_filename: ]
[objective_seed: 5]
[num_class: 1]
[is_unbalance: 0]
[scale_pos_weight: 1]
[sigmoid: 1]
[boost_from_average: 1]
[reg_sqrt: 0]
[alpha: 0.9]
[fair_c: 1]
[poisson_max_delta_step: 0.7]
[tweedie_variance_power: 1.5]
[lambdarank_truncation_level: 20]
[lambdarank_norm: 1]
[label_gain: ]
[eval_at: 1,2]
[multi_error_top_k: 1]
[auc_mu_weights: ]
[num_machines: 1]
[local_listen_port: 12400]
[time_out: 120]
[machine_list_filename: ]
[machines: ]
[gpu_platform_id: -1]
[gpu_device_id: -1]
[gpu_use_dp: 0]

end of parameters

pandas_categorical:null
