tree
version=v3
num_class=1
num_tree_per_iteration=1
label_index=0
max_feature_idx=11
objective=lambdarank
feature_names=color intensity shape_size integration choice visibility proximity2dp proximity2fe proximity2be uniqueness wellknownness relevance
feature_infos=[0:1] [0:1] [0:0.99919807538091443] [0:1] [0:1] [0:1] [0:1.0000000000000002] [0.0039938353199395586:0.99999999999999989] [0:0.93183904056685019] [0:1] [0:0.97986577180532408] [0:1]
tree_sizes=1687 1788 1788 1580 1786

Tree=0
num_leaves=15
num_cat=0
split_feature=1 0 7 8 0 1 11 1 11 7 11 11 0 11
split_gain=16.2278 8.41695 4.91472 1.81854 1.66577 1.42875 0.708507 0.447644 0.0968384 0.085947 0.234522 0.0222639 0.0188238 0.00558445
threshold=0.30847625175305093 0.57358709964519461 0.025384520271380974 0.021148118322094709 0.44236970535318071 0.13186544335975872 0.67688773599872754 0.58355200773909133 0.77915819106608775 0.020714679282958556 0.67688773599872754 0.98202865771588765 0.60700420711197478 0.49459000568800598
decision_type=2 2 2 2 2 2 2 2 2 2 2 2 2 2
left_child=5 4 3 -3 8 9 13 -6 -2 -1 -11 -4 -8 -7
right_child=1 2 11 -5 7 6 12 -9 -10 10 -12 -13 -14 -15
leaf_value=-0.058799999999999721 0.017128460219228397 -0.014327374316462204 -0.074462983681133993 0.026786260644590689 0.06616344647421378 -0.048500069896131294 -0.019599999999999979 0.097999999999999976 0.040162093657954499 -0.097999999999999879 -0.070937329810099786 -0.064029938817956558 -0.0085379615748034116 -0.05284227105627947
leaf_weight=0.5412533879280107 0.72823976725340123 3.6958265565335724 0.90143680572509821 8.5796143971383554 1.6739129461348055 1.0936650633811953 0.5412533879280087 2.893253318965435 1.1005135290324688 1.1422112584114077 2.351999931037426 1.0788714848458767 1.1628490649163723 2.03316430747509
leaf_count=5 8 37 10 87 16 11 5 27 13 11 22 11 15 20
internal_value=0 0.0238055 0.00285222 0.014408 0.070508 -0.055448 -0.0374704 0.0863316 0.0309897 -0.0769693 -0.0797838 -0.0687791 -0.0120515 -0.0513235
internal_weight=0 20.6517 14.2557 12.2754 6.39592 8.8664 4.83093 4.56717 1.82875 4.03546 3.49421 1.98031 1.7041 3.12683
internal_count=298 209 145 124 64 89 51 43 21 38 33 21 20 31
shrinkage=0.049


Tree=1
num_leaves=16
num_cat=0
split_feature=1 8 5 0 1 11 11 1 11 11 0 0 0 0 11
split_gain=70.6511 36.3944 15.3664 12.6271 8.43646 5.13473 4.52486 3.91903 1.78168 1.08535 1.11411 0.0364295 0.021773 0.019952 2.65334e-05
threshold=0.30847625175305093 0.089282979395787207 0.13317275513406593 0.51348607409480673 0.13186544335975872 0.45133336091856951 0.91589751341782366 0.6478058824532259 0.67688773599872754 0.67688773599872754 0.20029640213204666 0.69091661859275844 0.39502600680593031 0.60700420711197478 0.42474782993232335
decision_type=2 2 2 2 2 2 2 2 2 2 2 2 2 2 2
left_child=4 2 5 14 9 -2 -5 -4 11 10 -1 -6 -11 -10 -3
right_child=1 3 7 6 8 -7 -8 -9 13 12 -12 -13 -14 -15 -16
leaf_value=-0.093400098102717211 0.054018329672967234 0.093491964042960771 -0.045546447402903104 0.050911090276809033 -0.035243497317665323 0.011719934022289614 0.011012671946779719 -0.011212995349638705 -0.012126728707905635 -0.059742601196170017 -0.05907863622299539 -0.039470520145230253 -0.055657615133773056 -0.016175262950195377 0.09362526633288934
leaf_weight=5.7374413013458252 9.6085507273673993 8.0392101705074293 11.578463375568388 21.665996164083481 7.9466277360916147 24.360698163509369 9.9630849808454531 25.701871573925018 4.342892408370969 9.3493489921092969 3.7583988904953003 12.748640567064285 4.7115078568458566 8.9374769330024719 6.4709659218788138
leaf_count=11 19 15 21 41 12 43 21 37 5 14 5 19 8 15 12
internal_value=0 0.021801 -0.000154516 0.0557054 -0.0444828 0.0236845 0.0383432 -0.0218762 -0.0288587 -0.0670172 -0.0798159 -0.0378474 -0.0583738 -0.0148513 0.0935514
internal_weight=0 117.389 71.2496 46.1393 57.5323 33.9692 31.6291 37.2803 33.9756 23.5567 9.49584 20.6953 14.0609 13.2804 14.5102
internal_count=298 209 120 89 89 62 62 58 51 38 16 31 22 20 27
shrinkage=0.049


Tree=2
num_leaves=16
num_cat=0
split_feature=1 0 11 1 1 1 1 11 11 5 0 11 0 0 11
split_gain=43.3147 29.3384 7.89603 14.2701 11.2314 5.81607 5.81336 1.33599 1.21825 0.603691 0.470868 0.166142 0.0178737 0.00311379 0.00159021
threshold=0.30847625175305093 0.57358709964519461 0.45133336091856951 0.45490164452112969 0.75421761723155623 0.58355200773909133 0.13186544335975872 0.67688773599872754 0.67688773599872754 0.20945946249560674 0.51348607409480673 0.49459000568800598 0.39502600680593031 0.60700420711197478 0.42474782993232335
decision_type=2 2 2 2 2 2 2 2 2 2 2 2 2 2 2
left_child=6 5 4 -4 -3 10 8 11 9 -1 -2 -8 -10 -9 -7
right_child=1 2 3 -5 -6 14 7 13 12 -11 -12 -13 -14 -15 -16
leaf_value=-0.060627595142903452 0.03688966076044236 -0.00034804907086644202 0.037298766636459597 -0.025997101962599002 0.063873307817132435 0.089318343065702313 -0.040822282406943175 -0.011584481162792502 -0.052411828652009849 -0.089656419288858827 0.053199941783446371 -0.030739092788187098 -0.048153922690221146 -0.013299823837986184 0.09054103824275074
leaf_weight=3.0046795308589944 10.493287175893785 18.870560497045521 11.277949944138525 35.381964981555939 10.004793047904966 5.4878197610378283 6.1483307182788911 3.80811959505081 7.2745756804943085 4.0232592225074768 7.1425375938415518 10.842665761709211 3.5088323950767517 7.6352013945579529 4.7771058082580566
leaf_count=5 21 37 21 68 19 15 11 5 14 11 16 20 8 15 12
internal_value=0 0.017625 0.00176469 -0.0106982 0.0219035 0.0605634 -0.0394212 -0.0256713 -0.0613719 -0.0772456 0.0434954 -0.0343878 -0.0510263 -0.012729 0.0898874
internal_weight=0 103.436 75.5353 46.6599 28.8754 27.9008 46.2457 28.4343 17.8113 7.02794 17.6358 16.991 10.7834 11.4433 10.2649
internal_count=298 209 145 89 56 64 89 51 38 16 37 31 22 20 27
shrinkage=0.049


Tree=3
num_leaves=14
num_cat=0
split_feature=1 10 7 1 6 11 11 11 0 0 11 0 11
split_gain=31.3345 18.0122 12.6257 4.16297 3.56354 1.7971 1.72039 1.13922 0.27179 0.173747 0.0121215 0.00410022 0.0028272
threshold=0.30847625175305093 0.053859060085187614 0.024554669465599758 0.13186544335975872 0.1698148802957318 0.45133336091856951 0.67688773599872754 0.67688773599872754 0.20029640213204666 0.60700420711197478 0.53168496441549251 0.39502600680593031 0.42474782993232335
decision_type=2 2 2 2 2 2 2 2 2 2 2 2 2
left_child=3 12 4 6 -3 -4 8 10 -1 -9 -5 -8 -2
right_child=1 2 5 7 -6 -7 11 9 -10 -11 -12 -13 -14
leaf_value=-0.086415081315636952 0.085910596225542105 0.04257433903768016 -0.0037178102494556699 -0.030997436220466718 0.014001281690723047 -0.037302239575315276 -0.041894042428917436 -0.01923403071730468 -0.065348316040014648 -0.0055937676055762171 -0.034266978166542686 -0.044123527741712881 0.087745331699158199
leaf_weight=3.137037739157674 4.2801941782236081 13.953801207244394 5.6356672346591976 11.448208674788477 42.096614055335522 11.910045370459555 6.2305019795894623 3.4417872428894025 2.7675971984863281 6.4327130019664764 3.5720003098249427 2.9035630971193314 3.8128538429737091
leaf_count=11 15 37 12 23 104 29 14 5 5 15 8 8 12
internal_value=0 0.0173895 0.00975944 -0.0355725 0.0211146 -0.026515 -0.0559278 -0.023276 -0.0765408 -0.0103481 -0.031775 -0.0426028 0.086775
internal_weight=0 81.6892 73.5961 39.9334 56.0504 17.5457 15.0387 24.8947 5.90463 9.8745 15.0202 9.13407 8.09305
internal_count=298 209 182 89 141 41 38 51 16 20 31 22 27
shrinkage=0.049


Tree=4
num_leaves=16
num_cat=0
split_feature=1 0 11 7 1 1 1 11 11 11 0 0 0 0 11
split_gain=25.6844 15.6222 5.92805 5.76256 4.85134 3.78918 3.199 1.30548 0.700607 0.460877 0.201572 0.0742627 0.0413317 0.0101603 0.00245385
threshold=0.30847625175305093 0.57358709964519461 0.45133336091856951 0.024478057170235268 0.75421761723155623 0.58355200773909133 0.13186544335975872 0.67688773599872754 0.77915819106608775 0.67688773599872754 0.20029640213204666 0.69091661859275844 0.60700420711197478 0.39502600680593031 0.42474782993232335
decision_type=2 2 2 2 2 2 2 2 2 2 2 2 2 2 2
left_child=6 5 4 -4 -3 8 7 10 -2 11 -1 -8 -11 -9 -7
right_child=1 2 3 -5 -6 14 9 13 -10 12 -12 -13 -14 -15 -16
leaf_value=-0.083600535636991172 0.029740892047051683 0.0077161086375954228 0.0074766411194869221 -0.032952148712908927 0.05800243180529157 0.08303254498934956 -0.024621185634399443 -0.043181558811095193 0.053709333849724462 -0.01945418089790971 -0.063562650406111448 -0.03206470814671749 -0.012314550844205756 -0.03942792177783986 0.08491743845060673
leaf_weight=2.5780733823776227 8.1899568289518374 15.081828683614733 20.078857004642487 14.634821206331251 6.6318295300006858 3.5370739251375189 5.3197633028030404 5.4576557874679565 4.5575328618288031 2.9172085821628553 2.2637897133827209 8.1460089087486267 5.8525014519691467 2.5358569025993347 3.122041329741478
leaf_count=11 24 37 48 41 19 15 12 14 13 5 5 19 15 8 12
internal_value=0 0.016036 0.00299339 -0.00956759 0.0230747 0.0539593 -0.0346748 -0.054153 0.0383102 -0.0234311 -0.0742319 -0.0291241 -0.0146895 -0.0419908 0.0839163
internal_weight=0 75.8339 56.4273 34.7137 21.7137 19.4066 35.0709 12.8354 12.7475 22.2355 4.84186 13.4658 8.76971 7.99351 6.65912
internal_count=298 209 145 89 56 64 89 38 37 51 16 31 20 22 27
shrinkage=0.049


end of trees

feature_importances:
relevance=25
color=20
intensity=17
proximity2fe=4
visibility=2
proximity2be=2
proximity2dp=1
wellknownness=1

parameters:
[boosting: gbdt]
[objective: lambdarank]
[metric: ndcg]
[tree_learner: serial]
[device_type: cpu]
[data: ]
[valid: ]
[num_iterations: 36]
[learning_rate: 0.049]
[num_leaves: 16]
[num_threads: -1]
[force_col_wise: 0]
[force_row_wise: 0]
[histogram_pool_size: -1]
[max_depth: 4]
[min_data_in_leaf: 5]
[min_sum_hessian_in_leaf: 0.001]
[bagging_fraction: 1]
[pos_bagging_fraction: 1]
[neg_bagging_fraction: 1]
[bagging_freq: 0]
[bagging_seed: 3]
[feature_fraction: 1]
[feature_fraction_bynode: 1]
[feature_fraction_seed: 2]
[extra_trees: 0]
[extra_seed: 6]
[early_stopping_round: 100]
[first_metric_only: 0]
[max_delta_step: 0]
[lambda_l1: 0]
[lambda_l2: 0]
[min_gain_to_split: 0]
[drop_rate: 0.1]
[max_drop: 50]
[skip_drop: 0.5]
[xgboost_dart_mode: 0]
[uniform_drop: 0]
[drop_seed: 4]
[top_rate: 0.2]
[other_rate: 0.1]
[min_data_per_group: 100]
[max_cat_threshold: 32]
[cat_l2: 10]
[cat_smooth: 10]
[max_cat_to_onehot: 4]
[top_k: 20]
[monotone_constraints: ]
[monotone_constraints_method: basic]
[monotone_penalty: 0]
[feature_contri: ]
[forcedsplits_filename: ]
[refit_decay_rate: 0.9]
[cegb_tradeoff: 1]
[cegb_penalty_split: 0]
[cegb_penalty_feature_lazy: ]
[cegb_penalty_feature_coupled: ]
[path_smooth: 0]
[interaction_constraints: ]
[verbosity: -1]
[saved_feature_importance_type: 0]
[max_bin: 255]
[max_bin_by_feature: ]
[min_data_in_bin: 3]
[bin_construct_sample_cnt: 200000]
[data_random_seed: 1]
[is_enable_sparse: 1]
[enable_bundle: 1]
[use_missing: 1]
[zero_as_missing: 0]
[feature_pre_filter: 1]
[pre_partition: 0]
[two_round: 0]
[header: 0]
[label_column: ]
[weight_column: ]
[group_column: ]
[ignore_column: ]
[categorical_feature: ]
[forcedbins_filename: ]
[objective_seed: 5]
[num_class: 1]
[is_unbalance: 0]
[scale_pos_weight: 1]
[sigmoid: 1]
[boost_from_average: 1]
[reg_sqrt: 0]
[alpha: 0.9]
[fair_c: 1]
[poisson_max_delta_step: 0.7]
[tweedie_variance_power: 1.5]
[lambdarank_truncation_level: 20]
[lambdarank_norm: 1]
[label_gain: ]
[eval_at: 1,2]
[multi_error_top_k: 1]
[auc_mu_weights: ]
[num_machines: 1]
[local_listen_port: 12400]
[time_out: 120]
[machine_list_filename: ]
[machines: ]
[gpu_platform_id: -1]
[gpu_device_id: -1]
[gpu_use_dp: 0]

end of parameters

pandas_categorical:null
