tree
version=v3
num_class=1
num_tree_per_iteration=1
label_index=0
max_feature_idx=11
objective=lambdarank
feature_names=color intensity shape_size integration choice visibility proximity2dp proximity2fe proximity2be uniqueness wellknownness relevance
feature_infos=[0:1] [0:1] [0:1.0000000000000002] [0:1] [0:1] [0:1] [0:1.0000000000000002] [0:0.99999999999999989] [0:0.93183904056685019] [0:1] [0:0.97986577180532408] [0:1]
tree_sizes=1373 1473 1799 1477 1686 1682 1792 1793 1688 1585 1592 1690 1796 1808 1802 1810 1605 1600 1799 1805 1802

Tree=0
num_leaves=12
num_cat=0
split_feature=1 0 11 7 1 11 2 7 1 11 11
split_gain=19.9513 9.7807 4.73579 2.18987 1.67204 1.57886 0.355717 0.30141 0.211827 0.132372 0.0632217
threshold=0.30847625175305093 0.61341275555286834 0.45133336091856951 0.025347528134060101 0.58355200773909133 0.98202865771588765 0.99558941459502837 0.014651163316868462 0.44088151681405091 0.67688773599872754 0.53168496441549251
decision_type=2 2 2 2 2 2 2 2 2 2 2
left_child=5 4 6 -4 8 7 -3 10 -2 -9 -1
right_child=1 2 3 -5 -6 -7 -8 9 -10 -11 -12
leaf_value=-0.048500069896131218 0.066163446474213711 0.055222306110400944 -0.0094588357036370588 -0.069132894130178604 0.097999999999999976 -0.010684190873972909 0.026179114174340424 -0.08575286065765203 0.045356619713280269 -0.069631679287508852 -0.064573852375366142
leaf_weight=1.0936650633811971 1.6739129461348072 1.9839435815811137 5.6050867326557636 2.0045813880860806 2.7850026413798332 1.1914319843053816 2.0679211616516113 2.6879102513194084 3.9399787746369839 2.2437492534518242 1.2694931551814077
leaf_count=11 16 19 59 21 26 15 21 26 43 21 12
internal_value=0 0.0266435 -0.00239298 -0.0251785 0.0669596 -0.0629819 0.0403997 -0.0715235 0.0515607 -0.0784182 -0.0571349
internal_weight=0 20.0604 11.6615 7.60967 8.39889 8.48625 4.05186 7.29482 5.61389 4.93166 2.36316
internal_count=290 205 120 80 85 85 40 70 59 47 23
shrinkage=0.049


Tree=1
num_leaves=13
num_cat=0
split_feature=1 0 11 1 7 5 11 1 11 11 11 11
split_gain=88.2185 34.2066 16.0511 11.6531 5.20241 4.93966 4.72074 2.31814 3.7195 0.757178 0.294881 0.00244464
threshold=0.30847625175305093 0.61341275555286834 0.45133336091856951 0.58355200773909133 0.024478057170235268 0.068691133825377962 0.98202865771588765 0.20976926485769415 0.67688773599872754 0.45133336091856951 0.53168496441549251 0.42474782993232335
decision_type=2 2 2 2 2 2 2 2 2 2 2 2
left_child=6 3 5 9 -4 -3 7 8 -1 -2 -9 -5
right_child=1 2 4 11 -6 -7 -8 10 -10 -11 -12 -13
leaf_value=-0.084359228037580308 0.030654738510221515 0.070043637873307668 -0.0028708926209464044 0.092990623361612179 -0.038664921901342401 0.019646342875789775 -0.017654994976518207 -0.036568093527183258 -0.048866296227241701 0.045977201707327157 -0.049875607742251797 0.094288021227921154
leaf_weight=14.542987406253815 12.152467131614683 6.4059689939022091 23.761981576681137 7.6250896751880628 16.532475709915161 17.226789146661758 7.9588833451271048 7.3741877973079708 13.831380873918533 21.342913180589676 8.7324308454990369 6.425599992275238
leaf_count=26 19 10 47 15 33 30 15 11 21 40 12 11
internal_value=0 0.0246555 0.00124666 0.0561295 -0.0175569 0.0333072 -0.0524111 -0.05863 -0.0670578 0.0404181 -0.043783 0.0935839
internal_weight=0 111.473 63.9272 47.5461 40.2945 23.6328 52.4399 44.481 28.3744 33.4954 16.1066 14.0507
internal_count=290 205 120 85 80 40 85 70 47 59 23 26
shrinkage=0.049


Tree=2
num_leaves=16
num_cat=0
split_feature=1 0 7 10 11 0 11 11 0 11 0 11 5 11 0
split_gain=52.9703 22.8442 9.57149 9.03685 4.59221 3.65226 2.90244 1.88764 1.18267 1.12322 0.108573 0.0486445 0.00434792 0.00387101 0.00194599
threshold=0.30847625175305093 0.61341275555286834 0.025347528134060101 0.053859060085187614 0.45133336091856951 0.39502600680593031 0.67688773599872754 0.67688773599872754 0.70657666276404862 0.68736184834557201 0.60700420711197478 0.98202865771588765 0.20945946249560674 0.42474782993232335 1.0000000180025095e-35
decision_type=2 2 2 2 2 2 2 2 2 2 2 2 2 2 2
left_child=5 3 4 13 -3 6 12 8 -7 -5 -9 -4 -1 -2 -8
right_child=1 2 11 9 -6 7 14 10 -10 -11 -12 -13 -14 -15 -16
leaf_value=-0.093522330141100146 0.089040495353031504 0.027101875517992355 -0.04140656162055379 0.044736082368556293 -0.0041911001877616505 -0.06629856106870409 -0.048508967761815444 -0.024197753791467679 -0.036156057013986602 0.025112428967375314 -0.01325087943293723 -0.048602582993443895 -0.090751480583827773 0.090983700765213699 -0.050004747295542197
leaf_weight=2.1589203774929056 5.3635212481021863 19.956200003623962 4.026461184024809 14.913316011428835 25.837129354476929 4.4182426631450662 8.002172648906706 3.3633030951023084 10.680240303277969 13.203602433204649 6.1589441895484924 5.1280615925788879 3.6730414927005768 4.5489438474178314 2.8257522284984598
leaf_count=4 15 40 10 28 59 12 14 7 19 31 15 11 10 11 4
internal_value=0 0.0205082 0.000302205 0.0497034 0.00944601 -0.046191 -0.0639092 -0.0342018 -0.0449766 0.0355209 -0.0171174 -0.0454375 -0.0917772 0.0899323 -0.0488993
internal_weight=0 92.9772 54.9479 38.0294 45.7933 41.2806 16.6599 24.6207 15.0985 28.1169 9.52225 9.15452 5.83196 9.91247 10.8279
internal_count=290 205 120 85 99 85 32 53 31 59 22 21 14 26 18
shrinkage=0.049


Tree=3
num_leaves=13
num_cat=0
split_feature=1 10 7 6 0 11 11 11 0 11 0 11
split_gain=38.3043 16.3065 9.80456 4.30525 4.07732 2.61484 1.07169 0.243184 0.127577 0.0871922 0.0654966 0.00507168
threshold=0.30847625175305093 0.053859060085187614 0.025347528134060101 0.1698148802957318 0.39502600680593031 0.67688773599872754 0.67688773599872754 0.53168496441549251 1.0000000180025095e-35 0.98202865771588765 0.60700420711197478 0.42474782993232335
decision_type=2 2 2 2 2 2 2 2 2 2 2 2
left_child=4 11 3 -3 5 -1 7 -6 -7 -4 -8 -2
right_child=1 2 9 -5 6 8 10 -9 -10 -11 -12 -13
leaf_value=-0.089856266756593223 0.085470850583312913 0.039160700657302379 -0.035293314098075845 0.01035375047628783 -0.03257212697256047 -0.04301131193449223 -0.020220119897242424 -0.046950001033037876 -0.055865675577331464 -0.045887947222374617 -0.011127460405950659 0.08799250728018003
leaf_weight=5.1884713917970631 4.1427976638078681 16.798385754227638 3.3566349744796744 48.193332314491272 9.2635950595140475 6.8300826847553253 2.9958013296127302 4.0634106695651999 2.54439777135849 4.1972366869449615 5.2099748551845551 3.5611666440963745
leaf_count=14 15 38 10 120 23 14 7 8 4 11 15 11
internal_value=0 0.0188561 0.0116582 0.0177995 -0.0419217 -0.0619471 -0.0283782 -0.0369559 -0.0465002 -0.0411801 -0.014447 0.0866365
internal_weight=0 80.2496 72.5456 64.9917 36.0957 14.563 21.5328 13.327 9.37448 7.55387 8.20578 7.70396
internal_count=290 205 179 158 85 32 53 31 18 21 22 26
shrinkage=0.049


Tree=4
num_leaves=15
num_cat=0
split_feature=1 0 11 5 1 1 0 11 0 11 2 0 11 0
split_gain=31.3926 13.1554 6.66324 4.50493 3.83023 3.74338 3.14261 1.76504 0.943865 0.843092 0.170107 0.0711299 0.00404001 0.00298756
threshold=0.30847625175305093 0.58729677992026852 0.45133336091856951 0.44338217292259219 0.58355200773909133 0.70470216586199075 0.39502600680593031 0.67688773599872754 0.51348607409480673 0.98202865771588765 0.41900561347233373 1.0000000180025095e-35 0.42474782993232335 0.20029640213204666
decision_type=2 2 2 2 2 2 2 2 2 2 2 2 2 2
left_child=6 4 5 -4 8 -3 7 13 -2 10 -8 -9 -6 -1
right_child=1 2 3 -5 12 -7 9 11 -10 -11 -12 -13 -14 -15
leaf_value=-0.085917297485045729 0.025022862587572976 0.0089022289519857453 -0.027831221332064237 0.010148234123826134 0.082601334250454655 0.048943521647517911 -0.031220482707683468 -0.044771623298925936 0.051857784038259198 -0.010212956266119613 -0.043351134296203984 -0.055067060432135551 0.085086021551364244 -0.088718549610373634
leaf_weight=2.6876899003982553 6.9980896860361117 14.141096115112306 16.03212641179562 14.087968870997427 3.4307023584842673 9.2876391410827619 10.236632883548738 6.1113113611936569 5.7187496423721313 4.5367362499237052 3.8080207109451285 2.1881020963191986 2.898790031671524 1.3852746188640592
leaf_count=10 21 33 50 40 15 19 26 14 16 15 12 4 11 4
internal_value=0 0.0176173 0.00517717 -0.0100672 0.0525929 0.0247754 -0.0413175 -0.0604511 0.0370905 -0.0285774 -0.0345095 -0.047486 0.0837393 -0.08687
internal_weight=0 72.5952 53.5488 30.1201 19.0463 23.4287 30.9538 12.3724 12.7168 18.5814 14.0447 8.29941 6.32949 4.07296
internal_count=290 205 142 90 63 52 85 32 37 53 38 18 26 14
shrinkage=0.049


Tree=5
num_leaves=15
num_cat=0
split_feature=1 0 11 1 1 2 0 11 11 0 2 5 11 0
split_gain=25.4076 11.954 5.7313 5.74768 4.10737 2.6549 2.61723 1.42261 0.760498 0.566853 0.222286 0.0656141 0.00538556 0.00363045
threshold=0.30847625175305093 0.61341275555286834 0.45133336091856951 0.41542385403513515 0.58355200773909133 0.99558941459502837 0.39502600680593031 0.67688773599872754 0.98202865771588765 0.51348607409480673 0.41900561347233373 0.20945946249560674 0.42474782993232335 0.20029640213204666
decision_type=2 2 2 2 2 2 2 2 2 2 2 2 2 2
left_child=6 4 5 -4 9 -3 7 13 10 -2 -8 -9 -6 -1
right_child=1 2 3 -5 12 -7 8 11 -10 -11 -12 -13 -14 -15
leaf_value=-0.083409209235402376 0.020909596137563012 0.04491983198088903 0.03567903090738294 -0.023906270034228679 0.079825305192191387 0.0031632099712756352 -0.029513524588972433 -0.054015113937898727 -0.0089347332484131133 0.038753715438401226 -0.044086302481644739 -0.043413648081134265 0.082932536520008801 -0.086753501099188932
leaf_weight=2.2443081513047236 6.3686299026012465 7.6313044279813749 4.7312314510345486 21.781235903501511 2.880315698683261 7.0178317874670029 9.4258416146039981 1.9103970527648924 4.0005033761262885 12.998331367969513 3.4268420189619055 5.2641510963439941 2.5032659471035004 1.1940094977617266
leaf_count=10 21 19 13 67 15 21 26 4 15 38 12 14 11 4
internal_value=0 0.0164995 0.000318098 -0.0132731 0.0434101 0.0249159 -0.0395949 -0.0586559 -0.0275918 0.0328859 -0.033399 -0.0462365 0.0812701 -0.0845706
internal_weight=0 65.9121 41.1616 26.5125 24.7505 14.6491 27.4661 10.6129 16.8532 19.367 12.8527 7.17455 5.38358 3.43832
internal_count=290 205 120 80 85 40 85 32 53 59 38 18 26 14
shrinkage=0.049


Tree=6
num_leaves=16
num_cat=0
split_feature=1 0 11 1 1 0 2 11 11 1 11 0 0 11 0
split_gain=21.5521 9.47607 4.74776 4.03071 3.51819 2.21938 1.86022 1.17066 0.68732 0.652763 0.364453 0.0621254 0.0270405 0.00552068 0.00413578
threshold=0.30847625175305093 0.61341275555286834 0.45133336091856951 0.41542385403513515 0.58355200773909133 0.39502600680593031 0.99558941459502837 0.67688773599872754 0.67688773599872754 0.44088151681405091 0.49459000568800598 1.0000000180025095e-35 0.60700420711197478 0.42474782993232335 0.20029640213204666
decision_type=2 2 2 2 2 2 2 2 2 2 2 2 2 2 2
left_child=5 4 6 -4 9 7 -3 14 10 -2 -7 -9 -10 -6 -1
right_child=1 2 3 -5 13 8 -8 11 12 -11 -12 -13 -14 -15 -16
leaf_value=-0.081149426866225866 0.047947738648150474 0.042828171236959901 0.030835723498937727 -0.020876069929378894 0.077611368129812952 -0.022770648891665426 0.0056066342202390745 -0.042320600978017313 -0.018024927426814503 0.025903117669744909 -0.042286216784973622 -0.053243371629735504 -0.011148385619212622 0.080979110914197863 -0.08497336910847568
leaf_weight=1.9158869013190287 4.2862540483474794 6.7677552253007871 4.4111020714044598 20.155174277722836 2.4991158843040457 3.7019148468971235 6.1563619822263718 4.6653597429394722 2.1778773814439765 13.026869028806685 6.0565991327166557 1.7079541236162183 3.7150419652462006 2.1953795105218887 1.0519587844610214
leaf_count=10 16 19 13 67 15 11 21 14 7 43 20 4 15 11 4
internal_value=0 0.0160395 0.00105696 -0.0115907 0.0415625 -0.038184 0.0250978 -0.057085 -0.0269035 0.0313608 -0.0348829 -0.0452477 -0.0136898 0.0791863 -0.0825048
internal_weight=0 59.498 37.4904 24.5663 22.0076 24.9926 12.9241 9.34116 15.6514 17.3131 9.75851 6.37331 5.89292 4.6945 2.96785
internal_count=290 205 120 80 85 85 40 32 53 59 31 18 22 26 14
shrinkage=0.049


Tree=7
num_leaves=16
num_cat=0
split_feature=1 0 7 1 0 11 11 1 11 11 11 5 0 11 0
split_gain=18.7401 8.01492 4.5604 2.98463 1.9874 1.92936 0.949439 0.520746 0.352905 0.298744 0.0796867 0.0498006 0.0497768 0.00559035 0.00451057
threshold=0.30847625175305093 0.61341275555286834 0.025347528134060101 0.58355200773909133 0.39502600680593031 0.45133336091856951 0.67688773599872754 0.44088151681405091 0.67688773599872754 0.49459000568800598 0.98202865771588765 0.20945946249560674 0.60700420711197478 0.42474782993232335 0.20029640213204666
decision_type=2 2 2 2 2 2 2 2 2 2 2 2 2 2 2
left_child=4 3 5 7 6 -3 14 -2 9 -6 -4 -8 -10 -5 -1
right_child=1 2 10 13 8 -7 11 -9 12 -11 -12 -13 -14 -15 -16
leaf_value=-0.079112977753807462 0.046476240049225362 0.024206513846360703 -0.034182453101673831 0.075678669790031322 -0.02096747463971568 -0.001526658193673583 -0.05257443097639198 0.025669637267097176 -0.022535873488459649 -0.039197767516607467 -0.046595401776303357 -0.042321130213995327 -0.012768047319971014 0.079277916814188484 -0.083358294091304602
leaf_weight=1.6626627594232579 3.8095924481749561 11.712703332304956 2.1373480036854735 2.2017365992069236 3.5485584959387761 17.369601175189018 1.5500505864620207 11.940217070281504 1.9530443623661984 5.5086782202124596 2.9633448421955109 4.271918311715126 3.4928519576787949 1.9571080356836317 0.94097955524921406
leaf_count=10 16 40 10 15 11 59 4 43 7 20 11 14 15 11 4
internal_value=0 0.0157363 0.00134184 0.0404516 -0.0371239 0.0088372 -0.0560508 0.0307024 -0.0261283 -0.0320553 -0.041394 -0.045051 -0.0162711 0.0773724 -0.0806473
internal_weight=0 54.0917 34.183 19.9087 22.9287 29.0823 8.42561 15.7498 14.5031 9.05724 5.10069 5.82197 5.4459 4.15884 2.60364
internal_count=290 205 120 85 85 99 32 59 53 31 21 18 22 26 14
shrinkage=0.049


Tree=8
num_leaves=15
num_cat=0
split_feature=1 0 7 1 0 11 11 11 11 2 11 5 11 0
split_gain=16.7145 6.60879 3.22257 2.64332 1.70529 1.57531 0.791453 0.44752 0.381803 0.261628 0.0419105 0.0417633 0.00527861 0.0045654
threshold=0.30847625175305093 0.61341275555286834 0.025347528134060101 0.58355200773909133 0.39502600680593031 0.45133336091856951 0.67688773599872754 0.77915819106608775 0.98202865771588765 0.41900561347233373 0.98202865771588765 0.20945946249560674 0.42474782993232335 0.20029640213204666
decision_type=2 2 2 2 2 2 2 2 2 2 2 2 2 2
left_child=4 3 5 7 6 -3 13 -2 9 -6 -4 -8 -5 -1
right_child=1 2 10 12 8 -7 11 -9 -10 -11 -12 -13 -14 -15
leaf_value=-0.077370689547401297 0.0237709901403295 0.022342296938562236 -0.030721896544114658 0.073913644965451622 -0.026091614722137415 -0.001496900258227356 -0.051975755183408072 0.042447272231210531 -0.011377072861309031 -0.044013329073000852 -0.040195375175197869 -0.042184318673387532 0.077617362160103454 -0.081884444356542199
leaf_weight=1.4684909284114867 10.295464143157007 11.212898373603823 1.9519898965954769 1.9551166370511046 7.4697163924574834 16.374358519911766 1.4216472953557966 4.3957829102873793 3.2048527151346198 2.6494715362787247 2.6345052421092987 3.9573032706975937 1.7517396211624146 0.84910613298416127
leaf_count=10 36 40 10 15 26 59 4 23 15 12 11 14 11 4
internal_value=0 0.0152643 0.00186945 0.0386886 -0.0367233 0.00819259 -0.0550863 0.0293591 -0.026116 -0.030784 -0.0361635 -0.0447722 0.0756639 -0.0790244
internal_weight=0 50.5719 32.1738 18.3981 21.0206 27.5873 7.69655 14.6912 13.324 10.1192 4.5865 5.37895 3.70686 2.3176
internal_count=290 205 120 85 85 99 32 59 53 38 21 18 26 14
shrinkage=0.049


Tree=9
num_leaves=14
num_cat=0
split_feature=1 10 7 6 0 11 11 0 5 0 11 0 11
split_gain=14.6805 5.30638 3.668 1.72136 1.45436 0.704094 0.450099 0.154454 0.045985 0.0342684 0.0297144 0.00442833 0.00391635
threshold=0.30847625175305093 0.053859060085187614 0.025347528134060101 0.1698148802957318 0.39502600680593031 0.67688773599872754 0.67688773599872754 0.70657666276404862 0.20945946249560674 0.60700420711197478 0.98202865771588765 0.20029640213204666 0.42474782993232335
decision_type=2 2 2 2 2 2 2 2 2 2 2 2 2
left_child=4 12 3 -3 5 11 7 -6 -7 -8 -4 -1 -2
right_child=1 2 10 -5 6 8 9 -9 -10 -11 -12 -13 -14
leaf_value=-0.075876397563273135 0.072577294103408407 0.032888802746222461 -0.028636537649312063 0.0090339033656360451 -0.043262717554451102 -0.051502841364079253 -0.019400673707541918 -0.028377923126669553 -0.040811590673494505 -0.010694822356857142 -0.036953265317291963 -0.080550790665928157 0.07594050935250847
leaf_weight=1.3121611028909712 1.7681423276662818 9.4931850805878621 1.801442801952361 30.914070606231689 2.4543159008026105 1.3167246580123899 1.7068329304456709 5.263310469686985 3.6258455812931061 2.9825483560562134 2.4132062718272209 0.77343647927045811 1.5689916610717773
leaf_count=10 15 38 10 120 12 4 7 19 14 15 11 4 11
internal_value=0 0.0145584 0.0101011 0.0146383 -0.035925 -0.0537344 -0.0258365 -0.0331115 -0.0436598 -0.0138636 -0.0333985 -0.0776099 0.0741585
internal_weight=0 47.959 44.6219 40.4073 19.4352 7.02817 12.407 7.71763 4.94257 4.68938 4.21465 2.0856 3.33713
internal_count=290 205 179 158 85 32 53 31 18 22 21 14 26
shrinkage=0.049


Tree=10
num_leaves=14
num_cat=0
split_feature=1 10 7 1 0 11 11 11 5 0 11 0 11
split_gain=12.7943 4.65005 3.02073 1.4023 1.32578 0.619731 0.436346 0.138367 0.0448999 0.0403635 0.0231311 0.00430963 0.00317932
threshold=0.30847625175305093 0.053859060085187614 0.025347528134060101 0.37684203539341138 0.39502600680593031 0.67688773599872754 0.67688773599872754 0.49459000568800598 0.20945946249560674 0.60700420711197478 0.98202865771588765 0.20029640213204666 0.42474782993232335
decision_type=2 2 2 2 2 2 2 2 2 2 2 2 2
left_child=4 12 3 -3 5 11 7 -6 -7 -8 -4 -1 -2
right_child=1 2 10 -5 6 8 9 -9 -10 -11 -12 -13 -14
leaf_value=-0.07449674754463019 0.071156581387071732 0.045036001758869147 -0.027052332099090859 0.010994717119906327 -0.02375987509848437 -0.051001791655790593 -0.019002588850579764 -0.037810963289658855 -0.040050691884438147 -0.009273429541207143 -0.034665787916160984 -0.079327088870108919 0.074348171814188027
leaf_weight=1.1796051636338258 1.5972517207264891 3.1632630452513686 1.6764416694641107 35.655724190175533 2.7114868983626348 1.2266876697540281 1.6223057508468626 4.434898316860199 3.3642712458968163 2.7753614336252213 2.2361479327082634 0.71066194772720326 1.4117743298411369
leaf_count=10 15 16 10 142 11 4 7 20 14 15 11 4 11
internal_value=0 0.0137784 0.00963259 0.0137687 -0.0349639 -0.0526993 -0.0250066 -0.0324797 -0.0429768 -0.0128625 -0.0314036 -0.0763128 0.072654
internal_weight=0 45.7406 42.7316 38.819 18.0253 6.48123 11.5441 7.14639 4.59096 4.39767 3.91259 1.89027 3.00903
internal_count=290 205 179 158 85 32 53 31 18 22 21 14 26
shrinkage=0.049


Tree=11
num_leaves=15
num_cat=0
split_feature=1 0 11 5 1 10 0 11 11 11 2 0 0 11
split_gain=11.3184 4.31353 2.67831 2.72248 2.39346 1.92334 1.24164 0.535284 0.47154 0.34581 0.172751 0.0386534 0.00426775 0.00277985
threshold=0.30847625175305093 0.61341275555286834 0.45133336091856951 0.51330105392746328 0.70470216586199075 0.053859060085187614 0.39502600680593031 0.67688773599872754 0.77915819106608775 0.98202865771588765 0.41900561347233373 1.0000000180025095e-35 0.20029640213204666 0.42474782993232335
decision_type=2 2 2 2 2 2 2 2 2 2 2 2 2 2
left_child=6 5 4 -4 -3 13 7 12 -7 10 -8 -9 -1 -2
right_child=1 2 3 -5 -6 8 9 11 -10 -11 -12 -13 -14 -15
leaf_value=-0.073170990360895555 0.069805197257305635 -0.0043503510181064466 -0.018615092524605682 0.031125698737949802 0.04286376513494735 0.019933732995493454 -0.024937222546002582 -0.03996706544643043 0.040760126066140434 -0.0086204729151337992 -0.041173095914823869 -0.050464222761211083 -0.078196157006241093 0.072938709647694125
leaf_weight=1.0633843876421476 1.4486037157475939 4.700291685760023 14.733097936958076 3.219286121428012 5.709321990609169 9.0475862473249418 6.0618709921836835 3.1677289344370365 3.6686725318431845 2.5937604531645766 2.1250926554203033 1.1472809612751005 0.6561698019504546 1.2807351648807526
leaf_count=10 15 21 67 13 19 36 26 14 23 15 12 4 4 11
internal_value=0 0.0131174 0.00177067 -0.00969539 0.021545 0.0339529 -0.0341738 -0.0519707 0.0259422 -0.0242119 -0.0291516 -0.0427581 -0.0750886 0.0712756
internal_weight=0 43.8076 28.362 17.9524 10.4096 15.4456 16.8153 6.03456 12.7163 10.7807 8.18696 4.31501 1.71955 2.72934
internal_count=290 205 120 80 40 85 85 32 59 53 38 18 14 26
shrinkage=0.049


Tree=12
num_leaves=16
num_cat=0
split_feature=1 0 11 0 2 1 0 11 11 0 11 11 0 7 5
split_gain=10.2161 3.77634 2.30024 2.29346 1.85062 1.74773 1.11425 0.670269 0.48798 0.398768 0.305463 0.13723 0.0419584 0.0202998 0.00410543
threshold=0.30847625175305093 0.61341275555286834 0.45133336091856951 0.92798781083676607 0.0060144346431435522 0.70470216586199075 0.39502600680593031 0.77915819106608775 0.67688773599872754 0.51348607409480673 0.67688773599872754 0.49459000568800598 1.0000000180025095e-35 0.026299892476803661 0.20945946249560674
decision_type=2 2 2 2 2 2 2 2 2 2 2 2 2 2 2
left_child=6 4 5 -4 9 -3 8 -6 14 -2 11 -8 -10 -12 -1
right_child=1 2 3 -5 7 -7 10 -9 12 -11 13 -13 -14 -15 -16
leaf_value=-0.077153864948279097 0.070229390820233287 -0.001890730944981524 -0.02455010882841498 0.012093008433382823 0.0095295227430792096 0.040255033240437096 -0.021250766627960837 0.036758159527709944 -0.038817705436695722 0.043343867329145844 -0.010369996795836032 -0.036060910995586115 -0.050101664573558011 -0.017642692680754163 -0.072019147003598891
leaf_weight=0.61015886068344005 2.5056104958057395 4.328264072537424 9.680251173675062 7.1156652793288222 5.7864341363310796 5.2014432698488235 2.4327224008738977 3.4737424217164516 2.9482911489903927 2.8101263828575611 2.495537742972374 3.9271573312580585 1.0814112573862074 1.4609641805291178 0.96541248634457588
leaf_count=4 26 21 50 30 20 19 11 23 14 16 15 20 4 7 10
internal_value=0 0.0129628 0.00188407 -0.00902609 0.0329722 0.021113 -0.0333005 0.0197437 -0.0508861 0.0560166 -0.0237455 -0.0303959 -0.0418459 -0.0130555 -0.0740076
internal_weight=0 40.9015 26.3256 16.7959 14.5759 9.52971 15.9217 9.26018 5.60527 5.31574 10.3164 6.35988 4.0297 3.9565 1.57557
internal_count=290 205 120 80 85 40 85 43 32 42 53 31 18 22 14
shrinkage=0.049


Tree=13
num_leaves=16
num_cat=0
split_feature=1 0 3 7 0 11 11 11 11 0 7 0 11 5 11
split_gain=9.20205 3.77311 1.79739 1.41752 1.07142 0.631763 0.431626 0.271604 0.255199 0.130494 0.0378403 0.0374854 0.0297436 0.00389491 0.00200458
threshold=0.30847625175305093 0.63252044125064555 0.18015127281857102 0.025347528134060101 0.39502600680593031 0.45133336091856951 0.67688773599872754 0.45133336091856951 0.67688773599872754 0.70657666276404862 0.026299892476803661 1.0000000180025095e-35 0.98202865771588765 0.20945946249560674 0.42474782993232335
decision_type=2 2 2 2 2 2 2 2 2 2 2 2 2 2 2
left_child=4 2 5 7 6 -2 13 -3 9 -6 -10 -8 -5 -1 -4
right_child=1 3 14 12 8 -7 11 -9 10 -11 -12 -13 -14 -15 -16
leaf_value=-0.076183787280823839 0.034729941430410388 0.011409896264579444 0.06793211167029603 -0.025772076136954074 -0.03977577827982294 0.014891285218058778 -0.038686316928577665 -0.0012752381545073248 -0.0089677202375515446 -0.024251069334661691 -0.019193705281265676 -0.049658774573586799 -0.035188680534554623 -0.070985436080269262 0.070824817730437112
leaf_weight=0.56940673291683086 6.5354058220982578 6.8257470279932084 1.2206606045365325 1.390086378902196 1.8840128183364848 9.3939012438058835 2.7896522395312786 9.9751812964677793 2.3373813554644585 4.193522609770298 1.3828594833612444 1.0212244614958765 1.9146717712283134 0.88229116797447205 1.0877323970198631
leaf_count=4 28 31 15 10 12 52 14 47 15 19 7 4 11 10 11
internal_value=0 0.0127475 0.0288864 -0.00189199 -0.0324549 0.0230306 -0.0502878 0.00387838 -0.0228765 -0.0290637 -0.0127688 -0.0416267 -0.0312278 -0.0730244 0.0692952
internal_weight=0 38.3434 18.2377 20.1057 15.0604 15.9293 5.26257 16.8009 9.79778 6.07754 3.72024 3.81088 3.30476 1.4517 2.30839
internal_count=290 205 106 99 85 80 32 78 53 31 22 18 21 14 26
shrinkage=0.049


Tree=14
num_leaves=16
num_cat=0
split_feature=1 0 3 7 0 11 11 5 11 11 0 7 11 0 11
split_gain=8.35909 3.62948 1.61313 1.13893 0.953 0.47437 0.396883 0.33387 0.274721 0.10531 0.037927 0.0293375 0.0237236 0.00367689 0.00196813
threshold=0.30847625175305093 0.63252044125064555 0.18015127281857102 0.025347528134060101 0.39502600680593031 0.45133336091856951 0.67688773599872754 0.51330105392746328 0.67688773599872754 0.49459000568800598 1.0000000180025095e-35 0.026299892476803661 0.98202865771588765 0.20029640213204666 0.42474782993232335
decision_type=2 2 2 2 2 2 2 2 2 2 2 2 2 2 2
left_child=4 2 5 7 6 -2 13 -3 9 -6 -8 -10 -5 -1 -4
right_child=1 3 14 12 8 -7 10 -9 11 -11 -12 -13 -14 -15 -16
leaf_value=-0.070046136824095773 0.032960350256765344 -0.0016110990211119134 0.066852656131777391 -0.024510354717485951 -0.021005625881427317 0.015631656874208231 -0.037834105540127692 0.013780578503935707 -0.0085964529420963689 -0.034629568309768329 -0.049193614711026477 -0.017798181769400092 -0.033172908676467883 -0.075287836027013125 0.069841897972453076
leaf_weight=0.81114676222205051 6.4301933497190502 11.943936780095106 1.1153892166912547 1.3099111244082442 2.2178320400416833 9.2481106184422952 2.6195148639380936 4.7212932631373397 2.222456157207489 3.5311630591750145 0.96592493355274189 1.3296108096838 1.8050696104764938 0.53208417445421219 1.0056436397135258
leaf_count=10 28 52 15 10 11 52 14 26 15 20 4 7 11 4 11
internal_value=0 0.0121114 0.0281644 -0.00233397 -0.0319852 0.0227387 -0.0494051 0.00274939 -0.0227543 -0.0293738 -0.0408944 -0.0120408 -0.0295301 -0.0721225 0.0682699
internal_weight=0 37.5795 17.7993 19.7802 14.2297 15.6783 4.92867 16.6652 9.30106 5.749 3.58544 3.55207 3.11498 1.34323 2.12103
internal_count=290 205 106 99 85 80 32 78 53 31 18 22 21 14 26
shrinkage=0.049


Tree=15
num_leaves=16
num_cat=0
split_feature=1 0 5 3 8 0 2 11 11 0 0 7 11 5 11
split_gain=7.55569 3.81443 2.53861 1.44638 1.02791 0.877069 0.457912 0.354084 0.231617 0.101528 0.0333246 0.0307873 0.00425271 0.00354224 0.00177504
threshold=0.30847625175305093 0.63252044125064555 0.51330105392746328 0.18015127281857102 0.042709224951317785 0.39502600680593031 0.0060144346431435522 0.67688773599872754 0.67688773599872754 0.70657666276404862 1.0000000180025095e-35 0.026299892476803661 0.91589751341782366 0.20945946249560674 0.42474782993232335
decision_type=2 2 2 2 2 2 2 2 2 2 2 2 2 2 2
left_child=5 3 4 6 -3 7 -2 13 9 -7 -9 -10 -4 -1 -5
right_child=1 2 12 14 -6 8 -8 10 11 -11 -12 -13 -14 -15 -16
leaf_value=-0.074451160718695841 0.031255122411278737 -0.0025398477020917971 0.027317917264239541 0.065919002078191763 -0.02767975230579519 -0.038766957263815134 0.014623393614118548 -0.037770379961991715 -0.0089220218623722817 -0.024338209665077611 -0.048702587279432628 -0.018581381506063154 0.024564049970898005 -0.069114021074955623 0.068874236002150924
leaf_weight=0.49838298559188732 7.7099196128547201 9.6270870976150089 2.8843997344374648 1.0268483236432082 6.5698837749660006 1.7006546538323144 8.2040395587682706 2.4942783005535607 2.1249115243554115 3.7588741406798363 0.91510720551013935 1.2632544450461867 2.5250430144369602 0.74473738484084606 0.92993735149502743
leaf_count=4 37 36 13 15 37 12 43 14 15 19 4 7 13 10 11
internal_value=0 0.0108214 -0.00303072 0.0275692 -0.0127372 -0.031644 0.0226811 -0.0488672 -0.0225872 -0.0288328 -0.0407047 -0.0125234 0.0260325 -0.0712537 0.0673234
internal_weight=0 39.4772 21.6064 17.8707 16.197 13.5002 15.914 4.65251 8.84769 5.45953 3.40939 3.38817 5.40944 1.24312 1.95679
internal_count=290 205 99 106 73 85 80 32 53 31 18 22 26 14 26
shrinkage=0.049


Tree=16
num_leaves=14
num_cat=0
split_feature=1 10 7 7 0 11 11 0 0 7 11 5 11
split_gain=7.10466 2.43548 1.58221 1.08692 0.786474 0.324126 0.21874 0.077728 0.0319651 0.0189568 0.0171226 0.00337289 0.00152276
threshold=0.30847625175305093 0.053859060085187614 0.025347528134060101 0.0087457090840113907 0.39502600680593031 0.67688773599872754 0.67688773599872754 0.70657666276404862 1.0000000180025095e-35 0.026299892476803661 0.98202865771588765 0.20945946249560674 0.42474782993232335
decision_type=2 2 2 2 2 2 2 2 2 2 2 2 2
left_child=4 12 3 -3 5 11 7 -6 -7 -8 -4 -1 -2
right_child=1 2 10 -5 6 8 9 -9 -10 -11 -12 -13 -14
leaf_value=-0.073682303678991493 0.065083768555579541 -0.016405521958582938 -0.022626299128822969 0.014198023298262724 -0.037791648046960724 -0.037254529677904213 -0.0098119622679230176 -0.024835022081678846 -0.048244773764379273 -0.017521372275307038 -0.030367637890150383 -0.068282100633330789 0.067929638174656679
leaf_weight=0.46737859770655521 0.95011641923338064 3.0843951143324402 1.1874590441584578 28.84216645732522 1.6089410074055175 2.3674990385770802 2.0582248121500015 3.597115159034729 0.86850557476282109 1.2195565178990366 1.6245084702968597 0.68426107335835695 0.86009908840060234
leaf_count=4 15 16 10 142 12 14 15 19 4 7 11 10 11
internal_value=0 0.0110254 0.00813795 0.0112414 -0.0313067 -0.0481491 -0.0225962 -0.0288393 -0.0402042 -0.0126804 -0.0270986 -0.0704737 0.0664359
internal_weight=0 36.5487 34.7385 31.9266 12.8715 4.38764 8.48384 5.20606 3.236 3.27778 2.81197 1.15164 1.81022
internal_count=290 205 179 158 85 32 53 31 18 22 21 14 26
shrinkage=0.049


Tree=17
num_leaves=14
num_cat=0
split_feature=1 10 7 1 0 11 11 11 0 0 11 0 11
split_gain=6.47189 2.20694 1.41491 0.918256 0.733785 0.299769 0.214231 0.0656955 0.0317681 0.0180541 0.0138205 0.00317621 0.00122435
threshold=0.30847625175305093 0.053859060085187614 0.025347528134060101 0.37684203539341138 0.39502600680593031 0.67688773599872754 0.67688773599872754 0.49459000568800598 1.0000000180025095e-35 0.60700420711197478 0.98202865771588765 0.20029640213204666 0.42474782993232335
decision_type=2 2 2 2 2 2 2 2 2 2 2 2 2
left_child=4 12 3 -3 5 11 7 -6 -7 -8 -4 -1 -2
right_child=1 2 10 -5 6 8 9 -9 -10 -11 -12 -13 -14
leaf_value=-0.067531734601133181 0.064284417636154889 0.0407678649433839 -0.022149908947136733 0.0084721435611156432 -0.02130544594960334 -0.03664703352424379 -0.016911219787404497 -0.032896098906035884 -0.047876287843163799 -0.0092446681665991053 -0.029272748668619768 -0.072953198339778702 0.066938552078057892
leaf_weight=0.63212447054684051 0.87951734662055858 2.2812919896096018 1.1328822299838057 28.792564891278744 1.9043766520917396 2.2478054165840153 1.178666565567255 3.0618845373392105 0.8276112526655196 1.970457699149847 1.5474160835146904 0.44010013341903687 0.79405735433101654
leaf_count=10 15 16 10 142 11 14 7 20 4 15 11 4 11
internal_value=0 0.0106199 0.00789674 0.0108431 -0.0306809 -0.0474471 -0.0221119 -0.0284515 -0.0396689 -0.0121141 -0.0262621 -0.069757 0.0655437
internal_weight=0 35.4277 33.7542 31.0739 12.263 4.14764 8.11539 4.96626 3.07542 3.14912 2.6803 1.07222 1.67357
internal_count=290 205 179 158 85 32 53 31 18 22 21 14 26
shrinkage=0.049


Tree=18
num_leaves=16
num_cat=0
split_feature=1 11 7 1 0 1 7 11 0 11 3 0 0 0 5
split_gain=5.90424 2.06124 3.28277 3.24616 0.706843 0.705723 0.407696 0.272275 0.235338 0.17921 0.150175 0.069519 0.029159 0.0239445 0.00302246
threshold=0.30847625175305093 0.45133336091856951 0.023439176392828925 0.58355200773909133 0.39502600680593031 0.37684203539341138 0.01447710360500888 0.67688773599872754 0.82861429136100517 0.67688773599872754 0.069743716424579091 0.70657666276404862 1.0000000180025095e-35 0.60700420711197478 0.20945946249560674
decision_type=2 2 2 2 2 2 2 2 2 2 2 2 2 2 2
left_child=4 3 5 6 7 -3 -2 14 -5 11 -4 -6 -9 -11 -1
right_child=1 2 10 8 9 -7 -8 12 -10 13 -12 -13 -14 -15 -16
leaf_value=-0.072261994301834998 -0.016270249539296951 0.050083883017818562 -0.038771181614226685 0.058752670555060088 -0.036329079485338915 0.010922149176687533 0.0095542692788761242 -0.036513289224029931 0.040165668201391107 -0.017787497289664545 -0.022693150420303027 -0.023475748731746141 -0.04751956294921339 -0.0087700904140707199 -0.066795648621748763
leaf_weight=0.41545655205845677 1.9078947231173495 1.2232217676937605 1.9223023466765869 3.3858684962615362 1.460449321195483 11.417019285261629 6.3630342446267605 2.1512352731078868 3.1638919413089752 1.1321213021874428 5.0833619404584169 3.2781298365443945 0.79024460911750782 1.8829565495252609 0.58459517639130354
leaf_count=4 8 9 9 35 12 69 32 14 10 7 33 19 4 15 10
internal_value=0 0.010208 -0.000199805 0.0240043 -0.0300838 0.0147119 0.0035972 -0.0469794 0.0497741 -0.021495 -0.0271048 -0.0274372 -0.0394702 -0.012156 -0.0690666
internal_weight=0 34.4666 19.6459 14.8207 11.6952 12.6402 8.27093 3.94153 6.54976 7.75366 7.00566 4.73858 2.94148 3.01508 1.00005
internal_count=290 205 120 85 85 78 40 32 45 53 42 31 18 22 14
shrinkage=0.049


Tree=19
num_leaves=16
num_cat=0
split_feature=1 11 7 1 7 0 2 11 0 11 11 0 0 0 5
split_gain=5.44442 2.06469 2.55834 2.29315 0.684603 0.674389 0.420861 0.255501 0.243717 0.170855 0.0704645 0.0594001 0.0294473 0.0201442 0.0028081
threshold=0.30847625175305093 0.45133336091856951 0.023439176392828925 0.58355200773909133 0.01447710360500888 0.39502600680593031 0.99959903769045744 0.67688773599872754 0.82861429136100517 0.67688773599872754 0.49459000568800598 0.76735039005403693 1.0000000180025095e-35 0.60700420711197478 0.20945946249560674
decision_type=2 2 2 2 2 2 2 2 2 2 2 2 2 2 2
left_child=5 3 4 6 -3 7 -2 14 -5 10 -7 -4 -9 -11 -1
right_child=1 2 11 8 -6 9 -8 12 -10 13 -12 -13 -14 -15 -16
leaf_value=-0.071613935284016175 0.01363261840317747 -0.0027004517265392398 -0.018689010767209361 0.057546161043865736 0.021810978000193822 -0.019072621916632601 -0.013512755172052382 -0.035878211166015021 0.037420424957878465 -0.016810229851800713 -0.031578393782121031 -0.028581811323652558 -0.047195279613919137 -0.0083906989001684643 -0.066183923066951436
leaf_weight=0.39288743957877015 5.9325159080326575 4.2479743175208586 2.2186057940125457 3.0879076942801476 7.6858147960156202 1.7577341701835392 1.7836087197065351 2.0462534632533793 2.714834988117218 1.096071008592844 2.8130762204527855 4.246638510376215 0.75599151104688633 1.8073020055890083 0.54706894420087337
leaf_count=4 32 25 12 35 53 11 8 14 10 7 20 30 4 15 10
internal_value=0 0.0103198 -0.000362871 0.0248587 0.0130858 -0.0293664 0.00735787 -0.0463467 0.0481303 -0.0208647 -0.0267692 -0.025187 -0.0389313 -0.0115692 -0.0684536
internal_weight=0 31.9179 18.399 13.5189 11.9338 11.2164 7.71612 3.7422 5.80274 7.47418 4.57081 6.46524 2.80224 2.90337 0.939956
internal_count=290 205 120 85 78 85 40 32 45 53 31 42 18 22 14
shrinkage=0.049


Tree=20
num_leaves=16
num_cat=0
split_feature=1 11 7 1 1 0 7 11 0 11 0 0 0 0 5
split_gain=5.18066 2.02681 2.09906 1.86268 0.667351 0.634873 0.360957 0.232663 0.199725 0.149104 0.0698628 0.0379733 0.0262043 0.0180053 0.00264809
threshold=0.30847625175305093 0.45133336091856951 0.023439176392828925 0.58355200773909133 0.37684203539341138 0.39502600680593031 0.01447710360500888 0.67688773599872754 0.82861429136100517 0.67688773599872754 0.70657666276404862 0.76735039005403693 1.0000000180025095e-35 0.60700420711197478 0.20945946249560674
decision_type=2 2 2 2 2 2 2 2 2 2 2 2 2 2 2
left_child=5 3 4 6 -3 7 -2 14 -5 10 -7 -4 -9 -11 -1
right_child=1 2 11 8 -6 9 -8 12 -10 13 -12 -13 -14 -15 -16
leaf_value=-0.071002786071986831 -0.010644049576572225 0.048633020804243109 -0.018092560506917703 0.056347621226972101 0.0082169676658367958 -0.035664204515133927 0.015283956192825535 -0.03593766843676012 0.037279478224957287 -0.01699545783425007 -0.022292578484108445 -0.026247156435173325 -0.046842873535642336 -0.0088766343194712043 -0.065567790565974893
leaf_weight=0.371945114806293 1.6696784421801583 1.0834988653659845 2.0708651393651953 2.8433662164025009 10.362397756427525 1.3511478714644907 5.6568842362612486 1.9678915161639454 2.4599172733724117 1.0499481242150068 3.0691560488194227 4.0575111135840416 0.72357953712344159 1.7473133988678455 0.51089063053950667
leaf_count=4 8 9 12 35 69 12 32 14 10 7 19 30 4 15 10
internal_value=0 0.010412 -0.000348468 0.025385 0.0120429 -0.0291409 0.00937512 -0.0460294 0.0475029 -0.0207773 -0.0263799 -0.0234916 -0.0388694 -0.011924 -0.0678576
internal_weight=0 30.2041 17.5743 12.6298 11.4459 10.7919 7.32656 3.57431 5.30328 7.21757 4.4203 6.12838 2.69147 2.79726 0.882836
internal_count=290 205 120 85 78 85 40 32 45 53 31 42 18 22 14
shrinkage=0.049


end of trees

feature_importances:
relevance=100
color=82
intensity=44
proximity2fe=25
visibility=18
shape_size=10
wellknownness=7
integration=4
proximity2dp=2
proximity2be=1

parameters:
[boosting: gbdt]
[objective: lambdarank]
[metric: ndcg]
[tree_learner: serial]
[device_type: cpu]
[data: ]
[valid: ]
[num_iterations: 36]
[learning_rate: 0.049]
[num_leaves: 16]
[num_threads: -1]
[force_col_wise: 0]
[force_row_wise: 0]
[histogram_pool_size: -1]
[max_depth: 4]
[min_data_in_leaf: 5]
[min_sum_hessian_in_leaf: 0.001]
[bagging_fraction: 1]
[pos_bagging_fraction: 1]
[neg_bagging_fraction: 1]
[bagging_freq: 0]
[bagging_seed: 3]
[feature_fraction: 1]
[feature_fraction_bynode: 1]
[feature_fraction_seed: 2]
[extra_trees: 0]
[extra_seed: 6]
[early_stopping_round: 100]
[first_metric_only: 0]
[max_delta_step: 0]
[lambda_l1: 0]
[lambda_l2: 0]
[min_gain_to_split: 0]
[drop_rate: 0.1]
[max_drop: 50]
[skip_drop: 0.5]
[xgboost_dart_mode: 0]
[uniform_drop: 0]
[drop_seed: 4]
[top_rate: 0.2]
[other_rate: 0.1]
[min_data_per_group: 100]
[max_cat_threshold: 32]
[cat_l2: 10]
[cat_smooth: 10]
[max_cat_to_onehot: 4]
[top_k: 20]
[monotone_constraints: ]
[monotone_constraints_method: basic]
[monotone_penalty: 0]
[feature_contri: ]
[forcedsplits_filename: ]
[refit_decay_rate: 0.9]
[cegb_tradeoff: 1]
[cegb_penalty_split: 0]
[cegb_penalty_feature_lazy: ]
[cegb_penalty_feature_coupled: ]
[path_smooth: 0]
[interaction_constraints: ]
[verbosity: -1]
[saved_feature_importance_type: 0]
[max_bin: 255]
[max_bin_by_feature: ]
[min_data_in_bin: 3]
[bin_construct_sample_cnt: 200000]
[data_random_seed: 1]
[is_enable_sparse: 1]
[enable_bundle: 1]
[use_missing: 1]
[zero_as_missing: 0]
[feature_pre_filter: 1]
[pre_partition: 0]
[two_round: 0]
[header: 0]
[label_column: ]
[weight_column: ]
[group_column: ]
[ignore_column: ]
[categorical_feature: ]
[forcedbins_filename: ]
[objective_seed: 5]
[num_class: 1]
[is_unbalance: 0]
[scale_pos_weight: 1]
[sigmoid: 1]
[boost_from_average: 1]
[reg_sqrt: 0]
[alpha: 0.9]
[fair_c: 1]
[poisson_max_delta_step: 0.7]
[tweedie_variance_power: 1.5]
[lambdarank_truncation_level: 20]
[lambdarank_norm: 1]
[label_gain: ]
[eval_at: 1,2]
[multi_error_top_k: 1]
[auc_mu_weights: ]
[num_machines: 1]
[local_listen_port: 12400]
[time_out: 120]
[machine_list_filename: ]
[machines: ]
[gpu_platform_id: -1]
[gpu_device_id: -1]
[gpu_use_dp: 0]

end of parameters

pandas_categorical:null
