tree
version=v3
num_class=1
num_tree_per_iteration=1
label_index=0
max_feature_idx=11
objective=lambdarank
feature_names=color intensity shape_size integration choice visibility proximity2dp proximity2fe proximity2be uniqueness wellknownness relevance
feature_infos=[0:1] [0:1] [0:1.0000000000000002] [0:1] [0:1] [0:1] [0:1.0000000000000002] [0:0.99999999999999989] [0:0.93183904056685019] [0:1] [0:0.97986577180532408] [0:1]
tree_sizes=1471 1579 1575 1685 1793 1480 1588 1587 1592 1484 1484 1793 1791 1694 1804 1700 1700 1496 1699 1707 1606 1608 1600 1609 1821 1702 1815 1811 1817

Tree=0
num_leaves=13
num_cat=0
split_feature=1 0 6 0 1 11 2 7 0 0 11 11
split_gain=17.3147 7.32169 5.27162 1.57289 1.56497 1.31204 0.991654 0.554244 0.432877 0.28191 0.219083 0.0115978
threshold=0.30847625175305093 0.57358709964519461 0.21960082334441897 0.44236970535318071 0.6478058824532259 0.98202865771588765 0.99959903769045744 0.020714679282958556 0.51348607409480673 0.20029640213204666 0.67688773599872754 0.77915819106608775
decision_type=2 2 2 2 2 2 2 2 2 2 2 2
left_child=5 3 6 11 -4 7 -3 9 -5 -1 -9 -2
right_child=1 2 4 8 -6 -7 -8 10 -10 -11 -12 -13
leaf_value=-0.019599999999999902 0.027594089602890278 0.038135661458486909 -0.067938150857253493 0.097999999999999976 -0.012560660935300344 -0.0085379615748034134 -0.0078078074033747537 -0.097999999999999879 0.066262831794506899 -0.057450632313536545 -0.070937329810099786 0.035384016290490296
leaf_weight=0.5412533879280107 0.83649044483900303 6.6426104232668859 1.9249136298894871 2.6767519637942314 3.3710745237767696 1.1628490649163721 1.3587126135826109 1.0339605808258059 1.679154824465513 3.7166289538145065 2.351999931037426 1.0165359489619732
leaf_count=5 9 67 20 25 34 15 14 10 16 36 22 13
internal_value=0 0.0257473 0.00523367 0.06968 -0.0326885 -0.0570285 0.030334 -0.0644053 0.0857657 -0.0526391 -0.0792014 0.0318675
internal_weight=0 19.5062 13.2973 6.20893 5.29599 8.80669 8.00132 7.64384 4.35591 4.25788 3.38596 1.85303
internal_count=286 198 135 63 54 88 81 73 41 41 32 22
shrinkage=0.049


Tree=1
num_leaves=14
num_cat=0
split_feature=1 10 6 11 1 1 11 11 0 0 1 0 11
split_gain=76.9431 31.7204 23.9172 6.36894 5.82305 4.1061 2.64701 1.06143 1.09906 0.293412 0.0858324 0.0785589 0.000198529
threshold=0.30847625175305093 0.053859060085187614 0.21960082334441897 0.91589751341782366 0.13186544335975872 0.6478058824532259 0.67688773599872754 0.67688773599872754 0.20029640213204666 0.70657666276404862 0.20976926485769415 0.39502600680593031 0.42474782993232335
decision_type=2 2 2 2 2 2 2 2 2 2 2 2 2
left_child=4 12 3 -3 7 -4 9 8 -1 -6 -8 -9 -2
right_child=1 2 5 -5 6 -7 10 11 -10 -11 -12 -13 -14
leaf_value=-0.093558042894933718 0.093407712149482083 0.038863150679861971 -0.043835271297196415 0.0028010303960435056 -0.053881443492161687 -0.0077905142667051173 -0.020089203378523535 -0.06029481086426304 -0.058834536153140465 -0.041186878832714158 -0.011693984165299593 -0.052510866187557466 0.093785839840060267
leaf_weight=5.309430718421936 7.4388053119182569 51.45476445555687 11.378832668066023 15.241719350218771 6.8909091353416452 22.778239369392395 9.3342075943946821 9.3895747959613782 3.72342848777771 11.956964492797852 4.2578057646751395 4.6571057140827188 6.0412847101688385
leaf_count=10 14 90 20 29 12 34 15 14 5 19 5 8 11
internal_value=0 0.0229816 0.0135458 0.0306221 -0.047327 -0.0197982 -0.0339418 -0.0661407 -0.0792447 -0.0458281 -0.0174593 -0.0577141 0.0935772
internal_weight=0 114.334 100.854 66.6965 55.5194 34.1571 32.4399 23.0795 9.03286 18.8479 13.592 14.0467 13.4801
internal_count=286 198 173 119 88 54 51 37 15 31 20 22 25
shrinkage=0.049


Tree=2
num_leaves=14
num_cat=0
split_feature=5 2 1 1 1 11 2 11 11 0 11 11 11
split_gain=50.7364 28.1233 6.71265 6.55614 4.24591 3.41729 2.47968 1.26303 0.72339 0.61124 0.782003 0.000747927 3.26394e-05
threshold=0.51330105392746328 0.020449077786688061 0.13186544335975872 0.58355200773909133 0.51298240439606357 0.77915819106608775 0.12028869286287094 0.67688773599872754 0.45133336091856951 0.92798781083676607 0.91589751341782366 0.42474782993232335 0.91589751341782366
decision_type=2 2 2 2 2 2 2 2 2 2 2 2 2
left_child=1 4 7 9 8 -6 -4 -3 -1 12 -11 -5 -2
right_child=3 2 6 11 5 -7 -8 -9 -10 10 -12 -13 -14
leaf_value=0.034466269962257934 0.049035550014778467 -0.07709266944872252 -0.039268280754107092 0.089432990304863083 0.0022444524733997934 0.044470773304027406 -0.017238585536577079 -0.049996702699097777 0.065069260081218744 0.047698488970914457 0.020500635996400583 0.090308370679955702 0.048860552016809729
leaf_weight=3.3424857556819907 6.1347120404243469 6.7108975797891626 19.425800085067749 5.1590995639562625 24.297888845205311 5.6766310930252066 33.294020682573318 10.741902649402618 4.1660043597221375 4.4528388381004333 5.9032186195254326 4.2939308285713196 4.3903484866023064
leaf_count=7 13 15 39 14 47 13 61 22 9 13 12 11 10
internal_value=0 -0.0157718 -0.0340757 0.0559738 0.0184954 0.0102414 -0.0253559 -0.0604156 0.051446 0.0406466 0.032195 0.0898306 0.0489626
internal_weight=0 107.656 70.1726 30.3341 37.483 29.9745 52.7198 17.4528 7.50849 20.8811 10.3561 9.45303 10.5251
internal_count=286 213 137 73 76 60 100 37 16 48 25 25 23
shrinkage=0.049


Tree=3
num_leaves=15
num_cat=0
split_feature=1 5 5 0 1 11 7 11 11 11 0 0 0 11
split_gain=34.377 17.4426 9.50496 3.81448 3.39027 3.23497 3.163 1.45575 1.45362 0.560409 0.291925 0.276082 0.0474449 0.000501478
threshold=0.30847625175305093 0.66306536504090297 0.13317275513406593 0.59033361992249433 0.13186544335975872 0.45133336091856951 0.025384520271380974 0.67688773599872754 0.98202865771588765 0.91589751341782366 0.20029640213204666 0.70657666276404862 0.39502600680593031 0.42474782993232335
decision_type=2 2 2 2 2 2 2 2 2 2 2 2 2 2
left_child=4 2 5 13 7 -2 -4 10 11 -5 -1 -6 -9 -3
right_child=1 3 6 9 8 -7 -8 12 -10 -11 -12 -13 -14 -15
leaf_value=-0.086912054168674813 0.054661800201740642 0.086321788747521527 -0.0024174493438529942 0.032470592707479304 -0.027724308245973339 0.017112345183391404 -0.037581437277904188 -0.046920220112764983 -0.0071008930983067686 0.054683162903099249 -0.064183411827521672 -0.039888156200901644 -0.039429382535118629 0.087130554324894152
leaf_weight=2.9297725558280918 8.1996446549892443 4.0900282412767419 32.165060013532639 6.7082240283489227 8.8679218292236364 16.786426663398743 7.5913237035274497 6.3305777013301849 6.688386619091033 4.5951610207557678 2.5271456241607666 9.0544381886720657 2.9884700626134872 3.3472260385751724
leaf_count=10 17 14 73 13 17 40 20 14 15 10 5 19 8 11
internal_value=0 0.0178026 0.00575221 0.0594325 -0.0377339 0.0294349 -0.00913187 -0.0562873 -0.0265947 0.0415007 -0.0763862 -0.0338695 -0.044518 0.0866858
internal_weight=0 83.4831 64.7425 18.7406 39.3867 24.9861 39.7564 14.776 24.6107 11.3034 5.45692 17.9224 9.31905 7.43725
internal_count=286 198 150 48 88 57 93 37 51 23 15 36 22 25
shrinkage=0.049


Tree=4
num_leaves=16
num_cat=0
split_feature=1 0 7 1 1 6 11 11 0 0 0 0 11 11 11
split_gain=28.1352 13.7007 5.31174 3.71642 2.36522 1.89417 1.2349 0.747695 0.739143 0.210644 0.161497 0.0803816 0.0315737 0.0279925 0.000884746
threshold=0.30847625175305093 0.57358709964519461 0.025384520271380974 0.58355200773909133 0.13186544335975872 0.19344759470809159 0.67688773599872754 0.67688773599872754 0.51348607409480673 0.20029640213204666 0.39502600680593031 0.60700420711197478 0.49459000568800598 0.98202865771588765 0.42474782993232335
decision_type=2 2 2 2 2 2 2 2 2 2 2 2 2 2 2
left_child=4 3 5 8 6 -3 9 12 -2 -1 -8 -9 -6 -4 -5
right_child=1 2 13 14 7 -7 10 11 -10 -11 -12 -13 -14 -15 -16
leaf_value=-0.084063399934494742 0.027794992349036197 0.029799987660162723 -0.039898457706864801 0.083352249867717498 -0.037388364876860966 0.0052381271585981264 -0.046960524603194505 -0.02241618888812219 0.051047889171393614 -0.062829843359981902 -0.032310205743365267 -0.012155384711530834 -0.032357213207402584 -0.033536279325900135 0.084533956328745344
leaf_weight=2.3898152112960789 7.6030267626047152 9.4511317759752256 2.9777218699455252 3.3489523977041236 4.6925779134035137 37.25253838300705 5.5165012627840042 2.6937288343906385 5.7754760533571243 2.114063948392868 2.6863665729761124 5.737521305680275 8.2783065885305387 3.7534231394529343 2.7873221933841705
leaf_count=10 22 23 10 14 11 92 14 5 16 5 8 15 20 10 11
internal_value=0 0.0171764 0.00434351 0.0523151 -0.0367357 0.0102086 -0.0534816 -0.0267934 0.0378332 -0.0740966 -0.0421627 -0.0154336 -0.0341774 -0.0363508 0.083889
internal_weight=0 72.9496 53.4348 19.5148 34.1089 46.7037 12.7067 21.4021 13.3785 4.50388 8.20287 8.43125 12.9709 6.73115 6.13627
internal_count=286 198 135 63 88 115 37 51 38 15 22 20 31 20 25
shrinkage=0.049


Tree=5
num_leaves=13
num_cat=0
split_feature=1 10 6 2 1 7 11 11 0 5 0 11
split_gain=22.333 10.0698 7.13071 3.44972 1.95381 1.40144 1.12371 0.716449 0.244581 0.149958 0.0393989 0.000892336
threshold=0.30847625175305093 0.053859060085187614 0.21960082334441897 0.99558941459502837 0.13186544335975872 0.025384520271380974 0.67688773599872754 0.98202865771588765 0.39502600680593031 0.20945946249560674 0.60700420711197478 0.42474782993232335
decision_type=2 2 2 2 2 2 2 2 2 2 2 2
left_child=4 11 3 -3 6 -4 9 10 -8 -1 -6 -2
right_child=1 2 5 -5 7 -7 8 -9 -10 -11 -12 -13
leaf_value=-0.062199258917322059 0.080824692382950994 0.031255761098781205 -0.0054728611888144943 0.0015610819175004003 -0.025035041253868337 -0.034245078581470814 -0.046032990102900163 -0.0092641537777820269 -0.027193326356175076 -0.081559773792931653 -0.03192488603802239 0.082111535285861306
leaf_weight=1.8380834013223668 2.8449667766690245 28.388624340295792 11.825728684663774 14.038358107209204 2.3954341411590603 6.1933493912219992 4.9051456898450851 5.0349868088960639 2.4966122508049011 2.0120510682463646 11.854929164052008 2.3729573786258698
leaf_count=5 14 80 34 39 5 20 14 15 8 10 31 11
internal_value=0 0.0161002 0.0104624 0.0214303 -0.0346201 -0.0153622 -0.0508465 -0.0251529 -0.0396784 -0.0723169 -0.0307667 0.0814099
internal_weight=0 65.664 60.4461 42.427 30.5372 18.0191 11.2519 19.2854 7.40176 3.85013 14.2504 5.21792
internal_count=286 198 173 119 88 54 37 51 22 15 36 25
shrinkage=0.049


Tree=6
num_leaves=14
num_cat=0
split_feature=1 10 6 2 0 7 11 11 0 5 0 11 11
split_gain=19.0873 8.261 5.72154 2.41657 1.60979 1.24288 0.960481 0.499322 0.240918 0.118018 0.0675035 0.0486637 0.000729388
threshold=0.30847625175305093 0.053859060085187614 0.21960082334441897 0.99959903769045744 0.39502600680593031 0.025384520271380974 0.67688773599872754 0.67688773599872754 1.0000000180025095e-35 0.20945946249560674 0.60700420711197478 0.53168496441549251 0.42474782993232335
decision_type=2 2 2 2 2 2 2 2 2 2 2 2 2
left_child=4 12 3 -3 6 -4 9 11 -8 -1 -9 -6 -2
right_child=1 2 5 -5 7 -7 8 10 -10 -11 -12 -13 -14
leaf_value=-0.061010580320563612 0.078677060453462427 0.025256555207168085 -0.0039878448053105335 -0.012446780347510058 -0.029139736624213552 -0.032324233969454212 -0.04483310495399729 -0.02109115592725444 -0.024883859034474296 -0.079359335832731623 -0.010949011326021555 -0.036466846825100117 0.079925148391167516
leaf_weight=1.6374725103378314 2.4753184914588919 34.042598322033882 10.764911890029909 4.6376671344041815 8.0966894403100031 5.6760738641023627 4.4233179688453674 2.3890758231282225 2.1648238301277161 1.7317429557442665 4.6277424395084381 2.9764203429222098 2.0597399547696114
leaf_count=5 14 105 34 14 23 20 14 8 5 10 15 8 11
internal_value=0 0.0156739 0.0104437 0.020736 -0.0333382 -0.0137707 -0.049161 -0.0246288 -0.0382779 -0.0704417 -0.0144022 -0.0311092 0.0792439
internal_weight=0 59.6563 55.1213 38.6803 28.0473 16.441 9.95736 18.0899 6.58814 3.36922 7.01682 11.0731 4.53506
internal_count=286 198 173 119 88 54 34 54 19 15 23 31 25
shrinkage=0.049


Tree=7
num_leaves=14
num_cat=0
split_feature=1 10 6 2 0 1 11 11 0 11 5 0 11
split_gain=16.4281 6.95169 4.6364 2.04098 1.46896 1.09508 0.802694 0.682472 0.203176 0.115323 0.0956505 0.00206478 0.000569955
threshold=0.30847625175305093 0.053859060085187614 0.21960082334441897 0.99558941459502837 0.39502600680593031 0.6478058824532259 0.67688773599872754 0.67688773599872754 1.0000000180025095e-35 0.53168496441549251 0.20945946249560674 0.60700420711197478 0.42474782993232335
decision_type=2 2 2 2 2 2 2 2 2 2 2 2 2
left_child=4 12 3 -3 6 -4 10 9 -8 -6 -1 -9 -2
right_child=1 2 5 -5 7 -7 8 11 -10 -11 -12 -13 -14
leaf_value=-0.05981648430312813 0.076788949280711866 0.027698756574735535 -0.030657869440151544 0.0028229910252818465 -0.028096957112177346 -0.0029285005881476115 -0.043896252471213593 -0.010228070490040554 -0.024721457814692975 -0.039479508885114784 -0.077362650162101976 -0.012009989184159003 0.07796339408503794
leaf_weight=1.4741153717041033 2.1875267475843421 24.784282401204109 5.236031360924243 11.637601211667059 7.5989443808794039 9.8561390340328199 4.0544455870985985 2.4463671892881385 1.9721816182136533 2.9733478426933289 1.5101553797721863 4.315613865852356 1.8155515044927595
leaf_count=5 14 80 20 39 23 34 14 8 5 8 10 15 11
internal_value=0 0.0151211 0.0102876 0.0197504 -0.0318647 -0.0125488 -0.0479127 -0.0235225 -0.0376214 -0.0312982 -0.0686955 -0.0113653 0.0773216
internal_weight=0 55.5171 51.5141 36.4219 26.3452 15.0922 9.0109 17.3343 6.02663 10.5723 2.98427 6.76198 4.00308
internal_count=286 198 173 119 88 54 34 54 19 31 15 23 25
shrinkage=0.049


Tree=8
num_leaves=14
num_cat=0
split_feature=1 10 6 1 0 1 11 11 0 11 5 7 11
split_gain=14.2492 5.93351 3.93567 1.64448 1.38393 0.955499 0.676631 0.670419 0.159351 0.120224 0.0783708 0.00567819 0.000463854
threshold=0.30847625175305093 0.053859060085187614 0.21960082334441897 0.37684203539341138 0.39502600680593031 0.6478058824532259 0.67688773599872754 0.67688773599872754 1.0000000180025095e-35 0.53168496441549251 0.20945946249560674 0.026299892476803661 0.42474782993232335
decision_type=2 2 2 2 2 2 2 2 2 2 2 2 2
left_child=4 12 3 -3 6 -4 10 9 -8 -6 -1 -9 -2
right_child=1 2 5 -5 7 -7 8 11 -10 -11 -12 -13 -14
leaf_value=-0.058859719626730235 0.075071095563293444 0.047891108502753632 -0.029268613660282893 0.015055233000462617 -0.026925020256759059 -0.0024184798546286962 -0.043031316863418191 -0.011153869680185861 -0.025396850294106037 -0.038819805855784116 -0.075611243781228341 -0.0081439953099243321 0.076193334214836761
leaf_weight=1.3477078676223773 1.9499524533748618 4.1705345660448065 4.8815185502171508 30.035273745656013 7.184303283691408 9.1414098590612394 3.7533682137727737 4.0083339214324942 1.8302870392799375 2.8493373394012451 1.3345957770943642 2.4095265492796898 1.6181318238377571
leaf_count=5 14 16 20 103 23 34 14 15 5 8 10 8 11
internal_value=0 0.0146073 0.0100964 0.0190587 -0.0306104 -0.0117653 -0.0469676 -0.0223919 -0.0372508 -0.0303029 -0.0671945 -0.0100238 0.07558
internal_weight=0 51.7968 48.2287 34.2058 24.7175 14.0229 8.26596 16.4515 5.58366 10.0336 2.6823 6.41786 3.56808
internal_count=286 198 173 119 88 54 34 54 19 31 15 23 25
shrinkage=0.049


Tree=9
num_leaves=13
num_cat=0
split_feature=1 10 6 2 0 1 11 11 0 2 5 11
split_gain=12.5266 5.13053 3.39133 1.85705 1.21494 0.819351 0.583223 0.290986 0.129575 0.0962497 0.0660373 0.000502759
threshold=0.30847625175305093 0.053859060085187614 0.21960082334441897 0.99959903769045744 0.39502600680593031 0.6478058824532259 0.67688773599872754 0.98202865771588765 1.0000000180025095e-35 0.37209302325581411 0.20945946249560674 0.42474782993232335
decision_type=2 2 2 2 2 2 2 2 2 2 2 2
left_child=4 11 3 -3 6 -4 10 9 -8 -6 -1 -2
right_child=1 2 5 -5 7 -7 8 -9 -10 -11 -12 -13
leaf_value=-0.057879523479371239 0.073406423033190504 0.02257255746530025 -0.027937405532567228 -0.014050203595704164 -0.030257545062053831 -0.0022540621737327637 -0.042105096347338673 -0.010113448586381933 -0.025606695774766569 -0.021242931990409063 -0.074038795660937587 0.074639418993903459
leaf_weight=1.2397717237472561 1.7450451366603366 28.618411220610142 4.5752230659127227 3.7613289579749098 5.8555719852447492 8.5662449747323972 3.4941698163747787 3.7321260571479788 1.6985634118318556 5.528951033949852 1.1900774128735065 1.456940233707428
leaf_count=5 14 105 20 14 19 34 14 15 5 20 10 11
internal_value=0 0.014015 0.00979795 0.0183183 -0.0300299 -0.0111958 -0.04598 -0.0219871 -0.0367084 -0.0258796 -0.0657939 0.0739675
internal_weight=0 48.7232 45.5212 32.3797 22.7392 13.1415 7.62258 15.1166 5.19273 11.3845 2.42985 3.20199
internal_count=286 198 173 119 88 54 34 54 19 39 15 25
shrinkage=0.049


Tree=10
num_leaves=13
num_cat=0
split_feature=1 10 6 11 0 11 11 11 0 5 0 11
split_gain=10.9726 4.50536 3.07416 2.76103 1.09585 0.515376 0.48366 0.210126 0.105642 0.056914 0.0378525 0.000397313
threshold=0.30847625175305093 0.053859060085187614 0.1698148802957318 0.45133336091856951 0.39502600680593031 0.67688773599872754 0.38709523039848187 0.98202865771588765 1.0000000180025095e-35 0.20945946249560674 0.70657666276404862 0.42474782993232335
decision_type=2 2 2 2 2 2 2 2 2 2 2 2
left_child=4 11 6 -4 5 9 -3 10 -7 -1 -6 -2
right_child=1 2 3 -5 7 8 -8 -9 -10 -11 -12 -13
leaf_value=-0.056888314907438293 0.072021552683970869 0.019968781095640053 0.022163030792298588 -0.0076420547625884825 -0.021681665054789891 -0.040969153731722101 0.042132457413877153 -0.010923974727903225 -0.025530880883625328 -0.072610155754397346 -0.027506917222232464 0.073173714958578606
leaf_weight=1.1466678529977825 1.5804457366466513 3.8952038213610631 11.226150967180727 22.258659452199936 5.1814305931329709 3.2590856999158859 6.0137900933623314 3.5394414812326422 1.5802197903394697 1.067545972764492 5.5439791083335876 1.3178179562091827
leaf_count=5 14 13 42 92 20 14 26 15 5 10 19 11
internal_value=0 0.0133958 0.00944517 0.00235043 -0.0290884 -0.0448872 0.03342 -0.0212764 -0.035928 -0.0644683 -0.0246927 0.0725454
internal_weight=0 46.2921 43.3938 33.4848 21.3184 7.05352 9.90899 14.2649 4.83931 2.21421 10.7254 2.89826
internal_count=286 198 173 134 88 34 39 54 19 15 39 25
shrinkage=0.049


Tree=11
num_leaves=16
num_cat=0
split_feature=2 9 8 11 11 0 0 5 11 0 2 11 0 11 11
split_gain=9.23491 5.37381 3.20616 2.46363 3.05454 2.33552 0.96388 0.934512 0.469158 0.343537 0.287841 0.210196 0.164971 0.061954 0.000606477
threshold=0.020449077786688061 1.0000000180025095e-35 0.083592597846721836 0.45133336091856951 0.77915819106608775 0.82861429136100517 0.39502600680593031 0.66306536504090297 0.67688773599872754 0.51348607409480673 0.99959903769045744 0.45133336091856951 0.76735039005403693 0.91589751341782366 0.42474782993232335
decision_type=2 2 2 2 2 2 2 2 2 2 2 2 2 2 2
left_child=2 7 3 5 -5 -1 8 10 -3 14 -2 -11 -8 -9 -4
right_child=1 6 9 4 -6 -7 12 13 -10 11 -12 -13 -14 -15 -16
leaf_value=0.0043561610600439246 0.0038706035161324682 -0.063557171584374073 0.07041803830738301 -0.018559858864292681 0.046558163505766741 0.067286655918209509 -0.019362781040694624 0.019132675430478047 -0.035125685912804655 0.032415598114690525 -0.01279824713232286 0.057874338752603095 -0.03022744623904795 0.029460744547835382 0.071914103599889465
leaf_weight=2.5077176392078426 9.5895895212888735 2.0259503461420563 1.4157360009849063 6.5131858885288221 2.3548940867185593 3.2524315267801285 13.777747452259065 3.7081730142235747 4.4640123024582863 1.3437771797180176 3.3584363162517539 1.851504735648632 4.4359643533825865 2.2350359782576561 1.2037659883499146
leaf_count=12 40 15 14 25 13 10 54 13 19 7 14 9 20 10 11
internal_value=0 -0.0127423 0.0271731 0.0149386 -0.00126795 0.0398895 -0.0277865 0.00693065 -0.044001 0.0579514 -0.000452934 0.0471677 -0.0220089 0.0230167 0.0711055
internal_weight=0 43.5949 20.443 14.6282 8.86808 5.76015 24.7037 18.8912 6.48996 5.81478 12.948 3.19528 18.2137 5.94321 2.6195
internal_count=286 185 101 60 38 22 108 77 34 41 54 16 74 23 25
shrinkage=0.049


Tree=12
num_leaves=16
num_cat=0
split_feature=2 9 11 0 3 0 11 2 1 11 8 0 11 0 11
split_gain=9.48146 4.27019 2.48959 3.08945 2.98869 0.966157 0.665115 0.887316 0.442695 0.388561 0.297589 0.236471 0.148788 0.0640572 0.00156615
threshold=0.020449077786688061 1.0000000180025095e-35 0.45133336091856951 0.57358709964519461 0.066647304753306894 0.39502600680593031 0.91589751341782366 0.99959903769045744 0.51298240439606357 0.67688773599872754 0.083592597846721836 0.70657666276404862 0.64772487228375752 0.82861429136100517 0.42474782993232335
decision_type=2 2 2 2 2 2 2 2 2 2 2 2 2 2 2
left_child=2 6 4 8 10 9 12 -8 -4 -3 -1 -7 -2 -5 -6
right_child=1 5 3 13 14 11 7 -9 -10 -11 -12 -13 -14 -15 -16
leaf_value=0.0018506894764527956 -0.0001113121781760948 -0.062348257812826997 0.054711894425013972 -0.015574698806279532 0.068742716909414844 -0.014736173348309001 0.027186662051437761 -0.01806582175925316 0.024882026007936073 -0.03546197020797829 0.031364861211211494 -0.02621185820787891 -0.017522394575174276 -0.028918205841579531 0.070799745817717252
leaf_weight=2.3588879108428973 10.691994287073612 1.8598893582820917 1.6547089964151362 1.3822197392582896 4.5539613887667656 7.9061517044901874 4.9445186220109454 1.3175974711775778 4.2951783128082752 4.2163830734789371 1.257533594965935 9.4820612184703332 1.3244193047285087 2.3031787425279617 1.104149244725704
leaf_count=12 42 15 9 7 24 35 22 7 22 19 7 39 6 9 11
internal_value=0 -0.0130395 0.0287843 0.011341 0.0469062 -0.0268717 0.00471725 0.0176652 0.0331779 -0.0436916 0.0121136 -0.020994 -0.00203032 -0.0239137 0.0691441
internal_weight=0 41.743 18.9098 9.63529 9.27453 23.4645 18.2785 6.26212 5.94989 6.07627 3.61642 17.3882 12.0164 3.6854 5.65811
internal_count=286 185 101 47 54 108 77 29 31 34 19 74 48 16 35
shrinkage=0.049


Tree=13
num_leaves=15
num_cat=0
split_feature=1 0 5 11 0 10 11 11 0 11 11 5 0 11
split_gain=7.28334 3.75011 2.36875 2.87847 1.08303 1.01934 0.334375 0.317607 0.277431 0.267356 0.0847216 0.0430146 0.029602 0.000571359
threshold=0.30847625175305093 0.57358709964519461 0.51330105392746328 0.45133336091856951 0.39502600680593031 0.053859060085187614 0.67688773599872754 0.91589751341782366 0.51348607409480673 0.98202865771588765 0.49459000568800598 0.20945946249560674 1.0000000180025095e-35 0.42474782993232335
decision_type=2 2 2 2 2 2 2 2 2 2 2 2 2 2
left_child=4 5 3 -3 6 13 11 -4 -7 10 -6 -1 -8 -2
right_child=1 2 7 -5 9 8 12 -9 -10 -11 -12 -13 -14 -15
leaf_value=-0.053844693731739009 0.068232804203263817 0.01988332913318977 0.014186898540986646 -0.020634397305002064 -0.014605321917274155 0.022385976033455091 -0.038298129523214548 0.031001088418365946 0.042830747871318152 -0.0043403445184492517 -0.024452914363800947 -0.069364488328989962 -0.02928842222721275 0.069815379166950964
leaf_weight=0.90250234305858856 1.1843485273420793 6.3880040943622651 5.8422919735312444 12.346201516687868 3.0737723447382432 4.0092476308345795 2.697009414434433 5.0106704905629158 2.6449274905025959 2.8892470374703398 6.6051033549010754 0.81688817963004112 1.2964659780263903 1.0190086103975773
leaf_count=5 14 29 26 58 11 22 14 22 16 15 28 10 5 11
internal_value=0 0.0121075 0.003734 -0.00681863 -0.0254618 0.0400776 -0.0431517 0.0219498 0.0305124 -0.0174209 -0.0213256 -0.0612182 -0.0353732 0.0689647
internal_weight=0 38.4447 29.5872 18.7342 18.281 8.85753 5.71287 10.853 6.65418 12.5681 9.67888 1.71939 3.99348 2.20336
internal_count=286 198 135 87 88 63 34 48 38 54 39 15 19 25
shrinkage=0.049


Tree=14
num_leaves=16
num_cat=0
split_feature=1 0 7 10 0 7 11 11 0 11 11 5 0 0 11
split_gain=7.14497 3.00391 1.9674 0.990754 0.876382 0.81793 0.420635 0.313744 0.291631 0.228161 0.0800403 0.0366059 0.0286771 0.0171113 0.000540003
threshold=0.30847625175305093 0.57358709964519461 0.024515049307556141 0.053859060085187614 0.39502600680593031 0.01447710360500888 0.45133336091856951 0.67688773599872754 0.51348607409480673 0.67688773599872754 0.53168496441549251 0.20945946249560674 0.60700420711197478 1.0000000180025095e-35 0.42474782993232335
decision_type=2 2 2 2 2 2 2 2 2 2 2 2 2 2 2
left_child=4 3 5 14 7 -3 -4 11 -5 10 -6 -1 -11 -9 -2
right_child=1 2 6 8 9 -7 -8 13 -10 12 -12 -13 -14 -15 -16
leaf_value=-0.053442380766136659 0.067267358581181727 -0.002868962261368234 0.00099267621489347157 0.02024402932889632 -0.020612682704319422 0.018565728977630678 -0.025125228255659368 -0.036740731811280479 0.041844252748382806 -0.014613082772582692 -0.032126316238073153 -0.068319350348705871 -0.0064770077771414414 -0.029663269577908494 0.06887013672388563
leaf_weight=0.84925509244203812 1.0879026502370819 6.0207462012767854 2.0949502885341635 3.854840736836195 5.8484612144529802 14.736359193921087 5.0482307448983192 2.5433352962136269 2.4574914686381817 1.6672075241804121 1.9274642691016195 0.74589515849947929 2.7655602879822254 1.2106091231107714 0.94149595126509655
leaf_count=5 14 29 12 22 23 67 27 14 16 8 8 10 15 5 11
internal_value=0 0.012429 0.00471535 0.0382284 -0.0256553 0.0123484 -0.0174654 -0.042194 0.0286533 -0.018409 -0.0234666 -0.0603989 -0.00953707 -0.0344583 0.0680109
internal_weight=0 36.242 27.9003 8.34173 17.5578 20.7571 7.14318 5.34909 6.31233 12.2087 7.77593 1.59515 4.43277 3.75394 2.0294
internal_count=286 198 135 63 88 96 39 34 38 54 31 15 23 19 25
shrinkage=0.049


Tree=15
num_leaves=15
num_cat=0
split_feature=1 0 7 10 0 7 11 11 0 11 2 5 0 11
split_gain=6.66631 2.52131 1.71038 0.953279 0.76656 0.677867 0.367456 0.2869 0.273241 0.167787 0.0414612 0.0337982 0.0142528 0.000530093
threshold=0.30847625175305093 0.57358709964519461 0.024515049307556141 0.053859060085187614 0.39502600680593031 0.01447710360500888 0.45133336091856951 0.67688773599872754 0.51348607409480673 0.98202865771588765 0.37209302325581411 0.20945946249560674 1.0000000180025095e-35 0.42474782993232335
decision_type=2 2 2 2 2 2 2 2 2 2 2 2 2 2
left_child=4 3 5 13 7 -3 -4 11 -5 10 -6 -1 -9 -2
right_child=1 2 6 8 9 -7 -8 12 -10 -11 -12 -13 -14 -15
leaf_value=-0.052586358683873617 0.066356942846381745 -0.0019064271239435803 0.0014713805263236776 0.018902287610311808 -0.024876760973910107 0.018015731382142811 -0.023575703176676916 -0.035922571546454812 0.040440431307635305 -0.007658104780017003 -0.018227861165405146 -0.067408442073145544 -0.029294486972047347 0.068008399857835591
leaf_weight=0.80256912857294327 1.0026185810565937 5.7534520477056565 1.9934410601854313 3.7146471291780472 4.6775705590844137 14.275751374661921 4.7748333290219307 2.4303889125585556 2.2836649641394615 2.6532467454671851 4.3422044962644577 0.68433228135108948 1.1463916301727297 0.87301615625619877
leaf_count=5 14 29 12 22 19 67 27 14 16 15 20 10 5 11
internal_value=0 0.0122595 0.00509685 0.0366361 -0.0253965 0.012293 -0.0161987 -0.0413183 0.0271022 -0.0184897 -0.0216759 -0.0594081 -0.0337982 0.0671256
internal_weight=0 34.6714 26.7975 7.87395 16.7367 20.0292 6.76827 5.06368 5.99831 11.673 9.01978 1.4869 3.57678 1.87563
internal_count=286 198 135 63 88 96 39 34 38 54 39 15 19 25
shrinkage=0.049


Tree=16
num_leaves=15
num_cat=0
split_feature=1 5 7 5 0 0 11 11 5 0 11 0 11 11
split_gain=5.93975 2.30923 1.71115 0.86648 0.785154 0.721147 0.266465 0.123119 0.0314944 0.0249242 0.0106274 0.0102456 0.000516889 2.7848e-06
threshold=0.30847625175305093 0.66306536504090297 0.025384520271380974 0.13317275513406593 0.59033361992249433 0.39502600680593031 0.67688773599872754 0.98202865771588765 0.20945946249560674 0.70657666276404862 0.91589751341782366 1.0000000180025095e-35 0.42474782993232335 0.98202865771588765
decision_type=2 2 2 2 2 2 2 2 2 2 2 2 2 2
left_child=5 2 3 -2 12 6 8 9 -1 -7 -6 -8 -3 -4
right_child=1 4 13 -5 10 7 11 -9 -10 -11 -12 -13 -14 -15
leaf_value=-0.051769349930788196 0.021108864694297975 0.065507657706845954 -0.026786078999655297 0.0020788661439395165 0.026077137976680879 -0.017757691474518892 -0.034874160739122979 -0.0082410185741257618 -0.0665824173284814 -0.023011320017335243 0.031000904671168644 -0.029115969099790154 0.067201921649074597 -0.026877765759214085
leaf_weight=0.76056414842605835 10.021984063088899 0.9260859228670586 1.2527588196098798 13.460655491799114 3.1081813350319862 4.1652726754546148 2.3187414947897196 2.5468466430902472 0.63013297319412231 4.5221005901694298 1.5913800932466982 1.0910025686025622 0.81091717816889286 2.17851173132658
leaf_count=5 57 14 10 73 13 20 14 15 10 19 10 5 11 10
internal_value=0 0.0117831 0.00547767 0.0102005 0.0381489 -0.0245077 -0.0404045 -0.017715 -0.0584812 -0.0204924 0.0277444 -0.0330317 0.0662986 -0.0268443
internal_weight=0 33.3505 26.9139 23.4826 6.43656 16.0347 4.80044 11.2342 1.3907 8.68737 4.69956 3.40974 1.737 3.43127
internal_count=286 198 150 130 48 88 34 54 15 39 23 19 25 20
shrinkage=0.049


Tree=17
num_leaves=13
num_cat=0
split_feature=1 10 7 6 0 11 11 11 2 0 0 11
split_gain=5.43533 2.06784 1.87489 0.817754 0.657037 0.343001 0.245138 0.114738 0.030225 0.0292523 0.00661925 0.000420562
threshold=0.30847625175305093 0.053859060085187614 0.024515049307556141 0.1698148802957318 0.39502600680593031 0.45133336091856951 0.67688773599872754 0.98202865771588765 0.37209302325581411 0.20029640213204666 1.0000000180025095e-35 0.42474782993232335
decision_type=2 2 2 2 2 2 2 2 2 2 2 2
left_child=4 11 3 -3 6 -4 9 8 -6 -1 -8 -2
right_child=1 2 5 -5 7 -7 10 -9 -10 -11 -12 -13
leaf_value=-0.065780656261627116 0.064752400695036641 0.029286143300370698 0.0022775085100530334 0.0091659017812239091 -0.023019517208949555 -0.023040355034401262 -0.033964202032964616 -0.0080919699989697291 -0.017103698769304058 -0.051011247695667519 -0.029235373790173338 0.066339792033216466
leaf_weight=0.58018905296921619 0.85901524312794098 6.6385729704052272 1.8207680620253075 18.002552699297667 4.3234236687421781 4.364576717838645 2.2211071085184813 2.4376146309077731 3.9848357439041138 0.72347141429781914 1.0451352447271349 0.75114134326577187
leaf_count=10 14 39 12 95 19 27 14 15 20 5 5 11
internal_value=0 0.0113596 0.00853206 0.0145865 -0.024058 -0.0155876 -0.0396209 -0.0174396 -0.0201822 -0.0575843 -0.0324511 0.0654929
internal_weight=0 32.4366 30.8265 24.6411 15.3158 6.18534 4.5699 10.7459 8.30826 1.30366 3.26624 1.61016
internal_count=286 198 173 134 88 39 34 54 39 15 19 25
shrinkage=0.049


Tree=18
num_leaves=15
num_cat=0
split_feature=1 0 7 0 11 0 5 11 1 11 0 2 0 11
split_gain=4.79589 2.10534 1.36342 0.733107 0.679761 0.635505 0.578086 0.228589 0.221127 0.107123 0.0276171 0.0241916 0.00380492 0.00298168
threshold=0.30847625175305093 0.57358709964519461 0.025384520271380974 0.44236970535318071 0.77915819106608775 0.39502600680593031 0.51330105392746328 0.67688773599872754 0.58355200773909133 0.98202865771588765 0.20029640213204666 0.37209302325581411 1.0000000180025095e-35 0.98202865771588765
decision_type=2 2 2 2 2 2 2 2 2 2 2 2 2 2
left_child=5 3 6 4 -2 7 -3 10 -5 11 -1 -7 -9 -4
right_child=1 2 13 8 -6 9 -8 12 -10 -11 -12 -13 -14 -15
leaf_value=-0.065064174523124685 -0.00099687337992420094 0.001554352156432282 -0.024090692750833226 0.039840660551327997 0.043428808144803641 -0.021762251229802104 0.01778899782556901 -0.032959328003420961 0.06471445944798343 -0.0072286170734188818 -0.050246466448468932 -0.016375316020047537 -0.029297706999329633 -0.027231606188894211
leaf_weight=0.53772228024899849 1.8936365656554726 12.327318795025354 1.1400050558149806 2.017844395712018 1.4680513180792332 4.182457057759164 9.193813977763055 2.1282360311597586 1.4930825289338829 2.3198324106633654 0.68891747668385506 3.8385988660156727 1.0022720843553545 1.9966411702334881
leaf_count=10 9 67 10 16 13 19 48 14 25 15 5 20 5 10
internal_value=0 0.0107756 0.00409098 0.0347589 0.0184039 -0.0231159 0.00848978 -0.0388125 0.0504187 -0.0165022 -0.0567421 -0.0191843 -0.031787 -0.0260901
internal_weight=0 31.5304 24.6578 6.87261 3.36169 14.698 21.5211 4.35715 3.51093 10.3409 1.22664 8.02106 3.13051 3.13665
internal_count=286 198 135 63 22 88 115 34 41 54 15 39 19 20
shrinkage=0.049


Tree=19
num_leaves=15
num_cat=0
split_feature=1 0 7 1 0 7 11 11 11 2 0 11 0 11
split_gain=4.48308 1.87068 1.21995 0.67512 0.56757 0.450281 0.211543 0.199143 0.098086 0.0321463 0.0262369 0.00367912 0.00225271 0.000294215
threshold=0.30847625175305093 0.57358709964519461 0.025384520271380974 0.58355200773909133 0.39502600680593031 0.01447710360500888 0.67688773599872754 0.77915819106608775 0.98202865771588765 0.37209302325581411 0.20029640213204666 0.98202865771588765 1.0000000180025095e-35 0.42474782993232335
decision_type=2 2 2 2 2 2 2 2 2 2 2 2 2 2
left_child=4 3 5 7 6 -3 10 -2 9 -6 -1 -4 -8 -5
right_child=1 2 11 13 8 -7 12 -9 -10 -11 -12 -13 -14 -15
leaf_value=-0.064376570307094455 0.019817117118334834 -0.0044644915977193333 -0.022922598421342387 0.063424166465648538 -0.022146238360018358 0.012454951006662565 -0.032112724093100758 0.041646914634779791 -0.0074385381632042051 -0.015801328352735854 -0.049448930590455853 -0.026501129340976936 -0.029237961257739496 0.064850945476657637
leaf_weight=0.49651514645665773 3.7619793042540577 4.9572635851800504 1.0931206569075576 0.74453162867575862 3.9946480467915517 15.857283577322958 2.048440989106894 1.3683067690581081 2.2353709191083908 3.6865986920893192 0.65646577998995781 1.869602020829916 0.96175306290388096 0.64993243664503098
leaf_count=10 25 29 10 14 19 86 14 13 15 20 5 10 5 11
internal_value=0 0.0106156 0.00423793 0.0338568 -0.0228465 0.00842536 -0.0380302 0.0256394 -0.0164721 -0.019101 -0.0558773 -0.0251808 -0.0311942 0.0640892
internal_weight=0 30.302 23.7773 6.52475 14.0798 20.8145 4.16317 5.13029 9.91662 7.68125 1.15298 2.96272 3.01019 1.39446
internal_count=286 198 135 63 88 115 34 38 54 39 15 20 19 25
shrinkage=0.049


Tree=20
num_leaves=14
num_cat=0
split_feature=1 4 7 7 0 11 11 11 11 0 7 0 11
split_gain=4.20842 1.59721 1.50029 0.728942 0.513658 0.281053 0.195397 0.0920411 0.0542729 0.0243499 0.0114033 0.000725841 0.000195867
threshold=0.30847625175305093 0.64857682576071585 0.024515049307556141 0.01447710360500888 0.39502600680593031 0.45133336091856951 0.67688773599872754 0.67688773599872754 0.53168496441549251 0.20029640213204666 0.026299892476803661 1.0000000180025095e-35 0.42474782993232335
decision_type=2 2 2 2 2 2 2 2 2 2 2 2 2
left_child=4 2 3 -2 6 -4 9 8 -6 -1 -9 -8 -3
right_child=1 12 5 -5 7 -7 11 10 -10 -11 -12 -13 -14
leaf_value=-0.063715280950100095 -0.0034825485883294813 0.062893261644803758 0.0018392293594261793 0.018037915334932958 -0.017434832888641456 -0.022442974857897004 -0.031296745739712285 -0.0079287850712659088 -0.028160599904549936 -0.048857876520426571 -0.013702210039943759 -0.029632512343709255 0.064098304794737326
leaf_weight=0.45900235790759258 4.7918475642800429 0.69788657594472059 1.6356941647827614 17.879715796560049 4.5360461026430112 3.8109070975333452 1.9755947310477497 2.1656594946980476 1.5096999816596506 0.62615123763680458 1.323313230648637 0.92329106479883183 0.60425913147628307
leaf_count=10 29 14 12 105 23 27 14 15 8 5 8 5 11
internal_value=0 0.0103986 0.00794167 0.0134894 -0.02263 -0.0151507 -0.037406 -0.0164559 -0.0201132 -0.0551423 -0.0101186 -0.0307667 0.0634525
internal_weight=0 29.4203 28.1182 22.6716 13.5188 5.4466 3.98404 9.53472 6.04575 1.08515 3.48897 2.89889 1.30215
internal_count=286 198 173 134 88 39 34 54 31 15 23 19 25
shrinkage=0.049


Tree=21
num_leaves=14
num_cat=0
split_feature=1 4 7 11 0 11 11 2 11 0 11 0 11
split_gain=3.98323 1.4592 1.33029 0.630638 0.467959 0.248143 0.179198 0.0857691 0.0242709 0.023382 0.0166004 0.000281216 0.000161617
threshold=0.30847625175305093 0.64857682576071585 0.024515049307556141 0.38709523039848187 0.39502600680593031 0.45133336091856951 0.67688773599872754 0.37209302325581411 0.98202865771588765 0.20029640213204666 0.53168496441549251 1.0000000180025095e-35 0.42474782993232335
decision_type=2 2 2 2 2 2 2 2 2 2 2 2 2
left_child=4 2 3 -2 6 -4 9 10 -9 -1 -6 -8 -3
right_child=1 12 5 -5 7 -7 11 8 -10 -11 -12 -13 -14
leaf_value=-0.063101712021890743 -0.00013807372834899204 0.062285463030355648 0.0019778656942064086 0.018306751185725788 -0.019582911958725264 -0.021297970262716414 -0.030736055442979828 -0.015115230426190234 -0.0084291764995254644 -0.048090572487514929 -0.026307490927188419 -0.029682118826161698 0.063419074782126217
leaf_weight=0.42673579510301285 6.1705542132258513 0.65052904281765112 1.5719567053019989 15.967691982164977 2.2529930565506202 3.6607528831809759 1.9154538158327343 3.4354704711586237 2.100683655589819 0.59865835681557655 1.4478327557444575 0.89043226838111866 0.56354303285479546
leaf_count=10 33 14 12 101 11 27 14 20 15 5 8 5 11
internal_value=0 0.0102454 0.00791376 0.0131657 -0.0224104 -0.0143057 -0.0368078 -0.0164387 -0.0125782 -0.0543377 -0.0222137 -0.0304016 0.0628117
internal_weight=0 28.585 27.371 22.1382 13.0683 5.23271 3.83128 9.23698 5.53615 1.02539 3.70083 2.80589 1.21407
internal_count=286 198 173 134 88 39 34 54 35 15 19 19 25
shrinkage=0.049


Tree=22
num_leaves=14
num_cat=0
split_feature=1 4 6 7 0 1 11 2 11 0 11 11 5
split_gain=3.57654 1.35011 1.26651 0.598164 0.461428 0.306467 0.165556 0.0778283 0.0255513 0.0224123 0.0146179 0.000114548 2.94992e-06
threshold=0.30847625175305093 0.64857682576071585 0.21960082334441897 0.01447710360500888 0.39502600680593031 0.6478058824532259 0.67688773599872754 0.37209302325581411 0.98202865771588765 0.20029640213204666 0.53168496441549251 0.42474782993232335 0.20945946249560674
decision_type=2 2 2 2 2 2 2 2 2 2 2 2 2
left_child=4 2 3 -2 6 -4 9 10 -9 -1 -6 -3 -8
right_child=1 11 5 -5 7 -7 12 8 -10 -11 -12 -13 -14
leaf_value=-0.062526286629231403 -0.0098976826146119461 0.06173095561939658 -0.02316440947260124 0.017289804928155433 -0.018693316962970885 -0.0022779596442647483 -0.029939846923612845 -0.014502650655051068 -0.0075035718252165051 -0.047389029138318078 -0.025108301743988891 0.062718759671158697 -0.030049484567780404
leaf_weight=0.39727123500779216 2.1923072971403696 0.60951473144814261 2.6130682509392491 17.086510921828449 2.1817399058490974 4.7580741532146931 0.8630952760577203 3.3187461141496897 2.0113301910459995 0.57440388202667236 1.4002617895603182 0.52433883119374514 1.8569502541795373
leaf_count=10 14 14 20 105 11 34 5 20 15 5 8 11 14
internal_value=0 0.00982106 0.00759306 0.0141982 -0.0216496 -0.0096822 -0.0362166 -0.0156153 -0.0118615 -0.0535779 -0.021201 0.0621878 -0.0300147
internal_weight=0 27.7838 26.65 19.2788 12.6038 7.37114 3.69172 8.91208 5.33008 0.971675 3.582 1.13385 2.72005
internal_count=286 198 173 119 88 54 34 54 35 15 19 25 19
shrinkage=0.049


Tree=23
num_leaves=14
num_cat=0
split_feature=1 4 6 11 0 1 11 2 0 11 11 11 0
split_gain=3.40051 1.23902 1.13769 0.475621 0.418546 0.288188 0.152294 0.068964 0.0217408 0.0190968 0.00817483 9.45252e-05 4.54406e-05
threshold=0.30847625175305093 0.64857682576071585 0.21960082334441897 0.38709523039848187 0.39502600680593031 0.6478058824532259 0.67688773599872754 0.37209302325581411 0.20029640213204666 0.98202865771588765 0.53168496441549251 0.42474782993232335 1.0000000180025095e-35
decision_type=2 2 2 2 2 2 2 2 2 2 2 2 2
left_child=4 2 3 -2 6 -4 8 10 -1 -9 -6 -3 -8
right_child=1 11 5 -5 7 -7 12 9 -10 -11 -12 -13 -14
leaf_value=-0.061966057335566989 0.0022696922898015688 0.061187413401164584 -0.022495366377405138 0.019077821560040047 -0.019088776673783277 -0.0018516427381595969 -0.029488590605184516 -0.014389880023256132 -0.046604046927942823 -0.0082533899779333331 -0.023966691373955847 0.062115532079256547 -0.029925468268132593
leaf_weight=0.36943152034655158 5.8624822087586024 0.56988923018798121 2.5096757821738711 13.018188002519308 2.1063267681747657 4.5990001726895571 1.8065419355407359 3.2129928153008223 0.55124710500240326 1.9606448598206041 1.3559222482144835 0.4900139095261693 0.83623701333999623
leaf_count=10 33 14 20 86 11 34 14 20 5 15 8 11 5
internal_value=0 0.00968605 0.00756821 0.0138589 -0.0214766 -0.00913979 -0.0356058 -0.0156464 -0.0527682 -0.0120643 -0.0209991 0.0616165 -0.0296268
internal_weight=0 27.0492 25.9893 18.8807 12.1993 7.10868 3.56346 8.63589 0.920679 5.17364 3.46225 1.0599 2.64278
internal_count=286 198 173 119 88 54 34 54 15 35 19 25 19
shrinkage=0.049


Tree=24
num_leaves=16
num_cat=0
split_feature=1 5 5 11 0 0 0 11 2 0 11 11 2 0 11
split_gain=3.16841 1.14965 0.799655 2.18081 0.479264 0.457229 0.394355 0.140429 0.0625552 0.0210314 0.0164072 0.00825949 0.00705334 0.000345345 6.73736e-05
threshold=0.30847625175305093 0.66306536504090297 0.13317275513406593 0.45133336091856951 0.59033361992249433 0.92798781083676607 0.39502600680593031 0.67688773599872754 0.41900561347233373 0.20029640213204666 0.91589751341782366 0.98202865771588765 0.37209302325581411 1.0000000180025095e-35 0.42474782993232335
decision_type=2 2 2 2 2 2 2 2 2 2 2 2 2 2 2
left_child=6 2 3 -2 14 -4 7 9 12 -1 -6 -10 -8 -9 -3
right_child=1 4 5 -5 10 -7 8 13 11 -11 -12 -13 -14 -15 -16
leaf_value=-0.061442021714109916 0.053046471342341521 0.060703389143571401 -0.011926539915702288 -0.00070489311339495581 0.020861818495122808 0.0064968484790497187 -0.020403564634939683 -0.028885345367249102 -0.013003188614196215 -0.045884194734054889 0.02753871160998228 -0.0084687694078602639 -0.015962804625574565 -0.030106147361321216 0.06151342279690715
leaf_weight=0.34379855589941088 2.6502263545990044 0.53554287785664101 6.7745983218774182 5.7320807287469506 2.7003118060529232 6.1892308052629232 3.3485224200412613 1.7592877224087717 1.952402213588357 0.53060374408960342 1.3134613428264854 1.9061496648937464 1.1549624744802711 0.81367690116167057 0.45683360937982798
leaf_count=10 17 14 53 40 13 40 19 14 12 5 10 15 8 5 11
internal_value=0 0.00945166 0.00449532 0.0162896 0.0305854 -0.00313079 -0.0210911 -0.0350367 -0.0153418 -0.0520012 0.0230468 -0.0107632 -0.0192647 -0.0292714 0.0610763
internal_weight=0 26.3523 21.3461 8.38231 5.00615 12.9638 11.8094 3.44737 8.36204 0.874402 4.01377 3.85855 4.50348 2.57296 0.992376
internal_count=286 198 150 57 48 93 88 34 54 15 23 27 27 19 25
shrinkage=0.049


Tree=25
num_leaves=15
num_cat=0
split_feature=1 0 11 2 2 8 11 0 0 11 11 0 11 5
split_gain=2.8254 1.1878 0.896232 2.16073 1.6127 0.783331 1.00982 0.388479 0.365938 0.133206 0.0348738 0.0207215 0.0173328 0.00109251
threshold=0.30847625175305093 0.62907279972415853 0.45133336091856951 0.99558941459502837 0.20208500400962315 0.083592597846721836 0.77915819106608775 0.39502600680593031 0.51348607409480673 0.67688773599872754 0.98202865771588765 0.20029640213204666 0.53168496441549251 0.20945946249560674
decision_type=2 2 2 2 2 2 2 2 2 2 2 2 2 2
left_child=7 5 3 -3 -4 6 -2 9 -7 11 12 -1 -9 -11
right_child=1 2 4 -5 -6 8 -8 10 -10 13 -12 -13 -14 -15
leaf_value=-0.060905586505348108 -0.0057039326789263822 0.060467638068162174 -0.032043763820626542 -0.0086637397585718184 0.0092052742841860751 0.060642619567173504 0.046188062380544501 -0.014076775724425273 0.027417602597116033 -0.030033648825303381 -0.0084311933503038467 -0.045032176923086975 -0.01934566997273859 -0.027833412324646655
leaf_weight=0.32147423620335702 3.8560053072869795 1.7292698845267285 4.133437652140854 2.9160622246563435 5.0635018274188042 0.93180689844302822 1.1746952459216116 3.9519213847815973 5.4578185267746449 0.79440088570117962 1.8490656074136493 0.51184629276394844 2.4152313219383359 1.7043760782107711
leaf_count=10 28 10 29 20 34 25 13 23 39 5 15 5 16 14
internal_value=0 0.00917843 -0.000472402 0.0170711 -0.00933354 0.0208759 0.00641312 -0.0200783 0.0322628 -0.0341906 -0.0143551 -0.0511557 -0.0160754 -0.0285329
internal_weight=0 25.2626 13.8423 4.64533 9.19694 11.4203 5.0307 11.5483 6.38963 3.3321 8.21622 0.833321 6.36715 2.49878
internal_count=286 198 93 30 63 105 41 88 64 34 54 15 39 19
shrinkage=0.049


Tree=26
num_leaves=16
num_cat=0
split_feature=1 0 11 1 3 1 0 11 11 0 0 11 11 0 11
split_gain=2.86569 1.21105 0.844642 1.32143 1.25263 0.388189 0.335997 0.234874 0.122093 0.0815085 0.0203694 0.00911865 0.00346588 0.0018195 0.000115037
threshold=0.30847625175305093 0.57358709964519461 0.45133336091856951 0.75421761723155623 0.019986404276603895 0.58355200773909133 0.39502600680593031 0.77915819106608775 0.67688773599872754 0.70657666276404862 0.20029640213204666 0.98202865771588765 0.53168496441549251 1.0000000180025095e-35 0.42474782993232335
decision_type=2 2 2 2 2 2 2 2 2 2 2 2 2 2 2
left_child=6 5 3 -3 -4 7 8 -2 10 11 -1 -8 -11 -10 -7
right_child=1 2 4 -5 -6 14 9 -9 13 12 -12 -13 -14 -15 -16
leaf_value=-0.060466558166915471 0.017827237799895267 0.0061546847319277793 0.02038575722945242 0.056952046027201136 -0.016378880156815236 0.059782646901446135 -0.012626133640328177 0.044164195808052302 -0.027414389743111556 -0.019778078922902165 -0.044303599344055082 -0.0081929099605417659 -0.023082822471160773 -0.030284421324321801 0.060905581228063645
leaf_weight=0.30125164100900148 3.1768973404541638 6.4248099699616459 3.1879868526011688 1.5205800123512743 7.3672695634886622 0.46960377739742387 2.9540648413822055 1.0926247574388979 1.6685582781210544 1.9131356049329042 0.4945329874753952 1.7884187437593935 1.2662883810698986 0.77748730778694142 0.41051822528243065
leaf_count=10 25 45 22 10 58 14 20 13 14 11 5 15 8 5 11
internal_value=0 0.00965874 0.00380877 0.0158762 -0.00527492 0.0306754 -0.020462 0.0245672 -0.0337505 -0.015024 -0.0504222 -0.0109543 -0.0210943 -0.0283266 0.0603064
internal_weight=0 23.6503 18.5006 7.94539 10.5553 5.14964 11.1637 4.26952 3.24183 7.92191 0.795785 4.74248 3.17942 2.44605 0.880122
internal_count=286 198 135 55 80 63 88 38 34 54 15 35 19 19 25
shrinkage=0.049


Tree=27
num_leaves=16
num_cat=0
split_feature=1 0 11 5 1 1 0 11 11 0 0 11 11 5 11
split_gain=2.68337 1.05532 0.771883 0.996643 0.974477 0.385549 0.322504 0.237147 0.114624 0.0512247 0.019532 0.0092619 0.00574346 0.00364506 9.1114e-05
threshold=0.30847625175305093 0.57358709964519461 0.45133336091856951 0.44338217292259219 0.75421761723155623 0.58355200773909133 0.39502600680593031 0.77915819106608775 0.67688773599872754 0.70657666276404862 0.20029640213204666 0.98202865771588765 0.53168496441549251 0.20945946249560674 0.42474782993232335
decision_type=2 2 2 2 2 2 2 2 2 2 2 2 2 2 2
left_child=6 5 4 -4 -3 7 8 -2 10 11 -1 -8 -11 -10 -7
right_child=1 2 3 -5 -6 14 9 -9 13 12 -12 -13 -14 -15 -16
leaf_value=-0.060017862497889755 0.016653809223820468 0.0075976380143127561 -0.020080799382985834 0.010692780767846877 0.053416226989566509 0.059482878766193362 -0.01304669246840209 0.043645816960517461 -0.030742592673118799 -0.017768580211614666 -0.043753664948998884 -0.0085258704163959764 -0.022069157752135592 -0.026629506678510207 0.060511459278747751
leaf_weight=0.28205582615919267 3.1236695349216488 6.2214901484549072 5.1152458898723108 4.9935289546847343 1.3577188849449155 0.44355798908509303 2.8858436290174723 1.0422937255352733 0.75835104286670696 1.8942724019289017 0.47727858647704124 1.7466086596250532 1.2295964285731316 1.6276591019704938 0.38734936900436878
leaf_count=10 25 45 43 37 10 14 20 13 5 11 5 15 8 14 11
internal_value=0 0.00960135 0.00398402 -0.00487928 0.0158055 0.0294856 -0.0199791 0.023407 -0.0332137 -0.0146122 -0.049795 -0.0113422 -0.0194613 -0.0279368 0.0599624
internal_weight=0 22.6849 17.688 10.1088 7.57921 4.99687 10.9017 4.16596 3.14534 7.75632 0.759334 4.63245 3.12387 2.38601 0.830907
internal_count=286 198 135 80 55 63 88 38 34 54 15 35 19 19 25
shrinkage=0.049


Tree=28
num_leaves=16
num_cat=0
split_feature=1 5 5 11 0 7 0 11 11 0 0 11 0 11 11
split_gain=2.49427 1.19853 0.984058 0.494495 0.311648 0.285291 0.279626 0.108016 0.0608567 0.0522567 0.0187855 0.0125728 0.00622383 0.00371013 7.71771e-05
threshold=0.30847625175305093 0.66306536504090297 0.13317275513406593 0.45133336091856951 0.39502600680593031 0.025384520271380974 0.59033361992249433 0.67688773599872754 0.91589751341782366 0.70657666276404862 0.20029640213204666 0.98202865771588765 1.0000000180025095e-35 0.53168496441549251 0.42474782993232335
decision_type=2 2 2 2 2 2 2 2 2 2 2 2 2 2 2
left_child=4 2 3 -2 7 -4 14 10 -8 11 -1 -6 -9 -11 -3
right_child=1 6 5 -5 9 -7 8 12 -10 13 -12 -13 -14 -15 -16
leaf_value=-0.059598542178209798 0.040689560024357634 0.059163228254838482 -0.0010801888045844726 0.010675900955044287 -0.012804685315640808 -0.020928862404213249 0.032008663364604784 -0.025832928215376038 0.018142251690037598 -0.017738033529641664 -0.043228724881055627 -0.0074524482784559956 -0.031270893745712576 -0.021237297960802027 0.060137340693261113
leaf_weight=0.26511852466501151 1.8213610500097335 0.4180531355086704 9.0799007508903724 4.7690851474180818 2.8205654742196202 2.1504497509449712 2.1430727951228619 1.5895656701177361 1.1774463001638653 1.8555966494604945 0.46098104119300842 1.6823086496442554 0.74085352569818486 1.1966367140412331 0.36646687332540751
leaf_count=10 17 14 73 40 20 20 13 14 10 11 5 15 5 8 11
internal_value=0 0.0094382 0.00393979 0.0189706 -0.0195013 -0.00488092 0.0333079 -0.0327034 0.0270917 -0.0141602 -0.0492058 -0.010805 -0.0275617 -0.0191099 0.0596183
internal_weight=0 21.9258 17.8208 6.59045 10.6116 11.2304 4.10504 3.05652 3.32052 7.55511 0.7261 4.50287 2.33042 3.05223 0.78452
internal_count=286 198 150 57 88 93 48 34 23 54 15 35 19 19 25
shrinkage=0.049


end of trees

feature_importances:
relevance=138
color=103
intensity=50
visibility=26
shape_size=23
proximity2fe=21
proximity2dp=12
wellknownness=11
choice=4
proximity2be=3
integration=2
uniqueness=2

parameters:
[boosting: gbdt]
[objective: lambdarank]
[metric: ndcg]
[tree_learner: serial]
[device_type: cpu]
[data: ]
[valid: ]
[num_iterations: 36]
[learning_rate: 0.049]
[num_leaves: 16]
[num_threads: -1]
[force_col_wise: 0]
[force_row_wise: 0]
[histogram_pool_size: -1]
[max_depth: 4]
[min_data_in_leaf: 5]
[min_sum_hessian_in_leaf: 0.001]
[bagging_fraction: 1]
[pos_bagging_fraction: 1]
[neg_bagging_fraction: 1]
[bagging_freq: 0]
[bagging_seed: 3]
[feature_fraction: 1]
[feature_fraction_bynode: 1]
[feature_fraction_seed: 2]
[extra_trees: 0]
[extra_seed: 6]
[early_stopping_round: 100]
[first_metric_only: 0]
[max_delta_step: 0]
[lambda_l1: 0]
[lambda_l2: 0]
[min_gain_to_split: 0]
[drop_rate: 0.1]
[max_drop: 50]
[skip_drop: 0.5]
[xgboost_dart_mode: 0]
[uniform_drop: 0]
[drop_seed: 4]
[top_rate: 0.2]
[other_rate: 0.1]
[min_data_per_group: 100]
[max_cat_threshold: 32]
[cat_l2: 10]
[cat_smooth: 10]
[max_cat_to_onehot: 4]
[top_k: 20]
[monotone_constraints: ]
[monotone_constraints_method: basic]
[monotone_penalty: 0]
[feature_contri: ]
[forcedsplits_filename: ]
[refit_decay_rate: 0.9]
[cegb_tradeoff: 1]
[cegb_penalty_split: 0]
[cegb_penalty_feature_lazy: ]
[cegb_penalty_feature_coupled: ]
[path_smooth: 0]
[interaction_constraints: ]
[verbosity: -1]
[saved_feature_importance_type: 0]
[max_bin: 255]
[max_bin_by_feature: ]
[min_data_in_bin: 3]
[bin_construct_sample_cnt: 200000]
[data_random_seed: 1]
[is_enable_sparse: 1]
[enable_bundle: 1]
[use_missing: 1]
[zero_as_missing: 0]
[feature_pre_filter: 1]
[pre_partition: 0]
[two_round: 0]
[header: 0]
[label_column: ]
[weight_column: ]
[group_column: ]
[ignore_column: ]
[categorical_feature: ]
[forcedbins_filename: ]
[objective_seed: 5]
[num_class: 1]
[is_unbalance: 0]
[scale_pos_weight: 1]
[sigmoid: 1]
[boost_from_average: 1]
[reg_sqrt: 0]
[alpha: 0.9]
[fair_c: 1]
[poisson_max_delta_step: 0.7]
[tweedie_variance_power: 1.5]
[lambdarank_truncation_level: 20]
[lambdarank_norm: 1]
[label_gain: ]
[eval_at: 1,2]
[multi_error_top_k: 1]
[auc_mu_weights: ]
[num_machines: 1]
[local_listen_port: 12400]
[time_out: 120]
[machine_list_filename: ]
[machines: ]
[gpu_platform_id: -1]
[gpu_device_id: -1]
[gpu_use_dp: 0]

end of parameters

pandas_categorical:null
