tree
version=v3
num_class=1
num_tree_per_iteration=1
label_index=0
max_feature_idx=11
objective=lambdarank
feature_names=color intensity shape_size integration choice visibility proximity2dp proximity2fe proximity2be uniqueness wellknownness relevance
feature_infos=[0:1] [0:1] [0:1.0000000000000002] [0:1] [0:0.29715365152143142] [0:0.77589414853660998] [0:0.82092946605032169] [0:0.026422406013766001] [0:0.30563481590982955] [0:1] [0:0.97986577180532408] [0:1]
tree_sizes=1272 1781 1774 1581 1684 1683 1588 1689 1592 1583 1589 1697 1798 1799 1806 1591 1807 1382 1487 1277 1394 1390 1698 1588

Tree=0
num_leaves=11
num_cat=0
split_feature=1 7 6 11 8 7 11 0 1 11
split_gain=16.3109 6.93698 3.24901 1.26536 1.19822 0.658335 0.237237 0.229715 0.112874 0.0659971
threshold=0.30847625175305093 0.025384520271380974 0.19344759470809159 0.98202865771588765 0.021148118322094709 0.020714679282958556 0.67688773599872754 0.20029640213204666 0.44088151681405091 0.98202865771588765
decision_type=2 2 2 2 2 2 2 2 2 2
left_child=3 2 8 5 -4 7 -7 -1 -2 -3
right_child=1 9 4 -5 -6 6 -8 -9 -10 -11
leaf_value=-0.019599999999999902 0.078838617459520921 -0.074462983681133993 -0.0032233504983419079 -0.0066307363700141859 0.032476574894196072 -0.097999999999999879 -0.069631679287508852 -0.053733103945161419 0.06349734896711659 -0.055501623622327537
leaf_weight=0.5412533879280107 1.6739129461348063 0.90143680572509832 3.2628238461911661 1.1385759674012659 7.3249148204922676 1.0339605808258059 2.2437492534518242 3.7763334363698959 3.6896526217460632 0.86237012967467308
leaf_count=5 16 10 33 15 77 10 21 37 41 9
internal_value=0 0.0270185 0.0372147 -0.0548023 0.0214749 -0.0620235 -0.0785805 -0.0494542 0.0682852 -0.0651923
internal_weight=0 17.7151 15.9513 8.73387 10.5877 7.5953 3.27771 4.31759 5.36357 1.76381
internal_count=274 186 167 88 110 73 31 42 57 19
shrinkage=0.049


Tree=1
num_leaves=16
num_cat=0
split_feature=1 6 11 2 1 5 1 11 0 11 0 11 0 0 0
split_gain=70.424 27.1925 9.7796 8.3895 6.55038 5.87447 3.07358 1.9951 1.27335 1.21398 1.18182 1.17699 0.973417 0.146854 0.00358626
threshold=0.30847625175305093 0.21960082334441897 0.43510480038724852 0.99558941459502837 0.13186544335975872 0.13317275513406593 0.6330674591086568 0.67688773599872754 0.92798781083676607 0.67688773599872754 0.59033361992249433 0.49459000568800598 0.20029640213204666 0.39502600680593031 0.60700420711197478
decision_type=2 2 2 2 2 2 2 2 2 2 2 2 2 2 2
left_child=4 3 5 10 9 -3 -4 11 -5 12 -2 -6 -1 -11 -9
right_child=1 2 6 8 7 -7 -8 14 -10 13 -12 -13 -14 -15 -16
leaf_value=-0.093344097225101966 0.066274483982489446 0.08866435059644022 -0.040985379854859512 0.00071995042574250464 -0.023860124800742538 0.0098914429306436718 -0.0087317540574250001 -0.014992372008345557 0.027602633432058973 -0.059635771585757696 0.049740476286601748 -0.049648959779983716 -0.060476661375266638 -0.048464239094421234 -0.016737741723539631
leaf_weight=5.1708564460277557 19.27033919095993 3.2995677888393384 10.950697571039202 6.8826691508293161 6.3805246353149441 7.306237667798996 20.141182065010071 4.1361824274063084 10.978845447301865 9.1045542955398542 22.49823397397995 12.720206975936888 3.7199678421020508 4.0963700711727151 8.9271733164787292
leaf_count=10 36 8 19 15 11 11 33 5 24 14 40 21 5 7 15
internal_value=0 0.0241231 -0.00623207 0.0453497 -0.0450521 0.0343984 -0.0200916 -0.0309419 0.0172438 -0.0655957 0.0573686 -0.0410343 -0.0795922 -0.0561691 -0.0161851
internal_weight=0 101.328 41.6977 59.6301 54.2558 10.6058 31.0919 32.1641 17.8615 22.0917 41.7686 19.1007 8.89082 13.2009 13.0634
internal_count=274 186 71 115 88 19 52 52 39 36 76 32 15 21 20
shrinkage=0.049


Tree=2
num_leaves=16
num_cat=0
split_feature=1 6 11 0 1 1 11 11 11 0 0 0 0 0 11
split_gain=42.8 14.8339 7.62262 7.79207 5.00888 4.20849 1.65221 1.6234 1.0948 2.71808 0.419495 0.296049 0.2617 0.20694 0.0220085
threshold=0.30847625175305093 0.19344759470809159 0.43510480038724852 0.92798781083676607 0.75421761723155623 0.13186544335975872 0.67688773599872754 0.67688773599872754 0.77915819106608775 0.49943389090134283 0.20029640213204666 0.39502600680593031 0.59033361992249433 0.60700420711197478 0.53168496441549251
decision_type=2 2 2 2 2 2 2 2 2 2 2 2 2 2 2
left_child=5 8 4 -4 -3 6 10 14 9 -2 -1 -8 -10 -9 -7
right_child=1 2 3 -5 -6 7 11 13 12 -11 -12 -13 -14 -15 -16
leaf_value=-0.089430137383610719 0.0063742026175231271 0.01089361213916352 -0.023337131971595287 0.021984482683439631 0.055732057280763997 -0.036120132452180195 -0.05235081508699637 -0.022368943418178799 0.073563679027613321 0.053669738941409015 -0.064490401491593241 -0.034634923846381317 0.056366664020274661 -0.007636572215054452 -0.040110459136532134
leaf_weight=3.5801523029804239 3.7128981947898927 16.166243135929111 25.026449382305145 14.319872617721556 9.4951721429824811 11.828606933355337 7.1826296746730804 3.4113922715187055 4.2705313861370069 13.619209706783293 2.9566371142864227 3.3078007996082306 4.2283148765563965 6.9594350159168243 4.6128967702388755
leaf_count=10 8 32 53 26 18 23 14 5 12 28 5 7 9 15 9
internal_value=0 0.0191896 0.00670787 -0.00684259 0.0274846 -0.0397623 -0.0588135 -0.0276638 0.050602 0.0435381 -0.0781497 -0.0467647 0.0650079 -0.0124827 -0.0372397
internal_weight=0 90.8387 65.0077 39.3463 25.6614 43.8396 17.0272 26.8123 25.831 17.3321 6.53679 10.4904 8.49885 10.3708 16.4415
internal_count=274 186 129 79 50 88 36 52 57 36 15 21 21 20 32
shrinkage=0.049


Tree=3
num_leaves=14
num_cat=0
split_feature=1 7 7 11 0 11 11 11 11 0 0 0 3
split_gain=28.9474 11.9207 4.52231 2.70413 2.6143 2.63909 2.2834 1.26318 0.343531 0.18341 0.168527 0.167243 0.105351
threshold=0.30847625175305093 0.024554669465599758 0.01447710360500888 0.43510480038724852 0.39502600680593031 0.67688773599872754 0.77915819106608775 0.98202865771588765 0.91589751341782366 1.0000000180025095e-35 0.20029640213204666 0.76735039005403693 0.046884078193710606
decision_type=2 2 2 2 2 2 2 2 2 2 2 2 2
left_child=4 2 8 -3 5 10 -4 12 -2 -7 -1 -5 -6
right_child=1 3 6 11 7 9 -8 -9 -10 -11 -12 -13 -14
leaf_value=-0.086306464696763965 0.0040311987340918426 0.0095645105111392386 0.026735430960418961 -0.026648098888976693 -0.023121325853777182 -0.039770003260861164 0.051113411767199919 -0.0048492212468855813 -0.017053455540366472 -0.024741682767816409 -0.069290995379400533 -0.039838730177514568 -0.033137224407677808
leaf_weight=2.8190440088510487 11.280239343643187 4.4938434660434714 39.58846090734005 3.3594559729099256 3.0410532653331819 6.2429886907339096 12.028171002864836 5.6592747867107382 2.2205825746059409 2.835352748632431 2.7716434001922607 7.3726523220539093 14.75735856592655
leaf_count=10 23 11 87 7 7 14 32 15 7 5 5 19 32
internal_value=0 0.0166854 0.0258121 -0.0223473 -0.0351607 -0.0513863 0.0324162 -0.0250142 0.000563246 -0.0350763 -0.0778709 -0.0357097 -0.0314259
internal_weight=0 80.3434 65.1175 15.226 38.1267 14.669 51.6166 23.4577 13.5008 9.07834 5.59069 10.7321 17.7984
internal_count=274 186 149 37 88 34 119 54 30 19 15 26 39
shrinkage=0.049


Tree=4
num_leaves=15
num_cat=0
split_feature=1 7 1 11 0 11 11 11 0 11 0 0 11 0
split_gain=24.6675 7.55627 4.15257 2.6576 2.45575 1.69262 1.55343 1.36997 0.252186 0.198245 0.142242 0.0863809 0.0129075 0.00513547
threshold=0.30847625175305093 0.024554669465599758 0.37684203539341138 0.43510480038724852 0.39502600680593031 0.43510480038724852 0.67688773599872754 0.67688773599872754 1.0000000180025095e-35 0.53168496441549251 0.20029640213204666 0.76735039005403693 0.43510480038724852 0.60700420711197478
decision_type=2 2 2 2 2 2 2 2 2 2 2 2 2 2
left_child=4 2 12 -4 6 -3 10 9 -8 -6 -1 -7 -2 -9
right_child=1 5 3 -5 7 11 8 13 -10 -11 -12 -13 -14 -15
leaf_value=-0.08345080616659134 0.058351518857682368 0.0098514790281707693 0.032219727913114352 0.0099501301609079603 -0.030170011461472641 -0.021268541271861806 -0.04463629923827768 -0.01011732217170817 -0.025625182972965756 -0.043151616114604018 -0.065910477329018086 -0.031489177254166216 0.06306777933795471 -0.0075707195757319544
leaf_weight=2.3101795762777311 2.1011129468679419 3.936320647597312 22.021136477589607 30.94925320148468 9.6782957613468188 2.8430779278278333 5.4471841901540756 3.0479456186294538 2.4194347262382507 3.9884324967861167 2.1367983818054199 6.5816138833761215 4.1358130574226379 5.0538992583751678
leaf_count=10 6 11 51 82 23 7 14 7 5 9 5 19 10 15
internal_value=0 0.0161498 0.023661 0.0192082 -0.0343864 -0.0171349 -0.0518747 -0.024494 -0.0387893 -0.0339585 -0.0750226 -0.028406 0.061479 -0.00852876
internal_weight=0 72.5683 59.2073 52.9704 34.0822 13.361 12.3136 21.7686 7.86662 13.6667 4.44698 9.42469 6.23693 8.10184
internal_count=274 186 149 133 88 37 34 54 19 32 15 26 16 22
shrinkage=0.049


Tree=5
num_leaves=15
num_cat=0
split_feature=1 6 11 1 0 0 11 11 0 11 0 0 5 0
split_gain=20.5043 6.92806 4.67008 4.27057 3.4562 2.12005 1.16547 1.12193 1.46691 0.792284 0.436903 0.214682 0.112536 0.0070114
threshold=0.30847625175305093 0.19344759470809159 0.43510480038724852 0.75421761723155623 0.92798781083676607 0.39502600680593031 0.67688773599872754 0.77915819106608775 0.49943389090134283 0.98202865771588765 0.59033361992249433 1.0000000180025095e-35 0.20945946249560674 0.70657666276404862
decision_type=2 2 2 2 2 2 2 2 2 2 2 2 2 2
left_child=5 7 3 -3 -4 6 12 8 -2 13 -9 -8 -1 -7
right_child=1 2 4 -5 -6 9 11 10 -10 -11 -12 -13 -14 -15
leaf_value=-0.064132492205675629 0.0049523318866856398 0.0049822829343806529 -0.020576474232769749 0.052367686706744174 0.014987390574897105 -0.028256313015654722 -0.044884219002699288 0.072366039789338407 0.042131389481878639 -0.0058158800501187033 0.045072460402209115 -0.026206057046615609 -0.081063384906594857 -0.030396030934086847
leaf_weight=1.8034979254007357 3.4369086474180248 11.406415224075319 17.799211204051975 7.6153614073991767 10.391514316201208 7.0737097859382647 4.8410205990076065 2.793947145342826 9.8515982180833799 4.4697147458791724 2.8391099274158478 2.1264740526676178 1.974617525935173 7.6570558398962021
leaf_count=5 8 32 53 18 26 19 14 12 28 15 9 5 10 20
internal_value=0 0.0152321 0.00519196 0.023953 -0.00746711 -0.0336391 -0.0510668 0.0402839 0.0325155 -0.0238857 0.0586098 -0.0391837 -0.0729814 -0.0293685
internal_weight=0 66.1341 47.2125 19.0218 28.1907 29.9461 10.7456 18.9216 13.2885 19.2005 5.63306 6.96749 3.77812 14.7308
internal_count=274 186 129 50 79 88 34 57 36 54 21 19 15 39
shrinkage=0.049


Tree=6
num_leaves=14
num_cat=0
split_feature=1 7 7 0 0 11 11 11 11 0 5 1 11
split_gain=16.1719 6.25712 3.13052 2.06405 1.44528 1.38561 0.984318 0.530232 0.497991 0.149663 0.0900515 0.0788377 0.030099
threshold=0.30847625175305093 0.024554669465599758 0.01447710360500888 0.39502600680593031 0.59033361992249433 0.43510480038724852 0.67688773599872754 0.98202865771588765 0.64772487228375752 1.0000000180025095e-35 0.20945946249560674 0.6330674591086568 0.53168496441549251
decision_type=2 2 2 2 2 2 2 2 2 2 2 2 2
left_child=3 2 8 6 -4 -3 10 12 -2 -8 -1 -7 -5
right_child=1 5 4 7 -6 11 9 -9 -10 -11 -12 -13 -14
leaf_value=-0.062769349497320825 -0.010916750461840012 0.0085288740899860851 0.043450707569842331 -0.024120257458900413 0.022251957482018022 -0.03251480845173093 -0.043176104528362083 -0.0057169802015072388 0.011088837829649898 -0.026733544495045752 -0.078955288122686623 -0.022001905936251637 -0.028804567866321032
leaf_weight=1.5886434763669985 6.3041647970676404 3.2334247529506674 10.589692190289496 8.7416629642248171 28.513924099504948 5.7231427580118162 4.3002645224332809 4.0289236754178992 4.0589002221822739 1.9237180054187772 1.7175480052828789 2.4441223591566086 5.2843856364488593
leaf_count=5 17 11 36 23 83 19 14 15 13 5 10 7 16
internal_value=0 0.0141048 0.0216471 -0.0311227 0.0279928 -0.0186203 -0.0495714 -0.0213846 -0.00229782 -0.038094 -0.0711779 -0.0293687 -0.0258851
internal_weight=0 60.8674 49.4667 27.5851 39.1036 11.4007 9.53017 18.055 10.3631 6.22398 3.30619 8.16727 14.026
internal_count=274 186 149 88 119 37 34 54 30 19 15 26 39
shrinkage=0.049


Tree=7
num_leaves=15
num_cat=0
split_feature=1 7 0 11 0 11 11 11 11 0 5 11 0 11
split_gain=14.9772 4.35079 1.99488 2.11329 1.60953 1.57168 0.956479 0.815029 0.400904 0.118907 0.072676 0.0633773 0.0548831 0.0456805
threshold=0.30847625175305093 0.024554669465599758 0.61341275555286834 0.43510480038724852 0.39502600680593031 0.77915819106608775 0.43510480038724852 0.67688773599872754 0.67688773599872754 1.0000000180025095e-35 0.20945946249560674 0.53168496441549251 0.60700420711197478 0.98202865771588765
decision_type=2 2 2 2 2 2 2 2 2 2 2 2 2 2
left_child=4 2 5 -4 7 -2 -3 10 11 -9 -1 -6 -10 -8
right_child=1 6 3 -5 8 -7 13 9 12 -11 -12 -13 -14 -15
leaf_value=-0.061487918613631509 0.024242555966954529 0.009175197928552186 0.027498344036312062 0.0013969267108726671 -0.025771374678970359 0.057362524920057362 -0.027014458461682107 -0.042322870800999592 -0.018385104736371279 -0.026959700999656038 -0.076952761122270744 -0.034298286533140598 -0.0086149243119272891 -0.019327589800475265
leaf_weight=1.4173004329204577 11.712902769446375 2.9416287839412671 13.248237147927286 17.010434120893478 8.269149065017702 4.8706862628459922 4.3545774072408676 3.9338711351156235 2.1702321320772162 1.7466413378715513 1.5037045180797577 2.8020499348640433 3.7934412360191345 3.2352834194898605
leaf_count=5 36 11 39 53 23 21 17 14 7 5 10 9 15 9
internal_value=0 0.0139129 0.020311 0.012825 -0.0311368 0.0339701 -0.0145446 -0.048415 -0.0224124 -0.037599 -0.0694491 -0.0279295 -0.0121704 -0.0237378
internal_weight=0 57.3737 46.8423 30.2587 25.6364 16.5836 10.5315 8.60152 17.0349 5.68051 2.921 11.0712 5.96367 7.58986
internal_count=274 186 149 92 88 57 37 34 54 19 15 32 22 26
shrinkage=0.049


Tree=8
num_leaves=14
num_cat=0
split_feature=1 7 1 0 11 11 11 11 0 0 5 0 11
split_gain=12.1989 4.21247 1.91291 1.60684 1.39888 0.934988 0.696042 0.291539 0.0902366 0.0645588 0.0605879 0.0255477 0.00264637
threshold=0.30847625175305093 0.024554669465599758 0.37684203539341138 0.39502600680593031 0.77915819106608775 0.43510480038724852 0.67688773599872754 0.98202865771588765 1.0000000180025095e-35 0.76735039005403693 0.20945946249560674 0.70657666276404862 0.43510480038724852
decision_type=2 2 2 2 2 2 2 2 2 2 2 2 2
left_child=3 2 12 6 -4 -3 10 11 -8 -7 -1 -5 -2
right_child=1 5 4 7 -6 9 8 -9 -10 -11 -12 -13 -14
leaf_value=-0.060329577740723832 0.052638699057939518 0.0085712015642453628 0.01114058403625906 -0.021443239982458777 0.033124605694701041 -0.018021883162195076 -0.041280949947070364 -0.0077876404969831319 -0.027325987024243315 -0.028168796441849289 -0.075237174046974983 -0.025867580610776528 0.050025651590151161
leaf_weight=1.2819100022316006 1.4024896547198284 2.7100312858819944 31.244840569794178 5.9725053086876887 8.9374493658542615 2.1362685114145279 3.6252824440598488 3.5077516585588446 1.6051387190818784 5.0987419337034225 1.3375933840870857 6.5925692394375801 2.7655415832996368
leaf_count=5 6 11 94 19 39 7 14 15 5 19 10 20 10
internal_value=0 0.0128448 0.0193078 -0.0291527 0.0160303 -0.0159775 -0.0473241 -0.0202778 -0.0369984 -0.0251727 -0.0679418 -0.0237646 0.0509049
internal_weight=0 54.2954 44.3503 23.9228 40.1823 9.94504 7.84992 16.0728 5.23042 7.23501 2.6195 12.5651 4.16803
internal_count=274 186 149 88 133 37 34 54 19 26 15 39 16
shrinkage=0.049


Tree=9
num_leaves=14
num_cat=0
split_feature=1 7 0 11 0 11 11 11 11 5 5 2 11
split_gain=10.8397 3.23708 1.55034 1.63578 1.41624 0.726113 0.693569 0.603999 0.272295 0.0646821 0.0509188 0.0505098 0.0295402
threshold=0.30847625175305093 0.024554669465599758 0.61341275555286834 0.43510480038724852 0.39502600680593031 0.77915819106608775 0.43510480038724852 0.67688773599872754 0.98202865771588765 0.20945946249560674 0.20945946249560674 0.37209302325581411 0.98202865771588765
decision_type=2 2 2 2 2 2 2 2 2 2 2 2 2
left_child=4 2 5 -4 7 -2 -3 10 11 -9 -1 -6 -8
right_child=1 6 3 -5 8 -7 12 9 -10 -11 -12 -13 -14
leaf_value=-0.059274120796687438 0.024110767434088846 0.0081020642658098524 0.024298556687679138 0.00044757138186632189 -0.026381988083136777 0.048341635967294655 -0.024588468683642242 -0.027849939735386704 -0.0074031538942559696 -0.04010722598685295 -0.073644383104594438 -0.020054018362348141 -0.018149144606984541
leaf_weight=1.173759892582896 10.782127402722834 2.5715298354625684 12.568714506924154 15.318669557571409 6.2668261006474477 4.0978546142578116 3.8171940073370934 1.4927713871002195 3.2760852426290503 3.3611241802573204 1.1945277899503708 5.8610636740922928 3.0993496850132942
leaf_count=5 36 11 39 53 20 21 17 5 15 14 10 19 9
internal_value=0 0.0122675 0.0180119 0.0111971 -0.028332 0.0307838 -0.013625 -0.0462357 -0.0199379 -0.0363376 -0.0665223 -0.0233239 -0.021703
internal_weight=0 52.2554 42.7674 27.8874 22.6262 14.88 9.48807 7.22218 15.404 4.8539 2.36829 12.1279 6.91654
internal_count=274 186 149 92 88 57 37 34 54 19 15 39 26
shrinkage=0.049


Tree=10
num_leaves=14
num_cat=0
split_feature=1 7 1 0 2 11 11 11 11 0 0 5 11
split_gain=8.67858 3.36795 1.7828 1.4865 1.17094 0.735029 0.538141 0.165287 0.082164 0.0481996 0.0468906 0.044503 0.000802763
threshold=0.30847625175305093 0.024554669465599758 0.37684203539341138 0.39502600680593031 0.99959903769045744 0.43510480038724852 0.67688773599872754 0.98202865771588765 0.53168496441549251 0.76735039005403693 1.0000000180025095e-35 0.20945946249560674 0.43510480038724852
decision_type=2 2 2 2 2 2 2 2 2 2 2 2 2
left_child=3 2 12 6 -4 -3 11 8 -5 -7 -8 -1 -2
right_child=1 5 4 7 -6 9 10 -9 -10 -11 -12 -13 -14
leaf_value=-0.058180484964474193 0.048326429344693639 0.0077085570681262169 0.01681678640394281 -0.017028978521967275 -0.012103691916424231 -0.017266407753511636 -0.038805218171767797 -0.0071994419337581324 -0.025585375151088989 -0.026392149341551926 -0.027992201001318974 -0.072247750771293848 0.049874105786241262
leaf_weight=1.0804237723350552 1.1704179197549813 2.4045032411813718 33.72783312574029 7.9635859280824643 3.7334308028221121 1.9423128515481947 3.1269705668091774 3.0776697695255271 4.0726047232747078 4.8836371004581451 1.3913548439741132 1.079418983310461 2.5750235542654991
leaf_count=5 6 11 118 23 15 7 14 15 16 19 5 10 10
internal_value=0 0.0111645 0.0171573 -0.0258399 0.0139345 -0.0155887 -0.0450925 -0.017333 -0.0199241 -0.0237954 -0.0354755 -0.0652108 0.0493905
internal_weight=0 50.4372 41.2067 21.792 37.4613 9.23045 6.67817 15.1139 12.0362 6.82595 4.51833 2.15984 3.74544
internal_count=274 186 149 88 133 37 34 54 39 26 19 15 16
shrinkage=0.049


Tree=11
num_leaves=15
num_cat=0
split_feature=1 7 11 11 0 0 11 11 7 11 11 5 11 0
split_gain=8.92103 2.12723 1.3978 2.26366 1.44445 1.0936 0.474602 0.395598 0.251602 0.1055 0.0852051 0.0388985 0.0378321 0.0343668
threshold=0.30847625175305093 0.024554669465599758 0.77915819106608775 0.43510480038724852 0.59033361992249433 0.39502600680593031 0.67688773599872754 0.43510480038724852 0.015013004981698641 0.98202865771588765 0.98202865771588765 0.20945946249560674 0.53168496441549251 1.0000000180025095e-35
decision_type=2 2 2 2 2 2 2 2 2 2 2 2 2 2
left_child=5 2 3 -2 -4 6 11 -3 12 -9 -10 -1 -7 -8
right_child=1 7 4 -5 -6 8 13 9 10 -11 -12 -13 -14 -15
leaf_value=-0.057129297443835096 0.024157706342421686 0.0072262980780506631 0.071850950131352842 -0.0018727464097445547 0.022882877455727937 -0.024337519262592856 -0.037784942741742066 -0.022374813375933802 -0.017670920512658866 -0.009903200636085541 -0.0073756116527912054 -0.070878294341121889 -0.032463068112860469 -0.028233070185215838
leaf_weight=1.001379787921908 16.763890698552132 2.2789740413427335 1.9072662852704514 15.380478005856274 5.9847257994115353 3.7366681471466991 2.9368334114551544 3.4474303349852562 5.7541705146431923 3.0866555869579315 2.9042575359344482 0.97522374615073193 2.1774884611368179 1.3068173080682752
leaf_count=5 57 11 12 53 27 11 14 17 19 9 15 10 9 5
internal_value=0 0.0114418 0.0162392 0.0117026 0.034717 -0.0268807 -0.0440808 -0.0103522 -0.0195388 -0.0164833 -0.0142176 -0.0639128 -0.0273292 -0.0348435
internal_weight=0 48.8494 40.0364 32.1444 7.89199 20.7928 6.22025 8.81306 14.5726 6.53409 8.65843 1.9766 5.91416 4.24365
internal_count=274 186 149 110 39 88 34 37 54 26 34 15 20 19
shrinkage=0.049


Tree=12
num_leaves=16
num_cat=0
split_feature=1 0 11 5 1 0 0 11 11 7 5 11 11 0 0
split_gain=7.13437 2.68287 2.14457 3.29319 3.26542 1.20057 0.534637 1.26342 0.420644 0.294076 0.0349521 0.0332477 0.0291883 0.0264149 0.0258295
threshold=0.30847625175305093 0.57358709964519461 0.43510480038724852 0.44338217292259219 0.75421761723155623 0.39502600680593031 0.49943389090134283 0.77915819106608775 0.67688773599872754 0.015013004981698641 0.20945946249560674 0.43510480038724852 0.53168496441549251 1.0000000180025095e-35 0.60700420711197478
decision_type=2 2 2 2 2 2 2 2 2 2 2 2 2 2 2
left_child=5 6 4 -4 -3 8 7 -2 10 12 -1 -8 -7 -10 -11
right_child=1 2 3 -5 -6 9 11 -9 13 14 -12 -13 -14 -15 -16
leaf_value=-0.056086882020585024 0.004892960065296173 0.0029172494688287764 -0.020716193718336572 0.017777853633100367 0.047572283726192821 -0.022631883666799173 0.045211834960961109 0.063437608941588244 -0.036959806453926575 -0.016338470216568864 -0.069670459873598503 0.055851399813586979 -0.029884688623342461 -0.028337993597717416 -0.0094652736492944756
leaf_weight=0.93212776631117111 2.4878045320510855 11.365331888198854 12.805045142769815 9.1483359448611719 6.0114221051335326 3.8565121814608547 1.0199230685830118 1.3737726695835593 2.7777082473039627 1.6351792663335798 0.888202965259552 2.2852422222495079 2.0354034379124641 1.2314258366823194 6.6581818908452988
leaf_count=5 8 44 53 35 18 11 6 12 14 7 10 10 9 5 27
internal_value=0 0.010529 0.00550465 -0.00467509 0.0183655 -0.0244603 0.0381021 0.0257205 -0.0431809 -0.0167671 -0.0627148 0.0525682 -0.0251374 -0.0343116 -0.0108204
internal_weight=0 46.4969 39.3301 21.9534 17.3768 20.0147 7.16674 3.86158 5.82946 14.1853 1.82033 3.30517 5.89192 4.00913 8.29336
internal_count=274 186 150 88 62 88 36 20 34 54 15 16 20 19 34
shrinkage=0.049


Tree=13
num_leaves=16
num_cat=0
split_feature=1 6 11 1 5 0 1 11 11 7 11 5 11 0 11
split_gain=7.20242 2.72606 1.46282 3.02092 1.69169 0.980547 0.46318 0.377886 0.358173 0.189081 0.0793388 0.0321325 0.0255976 0.0180534 0.0139165
threshold=0.30847625175305093 0.19344759470809159 0.43510480038724852 0.75421761723155623 0.51330105392746328 0.39502600680593031 0.44088151681405091 0.67688773599872754 0.77915819106608775 0.015013004981698641 0.98202865771588765 0.20945946249560674 0.43510480038724852 1.0000000180025095e-35 0.53168496441549251
decision_type=2 2 2 2 2 2 2 2 2 2 2 2 2 2 2
left_child=5 6 3 -3 -4 7 12 11 -8 14 -11 -1 -2 -9 -7
right_child=1 2 4 -5 -6 9 8 13 -10 10 -12 -13 -14 -15 -16
leaf_value=-0.055088111300190909 0.041364671290389524 -0.0042427161346468567 -0.01091183206733308 0.043977352828271955 0.032049885835138972 -0.023032990331165067 0.018636261513911824 -0.036011220952757342 0.039373688723284041 -0.016398338614100984 -0.0060583973986551897 -0.068614258723769098 0.051256293196455395 -0.028704059136310283 -0.028158895570558951
leaf_weight=0.87495237588882691 0.91885151714086455 7.2894998788833636 16.283743835985664 5.452937163412571 2.5445168465375891 3.7441790848970387 5.9472819119691831 2.6305447593331337 3.0127779766917229 5.6901016309857368 2.59397292137146 0.8139878585934639 1.9853567332029343 1.1741658300161364 1.9257675036787985
leaf_count=5 6 32 68 18 11 11 20 14 21 19 15 10 10 5 9
internal_value=0 0.0110964 0.00357117 0.0163923 -0.00510584 -0.0247831 0.0311211 -0.0423185 0.0256091 -0.0178795 -0.0131606 -0.0616071 0.0481267 -0.0337562 -0.024774
internal_weight=0 43.435 31.5707 12.7424 18.8283 19.4477 11.8643 5.49365 8.96006 13.954 8.28407 1.68894 2.90421 3.80471 5.66995
internal_count=274 186 129 50 79 88 57 34 41 54 34 15 16 19 20
shrinkage=0.049


Tree=14
num_leaves=16
num_cat=0
split_feature=1 6 11 1 11 0 11 1 11 2 11 5 0 11 11
split_gain=6.94986 2.57075 1.18195 2.21659 1.39833 0.784752 0.343872 0.267096 0.284247 0.209105 0.0633921 0.0301142 0.0124278 0.00925242 0.00021702
threshold=0.30847625175305093 0.19344759470809159 0.43510480038724852 0.75421761723155623 0.64772487228375752 0.39502600680593031 0.67688773599872754 0.44088151681405091 0.77915819106608775 0.37209302325581411 0.98202865771588765 0.20945946249560674 1.0000000180025095e-35 0.43510480038724852 0.53168496441549251
decision_type=2 2 2 2 2 2 2 2 2 2 2 2 2 2 2
left_child=5 7 3 -3 -4 6 11 13 -9 14 -11 -1 -8 -2 -7
right_child=1 2 4 -5 -6 9 12 8 -10 10 -12 -13 -14 -15 -16
leaf_value=-0.053987045342830303 0.040349004966853688 -0.0022688900778816534 -0.016557085529952203 0.040597741966785408 0.011162408025663335 -0.026116270217419326 -0.034898082166860682 0.020477046993205308 0.039500384349908803 -0.016701180620308977 -0.0072401188405343906 -0.067579731564060413 -0.02869261904745174 0.046498894849473352 -0.026778425949559207
leaf_weight=0.82517176866531616 0.85131878405809325 6.9307879433035868 9.8962172120809573 4.975433774292469 7.8241047188639632 3.3740582242608053 2.4942172691226006 5.5142666175961477 2.866085022687912 5.3185495808720589 2.4994942918419838 0.74434463307261467 1.1241170316934588 1.8944667167961597 1.8346253782510755
leaf_count=5 6 32 46 18 33 11 14 20 21 19 15 10 5 10 9
internal_value=0 0.0112463 0.00370443 0.0156444 -0.00431802 -0.0251621 -0.0412788 0.0313287 0.026983 -0.0187437 -0.0136764 -0.0604334 -0.0329702 0.0445921 -0.0263495
internal_weight=0 40.7527 29.6265 11.9062 17.7203 18.2146 5.18785 11.1261 8.38035 13.0267 7.81804 1.56952 3.61833 2.74579 5.20868
internal_count=274 186 129 50 79 88 34 57 41 54 34 15 19 16 20
shrinkage=0.049


Tree=15
num_leaves=14
num_cat=0
split_feature=1 6 7 3 7 11 0 11 1 11 11 11 11
split_gain=6.34679 2.315 1.12895 0.884565 0.674571 0.419303 0.190534 0.310956 0.183181 0.246074 0.0703993 0.00253046 0.00222815
threshold=0.30847625175305093 0.19344759470809159 0.024554669465599758 0.050213589858228304 0.015956381001454256 0.43510480038724852 0.39502600680593031 0.67688773599872754 0.44088151681405091 0.77915819106608775 0.53168496441549251 0.98202865771588765 0.43510480038724852
decision_type=2 2 2 2 2 2 2 2 2 2 2 2 2
left_child=3 8 4 6 -3 -4 7 -1 12 -10 -8 -5 -2
right_child=1 2 5 11 -6 -7 10 -9 9 -11 -12 -13 -14
leaf_value=-0.05933532561500169 0.039653672438759821 -0.0035961300131931496 0.0063466912838484549 -0.010400400764054567 0.015444934622259956 -0.020536841812174005 -0.0329422835342199 -0.032395901299105821 0.020596529052931915 0.038756699574942766 -0.022418029402766035 -0.0083173559932767527 0.042766089361412234
leaf_weight=1.4642497040331379 0.79264706373214555 6.5504372566938462 1.9065742716193188 3.3246290013194075 14.046663839370011 5.1711397245526314 2.9280444756150246 3.4590227678418159 5.1913719773292542 2.7355098556727171 3.1872754395008087 2.41901995241642 1.8209763709455729
leaf_count=15 6 30 11 12 62 26 11 19 20 21 16 15 10
internal_value=0 0.0110308 0.00358792 -0.0251186 0.00938936 -0.013295 -0.0332333 -0.0404081 0.0305726 0.0268635 -0.0274571 -0.0095231 0.0418222
internal_weight=0 38.2153 27.6748 16.7822 20.5971 7.07771 11.0386 4.92327 10.5405 7.92688 6.11532 5.74365 2.61362
internal_count=274 186 129 88 92 37 61 34 57 41 27 27 16
shrinkage=0.049


Tree=16
num_leaves=16
num_cat=0
split_feature=1 6 11 1 11 0 11 2 1 11 11 0 11 0 11
split_gain=6.16969 1.82788 0.947382 1.95357 1.34268 0.560493 0.276274 0.240263 0.167569 0.271966 0.0376611 0.0286681 0.00756473 0.00497797 0.000510291
threshold=0.30847625175305093 0.19344759470809159 0.43510480038724852 0.8249191861292241 0.64772487228375752 0.39502600680593031 0.67688773599872754 0.37209302325581411 0.44088151681405091 0.77915819106608775 0.98202865771588765 0.20029640213204666 0.53168496441549251 1.0000000180025095e-35 0.43510480038724852
decision_type=2 2 2 2 2 2 2 2 2 2 2 2 2 2 2
left_child=5 8 3 -3 -4 6 11 12 14 -10 -9 -1 -7 -8 -2
right_child=1 2 4 -5 -6 7 13 10 9 -11 -12 -13 -14 -15 -16
leaf_value=-0.065917161004040034 0.038533092317363467 0.0063335156413197842 -0.015493282752617483 0.062817908295221658 0.013217812528372834 -0.030286421357044558 -0.033392830686707897 -0.016493137808218695 0.018389005983132676 0.037816225412300036 -0.0088465294508976739 -0.051680757314322381 -0.026095394473033742 -0.029289817597317348 0.040063696049941824
leaf_weight=0.63597194105386623 0.74349600449204278 9.1884425133466721 9.2357786893844622 1.7501872517168529 6.7830077260732642 2.6259962208569032 2.2778682373464108 4.6098087877035141 5.06704331189394 2.6272269282490015 2.3272211328148842 0.72881729900836945 1.7057386822998521 1.0314523577690127 1.7632839474827051
leaf_count=10 6 42 46 8 33 11 14 19 20 21 15 5 9 5 10
internal_value=0 0.0109403 0.00425494 0.0153711 -0.00333583 -0.0254988 -0.0397643 -0.0195817 0.0286071 0.0250225 -0.0139279 -0.0583147 -0.0286361 -0.032114 0.0396097
internal_weight=0 37.1585 26.9574 10.9386 16.0188 15.9429 4.67411 11.2688 10.2011 7.69427 6.93703 1.36479 4.33173 3.30932 2.50678
internal_count=274 186 129 50 79 88 34 54 57 41 34 15 20 19 16
shrinkage=0.049


Tree=17
num_leaves=12
num_cat=0
split_feature=1 7 7 3 11 11 11 7 1 11 11
split_gain=5.49816 1.91978 0.996968 0.616914 0.420939 0.410191 0.263454 0.16508 0.120537 0.092569 0.00664994
threshold=0.30847625175305093 0.024554669465599758 0.01447710360500888 0.050213589858228304 0.43510480038724852 0.77915819106608775 0.64772487228375752 0.026299892476803661 0.20976926485769415 0.98202865771588765 0.98202865771588765
decision_type=2 2 2 2 2 2 2 2 2 2 2
left_child=3 2 6 7 -3 -4 -2 8 -1 -6 -5
right_child=1 4 5 10 9 -7 -8 -9 -10 -11 -12
leaf_value=-0.041671545131523074 -0.0099094248677638556 0.0066958723073928068 0.017348131308354206 -0.012730202061836893 -0.027055125391410778 0.033766846810143462 0.011136701896923416 -0.016120777192445954 -0.029775806003514683 -0.012907880796388384 -0.0091827818561056509
leaf_weight=3.4644384104758466 3.695762753486636 1.7599255219101895 18.242373673245314 2.9090661332011214 2.8014453127980232 4.5683239288628092 2.3274220377206802 1.337106920778752 4.9922912940382957 1.8397716283798216 2.2501828894019127
leaf_count=29 17 11 87 12 17 32 13 7 25 9 15
internal_value=0 0.0105653 0.0159544 -0.0248958 -0.0137095 0.0206363 -0.00177698 -0.0321195 -0.0346491 -0.0214472 -0.011183
internal_weight=0 35.235 28.8339 14.9531 6.40114 22.8107 6.02318 9.79384 8.45673 4.64122 5.15925
internal_count=274 186 149 88 37 119 30 61 54 26 27
shrinkage=0.049


Tree=18
num_leaves=13
num_cat=0
split_feature=1 7 0 3 11 11 11 0 11 11 11 11
split_gain=5.06742 1.70011 0.856474 0.548065 0.449909 0.400057 0.355449 0.14419 0.268085 0.128991 0.0674268 0.00329267
threshold=0.30847625175305093 0.024554669465599758 0.63252044125064555 0.050213589858228304 0.43510480038724852 0.38709523039848187 0.43510480038724852 0.39502600680593031 0.67688773599872754 0.98202865771588765 0.53168496441549251 0.98202865771588765
decision_type=2 2 2 2 2 2 2 2 2 2 2 2
left_child=3 2 4 7 -2 -4 -3 8 -1 -8 -9 -5
right_child=1 6 5 11 -6 -7 9 10 -10 -11 -12 -13
leaf_value=-0.057322294539599035 0.036004339980349749 0.0061726294343875006 -0.0057534656318003023 -0.012490941535206475 0.017424819377459867 0.01225502077394601 -0.026879713769434866 -0.032286906539512106 -0.030271950962511524 -0.0098877988851567879 -0.020867041481368538 -0.0099591379342475073
leaf_weight=1.2370011620223502 4.9776172377169159 1.6868848204612721 4.1243105791509143 2.8284573405981055 8.4274118281900865 10.508103068917988 2.7301103658974171 2.2058469094336033 3.0452234409749508 1.7668873667716978 2.8391469269990921 2.1869295090436935
leaf_count=15 26 11 21 12 50 52 17 11 19 9 16 15
internal_value=0 0.010247 0.0153762 -0.0244493 0.0243239 0.00717913 -0.0130084 -0.0314732 -0.038086 -0.0202035 -0.0258602 -0.011387
internal_weight=0 34.2213 28.0374 14.3426 13.405 14.6324 6.18388 9.32722 4.28222 4.497 5.04499 5.01539
internal_count=274 186 149 88 76 73 37 61 34 26 27 27
shrinkage=0.049


Tree=19
num_leaves=11
num_cat=0
split_feature=1 7 1 7 3 11 7 11 1 11
split_gain=4.55862 1.47152 0.756745 0.564187 0.547474 0.350535 0.155542 0.150125 0.090977 0.00348613
threshold=0.30847625175305093 0.024554669465599758 0.37684203539341138 0.0087457090840113907 0.050213589858228304 0.43510480038724852 0.026299892476803661 0.98202865771588765 0.20976926485769415 0.98202865771588765
decision_type=2 2 2 2 2 2 2 2 2 2
left_child=4 2 -2 -4 6 -3 8 -7 -1 -6
right_child=1 5 3 -5 9 7 -8 -9 -10 -11
leaf_value=-0.039885283868154216 0.041203944632445845 0.0071067561807480256 -0.0099154418085751206 0.014506831229560172 -0.011625979714264391 -0.026723548682268183 -0.014904167482443179 -0.008067187359273937 -0.029056616529374493 -0.0089728149431692709
leaf_weight=3.1830022241920215 2.3378139622509506 1.6346316263079632 2.5238359495997456 22.682902691885829 2.7574327923357478 2.6734249480068684 1.2493339926004408 1.6903981417417524 4.4913910739123821 2.090570442378521
leaf_count=29 16 11 15 118 12 17 7 9 25 15
internal_value=0 0.00974558 0.014535 0.0120615 -0.0237367 -0.012247 -0.0309377 -0.0194967 -0.0335479 -0.0104819
internal_weight=0 33.543 27.5446 25.2067 13.7717 5.99845 8.92373 4.36382 7.67439 4.848
internal_count=274 186 149 133 88 37 61 26 54 27
shrinkage=0.049


Tree=20
num_leaves=12
num_cat=0
split_feature=1 7 3 7 11 11 11 11 7 10 11
split_gain=4.06837 1.37849 0.576092 0.562417 0.553963 0.323125 0.246203 0.173927 0.126352 0.0850907 0.000694652
threshold=0.30847625175305093 0.024554669465599758 0.050213589858228304 0.01447710360500888 0.77915819106608775 0.43510480038724852 0.64772487228375752 0.98202865771588765 0.026299892476803661 1.0000000180025095e-35 0.98202865771588765
decision_type=2 2 2 2 2 2 2 2 2 2 2
left_child=2 3 8 6 -5 -3 -2 -7 9 -1 -4
right_child=1 5 10 4 -6 7 -8 -9 -10 -11 -12
leaf_value=-0.050200390255331566 -0.0085945607326903019 0.0066051742291816894 -0.0096775743344056017 0.013538263048983474 0.033116050694729393 -0.027126039564800308 0.012610132912882146 -0.0067283304533221865 -0.015749677879839385 -0.031280088008640052 -0.0084766381462560506
leaf_weight=0.62365996465086748 3.279826574027541 1.5773211494088162 2.7219582311809054 17.163976185023788 4.349489487707614 2.6357451193034649 2.1942159533500671 1.6209197081625459 1.2020913213491438 6.7224204838275909 2.0106690600514412
leaf_count=5 17 11 12 87 32 17 13 9 7 49 15
internal_value=0 0.0092593 -0.022883 0.0139283 0.0174964 -0.0123389 -9.48684e-05 -0.0193587 -0.0304765 -0.0328864 -0.00916735
internal_weight=0 32.8215 13.2808 26.9875 21.5135 5.83399 5.47404 4.25666 8.54817 7.34608 4.73263
internal_count=274 186 88 149 119 37 30 26 61 54 27
shrinkage=0.049


Tree=21
num_leaves=12
num_cat=0
split_feature=1 7 1 3 11 11 11 0 11 11 11
split_gain=3.62102 1.35977 0.621309 0.616257 0.495231 0.315807 0.223915 0.130337 0.234004 0.0609073 0.00355187
threshold=0.30847625175305093 0.024554669465599758 0.37684203539341138 0.050213589858228304 0.43510480038724852 0.43510480038724852 0.98202865771588765 0.39502600680593031 0.67688773599872754 0.53168496441549251 0.98202865771588765
decision_type=2 2 2 2 2 2 2 2 2 2 2
left_child=3 2 -2 7 -4 -3 -7 8 -1 -9 -5
right_child=1 5 4 10 -6 6 -8 9 -10 -11 -12
leaf_value=-0.055903355554742365 0.038235584432964931 0.0062669067778326603 0.019276893354219421 -0.0065931547227288676 0.0051065837999228116 -0.028436295719242652 -0.0050102994838787497 -0.031097452172113741 -0.029025520788478369 -0.019367739973041052 -0.0093306710870509971
leaf_weight=1.084255058318375 2.2328846380114582 1.5248497501015652 10.413923360407354 2.7140385024249545 13.727361582219599 2.6468932591378689 1.5553258731961248 1.8205836005508897 2.7509651072323322 2.5538891293108463 1.9596581906080244
leaf_count=15 16 11 51 12 82 17 9 11 19 16 15
internal_value=0 0.00880711 0.0135065 -0.0219445 0.0112193 -0.0128346 -0.0197659 -0.0300304 -0.0366242 -0.0242495 -0.00774098
internal_weight=0 32.1012 26.3742 12.8834 24.1413 5.72707 4.20222 8.20969 3.83522 4.37447 4.6737
internal_count=274 186 149 88 133 37 26 61 34 27 27
shrinkage=0.049


Tree=22
num_leaves=15
num_cat=0
split_feature=8 2 11 11 5 3 11 11 0 8 1 0 11 11
split_gain=3.04198 1.01307 1.66484 2.04732 1.00026 0.632753 0.533265 0.164039 0.536684 0.131883 0.10845 0.0347445 0.18878 0.0130167
threshold=0.016019078011255957 0.067361668003207739 0.43510480038724852 0.77915819106608775 0.44338217292259219 0.050213589858228304 0.64772487228375752 0.43510480038724852 0.60700420711197478 0.1538908935873867 0.8249191861292241 1.0000000180025095e-35 0.67688773599872754 0.53168496441549251
decision_type=2 2 2 2 2 2 2 2 2 2 2 2 2 2
left_child=5 2 10 -4 9 11 -6 -7 -9 -3 -2 12 -1 -13
right_child=1 4 3 -5 6 7 -8 8 -10 -11 -12 13 -14 -15
leaf_value=-0.063281326782517577 0.038864933246865567 -0.010058764910142482 -0.0030280412654515331 0.068085991547960287 0.0010382826361778003 0.0051712142712525867 0.023082328754882274 -0.03593469433024217 -0.0042715653774106641 -0.025996357555094312 0.056052868497048984 -0.030857016636033553 -0.028209237406910549 -0.025161787398157335
leaf_weight=0.46122638508677316 3.1971618905663517 4.7490548156201866 7.2947041075676662 1.1214274447411297 6.3913933858275396 1.4730134904384611 4.4828868731856346 1.7705227322876451 4.6898463182151318 1.6903429292142389 1.2168746329843996 1.7193425074219706 1.8326701410114765 2.1919290572404861
leaf_count=10 16 34 38 12 34 11 26 7 27 12 8 11 14 14
internal_value=0 0.00879552 0.0192306 0.00644772 0.00106269 -0.0187523 0.0101259 -0.00958468 -0.0129491 -0.0142424 0.0436034 -0.0304733 -0.0352611 -0.0276653
internal_weight=0 30.1438 12.8302 8.41613 17.3137 14.1386 10.8743 7.93338 6.46037 6.4394 4.41404 6.20517 2.2939 3.91127
internal_count=274 180 74 50 106 94 60 45 34 46 24 49 24 25
shrinkage=0.049


Tree=23
num_leaves=14
num_cat=0
split_feature=8 2 2 11 0 5 11 1 11 1 8 0 11
split_gain=2.98258 0.92315 0.909305 1.02887 1.38393 0.909933 0.31128 0.385543 0.213085 0.145188 0.131817 0.0995227 0.0842644
threshold=0.016019078011255957 0.41900561347233373 0.067361668003207739 0.43510480038724852 0.61341275555286834 0.44338217292259219 0.43510480038724852 0.6330674591086568 0.64772487228375752 0.8249191861292241 0.1538908935873867 0.70657666276404862 0.98202865771588765
decision_type=2 2 2 2 2 2 2 2 2 2 2 2 2
left_child=1 6 3 9 -5 10 7 -1 -7 -2 -4 -8 -3
right_child=2 12 5 4 -6 8 11 -9 -10 -11 -12 -13 -14
leaf_value=-0.030681325961613302 0.034123617701724479 0.0041366430483920271 -0.0086384281954544982 0.028954371633956002 -0.012365621303080464 0.0047700557526439251 -0.036568730803370079 0.0040253850155558208 0.018970842570803149 0.054997950860366171 -0.024743594984506016 -0.021519992296341647 -0.0091988570385516562
leaf_weight=1.6414950452744943 2.8184837270528096 3.0202544778585425 4.648182142525914 4.0957864578813314 3.7082503698766232 6.0560846179723722 5.0144424196332693 1.4449732564389706 4.3659696374088526 1.1170964352786543 1.6545445695519445 1.3363475874066351 1.8251891583204267
leaf_count=11 16 12 34 30 20 34 36 11 26 8 12 9 15
internal_value=0 -0.0182719 0.00916839 0.0196217 0.00932032 0.00183091 -0.0271982 -0.0144329 0.010719 0.0400487 -0.0128662 -0.0334021 -0.000886594
internal_weight=0 14.2827 28.4644 11.7396 7.80404 16.7248 9.43726 3.08647 10.4221 3.93558 6.30273 6.35079 4.84544
internal_count=274 94 180 74 50 106 67 22 60 24 46 45 27
shrinkage=0.049


end of trees

feature_importances:
relevance=129
color=66
intensity=47
proximity2fe=28
visibility=16
shape_size=8
integration=8
proximity2dp=8
proximity2be=5
wellknownness=1

parameters:
[boosting: gbdt]
[objective: lambdarank]
[metric: ndcg]
[tree_learner: serial]
[device_type: cpu]
[data: ]
[valid: ]
[num_iterations: 36]
[learning_rate: 0.049]
[num_leaves: 16]
[num_threads: -1]
[force_col_wise: 0]
[force_row_wise: 0]
[histogram_pool_size: -1]
[max_depth: 4]
[min_data_in_leaf: 5]
[min_sum_hessian_in_leaf: 0.001]
[bagging_fraction: 1]
[pos_bagging_fraction: 1]
[neg_bagging_fraction: 1]
[bagging_freq: 0]
[bagging_seed: 3]
[feature_fraction: 1]
[feature_fraction_bynode: 1]
[feature_fraction_seed: 2]
[extra_trees: 0]
[extra_seed: 6]
[early_stopping_round: 100]
[first_metric_only: 0]
[max_delta_step: 0]
[lambda_l1: 0]
[lambda_l2: 0]
[min_gain_to_split: 0]
[drop_rate: 0.1]
[max_drop: 50]
[skip_drop: 0.5]
[xgboost_dart_mode: 0]
[uniform_drop: 0]
[drop_seed: 4]
[top_rate: 0.2]
[other_rate: 0.1]
[min_data_per_group: 100]
[max_cat_threshold: 32]
[cat_l2: 10]
[cat_smooth: 10]
[max_cat_to_onehot: 4]
[top_k: 20]
[monotone_constraints: ]
[monotone_constraints_method: basic]
[monotone_penalty: 0]
[feature_contri: ]
[forcedsplits_filename: ]
[refit_decay_rate: 0.9]
[cegb_tradeoff: 1]
[cegb_penalty_split: 0]
[cegb_penalty_feature_lazy: ]
[cegb_penalty_feature_coupled: ]
[path_smooth: 0]
[interaction_constraints: ]
[verbosity: -1]
[saved_feature_importance_type: 0]
[max_bin: 255]
[max_bin_by_feature: ]
[min_data_in_bin: 3]
[bin_construct_sample_cnt: 200000]
[data_random_seed: 1]
[is_enable_sparse: 1]
[enable_bundle: 1]
[use_missing: 1]
[zero_as_missing: 0]
[feature_pre_filter: 1]
[pre_partition: 0]
[two_round: 0]
[header: 0]
[label_column: ]
[weight_column: ]
[group_column: ]
[ignore_column: ]
[categorical_feature: ]
[forcedbins_filename: ]
[objective_seed: 5]
[num_class: 1]
[is_unbalance: 0]
[scale_pos_weight: 1]
[sigmoid: 1]
[boost_from_average: 1]
[reg_sqrt: 0]
[alpha: 0.9]
[fair_c: 1]
[poisson_max_delta_step: 0.7]
[tweedie_variance_power: 1.5]
[lambdarank_truncation_level: 20]
[lambdarank_norm: 1]
[label_gain: ]
[eval_at: 1,2]
[multi_error_top_k: 1]
[auc_mu_weights: ]
[num_machines: 1]
[local_listen_port: 12400]
[time_out: 120]
[machine_list_filename: ]
[machines: ]
[gpu_platform_id: -1]
[gpu_device_id: -1]
[gpu_use_dp: 0]

end of parameters

pandas_categorical:null
