tree
version=v3
num_class=1
num_tree_per_iteration=1
label_index=0
max_feature_idx=11
objective=lambdarank
feature_names=color intensity shape_size integration choice visibility proximity2dp proximity2fe proximity2be uniqueness wellknownness relevance
feature_infos=[0.16754224544274476:1] [0:1] [0:1.0000000000000002] [0:1] [0:1] [0:1] [0:1.0000000000000002] [0:0.99999999999999989] [0.0079365420489154667:0.93183904056685019] [0:1] [0:0.97986577180532408] [0:1]
tree_sizes=1263 1569 1163 1166 1160 1163 1059 1379 1380 1572 1377 1386 1380 1373 1592 1588 1383 1593 1388

Tree=0
num_leaves=11
num_cat=0
split_feature=5 6 7 2 0 7 11 0 0 11
split_gain=14.2163 8.62902 3.00475 1.44767 1.31418 1.09083 0.686232 0.48688 0.0922145 0.000224663
threshold=0.66306536504090297 0.24189780100788102 0.024554669465599758 0.20208500400962315 0.59033361992249433 0.015956381001454256 0.56015369265413584 0.57358709964519461 0.76735039005403693 0.91589751341782366
decision_type=2 2 2 2 2 2 2 2 2 2
left_child=1 2 5 8 -2 -1 -5 -4 -3 -6
right_child=4 3 7 6 9 -7 -8 -9 -10 -11
leaf_value=-0.014305497919266283 0.098000000000000004 -0.072091362193125272 -0.07263553476589725 -0.067742907473554465 0.045906955144353376 0.023826027074385664 -0.023956589901968302 -0.027129157303701908 -0.087353268107633553 0.046951171378492126
leaf_weight=2.2247180342674318 2.7850026413798323 1.9058824107050887 0.83649044483899992 1.2452200576663015 1.221879016608 9.4636265709996206 2.7734944187104702 1.7361560724675655 1.8963307105004787 0.83124856650829304
leaf_count=23 26 19 8 12 12 100 31 18 20 9
internal_value=0 -0.0166675 0.0060161 -0.0580298 0.076073 0.0165682 -0.037524 -0.0419255 -0.0797031 0.0463297
internal_weight=0 22.0819 14.261 7.82093 4.83813 11.6883 4.01871 2.57265 3.80221 2.05313
internal_count=278 231 149 82 47 123 43 26 39 21
shrinkage=0.049


Tree=1
num_leaves=14
num_cat=0
split_feature=5 5 0 9 0 1 11 11 11 0 11 11 11
split_gain=60.2079 41.3319 14.7392 8.37947 6.42105 5.76131 3.15682 2.7621 1.92607 0.464077 0.346476 0.0284683 2.8048e-05
threshold=0.51330105392746328 0.13317275513406593 0.59033361992249433 1.0000000180025095e-35 0.70657666276404862 0.51298240439606357 0.45133336091856951 0.45133336091856951 0.45133336091856951 0.92798781083676607 0.91589751341782366 0.91589751341782366 0.42474782993232335
decision_type=2 2 2 2 2 2 2 2 2 2 2 2 2
left_child=1 5 12 7 -5 6 -1 -3 -7 11 -11 -4 -2
right_child=2 3 9 4 -6 8 -8 -9 -10 10 -12 -13 -14
leaf_value=0.032088918209942946 0.093346433727797273 0.00036640704632109455 0.034733914581451274 -0.033683966262614475 -0.069257742839040723 0.03486459434531268 0.09316404603302865 -0.029285287261270655 0.0064623642130451665 0.03086411672308895 0.014051728038430742 0.039339425492659341 0.093488086960504299
leaf_weight=3.9372254610061628 7.9121357798576337 12.768827557563784 7.9128938615322113 27.225109040737152 22.048851907253265 8.7381710112094897 4.1989988125860691 18.429433017969131 16.667275998741388 6.540654331445694 5.3508207201957703 5.4365900158882141 5.8284285962581635
leaf_count=6 15 18 12 43 39 18 9 31 42 13 12 9 11
internal_value=0 -0.0179736 0.0525694 -0.0370207 -0.0496023 0.0277237 0.063609 -0.0171494 0.0162313 0.0303387 0.023299 0.0366095 0.0934065
internal_weight=0 114.014 38.9815 80.4722 49.274 33.5417 8.13622 31.1983 25.4054 25.241 11.8915 13.3495 13.7406
internal_count=278 206 72 131 82 75 15 49 60 46 25 21 26
shrinkage=0.049


Tree=2
num_leaves=10
num_cat=0
split_feature=4 6 2 1 0 9 0 11 11
split_gain=34.5199 24.1327 11.3124 7.75267 3.91862 3.89093 2.94317 2.10536 0.000616154
threshold=0.64857682576071585 0.21960082334441897 0.37209302325581411 0.6478058824532259 0.70657666276404862 1.0000000180025095e-35 0.29739252513674613 0.45133336091856951 0.42474782993232335
decision_type=2 2 2 2 2 2 2 2 2
left_child=1 2 6 4 -3 -4 -1 -5 -2
right_child=8 3 5 7 -6 -7 -8 -9 -10
leaf_value=-0.020549388812086015 0.089167384073680314 -0.02866919410898593 -0.00076707621427609773 0.006634294279252574 -0.064250018629541744 -0.044023915671455902 0.033609821645337608 -0.021912913473797053 0.089959303113577041
leaf_weight=2.5801412463188163 5.4213123619556409 13.90115410089493 21.454154074192051 9.8701418638229388 15.969150617718695 6.5069746375083914 36.351061999797821 16.694378778338432 4.1760773658752441
leaf_count=4 15 27 40 19 39 12 76 35 11
internal_value=0 -0.00696587 0.0129434 -0.0305644 -0.0476913 -0.0108336 0.0300205 -0.0113061 0.089512
internal_weight=0 123.327 66.8923 56.4348 29.8703 27.9611 38.9312 26.5645 9.59739
internal_count=278 252 132 120 66 52 80 54 26
shrinkage=0.049


Tree=3
num_leaves=10
num_cat=0
split_feature=4 9 1 6 11 11 0 11 11
split_gain=24.794 15.0376 10.8833 6.91686 4.22653 3.11279 1.66927 1.39907 0.000881904
threshold=0.64857682576071585 1.0000000180025095e-35 0.51298240439606357 0.19344759470809159 0.67688773599872754 0.45133336091856951 0.59033361992249433 0.77915819106608775 0.42474782993232335
decision_type=2 2 2 2 2 2 2 2 2
left_child=1 3 4 6 -3 -5 -1 -4 -2
right_child=8 2 7 5 -6 -7 -8 -9 -10
leaf_value=0.056967436060441308 0.08570891810105391 -0.056958970785984921 0.0016028233950665955 0.012829792948773028 -0.022567681619604603 -0.011359004308200617 0.024181585537145243 0.042962936483855199 0.086779969395358481
leaf_weight=6.1429336518049213 4.2204290479421607 18.126693174242973 3.7620953619480124 23.788002952933311 16.290643587708473 27.587436988949776 9.4869317561388016 4.1077534556388855 3.2806504219770432
leaf_count=15 15 45 8 49 37 64 21 13 11
internal_value=0 -0.00591462 -0.0287938 0.00852448 -0.0406807 -0.000159038 0.0370673 0.0231912 0.0861773
internal_weight=0 109.292 42.2872 67.0053 34.4173 51.3754 15.6299 7.86985 7.50108
internal_count=278 252 103 149 82 113 36 21 26
shrinkage=0.049


Tree=4
num_leaves=10
num_cat=0
split_feature=4 5 9 11 0 11 3 1 11
split_gain=19.0128 12.2456 11.1196 3.43099 8.97822 2.8693 2.65443 0.294883 0.00119804
threshold=0.64857682576071585 0.13317275513406593 1.0000000180025095e-35 0.45133336091856951 0.61341275555286834 0.67688773599872754 0.019986404276603895 0.8249191861292241 0.42474782993232335
decision_type=2 2 2 2 2 2 2 2 2
left_child=1 3 6 7 -5 -4 -3 -1 -2
right_child=8 2 5 4 -6 -7 -8 -9 -10
leaf_value=0.036111894401273277 0.08268270978322706 0.013329466213624241 -0.054312332637847946 0.038660809874448372 -0.029407635008034779 -0.023765539912802995 -0.012547793623477573 0.052699427636224476 0.084055990806437927
leaf_weight=7.6070667803287524 3.4646968245506278 19.413296163082123 15.137369781732559 10.238454028964044 8.5276880562305433 14.412697091698647 18.671502232551575 3.8886343389749527 2.7248024195432663
leaf_count=16 15 46 45 30 21 37 49 8 11
internal_value=0 -0.00526582 -0.016858 0.0206426 0.00772923 -0.0394135 0.000642848 0.0417229 0.0832873
internal_weight=0 97.8967 67.6349 30.2618 18.7661 29.5501 38.0848 11.4957 6.1895
internal_count=278 252 177 75 51 82 95 24 26
shrinkage=0.049


Tree=5
num_leaves=10
num_cat=0
split_feature=4 9 11 6 9 0 0 11 11
split_gain=15.2351 10.5847 8.11025 3.94109 2.15073 2.06137 1.81884 1.1281 0.00181435
threshold=0.64857682576071585 1.0000000180025095e-35 0.68736184834557201 0.19344759470809159 0.66666666666666674 0.61341275555286834 0.20029640213204666 0.38709523039848187 0.42474782993232335
decision_type=2 2 2 2 2 2 2 2 2
left_child=1 3 6 7 -4 -5 -3 -1 -2
right_child=8 2 4 5 -6 -7 -8 -9 -10
leaf_value=0.015030804073454682 0.080006119532200812 -0.0084365494377930863 -0.036144755174758687 -0.025009054592461583 0.010055865328759829 0.0055889485405407899 -0.054348344383047364 0.044634971936109519 0.081832884926808874
leaf_weight=5.3149278312921506 2.928896151483058 2.3792504966259029 3.0561525672674152 6.1859322637319556 11.6087906062603 36.354376390576363 16.030387341976166 7.3844956010580063 2.3550764247775078
leaf_count=12 15 4 10 18 36 95 53 24 11
internal_value=0 -0.0048356 -0.0267585 0.00829064 0.000427724 0.00113959 -0.0484147 0.0322451 0.0808203
internal_weight=0 88.3143 33.0746 55.2397 14.6649 42.5403 18.4096 12.6994 5.28397
internal_count=278 252 103 149 46 113 57 36 26
shrinkage=0.049


Tree=6
num_leaves=9
num_cat=0
split_feature=4 1 7 11 0 11 0 11
split_gain=12.4186 9.42366 6.77985 2.7413 2.61439 1.02133 0.655903 0.00140748
threshold=0.64857682576071585 0.30847625175305093 0.024554669465599758 0.98202865771588765 0.63252044125064555 0.45133336091856951 0.20029640213204666 0.42474782993232335
decision_type=2 2 2 2 2 2 2 2
left_child=1 3 4 6 -3 -4 -1 -2
right_child=7 2 5 -5 -6 -7 -8 -9
leaf_value=-0.021265723491569483 0.077776899451268228 0.024008366241901207 -0.0091434009802550363 -0.002331886798499644 0.0019867407017510577 -0.041846079417185607 -0.048088628993892595 0.079505749318079452
leaf_weight=2.6429131031036404 2.5469326674938193 24.505333960056305 3.4253325909376127 5.2015320509672156 27.435441538691521 6.9357066303491592 12.741048358380793 2.0331994220614433
leaf_count=4 15 77 11 15 75 27 43 11
internal_value=0 -0.00434015 0.00515697 -0.0330831 0.0123764 -0.0310347 -0.0434805 0.0785444
internal_weight=0 82.8873 62.3018 20.5855 51.9408 10.361 15.384 4.58013
internal_count=278 252 190 62 152 38 47 26
shrinkage=0.049


Tree=7
num_leaves=12
num_cat=0
split_feature=1 10 7 6 11 11 1 11 0 11 0
split_gain=11.4968 7.96864 4.56612 2.57446 1.47986 0.711472 0.611946 0.232795 0.0450491 0.00110953 7.92878e-05
threshold=0.30847625175305093 0.053859060085187614 0.024554669465599758 0.1698148802957318 0.67688773599872754 0.45133336091856951 0.13186544335975872 0.53168496441549251 0.70657666276404862 0.42474782993232335 0.60700420711197478
decision_type=2 2 2 2 2 2 2 2 2 2 2
left_child=4 9 3 -3 7 -4 -6 8 -1 -2 -8
right_child=1 2 5 -5 6 -7 10 -9 -10 -11 -12
leaf_value=-0.046003316089990719 0.075837700232665284 0.032831385071776471 -0.0064301002610326913 0.005609944605384708 -0.042578700064154408 -0.034691389293672388 -0.012412257427001432 -0.063025516214206642 -0.038266870383328683 0.07747256808325427 -0.012054438836416059
leaf_weight=5.3006970882415771 2.2493287324905387 10.614803016185759 3.192268177866934 38.953884370625019 2.0738140717148763 6.4809164330363274 2.1972306668758392 1.7631670236587531 2.7419648915529251 1.7897859290242193 4.5990510135889053
leaf_count=16 15 36 11 116 8 27 4 8 11 11 15
internal_value=0 0.00997002 0.00542976 0.0114392 -0.0337821 -0.0253648 -0.0192796 -0.0469007 -0.0433657 0.0765621 -0.0121701
internal_weight=0 63.281 59.2419 49.5687 18.6759 9.67318 8.8701 9.80583 8.04266 4.03911 6.79628
internal_count=278 216 190 152 62 38 27 35 27 26 19
shrinkage=0.049


Tree=8
num_leaves=12
num_cat=0
split_feature=1 10 7 1 11 11 1 11 0 2 11
split_gain=9.20918 6.85365 4.09985 2.59552 1.14057 0.728496 0.522456 0.253493 0.0122575 0.0070731 0.00101102
threshold=0.30847625175305093 0.053859060085187614 0.024554669465599758 0.37684203539341138 0.67688773599872754 0.45133336091856951 0.13186544335975872 0.53168496441549251 0.60700420711197478 0.41900561347233373 0.42474782993232335
decision_type=2 2 2 2 2 2 2 2 2 2 2
left_child=4 10 3 -3 7 -4 -6 9 -8 -1 -2
right_child=1 2 5 -5 6 -7 8 -9 -10 -11 -12
leaf_value=-0.037757485577670995 0.074003791438560035 0.050350605439130162 -0.005940461115831918 0.0073418906470559013 -0.041051731159215246 -0.035624966489498221 -0.014725518589748698 -0.061438730094934599 -0.010165033819504848 -0.040919160461007874 0.075658371585709205
leaf_weight=2.6325567811727542 1.9982460662722579 3.6520105004310599 2.9945768564939481 43.477685838937759 1.8831248134374599 5.8878104165196419 2.1184246838092804 1.5754206553101537 4.2618694007396698 4.7902457639575005 1.5940200686454773
leaf_count=11 15 15 11 137 8 27 4 8 15 16 11
internal_value=0 0.00912728 0.00491942 0.0106746 -0.0315165 -0.0256172 -0.0183728 -0.0435868 -0.0116792 -0.0397978 0.074738
internal_weight=0 59.6043 56.0121 47.1297 17.2616 8.88239 8.26342 8.99822 6.38029 7.4228 3.59227
internal_count=278 216 190 152 62 38 27 35 19 27 26
shrinkage=0.049


Tree=9
num_leaves=14
num_cat=0
split_feature=5 5 11 0 0 11 0 10 7 1 11 0 11
split_gain=8.12062 7.88335 4.36 5.04779 3.12766 1.30707 0.983714 0.980343 0.704097 0.557124 0.201282 0.0485484 0.00104569
threshold=0.51330105392746328 0.13317275513406593 0.45133336091856951 0.61341275555286834 0.59033361992249433 0.91589751341782366 0.92798781083676607 0.053859060085187614 0.025384520271380974 0.8249191861292241 0.53168496441549251 0.92798781083676607 0.42474782993232335
decision_type=2 2 2 2 2 2 2 2 2 2 2 2 2
left_child=1 2 9 -4 12 6 -6 10 -9 -1 -3 -7 -2
right_child=4 7 3 -5 5 11 -8 8 -10 -11 -12 -13 -14
leaf_value=0.031148453608944165 0.072281352964150308 -0.038170610289670476 0.024200797261524045 -0.034744576767207158 0.02377035997167877 0.029857805306336121 -0.011512692064869946 -0.016962043104320642 -0.036541350230067271 0.057162431523661773 -0.059929159627605651 0.0390319045303728 0.074058251414560669
leaf_weight=5.9970539361238497 1.784981071949006 3.6171476766467086 7.2684916555881482 6.7066706940531731 3.7216882929205894 2.0646511614322662 3.8702915012836456 22.354053497314457 5.4936790913343421 2.9484872072935104 1.42212788015604 4.207085445523262 1.4340369403362274
leaf_count=16 15 15 30 21 12 9 13 80 28 8 8 12 11
internal_value=0 -0.00904871 0.0130111 -0.00408705 0.0295613 0.0194583 0.00578352 -0.0244234 -0.0208246 0.0397228 -0.0443111 0.0360118 0.0730729
internal_weight=0 55.8077 22.9207 13.9752 17.0827 13.8637 7.59198 32.887 27.8477 8.94554 5.03928 6.27174 3.21902
internal_count=278 206 75 51 72 46 25 131 108 24 23 21 26
shrinkage=0.049


Tree=10
num_leaves=12
num_cat=0
split_feature=1 10 7 6 11 11 1 11 0 0 11
split_gain=7.724 5.04189 2.87253 1.85094 0.963308 0.48875 0.412539 0.173036 0.0430087 0.0242679 0.00112471
threshold=0.30847625175305093 0.053859060085187614 0.024554669465599758 0.1698148802957318 0.67688773599872754 0.98202865771588765 0.13186544335975872 0.53168496441549251 0.70657666276404862 0.60700420711197478 0.42474782993232335
decision_type=2 2 2 2 2 2 2 2 2 2 2
left_child=4 10 3 -3 7 -4 -6 8 -1 -8 -2
right_child=1 2 5 -5 6 -7 9 -9 -10 -11 -12
leaf_value=-0.041571815210759797 0.070835736959969905 0.031016014745855171 -0.029424421093330384 0.0053123885024839446 -0.039421887349594675 -0.0036901711049246795 -0.015750445183895071 -0.058255860982567763 -0.033417359876904952 -0.0090654613103035471 0.072770378487412246
leaf_weight=4.4942730441689474 1.6090308725833884 8.517622157931326 5.5327658504247648 31.99017720669508 1.6057829037308682 2.6068661361932755 1.9822072982788084 1.2990442439913747 2.3728786781430244 3.8098603039979935 1.3079983368515968
leaf_count=16 15 36 28 116 8 10 4 8 11 15 11
internal_value=0 0.00913166 0.0053797 0.0107171 -0.0302536 -0.0211826 -0.0174458 -0.0418564 -0.0387541 -0.0113532 0.0717032
internal_weight=0 51.5645 48.6474 40.5078 15.564 8.13963 7.39785 8.1662 6.86715 5.79207 2.91703
internal_count=278 216 190 152 62 38 27 35 27 19 26
shrinkage=0.049


Tree=11
num_leaves=12
num_cat=0
split_feature=1 10 7 1 11 11 1 11 3 11 0
split_gain=6.09867 4.50096 3.15117 1.79509 0.745386 0.651764 0.356974 0.19696 0.017143 0.000972105 8.85939e-05
threshold=0.30847625175305093 0.053859060085187614 0.024554669465599758 0.37684203539341138 0.45133336091856951 0.67688773599872754 0.13186544335975872 0.53168496441549251 0.050213589858228304 0.42474782993232335 0.60700420711197478
decision_type=2 2 2 2 2 2 2 2 2 2 2
left_child=5 9 3 -3 -4 7 -7 8 -1 -2 -8
right_child=1 2 4 -5 -6 6 10 -9 -10 -11 -12
leaf_value=-0.037105946321373505 0.069504110517941461 0.047445189410923135 -0.0035755305903638714 0.0073106414306951771 -0.035909921359670041 -0.038528007856276372 -0.011877556198941311 -0.056341671622780642 -0.031947320479217181 0.07139131272814829 -0.011466592990410694
leaf_weight=3.2157255224883539 1.4634005650877944 2.8901963680982581 2.6529235169291487 36.057422935962677 4.8250928521156311 1.5018992312252519 1.9255672395229337 1.1963098198175428 2.9800976924598217 1.1868325434625149 3.6409585475921631
leaf_count=15 15 15 11 137 27 8 4 8 12 11 15
internal_value=0 0.00824064 0.00469513 0.0102889 -0.0244389 -0.0279669 -0.0173286 -0.0381393 -0.0346247 0.0703492 -0.0116088
internal_weight=0 49.0759 46.4256 38.9476 7.47802 14.4606 7.06843 7.39213 6.19582 2.65023 5.56653
internal_count=278 216 190 152 38 62 27 35 27 26 19
shrinkage=0.049


Tree=12
num_leaves=12
num_cat=0
split_feature=1 10 6 11 11 11 1 11 3 0 11
split_gain=5.38882 3.97633 2.65278 2.42149 0.605319 0.335557 0.320845 0.182271 0.0126547 0.0077999 0.000975968
threshold=0.30847625175305093 0.053859060085187614 0.1698148802957318 0.45133336091856951 0.67688773599872754 0.45133336091856951 0.13186544335975872 0.53168496441549251 0.050213589858228304 0.60700420711197478 0.42474782993232335
decision_type=2 2 2 2 2 2 2 2 2 2 2
left_child=4 10 5 -4 7 -3 -6 8 -1 -8 -2
right_child=1 2 3 -5 6 -7 9 -9 -10 -11 -12
leaf_value=-0.035773266811905353 0.068218022224117381 0.022034240684793201 0.015382787908937653 -0.010389519767043805 -0.037261989118152775 0.042962540256796911 -0.013476022699837147 -0.055240333913867984 -0.031257264050227433 -0.0095467070001763951 0.070198169046836692
leaf_weight=3.0581841282546502 1.3293661065399638 4.1873618885874739 13.975190550088881 23.425790935754776 1.403846852481365 3.280584529042244 1.8702286183834074 1.1049258634448049 2.905071958899498 3.4514386579394341 1.0857344344258308
leaf_count=15 15 18 49 105 8 18 4 8 12 15 11
internal_value=0 0.00786112 0.00456446 -0.000759481 -0.0269475 0.0312278 -0.0164245 -0.0369603 -0.0335732 -0.0109276 0.0691082
internal_weight=0 47.284 44.8689 37.401 13.7937 7.46795 6.72551 7.06818 5.96326 5.32167 2.4151
internal_count=278 216 190 154 62 36 27 35 27 19 26
shrinkage=0.049


Tree=13
num_leaves=12
num_cat=0
split_feature=1 0 11 3 1 2 11 11 0 0 3
split_gain=4.75226 4.4722 2.50399 3.86933 2.63197 1.25127 1.72374 0.576309 0.245328 0.236117 0.101049
threshold=0.30847625175305093 0.57358709964519461 0.45133336091856951 0.019986404276603895 0.75421761723155623 0.0060144346431435522 0.77915819106608775 0.98202865771588765 0.51348607409480673 0.20029640213204666 0.050213589858228304
decision_type=2 2 2 2 2 2 2 2 2 2 2
left_child=7 5 4 -4 -3 8 -7 9 -2 -1 -11
right_child=1 2 3 -5 -6 6 -8 -9 -10 10 -12
leaf_value=-0.015973133166973047 0.06789616406376725 -0.00065983745329022516 0.026454075348930347 -0.024280683868600526 0.040445405369246165 -0.0084726343517999535 0.053005059568600729 -0.008406341341462507 0.045342312491611067 -0.039861262505764092 -0.028150798469608888
leaf_weight=1.7479364275932292 2.2013065516948682 10.524374693632128 4.7608873322606113 14.920702885836361 5.8018986731767646 2.3983979374170303 2.0150429084897041 3.2509025260806075 2.4431778639554977 5.2027009204030037 2.6808351613581181
leaf_count=4 26 43 21 72 18 8 13 15 15 31 12
internal_value=0 0.00750241 -0.00023951 -0.0120082 0.0139478 0.0382788 0.0195962 -0.0262453 0.056032 -0.0322665 -0.0358791
internal_weight=0 45.0658 36.0079 19.6816 16.3263 9.05793 4.41344 12.8824 4.64448 9.63147 7.88354
internal_count=278 216 154 93 61 62 21 62 41 47 43
shrinkage=0.049


Tree=14
num_leaves=14
num_cat=0
split_feature=1 0 7 2 10 11 11 11 1 11 3 0 11
split_gain=4.56758 4.16566 2.06338 1.07136 0.889821 0.514621 0.462141 0.395134 0.168187 0.167805 0.0314426 0.0121941 0.0008792
threshold=0.30847625175305093 0.57358709964519461 0.024554669465599758 0.99959903769045744 0.053859060085187614 0.45133336091856951 0.67688773599872754 0.77915819106608775 0.13186544335975872 0.53168496441549251 0.050213589858228304 0.60700420711197478 0.42474782993232335
decision_type=2 2 2 2 2 2 2 2 2 2 2 2 2
left_child=6 4 3 -3 12 -4 9 -6 -8 10 -1 -10 -2
right_child=1 2 5 -5 7 -7 8 -9 11 -11 -12 -13 -14
leaf_value=-0.035830398422381317 0.066111819431325713 0.009293825433290626 -0.0061038096156326525 -0.021370518325927287 0.021866326418352733 -0.035287418955624032 -0.032668056928321795 0.049232885349834492 -0.015823370155056818 -0.054260244501083348 -0.028278914007490934 -0.01061946350699801 0.068157919543887446
leaf_weight=2.7153115160763246 1.1102190129458889 24.542340584099296 2.23391568660736 3.0788365826010695 4.4287258833646774 4.1383963897824287 1.2398076616227625 1.7742659002542494 1.6512306481599806 0.97581086307764042 2.5834612250328064 3.1314911246299744 0.92377874627709378
leaf_count=15 15 101 11 15 23 27 8 13 4 8 12 15 11
internal_value=0 0.00765279 7.72846e-05 0.00587578 0.0389164 -0.0250566 -0.026281 0.0296941 -0.0165852 -0.0355874 -0.0321486 -0.0124161 0.0670411
internal_weight=0 42.2305 33.9935 27.6212 8.23699 6.37231 12.2971 6.20299 6.02253 6.27458 5.29877 4.78272 2.034
internal_count=278 216 154 116 62 38 62 36 27 35 27 19 26
shrinkage=0.049


Tree=15
num_leaves=14
num_cat=0
split_feature=1 0 11 5 5 2 11 11 0 1 11 3 0
split_gain=4.21779 3.12457 1.85203 2.95541 2.34581 1.04648 1.11326 0.416077 0.266442 0.154967 0.15172 0.0209533 0.0101555
threshold=0.30847625175305093 0.57358709964519461 0.45133336091856951 0.44338217292259219 0.13317275513406593 0.0060144346431435522 0.77915819106608775 0.67688773599872754 0.51348607409480673 0.13186544335975872 0.53168496441549251 0.050213589858228304 0.60700420711197478
decision_type=2 2 2 2 2 2 2 2 2 2 2 2 2
left_child=7 5 4 -4 -3 8 -7 10 -2 -9 11 -1 -11
right_child=1 2 3 -5 -6 6 -8 9 -10 12 -12 -13 -14
leaf_value=-0.034569255574621441 0.066155360403155894 0.039402103906183927 -0.027583429248707814 0.012792634504091367 -0.00086573219621227041 -0.0063964146119881915 0.047342018025186484 -0.032253594876634276 0.040925023529610235 -0.015446185704356177 -0.053158387185555801 -0.028315106940296049 -0.010595268522376512
leaf_weight=2.6018882710486633 1.8805829994380463 5.3836744166910639 9.9455796871334332 7.7403277643024913 9.7898055575788003 2.1457228511571884 1.6277521103620531 1.1702344082295892 2.1583649329841137 1.5843658298254011 0.91238924488425244 2.5435606651008129 2.9949508868157864
leaf_count=15 26 18 56 37 43 8 13 8 15 4 8 12 15
internal_value=0 0.00748471 0.000862424 -0.00991264 0.0134216 0.0353383 0.0167846 -0.0257819 0.0526726 -0.0163402 -0.034743 -0.0314776 -0.0122736
internal_weight=0 40.6718 32.8594 17.6859 15.1735 7.81242 3.77347 11.8074 4.03895 5.74955 6.05784 5.14545 4.57932
internal_count=278 216 154 93 61 62 21 62 41 27 35 27 19
shrinkage=0.049


Tree=16
num_leaves=12
num_cat=0
split_feature=1 0 7 11 10 11 11 11 0 0 11
split_gain=3.81117 2.95984 1.67786 0.890035 0.86055 0.400878 0.34366 0.300075 0.163861 0.0638526 0.000597463
threshold=0.30847625175305093 0.57358709964519461 0.024554669465599758 0.45133336091856951 0.053859060085187614 0.98202865771588765 0.45133336091856951 0.77915819106608775 0.20029640213204666 0.70657666276404862 0.42474782993232335
decision_type=2 2 2 2 2 2 2 2 2 2 2
left_child=5 4 3 -3 10 8 -4 -6 -1 -10 -2
right_child=1 2 6 -5 7 -7 -8 -9 9 -11 -12
leaf_value=-0.015890752977651929 0.064581410751783003 0.015123589721154594 -0.0066035663048320406 -0.0027905420882255831 0.019005746905189427 -0.0091458099846218194 -0.0314615277042792 0.044779950647228027 -0.029969815722797062 -0.039653913225188984 0.066402307235066779
leaf_weight=1.5231475085020045 0.94964642263948806 13.148032560944559 2.044415194541215 13.492337044328449 4.0373640656471252 2.8302134796977034 3.8500167522579432 1.482908349484205 4.3171539101749659 2.6310364045202732 0.79469961859285831
leaf_count=4 15 50 11 66 23 15 27 13 24 19 11
internal_value=0 0.00713085 0.000816562 0.00605076 0.0354096 -0.0251119 -0.0228398 0.0259295 -0.0304461 -0.0336368 0.065411
internal_weight=0 39.7994 32.5348 26.6404 7.26462 11.3016 5.89443 5.52027 8.47134 6.94819 1.74435
internal_count=278 216 154 116 62 62 38 36 47 43 26
shrinkage=0.049


Tree=17
num_leaves=14
num_cat=0
split_feature=1 0 7 10 2 11 11 11 1 11 3 0 11
split_gain=3.49968 2.4109 1.49773 0.872091 0.805076 0.37645 0.296472 0.290396 0.13095 0.127442 0.011979 0.0119124 0.000475872
threshold=0.30847625175305093 0.57358709964519461 0.024554669465599758 0.053859060085187614 0.99959903769045744 0.67688773599872754 0.77915819106608775 0.45133336091856951 0.13186544335975872 0.53168496441549251 0.050213589858228304 0.60700420711197478 0.42474782993232335
decision_type=2 2 2 2 2 2 2 2 2 2 2 2 2
left_child=5 3 4 12 -3 9 -5 -4 -7 10 -1 -10 -2
right_child=1 2 7 6 -6 8 -8 -9 11 -11 -12 -13 -14
leaf_value=-0.032795789418500032 0.063850616639859165 0.0090746427379942551 -0.0063863713376620061 0.01666386364255595 -0.01918756415332281 -0.030495450239126622 0.043078531341491297 -0.029704991882962332 -0.01477745259986718 -0.051328472666385357 -0.027909789640704542 -0.0092908046002733342 0.065539348418401908
leaf_weight=2.3948455862700921 0.87824007682502159 23.379257451742895 1.960043042898177 3.9386944212019444 2.6994289569556704 1.0597386732697485 1.3768288791179655 3.7081210147589445 1.4610830545425413 0.81138693168759335 2.4244342539459467 2.7168055102229118 0.73674332909286022
leaf_count=15 15 101 11 23 15 8 13 27 4 8 12 15 11
internal_value=0 0.00690335 0.00118738 0.0330867 0.0061492 -0.0245672 0.0235058 -0.0216414 -0.0151117 -0.0333626 -0.0303378 -0.0112096 0.064621
internal_weight=0 38.6774 31.7469 6.93051 26.0787 10.8683 5.31552 5.66816 5.23763 5.63067 4.81928 4.17789 1.61498
internal_count=278 216 154 62 116 62 36 38 27 35 27 19 26
shrinkage=0.049


Tree=18
num_leaves=12
num_cat=0
split_feature=1 10 7 2 11 11 1 11 3 0 11
split_gain=3.25928 2.12978 1.62987 0.692149 0.332783 0.243123 0.119708 0.116933 0.0102875 0.00798313 0.000306132
threshold=0.30847625175305093 0.053859060085187614 0.024554669465599758 0.99959903769045744 0.67688773599872754 0.45133336091856951 0.13186544335975872 0.53168496441549251 0.050213589858228304 0.60700420711197478 0.42474782993232335
decision_type=2 2 2 2 2 2 2 2 2 2 2
left_child=4 10 3 -3 7 -4 -6 8 -1 -8 -2
right_child=1 2 5 -5 6 -7 9 -9 -10 -11 -12
leaf_value=-0.031962447098779316 0.063270169996397799 0.01097361802539625 -0.00604582503358469 -0.015689753516172883 -0.030173958775488442 -0.027768792709231264 -0.014271763644431376 -0.05030136176663192 -0.027371497804211345 -0.0097022848262875213 0.064675204134210476
leaf_weight=2.3116354122757894 0.81982360035180935 28.105754639953378 1.8889065533876408 2.5496061928570262 1.0083242766559122 3.5844800099730492 1.4113795161247251 0.76454579830169667 2.3769542258232832 2.6258843317627907 0.68212051875889301
leaf_count=15 15 137 11 15 8 27 4 8 12 15 11
internal_value=0 0.00673517 0.00435837 0.00875603 -0.0241409 -0.020272 -0.0150716 -0.0325325 -0.029635 -0.0112997 0.0639083
internal_weight=0 37.6307 36.1287 30.6554 10.4987 5.47339 5.04559 5.45314 4.68859 4.03726 1.50194
internal_count=278 216 190 152 62 38 27 35 27 19 26
shrinkage=0.049


end of trees

feature_importances:
relevance=74
color=39
intensity=29
proximity2fe=12
wellknownness=10
integration=9
shape_size=8
visibility=8
proximity2dp=7
uniqueness=6
choice=5

parameters:
[boosting: gbdt]
[objective: lambdarank]
[metric: ndcg]
[tree_learner: serial]
[device_type: cpu]
[data: ]
[valid: ]
[num_iterations: 36]
[learning_rate: 0.049]
[num_leaves: 16]
[num_threads: -1]
[force_col_wise: 0]
[force_row_wise: 0]
[histogram_pool_size: -1]
[max_depth: 4]
[min_data_in_leaf: 5]
[min_sum_hessian_in_leaf: 0.001]
[bagging_fraction: 1]
[pos_bagging_fraction: 1]
[neg_bagging_fraction: 1]
[bagging_freq: 0]
[bagging_seed: 3]
[feature_fraction: 1]
[feature_fraction_bynode: 1]
[feature_fraction_seed: 2]
[extra_trees: 0]
[extra_seed: 6]
[early_stopping_round: 100]
[first_metric_only: 0]
[max_delta_step: 0]
[lambda_l1: 0]
[lambda_l2: 0]
[min_gain_to_split: 0]
[drop_rate: 0.1]
[max_drop: 50]
[skip_drop: 0.5]
[xgboost_dart_mode: 0]
[uniform_drop: 0]
[drop_seed: 4]
[top_rate: 0.2]
[other_rate: 0.1]
[min_data_per_group: 100]
[max_cat_threshold: 32]
[cat_l2: 10]
[cat_smooth: 10]
[max_cat_to_onehot: 4]
[top_k: 20]
[monotone_constraints: ]
[monotone_constraints_method: basic]
[monotone_penalty: 0]
[feature_contri: ]
[forcedsplits_filename: ]
[refit_decay_rate: 0.9]
[cegb_tradeoff: 1]
[cegb_penalty_split: 0]
[cegb_penalty_feature_lazy: ]
[cegb_penalty_feature_coupled: ]
[path_smooth: 0]
[interaction_constraints: ]
[verbosity: -1]
[saved_feature_importance_type: 0]
[max_bin: 255]
[max_bin_by_feature: ]
[min_data_in_bin: 3]
[bin_construct_sample_cnt: 200000]
[data_random_seed: 1]
[is_enable_sparse: 1]
[enable_bundle: 1]
[use_missing: 1]
[zero_as_missing: 0]
[feature_pre_filter: 1]
[pre_partition: 0]
[two_round: 0]
[header: 0]
[label_column: ]
[weight_column: ]
[group_column: ]
[ignore_column: ]
[categorical_feature: ]
[forcedbins_filename: ]
[objective_seed: 5]
[num_class: 1]
[is_unbalance: 0]
[scale_pos_weight: 1]
[sigmoid: 1]
[boost_from_average: 1]
[reg_sqrt: 0]
[alpha: 0.9]
[fair_c: 1]
[poisson_max_delta_step: 0.7]
[tweedie_variance_power: 1.5]
[lambdarank_truncation_level: 20]
[lambdarank_norm: 1]
[label_gain: ]
[eval_at: 1,2]
[multi_error_top_k: 1]
[auc_mu_weights: ]
[num_machines: 1]
[local_listen_port: 12400]
[time_out: 120]
[machine_list_filename: ]
[machines: ]
[gpu_platform_id: -1]
[gpu_device_id: -1]
[gpu_use_dp: 0]

end of parameters

pandas_categorical:null
