tree
version=v3
num_class=1
num_tree_per_iteration=1
label_index=0
max_feature_idx=11
objective=lambdarank
feature_names=color intensity shape_size integration choice visibility proximity2dp proximity2fe proximity2be uniqueness wellknownness relevance
feature_infos=[0:1] [0:1] [0:1.0000000000000002] [0.00085948961721993289:1] [0:1] [0:1] [0:1.0000000000000002] [0:0.99999999999999989] [0:0.93183904056685019] [0:1] [0:0.97986577180532408] [0:1]
tree_sizes=1672 1789 1577 1480 1591 1584 1360 1381 1589 1588 1594 1798 1805 1482 1599 1808 1811 1598 1603 1598 1799 1808 1811 1600 1607 1803 1596 1814 1810 1605 1802 1287 1816 1818 1276

Tree=0
num_leaves=15
num_cat=0
split_feature=1 8 7 0 7 5 11 0 0 11 11 1 11 0
split_gain=15.0079 8.21414 4.02484 2.0772 1.38925 1.23425 0.769358 0.434756 0.329121 0.232973 0.0434526 0.0283904 0.00640735 7.96701e-06
threshold=0.30847625175305093 0.089282979395787207 0.025384520271380974 0.59033361992249433 0.020714679282958556 0.13317275513406593 0.67688773599872754 0.51348607409480673 0.63252044125064555 0.67688773599872754 0.98202865771588765 0.20976926485769415 0.49459000568800598 0.39502600680593031
decision_type=2 2 2 2 2 2 2 2 2 2 2 2 2 2
left_child=4 2 5 7 6 -2 12 -3 -5 -6 -4 -8 -1 -11
right_child=1 3 10 8 9 -7 11 -9 -10 13 -12 -13 -14 -15
leaf_value=-0.048641863083675199 0.025004796666827225 0.098000000000000004 -0.075080149264350429 0.046461310750639827 -0.097999999999999879 -0.012072236829129402 -0.014563502916359218 0.06616344647421378 0.014778262740920018 -0.069999999999999937 -0.060241351026437615 0 -0.05284227105627947 -0.069804956698906379
leaf_weight=1.5266677737236043 5.684754490852356 2.6767519637942305 0.92570990324020452 2.0583694614470005 1.0339605808258059 3.4724767357110977 1.2468266449868677 1.6739129461348055 1.2747350335121157 1.5155094861984255 0.97062080726027489 0.43300271034240712 2.03316430747509 0.75251286476850499
leaf_count=15 61 25 10 21 10 34 15 16 14 14 10 4 20 7
internal_value=0 0.0245391 -0.00251036 0.0634515 -0.0538302 0.010945 -0.0381428 0.0857509 0.0343442 -0.0787233 -0.067485 -0.0108095 -0.0510409 -0.0699353
internal_weight=0 18.7373 11.0536 7.68377 8.54164 9.15723 5.23966 4.35066 3.3331 3.30198 1.89633 1.67983 3.55983 2.26802
internal_count=276 191 115 76 85 95 54 41 35 31 20 19 35 21
shrinkage=0.049


Tree=1
num_leaves=16
num_cat=0
split_feature=1 0 7 1 1 11 0 11 0 0 11 1 0 0 11
split_gain=65.6201 34.4709 14.359 8.35559 7.63927 4.54589 2.37457 1.94694 1.1914 1.15523 1.28014 0.544889 0.0210087 0.00108775 0.000164681
threshold=0.30847625175305093 0.57358709964519461 0.024554669465599758 0.58355200773909133 0.13186544335975872 0.45133336091856951 0.76735039005403693 0.67688773599872754 0.51348607409480673 0.20029640213204666 0.67688773599872754 0.20976926485769415 0.70657666276404862 0.39502600680593031 0.42474782993232335
decision_type=2 2 2 2 2 2 2 2 2 2 2 2 2 2 2
left_child=4 3 5 8 9 -3 -4 12 -2 10 -1 -9 -6 -11 -5
right_child=1 2 6 14 7 -7 -8 11 -10 13 -12 -13 -14 -15 -16
leaf_value=-0.093455160716403668 0.032147161602468936 0.034149294994725743 -0.013210905752388926 0.093307160357923954 -0.036144642869749742 0.005312087821774389 -0.043867521698836641 -0.019831462720972116 0.055979676499930867 -0.049627898083402705 -0.063059101522932731 0.0031894782266970174 -0.039336707429488173 -0.050827869535658883 0.093653887301143962
leaf_weight=5.2334471940994272 10.619133502244949 23.625514984130859 13.246016979217529 7.3527927398681623 8.0290561318397522 29.531331568956375 11.192048460245132 9.7501935362815839 9.5795238018035889 3.1665393114089957 9.1309229731559753 3.3055356740951529 12.911074548959732 4.2456045746803284 5.9508273601531982
leaf_count=10 22 37 19 14 12 52 20 15 16 4 14 4 19 7 11
internal_value=0 0.0217713 0.0038367 0.0633097 -0.0433679 0.0181288 -0.0272509 -0.0288536 0.0434501 -0.0660264 -0.0741335 -0.0140029 -0.0381128 -0.0503152 0.0934623
internal_weight=0 111.097 77.5949 33.5023 55.7724 53.1568 24.4381 33.9959 20.1987 21.7765 14.3644 13.0557 20.9401 7.41214 13.3036
internal_count=276 191 128 63 85 89 39 50 38 35 24 19 31 11 25
shrinkage=0.049


Tree=2
num_leaves=14
num_cat=0
split_feature=1 10 6 1 2 1 11 0 11 0 0 0 11
split_gain=40.1028 22.1042 18.2427 5.48579 3.23267 2.62976 1.69591 0.804982 0.98354 0.23871 0.115112 0.0292032 0.00107407
threshold=0.30847625175305093 0.053859060085187614 0.21960082334441897 0.13186544335975872 0.99599037690457126 0.6478058824532259 0.67688773599872754 0.20029640213204666 0.67688773599872754 0.60700420711197478 0.70657666276404862 0.39502600680593031 0.42474782993232335
decision_type=2 2 2 2 2 2 2 2 2 2 2 2 2
left_child=3 12 4 7 -3 -4 10 8 -1 -8 -5 -9 -2
right_child=1 2 5 6 -6 -7 9 11 -10 -11 -12 -13 -14
leaf_value=-0.089749526517736961 0.08919648689527751 0.0361888273377442 -0.039023446198048269 -0.029573294750532941 0.00091111135534105425 -0.0082801761647894288 0.0037860614015911157 -0.050574149331553318 -0.058344454196891639 -0.013612824487811778 -0.037809495532291792 -0.043583852212056962 0.090250876081696962
leaf_weight=3.6703155189752596 5.0735070854425413 39.129745781421661 8.787126421928404 6.6720429956913039 7.4191607236862174 27.865543931722641 2.5483150184154493 2.5248972177505484 6.8872097730636597 7.3658276498317719 10.464857131242752 3.32400843501091 4.2735470533370972
leaf_count=10 14 78 20 12 14 54 4 4 14 15 19 7 11
internal_value=0 0.0182327 0.0102063 -0.0388291 0.0305661 -0.0156506 -0.025271 -0.0611838 -0.0692624 -0.00914064 -0.0346028 -0.0466015 0.0896786
internal_weight=0 92.5486 83.2016 43.4575 46.5489 36.6527 27.051 16.4064 10.5575 9.91414 17.1369 5.84891 9.34705
internal_count=276 191 166 85 92 74 50 35 24 19 31 11 25
shrinkage=0.049


Tree=3
num_leaves=13
num_cat=0
split_feature=1 8 1 7 0 11 7 11 0 11 11 11
split_gain=29.5903 16.4167 6.73239 6.02029 3.72826 2.7402 1.39628 1.38702 0.960718 0.827614 0.825104 0.000962019
threshold=0.30847625175305093 0.089282979395787207 0.58355200773909133 0.024554669465599758 1.0000000180025095e-35 0.45133336091856951 0.01447710360500888 0.45133336091856951 0.20029640213204666 0.98202865771588765 0.67688773599872754 0.42474782993232335
decision_type=2 2 2 2 2 2 2 2 2 2 2 2
left_child=4 3 6 5 10 -2 -3 -5 -6 -10 -1 -4
right_child=1 2 11 7 8 -7 -8 -9 9 -11 -12 -13
leaf_value=-0.086412839060174995 0.033177052275906983 0.012931301965149368 0.085904673249031061 -0.0037296021967643091 0.0034151942067113285 0.0027722883685218423 0.040048768173301497 -0.034587713628171243 -0.035472299644653683 -0.015200002918691122 -0.054083827417495546 0.087033026646727851
leaf_weight=2.8374625891447049 9.817341208457945 6.4085454642772737 3.9904181212186804 5.104419797658923 2.173645198345187 25.873353496193886 15.79616594314575 11.108225271105765 19.677440211176876 6.4103727340698233 5.7094750106334686 3.3266121000051498
leaf_count=10 18 14 14 11 4 58 37 28 42 15 14 11
internal_value=0 0.0164814 0.0456548 -0.000111876 -0.0364591 0.0111356 0.0322223 -0.0248723 -0.0278831 -0.0304909 -0.0648166 0.0864177
internal_weight=0 81.4251 29.5217 51.9033 36.8084 35.6907 22.2047 16.2126 28.2615 26.0878 8.54694 7.31703
internal_count=276 191 76 115 85 76 51 39 61 57 24 25
shrinkage=0.049


Tree=4
num_leaves=14
num_cat=0
split_feature=1 0 7 1 0 11 10 11 11 0 1 11 11
split_gain=22.2917 15.3032 5.24045 3.4832 3.2053 2.70468 1.10182 0.853958 0.672805 0.641023 0.456781 0.00166589 0.000223225
threshold=0.30847625175305093 0.57358709964519461 0.024554669465599758 0.58355200773909133 1.0000000180025095e-35 0.45133336091856951 0.070973154050662138 0.45133336091856951 0.67688773599872754 0.51348607409480673 0.20976926485769415 0.42474782993232335 0.53168496441549251
decision_type=2 2 2 2 2 2 2 2 2 2 2 2 2
left_child=4 3 5 9 8 -3 12 -4 -1 -2 -8 -5 -6
right_child=1 2 7 11 6 -7 10 -9 -10 -11 -12 -13 -14
leaf_value=-0.083779037249246999 0.029840784167887904 0.025749342441041701 -0.0059971555654075503 0.082761424298354327 -0.038017452501064836 -0.00091306402728401608 -0.020245586133568701 -0.031757498980781694 -0.051885721781632629 0.051696328597099286 0.0051295173067372087 0.084398202645079107 -0.037527972805547344
leaf_weight=2.3564336597919455 8.0190456658601779 16.760235413908958 4.5006680190563193 3.2462406009435645 6.7652317881584185 20.078696757555008 13.346808329224583 9.8560887426137906 4.8707607835531235 5.3864521831274024 1.9524399340152747 2.7643615752458572 3.3421092331409454
leaf_count=10 22 37 11 14 15 52 34 28 14 16 4 11 8
internal_value=0 0.0154784 0.00143051 0.0525196 -0.0334917 0.0112173 -0.0253012 -0.0236819 -0.0622846 0.0386225 -0.0170073 0.0835142 -0.0378556
internal_weight=0 70.6118 51.1957 19.4161 32.6338 36.8389 25.4066 14.3568 7.22719 13.4055 15.2992 6.0106 10.1073
internal_count=276 191 128 63 85 89 61 39 24 38 38 25 23
shrinkage=0.049


Tree=5
num_leaves=14
num_cat=0
split_feature=1 0 7 1 0 11 11 11 0 11 1 11 11
split_gain=16.8395 10.9574 5.22002 3.30827 2.83336 1.93061 1.33133 0.811397 0.611873 0.579976 0.193076 0.113972 0.00238719
threshold=0.30847625175305093 0.57358709964519461 0.024554669465599758 0.58355200773909133 1.0000000180025095e-35 0.45133336091856951 0.67688773599872754 0.45133336091856951 0.51348607409480673 0.67688773599872754 0.13186544335975872 0.53168496441549251 0.42474782993232335
decision_type=2 2 2 2 2 2 2 2 2 2 2 2 2
left_child=4 3 5 8 9 -3 11 -4 -2 -1 -8 -6 -5
right_child=1 2 7 12 6 -7 10 -9 -10 -11 -12 -13 -14
leaf_value=-0.081426099600940549 0.02485507077317425 0.024734479574856166 -0.0060897809400308166 0.080020590835136185 -0.029778044072519258 0.0013013632091116926 -0.019502206848126414 -0.032590611462360503 0.047844047061798393 -0.049526414462529263 -0.0038163334634484084 -0.040281983708388862 0.082144170146876069
leaf_weight=2.009201385080817 7.1794509738683718 15.683302253484724 4.0148635655641547 2.7331384345889083 10.800928309559824 18.282109409570694 2.6292805075645429 8.9753839224576932 4.5361555516719818 4.2910657972097397 6.6477513611316681 3.2194959521293631 2.3758143484592438
leaf_count=10 22 37 11 14 27 52 7 28 16 14 19 8 11
internal_value=0 0.014175 0.0020178 0.0481047 -0.0305458 0.0121214 -0.0226619 -0.0244001 0.0337562 -0.0596995 -0.008262 -0.0321901 0.0810081
internal_weight=0 63.7802 46.9557 16.8246 29.5977 33.9654 23.2975 12.9902 11.7156 6.30027 9.27703 14.0204 5.10895
internal_count=276 191 128 63 85 89 61 39 38 24 26 35 25
shrinkage=0.049


Tree=6
num_leaves=12
num_cat=0
split_feature=5 5 7 0 0 5 11 11 11 11 11
split_gain=13.8767 10.2584 3.9053 2.93167 2.51464 1.44995 1.45446 0.683453 0.55075 0.446467 0.00289029
threshold=0.62612983742317041 0.13317275513406593 0.013945658280811976 0.39502600680593031 0.59033361992249433 0.10452880480595676 0.77915819106608775 0.91589751341782366 0.91589751341782366 0.45133336091856951 0.42474782993232335
decision_type=2 2 2 2 2 2 2 2 2 2 2
left_child=1 5 8 -4 10 6 -1 -6 -3 -7 -2
right_child=4 2 3 -5 7 9 -8 -9 -10 -11 -12
leaf_value=0.0076105056401239149 0.077626775466235226 0.0080658906458027941 -0.056369257112585516 -0.021592456160174661 0.019843977462174055 0.027613736602935385 0.044585324171888048 0.05074709519467259 -0.022269809870050256 0.060566466128922032 0.080133510534434474
leaf_weight=18.008633866906173 2.353531785309313 10.397850573062893 7.1591783836483947 31.115501567721367 4.3974170088768005 1.8536949008703225 2.9765481054782859 2.8203324973583221 1.667363807559014 2.1118562817573547 2.0807565152645111
leaf_count=48 14 26 28 92 12 7 13 9 7 9 11
internal_value=0 -0.00770111 -0.0204347 -0.0280974 0.0497614 0.0179899 0.012855 0.0319194 0.00387362 0.0451627 0.078803
internal_weight=0 75.2906 50.3399 38.2747 11.652 24.9507 20.9852 7.21775 12.0652 3.96555 4.43429
internal_count=276 230 153 120 46 77 61 21 33 16 25
shrinkage=0.049


Tree=7
num_leaves=12
num_cat=0
split_feature=1 10 7 0 0 10 11 11 11 11 11
split_gain=11.9189 7.14621 5.09582 1.94257 1.80883 1.55456 0.874749 0.524983 0.274388 0.160734 0.0016117
threshold=0.30847625175305093 0.053859060085187614 0.024554669465599758 1.0000000180025095e-35 0.61341275555286834 0.070973154050662138 0.45133336091856951 0.67688773599872754 0.67688773599872754 0.53168496441549251 0.42474782993232335
decision_type=2 2 2 2 2 2 2 2 2 2 2
left_child=3 10 4 7 -3 9 -4 -1 -7 -5 -2
right_child=1 2 6 5 -6 8 -8 -9 -10 -11 -12
leaf_value=-0.07794712585399971 0.07593071870997968 0.029009007116492916 -0.0006998439946454744 -0.031760042469204788 0.0076566927762296089 -0.019915162841355253 -0.030191344170655422 -0.043841812361614899 -0.0045931969478872721 -0.045760502581975275 0.077925521638217282
leaf_weight=1.5790783762931848 2.1037317365407935 16.163916952908039 3.5117201805114728 5.456909507513048 23.195176616311073 4.2204486057162276 7.7308667525649071 3.4540276452898979 8.3748687878251058 3.0801953077316284 1.8084484413266184
leaf_count=10 14 59 11 15 68 12 28 14 26 8 11
internal_value=0 0.013048 0.00811504 -0.0271845 0.0164256 -0.0206688 -0.0209794 -0.054542 -0.00972729 -0.0368114 0.0768528
internal_weight=0 54.5139 50.6017 26.1655 39.3591 21.1324 11.2426 5.03311 12.5953 8.5371 3.91218
internal_count=276 191 166 85 127 61 39 24 38 23 25
shrinkage=0.049


Tree=8
num_leaves=14
num_cat=0
split_feature=1 10 7 1 6 11 11 11 0 11 5 1 11
split_gain=10.0795 6.18671 4.56974 1.7855 1.6913 0.856027 0.627441 0.518601 0.179943 0.179581 0.175608 0.0464792 0.00129131
threshold=0.30847625175305093 0.053859060085187614 0.024554669465599758 0.13186544335975872 0.1698148802957318 0.45133336091856951 0.67688773599872754 0.67688773599872754 0.39502600680593031 0.53168496441549251 0.20945946249560674 0.20976926485769415 0.42474782993232335
decision_type=2 2 2 2 2 2 2 2 2 2 2 2 2
left_child=3 12 4 6 -3 -4 10 9 -8 -5 -1 -9 -2
right_child=1 2 5 7 -6 -7 8 11 -10 -11 -12 -13 -14
leaf_value=-0.051426247399462589 0.074254011310166804 0.033614075098155734 -0.00022932443900368685 -0.019558005508729073 0.0096014494555809373 -0.030232059110006326 -0.042676046683185045 -0.0072012156484797651 -0.024472220763478637 -0.034762774547713503 -0.076214129549834697 0.0030851705682369791 0.076144102398812474
leaf_weight=1.3461420238018054 1.8791141137480727 9.3862661793827993 3.3266835212707502 7.713652089238165 28.205663003027439 7.2797219082713127 3.2190491855144501 4.0190025866031638 2.1912734284996986 2.4598036855459213 1.3997521102428436 1.4299439936876295 1.6127195730805397
leaf_count=4 14 37 11 23 90 28 14 15 7 8 10 4 11
internal_value=0 0.0121457 0.00758288 -0.0264024 0.0155971 -0.0208217 -0.0449853 -0.0167006 -0.0353032 -0.0232343 -0.0640622 -0.0045018 0.075127
internal_weight=0 51.6902 48.1983 23.7786 37.5919 10.6064 8.15622 15.6224 5.41032 10.1735 2.74589 5.44895 3.49183
internal_count=276 191 166 85 127 39 35 50 21 31 14 19 25
shrinkage=0.049


Tree=9
num_leaves=14
num_cat=0
split_feature=1 10 7 1 6 11 11 10 0 5 0 11 11
split_gain=8.88478 5.33034 3.82771 1.52329 1.47083 0.661471 0.659305 0.595571 0.119501 0.118217 0.0847045 0.0302443 0.00119829
threshold=0.30847625175305093 0.053859060085187614 0.024554669465599758 0.13186544335975872 0.1698148802957318 0.45133336091856951 0.67688773599872754 0.070973154050662138 0.39502600680593031 0.20945946249560674 0.60700420711197478 0.53168496441549251 0.42474782993232335
decision_type=2 2 2 2 2 2 2 2 2 2 2 2 2
left_child=3 12 4 6 -3 -4 9 11 -8 -1 -9 -5 -2
right_child=1 2 5 7 -6 -7 8 10 -10 -11 -12 -13 -14
leaf_value=-0.053370581940302704 0.072638198702892162 0.03244840573420079 -0.00079046084307972354 -0.025737177816532345 0.0093014092698973771 -0.028039530978249103 -0.039376740438150863 0.0028216042409521919 -0.024050782810792877 -0.074595004655911304 -0.010456513114792421 -0.032964945207664867 0.074559819106706102
leaf_weight=1.2716306447982815 1.68430296704173 8.7112220004200918 3.121040999889372 3.5532924085855457 27.083902627229691 6.7974457964301109 3.0516867861151695 1.3616800159215925 2.0368671864271164 1.2489121444523335 7.545843631029129 2.2832357138395309 1.4498337656259537
leaf_count=4 14 37 11 11 90 28 14 4 7 10 27 8 11
internal_value=0 0.0117091 0.00747085 -0.0255876 0.0149345 -0.0194651 -0.0433933 -0.0163984 -0.033242 -0.0638871 -0.00842671 -0.0285647 0.0735271
internal_weight=0 48.8477 45.7136 22.3531 35.7951 9.91849 7.6091 14.7441 5.08855 2.52054 8.90752 5.83653 3.13414
internal_count=276 191 166 85 127 39 35 50 21 14 31 19 25
shrinkage=0.049


Tree=10
num_leaves=14
num_cat=0
split_feature=1 10 7 1 6 11 11 10 5 0 0 11 11
split_gain=7.30587 4.71033 3.68387 1.43612 1.28628 0.733506 0.613254 0.576039 0.0732025 0.0710672 0.0575885 0.0280708 0.00109405
threshold=0.30847625175305093 0.053859060085187614 0.024554669465599758 0.13186544335975872 0.1698148802957318 0.67688773599872754 0.45133336091856951 0.070973154050662138 0.20945946249560674 0.39502600680593031 0.60700420711197478 0.53168496441549251 0.42474782993232335
decision_type=2 2 2 2 2 2 2 2 2 2 2 2 2
left_child=3 12 4 5 -3 8 -4 11 -1 -7 -9 -5 -2
right_child=1 2 6 7 -6 9 -8 10 -10 -11 -12 -13 -14
leaf_value=-0.055835183252363862 0.071185802675198209 0.031312120574871247 -0.0016250845423847879 -0.024255640148842073 0.0090356958016566732 -0.035538708174871918 -0.028594112710756209 0.0028238728917207535 -0.073131495202359398 -0.023407500509829621 -0.0083999113911458444 -0.031436361761159354 0.073117148664371898
leaf_weight=1.2327411025762585 1.5204093493521205 8.1665247678756696 2.9373398274183256 3.3410256206989262 26.15794138610363 2.9386456161737442 6.5136822089552879 1.2963733226060865 1.1224403791129589 1.91503719240427 7.1589897945523262 2.1471227556467056 1.311825230717659
leaf_count=4 14 37 11 11 90 14 28 4 10 7 27 8 11
internal_value=0 0.0108392 0.00687691 -0.0238833 0.0143357 -0.0416401 -0.0202122 -0.0147029 -0.0640783 -0.0307523 -0.00667908 -0.0270649 0.0720804
internal_weight=0 46.6077 43.7755 21.1524 34.3245 7.20886 9.45102 13.9435 2.35518 4.85368 8.45536 5.48815 2.83223
internal_count=276 191 166 85 127 35 39 50 14 21 31 19 25
shrinkage=0.049


Tree=11
num_leaves=16
num_cat=0
split_feature=1 8 7 10 11 1 11 10 11 0 0 5 0 0 11
split_gain=5.83163 4.26094 2.41359 2.2313 1.62216 1.3997 0.882107 0.668715 0.63219 0.401654 0.122897 0.0377141 0.0303849 0.0230234 0.0178636
threshold=0.30847625175305093 0.089282979395787207 0.024554669465599758 0.061912751363057981 0.45133336091856951 0.13186544335975872 0.67688773599872754 0.070973154050662138 0.45133336091856951 0.51348607409480673 0.63252044125064555 0.20945946249560674 0.39502600680593031 0.60700420711197478 0.53168496441549251
decision_type=2 2 2 2 2 2 2 2 2 2 2 2 2 2 2
left_child=5 2 4 9 -2 6 11 14 -4 -3 -5 -1 -8 -9 -7
right_child=1 3 8 10 -6 7 12 13 -10 -11 -12 -13 -14 -15 -16
leaf_value=-0.05906482326537689 0.029113060418045022 0.070764647481734694 -0.0019319565079794696 0.021797333955599435 -0.00017177133982985423 -0.023948781647483441 -0.030631017235068357 0.0023656372156654081 -0.029906364379919982 0.04418483058363095 0.0099559492701268137 -0.071810582251973204 -0.022536465372942217 -0.004882794774343076 -0.029835520991339605
leaf_weight=1.2359499782323864 6.4856177940964761 2.5731735043227646 2.7875621840357763 4.8063392415642738 15.150794744491575 3.1565935313701603 2.8914060443639755 1.2392662763595579 6.3764384500682354 2.9072875864803791 3.7433907762169838 1.0152678228914738 1.810711622238159 6.9678440615534782 2.0359935835003853
leaf_count=4 18 25 11 21 58 11 14 4 28 16 14 10 7 27 8
internal_value=0 0.00987527 -0.00032038 0.0322577 0.0086065 -0.0217518 -0.0395899 -0.0124952 -0.0213969 0.0566645 0.0166127 -0.064813 -0.0275139 -0.00378829 -0.0262569
internal_weight=0 44.8306 30.8004 14.0302 21.6364 20.353 6.95334 13.3997 9.164 5.48046 8.54973 2.25122 4.70212 8.20711 5.19259
internal_count=276 191 115 76 76 85 35 50 39 41 35 14 21 31 19
shrinkage=0.049


Tree=12
num_leaves=16
num_cat=0
split_feature=1 0 11 5 1 11 10 2 5 11 11 5 11 11 1
split_gain=5.26745 5.1595 2.43801 1.977 1.12296 1.24902 1.07098 0.60274 0.539418 0.364941 0.0212754 0.00989765 0.00619294 0.00124389 0.000975428
threshold=0.30847625175305093 0.57358709964519461 0.45133336091856951 0.44338217292259219 0.13186544335975872 0.67688773599872754 0.053859060085187614 0.12028869286287094 0.13317275513406593 0.77915819106608775 0.98202865771588765 0.20945946249560674 0.53168496441549251 0.42474782993232335 1.0000000180025095e-35
decision_type=2 2 2 2 2 2 2 2 2 2 2 2 2 2 2
left_child=4 6 8 -4 5 11 13 12 -3 -8 -9 -1 -6 -2 -7
right_child=1 2 3 -5 7 14 9 10 -10 -11 -12 -13 -14 -15 -16
leaf_value=-0.064045923980319344 0.068497985473043088 0.027189274190164363 -0.022643846536813523 0.011723188438646413 -0.024310602218479558 -0.021411809547097527 0.025261678638787022 -0.0017707947078231011 0.0075404546297323082 0.049589531770819276 -0.0069758758355977406 -0.070646897694192412 -0.027863769986348898 0.07075927934139753 -0.022880257544232084
leaf_weight=1.3267899155616789 1.2455141264945251 5.7987831309437734 12.364243455231192 5.9544425420463076 2.9972694218158704 1.7173949740827081 5.6035100668668747 4.7050116434693336 7.9589065238833427 2.0121110752224922 3.1462604701519012 0.92605643533170212 1.9401241019368169 1.0997903719544411 2.954671073704958
leaf_count=4 14 18 56 24 11 7 25 16 30 13 15 10 8 11 14
internal_value=0 0.00980032 0.000234113 -0.0114729 -0.0208982 -0.036791 0.0406056 -0.0122925 0.0158223 0.0316893 -0.00385664 -0.0667593 -0.0257068 0.0695584 -0.0223405
internal_weight=0 42.0373 32.0764 18.3187 19.7136 6.92491 9.96093 12.7887 13.7577 7.61562 7.85127 2.25285 4.93739 2.3453 4.67207
internal_count=276 191 128 80 85 35 63 50 48 38 31 14 19 25 21
shrinkage=0.049


Tree=13
num_leaves=13
num_cat=0
split_feature=1 0 7 2 11 10 11 11 1 11 1 11
split_gain=4.9912 3.74523 2.18722 1.95724 1.2427 1.14537 0.423583 0.428074 0.372537 0.313102 0.112328 0.00110288
threshold=0.30847625175305093 0.57358709964519461 0.024554669465599758 0.70769847634322391 0.64772487228375752 0.053859060085187614 0.67688773599872754 0.53168496441549251 0.6478058824532259 0.77915819106608775 1.0000000180025095e-35 0.42474782993232335
decision_type=2 2 2 2 2 2 2 2 2 2 2 2
left_child=3 5 4 6 -3 11 7 -1 -4 -7 -8 -2
right_child=1 2 8 -5 -6 9 10 -9 -10 -11 -12 -13
leaf_value=-0.016132603006631396 0.067422669743750191 0.0034822067284790924 -0.032486958771971122 -0.071743929999802822 0.031137688301031759 0.02174314791177729 -0.019901743712115862 -0.03951550697244386 -0.011299423783995375 0.04550302614691587 -0.0056976689577877878 0.069646096930308446
leaf_weight=6.0898225419223362 1.1372533403336984 18.348022773861892 3.3888081349432451 1.6330536752939213 4.9546460434794417 5.3470793478190899 1.6305008269846419 2.7191677801311016 4.8358045369386673 1.7732641175389288 7.4200369268655777 1.0125558152794838
leaf_count=23 14 67 20 4 22 25 7 18 19 13 33 11
internal_value=0 0.00974528 0.00169485 -0.0203966 0.00936235 0.0371244 -0.0157015 -0.0233505 -0.0200294 0.0276604 -0.00825661 0.0684699
internal_weight=0 40.7974 31.5273 19.4926 23.3027 9.27015 17.8595 8.80899 8.22461 7.12034 9.05054 2.14981
internal_count=276 191 128 85 89 63 81 41 39 38 40 25
shrinkage=0.049


Tree=14
num_leaves=14
num_cat=0
split_feature=1 10 7 1 11 11 11 2 0 0 5 11 11
split_gain=4.9434 2.90559 2.53767 1.25319 0.888375 0.637196 0.329801 0.321397 0.0455616 0.0229342 0.0215885 0.0177619 0.000605403
threshold=0.30847625175305093 0.053859060085187614 0.024554669465599758 0.13186544335975872 0.45133336091856951 0.67688773599872754 0.45133336091856951 0.12028869286287094 0.39502600680593031 0.60700420711197478 0.20945946249560674 0.53168496441549251 0.42474782993232335
decision_type=2 2 2 2 2 2 2 2 2 2 2 2 2
left_child=3 12 4 5 -3 10 -4 11 -7 -9 -1 -5 -2
right_child=1 2 6 7 -6 8 -8 9 -10 -11 -12 -13 -14
leaf_value=-0.058449441329095193 0.06671592573682579 0.023751458969526594 -0.0030422635796534449 -0.024582682282832433 0.0063272470782277691 -0.03252678583350517 -0.024615774753080785 0.00089666035456808829 -0.022039771661514163 -0.0066223481786669234 -0.069090522304119176 -0.018329523115097685 0.068431226427882894
leaf_weight=1.0577921569347406 1.0612586401402939 11.772930510342123 2.4708323553204528 2.7137907855212671 17.422688696533442 2.8167238831520081 5.4634268060326576 1.1627776175737379 1.5377135798335073 5.9989750720560551 0.80700014159083355 1.8234802335500715 0.92431982979178418
leaf_count=4 14 44 11 11 83 14 28 4 7 27 10 8 11
internal_value=0 0.00976375 0.00667545 -0.0213142 0.0133534 -0.0390874 -0.0178975 -0.011866 -0.0288234 -0.00540157 -0.0630544 -0.0220696 0.0675144
internal_weight=0 39.1155 37.1299 17.9183 29.1956 6.21923 7.93426 11.699 4.35444 7.16175 1.86479 4.53727 1.98558
internal_count=276 191 166 85 127 35 39 50 21 31 14 19 25
shrinkage=0.049


Tree=15
num_leaves=16
num_cat=0
split_feature=1 0 11 5 1 10 1 11 11 2 1 0 5 11 11
split_gain=4.74764 2.90425 1.74519 1.49538 1.01586 0.975621 0.610209 0.523579 0.342191 0.242923 0.0941882 0.031606 0.0268166 0.00557649 0.000637828
threshold=0.30847625175305093 0.57358709964519461 0.45133336091856951 0.44338217292259219 0.13186544335975872 0.053859060085187614 0.75421761723155623 0.67688773599872754 0.77915819106608775 0.12028869286287094 1.0000000180025095e-35 0.60700420711197478 0.20945946249560674 0.53168496441549251 0.42474782993232335
decision_type=2 2 2 2 2 2 2 2 2 2 2 2 2 2 2
left_child=4 5 6 -4 7 14 -3 12 -7 13 -9 -11 -1 -6 -2
right_child=1 2 3 -5 9 8 -8 10 -10 11 -12 -13 -14 -15 -16
leaf_value=-0.055663179657251413 0.065660778426846533 0.0067104884737909255 -0.018725363770292814 0.012547577947746164 -0.023295854673772279 0.019970751885427528 0.028452364985227976 -0.018922559484140788 0.045828031677192384 0.00043348621261044901 -0.034331320225555934 -0.0085569491245634562 -0.06810836520662511 -0.019735259553289364 0.067496386971166861
leaf_weight=0.94340291619301087 0.97080129012465277 7.2788958102464694 10.930061243474485 5.5278692357242099 2.6197760105133039 5.14344796910882 5.3978179022669792 1.4959025792777536 1.6145846582949159 1.1259748041629789 2.6218875255435705 5.6496024541556835 0.74320943281054497 1.7694039195775983 0.85460318066179752
leaf_count=4 14 30 56 24 11 25 18 7 13 4 14 27 10 8 11
internal_value=0 0.00968383 0.00230371 -0.00822145 -0.0215247 0.0347341 0.0159683 -0.0381522 0.0261484 -0.0128802 -0.0287337 -0.00706291 -0.0611472 -0.0218605 0.0665202
internal_weight=0 37.7181 29.1346 16.4579 16.9692 8.58344 12.6767 5.8044 6.75803 11.1648 4.11779 6.77558 1.68661 4.38918 1.8254
internal_count=276 191 128 80 85 63 48 35 38 50 21 31 14 19 25
shrinkage=0.049


Tree=16
num_leaves=16
num_cat=0
split_feature=1 0 7 10 11 1 11 11 11 11 0 2 5 1 11
split_gain=4.22551 2.39117 1.68069 0.963173 0.946295 0.907739 0.467972 0.311578 0.272118 0.232736 0.120472 0.041476 0.0276387 0.0175754 0.000526053
threshold=0.30847625175305093 0.57358709964519461 0.024554669465599758 0.053859060085187614 0.45133336091856951 0.13186544335975872 0.67688773599872754 0.77915819106608775 0.98202865771588765 0.67688773599872754 0.39502600680593031 0.41900561347233373 0.20945946249560674 0.20976926485769415 0.42474782993232335
decision_type=2 2 2 2 2 2 2 2 2 2 2 2 2 2 2
left_child=5 3 4 14 -3 6 12 -5 -4 11 -8 -7 -1 -11 -2
right_child=1 2 8 7 -6 9 10 -9 -10 13 -12 -13 -14 -15 -16
leaf_value=-0.054006355645860517 0.064872123395833869 0.020496443820684208 -0.01251646516977179 0.018199217261462494 -0.00053424934150511823 -0.02079010285482406 -0.034623430997101134 0.043746930181436494 -0.034983853193854365 -0.0048352010186139965 -0.016797989933949341 -0.013090662237622156 -0.067186301213651212 0.0025037799635347583 0.066605183932982398
leaf_weight=0.86262273788452393 0.89556502737104693 9.9988862797617966 5.5704951696097842 4.9538124762475491 10.564773455262182 4.2755402475595456 2.4505144022405148 1.4912144467234609 1.6860981211066244 2.6334990151226521 1.4483719617128374 2.7669990621507168 0.68567045591771603 1.1152729913592341 0.79279952496290207
leaf_count=4 14 37 29 25 52 19 14 13 10 15 7 12 10 4 11
internal_value=0 0.00936989 0.0025373 0.0327407 0.00969173 -0.0207459 -0.0370522 0.0241103 -0.0177369 -0.0125149 -0.0280016 -0.017765 -0.0598432 -0.00265183 0.0656859
internal_weight=0 35.9536 27.8203 8.13339 20.5637 16.2385 5.44718 6.44503 7.25659 10.7913 3.89889 7.04254 1.54829 3.74877 1.68836
internal_count=276 191 128 63 89 85 35 38 39 50 21 31 14 19 25
shrinkage=0.049


Tree=17
num_leaves=14
num_cat=0
split_feature=1 10 7 1 0 11 1 2 0 11 0 11 11
split_gain=4.01215 2.11562 2.02512 0.75403 0.589216 0.414013 0.244905 0.218911 0.124178 0.0372002 0.0298834 0.000881697 0.000407207
threshold=0.30847625175305093 0.053859060085187614 0.024554669465599758 0.13186544335975872 0.63252044125064555 0.67688773599872754 0.6478058824532259 0.12028869286287094 0.39502600680593031 0.67688773599872754 0.20029640213204666 0.53168496441549251 0.42474782993232335
decision_type=2 2 2 2 2 2 2 2 2 2 2 2 2
left_child=3 12 4 5 -3 10 -4 11 -7 -9 -1 -5 -2
right_child=1 2 6 7 -6 8 -8 9 -10 -11 -12 -13 -14
leaf_value=-0.066365007196761874 0.064172153698582896 0.019192198631356561 -0.028259051836583577 -0.022578030607627277 0.0043849532079178397 -0.034431627252564136 -0.0094499246829843567 -0.011772734865037144 -0.015949320983238681 -0.004163439656365159 -0.052124435675207657 -0.021108836191512697 0.065755990078904605
leaf_weight=0.63414334505796321 0.82973145134746917 14.997060192748906 2.762152971699833 2.4185831397771818 11.324719715863464 2.2998358141630888 4.1733214110136032 2.687156081199646 1.4066741205751898 3.6215872578322887 0.80034111440181732 1.6496878042817114 0.7350042425096035
leaf_count=10 14 79 20 11 48 14 19 12 7 19 4 8 11
internal_value=0 0.00923463 0.00661484 -0.0207223 0.0128215 -0.0360679 -0.0169409 -0.0131197 -0.0274173 -0.00740455 -0.0584198 -0.0219823 0.0649161
internal_weight=0 34.822 33.2573 15.518 26.3218 5.14099 6.93547 10.377 3.70651 6.30874 1.43448 4.06827 1.56474
internal_count=276 191 166 85 127 35 39 50 21 31 14 19 25
shrinkage=0.049


Tree=18
num_leaves=14
num_cat=0
split_feature=1 10 7 1 6 11 11 2 0 0 0 11 11
split_gain=3.63411 1.93704 1.84274 0.699767 0.597931 0.362874 0.277098 0.207891 0.127681 0.0305328 0.0160989 0.000326246 0.000263364
threshold=0.30847625175305093 0.053859060085187614 0.024554669465599758 0.13186544335975872 0.1698148802957318 0.67688773599872754 0.45133336091856951 0.12028869286287094 0.39502600680593031 0.20029640213204666 0.60700420711197478 0.42474782993232335 0.53168496441549251
decision_type=2 2 2 2 2 2 2 2 2 2 2 2 2
left_child=3 11 4 5 -3 9 -4 12 -7 -1 -9 -2 -5
right_child=1 2 6 7 -6 8 -8 10 -10 -11 -12 -13 -14
leaf_value=-0.065551059094237196 0.063466134338579505 0.025452801617936206 -0.0021871563749999729 -0.021979759521119958 0.0080590426236685567 -0.034537877428397507 -0.02349287424815415 -0.0015981504095261118 -0.015450217303152988 -0.050615582476131342 -0.0083018830863629562 0.06493796175348894 -0.021159946220182923
leaf_weight=0.58520325459539779 0.7707814723253239 6.2202532812953022 2.1654418669641009 2.2994968015700561 20.010649278759956 2.1890902481973171 4.5354291275143623 1.0336170867085455 1.3667579777538779 0.74960868805646896 5.1239753924310207 0.68113655224442482 1.5923737585544588
leaf_count=10 14 37 11 11 90 14 28 4 7 4 27 11 8
internal_value=0 0.00876733 0.00632529 -0.0201774 0.0121837 -0.0353788 -0.0166078 -0.0127795 -0.0272012 -0.0571635 -0.00717659 0.0641566 -0.0216443
internal_weight=0 34.3837 32.9318 14.9401 26.2309 4.89066 6.70087 10.0495 3.55585 1.33481 6.15759 1.45192 3.89187
internal_count=276 191 166 85 127 35 39 50 21 14 31 25 19
shrinkage=0.049


Tree=19
num_leaves=14
num_cat=0
split_feature=1 10 7 1 1 11 11 2 0 11 0 11 11
split_gain=3.42869 1.75752 1.61855 0.61616 0.599978 0.328365 0.23037 0.182173 0.12419 0.0352457 0.029902 0.000299913 9.90204e-06
threshold=0.30847625175305093 0.053859060085187614 0.024554669465599758 0.13186544335975872 0.39052915034172347 0.67688773599872754 0.98202865771588765 0.12028869286287094 0.39502600680593031 0.67688773599872754 0.20029640213204666 0.42474782993232335 0.53168496441549251
decision_type=2 2 2 2 2 2 2 2 2 2 2 2 2
left_child=3 11 4 5 -3 10 -4 12 -7 -9 -1 -2 -5
right_child=1 2 6 7 -6 8 -8 9 -10 -11 -12 -13 -14
leaf_value=-0.064820678901983841 0.06274217125754479 0.036689762278902215 -0.010735391721315244 -0.021466679062363967 0.0095685259287568054 -0.034266862703083413 -0.033119090543053842 -0.012083703913621248 -0.015094144914257758 -0.004411655562186075 -0.049524637662330596 0.064206773900083475 -0.021305101412185182
leaf_weight=0.54244869574904331 0.71434892527758964 2.1370385941118029 5.0200222562998524 2.235198710113762 23.432830654084682 2.0835941135883331 1.4151802174746988 2.4699765630066395 1.3282849136739971 3.4401821941137314 0.70652917772531509 0.63331182673573494 1.5367540121078493
leaf_count=10 14 16 29 11 111 14 10 12 7 19 4 11 8
internal_value=0 0.00861538 0.00630724 -0.020034 0.0118352 -0.0346717 -0.0156578 -0.0129875 -0.0268027 -0.00761796 -0.0561679 0.0634304 -0.0214008
internal_weight=0 33.3527 32.0051 14.343 25.5699 4.66086 6.4352 9.68211 3.41188 5.91016 1.24898 1.34766 3.77195
internal_count=276 191 166 85 127 35 39 50 21 31 14 25 19
shrinkage=0.049


Tree=20
num_leaves=16
num_cat=0
split_feature=1 8 0 7 11 1 11 11 0 0 2 0 0 11 11
split_gain=3.155 1.62741 1.12147 0.764527 0.883917 0.550945 0.300984 0.25397 0.250657 0.236623 0.187711 0.111123 0.0300376 0.0153329 0.000305697
threshold=0.30847625175305093 0.069721214827143205 0.59033361992249433 0.024554669465599758 0.77915819106608775 0.13186544335975872 0.67688773599872754 0.45133336091856951 0.63252044125064555 0.51348607409480673 0.12028869286287094 0.39502600680593031 0.20029640213204666 0.67688773599872754 0.53168496441549251
decision_type=2 2 2 2 2 2 2 2 2 2 2 2 2 2 2
left_child=5 3 9 4 -2 6 12 -5 -4 -3 14 -8 -1 -12 -7
right_child=1 2 8 7 -6 10 11 -9 -10 -11 13 -13 -14 -15 -16
leaf_value=-0.06415078759160181 0.001312738621697476 0.062750421189277469 0.017453884680759566 -0.0012779311141957498 0.044571361209839254 -0.022030323971919327 -0.033493789494762734 -0.02229015865922029 0.0001536522019911247 0.035576441296014776 -0.010394089949031904 -0.015024787556688965 -0.048312983712956538 -0.0052676901946069714 -0.021113340535099626
leaf_weight=0.50386152788996585 10.798547353595495 1.2524617463350287 8.3365595135837776 2.0705003403127185 1.2672063820064075 2.1180097777396423 1.9770744666457176 4.148038387298584 2.6499801166355601 1.9947550855576992 2.3960046172142029 1.2942183464765549 0.66963418573141098 3.3728077225387096 1.4848365448415282
leaf_count=10 43 25 41 11 13 11 14 28 14 16 12 7 4 19 8
internal_value=0 0.0083345 0.0207585 -0.00133719 0.00585598 -0.0196159 -0.0338239 -0.015294 0.013281 0.0460575 -0.0128773 -0.0261869 -0.0551132 -0.00739688 -0.0216524
internal_weight=0 32.518 14.2338 18.2843 12.0658 13.8164 4.44479 6.21854 10.9865 3.24722 9.37166 3.27129 1.1735 5.76881 3.60285
internal_count=276 191 96 95 56 85 35 39 55 41 50 21 14 31 19
shrinkage=0.049


Tree=21
num_leaves=16
num_cat=0
split_feature=1 8 0 11 11 1 1 0 11 2 0 0 11 11 11
split_gain=2.9316 1.84352 0.895068 0.698717 1.31603 1.19113 0.498943 0.437892 0.275397 0.168764 0.10599 0.0291673 0.0248839 0.000217364 5.30813e-05
threshold=0.30847625175305093 0.069721214827143205 0.51348607409480673 0.64772487228375752 0.45133336091856951 0.51298240439606357 0.13186544335975872 0.63252044125064555 0.67688773599872754 0.12028869286287094 0.39502600680593031 0.20029640213204666 0.67688773599872754 0.42474782993232335 0.53168496441549251
decision_type=2 2 2 2 2 2 2 2 2 2 2 2 2 2 2
left_child=6 3 13 4 -2 -5 8 -4 11 14 -10 -1 -11 -3 -8
right_child=1 2 7 5 -6 -7 9 -9 10 12 -12 -13 -14 -15 -16
leaf_value=-0.063521422151018941 0.0088284540657397621 0.061611171590708141 0.02201339953127178 -0.032078194368422394 -0.024345003137454593 0.020520759570776061 -0.021436690322364029 -0.00064654992809183175 -0.033118653281367871 -0.011491729025396307 -0.014776882788467382 -0.047399585265277759 -0.0048483210799949586 0.062947267976927027 -0.021048744531635626
leaf_weight=0.46754994941875228 5.1807783134281653 0.62210536515340098 10.395355015993117 1.2808913514018048 6.440989525988698 5.3566846773028374 2.0656914468854648 2.5498243793845168 1.8927444918081164 2.2893697470426559 1.2600132115185261 0.63588534295558929 3.3122985512018204 0.55154132563620806 1.4351562559604647
leaf_count=10 21 14 57 10 36 28 11 14 14 12 7 4 19 11 8
internal_value=0 0.0079684 0.0212649 -0.00231296 -0.00955686 0.0103704 -0.0193134 0.01755 -0.0331621 -0.012838 -0.0257883 -0.0542308 -0.00756344 0.0622391 -0.0212777
internal_weight=0 32.3782 14.1188 18.2593 11.6218 6.63758 13.3587 12.9452 4.25619 9.10252 3.15276 1.10344 5.60167 1.17365 3.50085
internal_count=276 191 96 95 57 38 85 71 35 50 21 14 31 25 19
shrinkage=0.049


Tree=22
num_leaves=16
num_cat=0
split_feature=1 8 0 11 7 11 1 11 0 2 0 11 11 0 11
split_gain=2.76142 1.88186 0.809517 0.636933 0.566377 0.976012 0.445594 0.259289 0.221763 0.201537 0.106507 0.0426661 0.0309188 0.0278234 0.00145063
threshold=0.30847625175305093 0.069721214827143205 0.59033361992249433 0.45133336091856951 0.025384520271380974 0.77915819106608775 0.13186544335975872 0.67688773599872754 0.51348607409480673 0.12028869286287094 0.39502600680593031 0.67688773599872754 0.98202865771588765 0.20029640213204666 0.53168496441549251
decision_type=2 2 2 2 2 2 2 2 2 2 2 2 2 2 2
left_child=6 4 8 -4 5 -2 7 13 -3 14 -9 -11 -6 -1 -8
right_child=1 2 3 -5 12 -7 9 10 -10 11 -12 -13 -14 -15 -16
leaf_value=-0.062985783417011248 -0.0028032993928027695 0.061681299926097603 0.025383772600041661 0.0011998227273706009 -0.019500534874217507 0.043985407683044049 -0.023148974840189851 -0.032767999085868131 0.03388312164648688 -0.012382909577188314 -0.01404461220343305 -0.0035455040621863807 -0.031174449211235317 -0.046764241385363253 -0.021086354893022009
leaf_weight=0.43769684713333734 14.643444914370779 1.0961980670690528 6.2289174422621709 4.5064689684659243 0.99111323617398661 1.1548689026385552 1.9993155356496555 1.8165873056277633 1.8551520481705666 2.1893744729459286 1.2189197484403849 3.2718882635235786 1.2094738483428955 0.60449589788913727 1.3863501138985157
leaf_count=10 62 25 27 28 10 13 11 14 16 12 7 19 10 4 8
internal_value=0 0.00778615 0.0214802 0.0152319 -0.00262708 0.000616991 -0.0190883 -0.0324896 0.044208 -0.0129114 -0.0252495 -0.00708835 -0.0259167 -0.0535769 -0.0223044
internal_weight=0 31.6856 13.6867 10.7354 17.9989 15.7983 12.9246 4.0777 2.95135 8.84693 3.03551 5.46126 2.20059 1.04219 3.38567
internal_count=276 191 96 55 95 75 85 35 41 50 21 31 20 14 19
shrinkage=0.049


Tree=23
num_leaves=14
num_cat=0
split_feature=1 4 7 11 1 11 2 11 0 0 0 11 11
split_gain=2.43018 1.2758 1.33942 0.554696 0.447265 0.238684 0.198146 0.130716 0.0975067 0.0283456 0.027245 0.000757161 0.000150998
threshold=0.30847625175305093 0.64857682576071585 0.024554669465599758 0.45133336091856951 0.13186544335975872 0.67688773599872754 0.12028869286287094 0.98202865771588765 0.39502600680593031 0.60700420711197478 0.20029640213204666 0.53168496441549251 0.42474782993232335
decision_type=2 2 2 2 2 2 2 2 2 2 2 2 2
left_child=4 2 3 -2 5 10 11 -4 -7 -8 -1 -6 -3
right_child=1 12 7 -5 6 8 9 -9 -10 -11 -12 -13 -14
leaf_value=-0.062426042470540004 0.019975558534454662 0.060654994692064486 -0.012002002619286347 0.0046137168712943053 -0.022111132877067355 -0.032242302965126542 0.0012783176913894283 -0.030511601562614354 -0.014033616081098575 -0.0078410371703198766 -0.045883981894831852 -0.020588601156108589 0.061845384136806847
leaf_weight=0.40826783189549987 9.4540706388652413 0.54390960512682685 4.5006713569164267 14.002555050887166 1.8974498324096185 1.7410242529585958 1.0069322884082792 1.150169104337692 1.1878677718341351 4.3701373226940632 0.57678357511758804 1.3367193304002285 0.48309394996613264
leaf_count=10 44 14 29 83 11 14 4 10 7 27 4 8 11
internal_value=0 0.00753992 0.0056461 0.0108052 -0.0181404 -0.0318749 -0.0118978 -0.0157694 -0.0248574 -0.00613331 -0.0527401 -0.0214819 0.0612149
internal_weight=0 30.1345 29.1075 23.4566 12.5252 3.91394 8.61124 5.65084 2.92889 5.37707 0.985051 3.23417 1.027
internal_count=276 191 166 127 85 35 50 39 21 31 14 19 25
shrinkage=0.049


Tree=24
num_leaves=14
num_cat=0
split_feature=1 4 7 11 1 11 2 11 0 0 11 11 11
split_gain=2.31407 1.16628 1.21872 0.526433 0.39546 0.220026 0.171453 0.151221 0.0864748 0.0273249 0.0194536 0.000906721 0.000161229
threshold=0.30847625175305093 0.64857682576071585 0.024554669465599758 0.64772487228375752 0.13186544335975872 0.67688773599872754 0.12028869286287094 0.45133336091856951 0.39502600680593031 0.20029640213204666 0.67688773599872754 0.53168496441549251 0.42474782993232335
decision_type=2 2 2 2 2 2 2 2 2 2 2 2 2
left_child=4 2 3 -2 5 9 11 -4 -7 -1 -8 -6 -3
right_child=1 12 7 -5 6 8 10 -9 -10 -11 -12 -13 -14
leaf_value=-0.061896520935605479 0.0056524419702907794 0.060034647547387736 -0.0040425304470486497 0.021746184047643058 -0.021882967839266822 -0.031564798619580704 -0.010294042203167826 -0.021140889708034207 -0.014147615407721159 -0.044860102387061604 -0.0041920110328901574 -0.020187385629015835 0.061308701468394643
leaf_weight=0.38256390299647991 15.934031431563207 0.50416386127471824 1.9088289327919472 7.0343884639441958 1.820296932011841 1.6664930656552315 2.1011028625071049 3.5546557307243347 1.1614152286201715 0.55249543488025665 3.1129393447190523 1.2966114394366741 0.45255651511251926
leaf_count=10 83 14 11 44 11 14 12 28 7 4 19 8 11
internal_value=0 0.00742414 0.00563354 0.0105814 -0.0180409 -0.0312249 -0.0120859 -0.0151671 -0.0244116 -0.0518303 -0.00665095 -0.0211776 0.0606373
internal_weight=0 29.3886 28.4319 22.9684 12.0939 3.76297 8.33095 5.46348 2.82791 0.935059 5.21404 3.11691 0.95672
internal_count=276 191 166 127 85 35 50 39 21 14 31 19 25
shrinkage=0.049


Tree=25
num_leaves=16
num_cat=0
split_feature=1 11 7 3 6 5 1 0 11 2 0 0 0 11 11
split_gain=2.16573 1.1751 1.64549 1.10954 0.49933 0.425982 0.36248 0.220023 0.204226 0.147187 0.106903 0.0827106 0.0267899 0.0212006 0.000172121
threshold=0.30847625175305093 0.45133336091856951 0.023439176392828925 0.074341772731512254 0.1698148802957318 0.13317275513406593 0.13186544335975872 0.76735039005403693 0.67688773599872754 0.12028869286287094 0.61341275555286834 0.39502600680593031 0.20029640213204666 0.67688773599872754 0.53168496441549251
decision_type=2 2 2 2 2 2 2 2 2 2 2 2 2 2 2
left_child=6 3 4 5 -3 -2 8 -4 12 14 -5 -10 -1 -11 -8
right_child=1 2 7 10 -6 -7 9 -9 11 13 -12 -13 -14 -15 -16
leaf_value=-0.061391217429317621 0.023688682017000535 0.033088681530337991 -0.010206566099345083 0.060110758527758296 0.0062815013292768333 0.0022390429884424413 -0.020826539128696288 -0.027102978688584259 -0.031146556416533046 -0.010791535718509044 0.039507658905140242 -0.013857049993527272 -0.044040251190140017 -0.0043225839500389525 -0.020078196992747606
leaf_weight=0.35811271006241385 3.6981298699975031 2.1642206711694616 3.8042669910937539 0.89487599069252532 7.2808085512369871 5.5731617696583271 1.7775301747024042 3.602916088886559 1.6062982901930809 2.0146715734153986 1.8645583689212799 1.1328735109418631 0.5296645313501358 3.0698830094188452 1.2617781460285187
leaf_count=10 17 18 20 25 44 30 11 29 14 12 8 7 4 19 8
internal_value=0 0.00721553 -0.00113532 0.0189131 0.0124241 0.0107949 -0.0177354 -0.0184251 -0.0306154 -0.0119851 0.0461892 -0.0239959 -0.0510393 -0.0068858 -0.0205159
internal_weight=0 28.8829 16.8522 12.0307 9.44503 9.27129 11.7508 7.40718 3.62695 8.12386 2.75943 2.73917 0.887777 5.08455 3.03931
internal_count=276 191 111 80 62 47 85 49 35 50 33 21 14 31 19
shrinkage=0.049


Tree=26
num_leaves=14
num_cat=0
split_feature=1 4 7 11 1 11 0 11 0 0 11 11 11
split_gain=1.96667 0.990107 1.17547 0.400539 0.355679 0.191302 0.155254 0.119976 0.0808775 0.0259206 0.0249726 0.000108496 9.70785e-05
threshold=0.30847625175305093 0.64857682576071585 0.024554669465599758 0.45133336091856951 0.13186544335975872 0.67688773599872754 0.70657666276404862 0.98202865771588765 0.39502600680593031 0.20029640213204666 0.67688773599872754 0.42474782993232335 0.53168496441549251
decision_type=2 2 2 2 2 2 2 2 2 2 2 2 2
left_child=4 2 3 -2 5 9 10 -4 -7 -1 -6 -3 -8
right_child=1 11 7 -5 6 8 12 -9 -10 -11 -12 -13 -14
leaf_value=-0.06091949131797806 0.018686993466635094 0.059103228415860798 -0.01169323860535321 0.0050063746074840345 -0.010335214966430906 -0.030815648544582634 -0.020477707953637077 -0.030345966152075795 -0.013461813302616 -0.043388058715405922 -0.003256203086359911 0.060220807425060939 -0.01990698262875441
leaf_weight=0.3365822436753646 8.6861724909395068 0.44014983926899631 4.162578096613287 12.58040104806423 1.9814809635281561 1.5510848956182599 1.7210061522200704 1.03351822681725 1.1035776827484369 0.50826223939657211 3.0202062074095011 0.39641498867422342 1.2248845547437668
leaf_count=10 44 14 29 83 12 14 11 10 7 4 19 11 8
internal_value=0 0.00714856 0.00548938 0.0105941 -0.017048 -0.0300645 -0.0113166 -0.0154033 -0.0236014 -0.0503725 -0.00606064 0.0596328 -0.0202404
internal_weight=0 27.2992 26.4627 21.2666 11.4471 3.49951 7.94758 5.1961 2.65466 0.844844 5.00169 0.836565 2.94589
internal_count=276 191 166 127 85 35 50 39 21 14 31 25 19
shrinkage=0.049


Tree=27
num_leaves=16
num_cat=0
split_feature=1 0 7 11 1 11 1 11 0 11 0 0 11 11 11
split_gain=1.88056 1.01549 0.782684 0.477442 0.429167 0.340312 0.314656 0.178636 0.141267 0.131388 0.0725131 0.0259286 0.0143486 0.00048268 0.000112434
threshold=0.30847625175305093 0.57358709964519461 0.024554669465599758 0.45133336091856951 0.58355200773909133 0.77915819106608775 0.13186544335975872 0.67688773599872754 0.70657666276404862 0.45133336091856951 0.39502600680593031 0.20029640213204666 0.67688773599872754 0.53168496441549251 0.42474782993232335
decision_type=2 2 2 2 2 2 2 2 2 2 2 2 2 2 2
left_child=6 4 3 -3 5 -2 7 11 12 -4 -9 -1 -8 -10 -6
right_child=1 2 9 -5 14 -7 8 10 13 -11 -12 -13 -14 -15 -16
leaf_value=-0.060473102620248832 0.013547665050519386 0.016052912873971533 -0.0041594638223223035 -0.0008685904291110899 0.058586907013641484 0.045716410895997976 -0.0097322954482484333 -0.030100471932111451 -0.020708179630256906 -0.020613804406252392 -0.013425832008707514 -0.042473735937339066 -0.0043108625333862305 -0.019415026732192586 0.059763474487855024
leaf_weight=0.31638061325065647 3.9057765323668745 7.8238690532743993 1.8177627809345711 8.198715412989257 0.40938867232762266 0.9896587636321782 1.9360046107321975 1.4915286409668624 1.658510722219944 3.2454349985346198 1.0792789030820131 0.48940019309520721 2.9706831928342581 1.1904907710850239 0.37239689333364367
leaf_count=10 25 37 11 52 14 13 12 14 11 28 7 4 19 8 11
internal_value=0 0.00703999 0.00208733 0.00739422 0.0254347 0.0200509 -0.0169248 -0.0294099 -0.0114891 -0.0147065 -0.0231001 -0.049541 -0.00644997 -0.0201678 0.0591474
internal_weight=0 26.763 21.0858 16.0226 5.67722 4.89544 11.1323 3.37659 7.75569 5.0632 2.57081 0.805781 4.90669 2.849 0.781786
internal_count=276 191 128 89 63 38 85 35 50 39 21 14 31 19 25
shrinkage=0.049


Tree=28
num_leaves=16
num_cat=0
split_feature=1 0 7 11 1 11 1 11 11 0 0 0 11 11 11
split_gain=1.79473 0.915794 0.725289 0.486545 0.41268 0.34711 0.283666 0.167225 0.123775 0.121538 0.0693062 0.0254285 0.0209295 0.000269311 7.66552e-05
threshold=0.30847625175305093 0.57358709964519461 0.024554669465599758 0.64772487228375752 0.58355200773909133 0.77915819106608775 0.13186544335975872 0.67688773599872754 0.98202865771588765 0.70657666276404862 0.39502600680593031 0.20029640213204666 0.67688773599872754 0.53168496441549251 0.42474782993232335
decision_type=2 2 2 2 2 2 2 2 2 2 2 2 2 2 2
left_child=6 4 3 -3 5 -2 7 11 -4 12 -9 -1 -8 -11 -6
right_child=1 2 8 -5 14 -7 9 10 -10 13 -12 -13 -14 -15 -16
leaf_value=-0.060040544932511986 0.012825918661685094 0.0030651496316755171 -0.010377569143736321 0.024736462003697821 0.058299362812957424 0.045758740864833385 -0.01088315558626674 -0.029661926934032783 -0.029935326822075566 -0.020109221418562424 -0.013130847780885174 -0.041741396043964943 -0.0042560470330110034 -0.019132059065136788 0.059301273016615606
leaf_weight=0.29727350384928142 3.8684959206730154 12.69153572060168 3.9744643475860348 3.0937310056760898 0.38579488475807 0.95889545697718848 1.87733400426805 1.4418908888474107 0.96572091989219178 1.6296626199036837 1.0540598761290312 0.47153490409255028 2.9299614802002907 1.1586666032671928 0.34939928352832794
leaf_count=10 25 67 29 22 14 13 12 14 10 11 7 4 19 8 11
internal_value=0 0.00692259 0.00218451 0.00731248 0.024576 0.0193676 -0.0167564 -0.0288355 -0.0142008 -0.0115646 -0.0226807 -0.0488171 -0.00684405 -0.0197032 0.0587755
internal_weight=0 26.288 20.7255 15.7853 5.56259 4.82739 10.8604 3.26476 4.94019 7.59562 2.49595 0.768808 4.8073 2.78833 0.735194
internal_count=276 191 128 89 63 38 85 35 39 50 21 14 31 19 25
shrinkage=0.049


Tree=29
num_leaves=14
num_cat=0
split_feature=1 4 7 0 1 11 11 0 0 0 0 11 11
split_gain=1.68876 0.793071 0.909244 0.460493 0.260493 0.155775 0.146443 0.114268 0.0621923 0.0252995 0.00832235 0.00032085 3.32442e-05
threshold=0.30847625175305093 0.64857682576071585 0.024554669465599758 0.63252044125064555 0.13186544335975872 0.67688773599872754 0.45133336091856951 0.70657666276404862 0.39502600680593031 0.20029640213204666 0.60700420711197478 0.53168496441549251 0.42474782993232335
decision_type=2 2 2 2 2 2 2 2 2 2 2 2 2
left_child=4 2 3 -2 5 9 -4 10 -7 -1 -6 -9 -3
right_child=1 12 6 -5 7 8 -8 11 -10 -11 -12 -13 -14
leaf_value=-0.059652210594307156 0.016368346744101866 0.058116828379617 -0.0025681257508177371 0.0014934323596418619 -0.0026820098715725749 -0.029038497071955206 -0.020273482721072957 -0.019968922051628042 -0.013179465712496743 -0.040915413288189158 -0.00788273144325944 -0.018886047265576442 0.058796472012645255
leaf_weight=0.27905487525276695 11.440519808791587 0.36783381435088713 1.7709921430796374 8.8720865547656995 0.9165433607995509 1.3931161616928875 3.0590267237275839 1.5649224296212196 1.0346568552777171 0.45538720861077309 3.8089290112257004 1.1323026195168495 0.32590327458456159
leaf_count=10 79 14 11 48 4 14 28 11 7 4 27 8 11
internal_value=0 0.00675352 0.00532749 0.00987132 -0.0164844 -0.0282615 -0.0137816 -0.0114672 -0.0222798 -0.0480346 -0.00687401 -0.0195143 0.0584361
internal_weight=0 25.8364 25.1426 20.3126 10.5849 3.16222 4.83002 7.4227 2.42777 0.734442 4.72547 2.69723 0.693737
internal_count=276 191 166 127 85 35 39 50 21 14 31 19 25
shrinkage=0.049


Tree=30
num_leaves=16
num_cat=0
split_feature=1 11 7 3 11 6 1 0 11 0 0 0 0 11 11
split_gain=1.60441 0.942038 1.15851 1.09309 0.318203 0.26827 0.240429 0.162022 0.145393 0.105703 0.0947997 0.0591868 0.0246481 0.0151327 0.000185893
threshold=0.30847625175305093 0.45133336091856951 0.023439176392828925 0.066647304753306894 0.77915819106608775 0.19344759470809159 0.13186544335975872 0.61341275555286834 0.67688773599872754 0.70657666276404862 0.76735039005403693 0.39502600680593031 0.20029640213204666 0.67688773599872754 0.53168496441549251
decision_type=2 2 2 2 2 2 2 2 2 2 2 2 2 2 2
left_child=6 3 4 5 -3 -2 8 -5 12 13 -4 -10 -1 -8 -11
right_child=1 2 10 7 -6 -7 9 -9 11 14 -12 -13 -14 -15 -16
leaf_value=-0.059254489002899917 0.015375503481733334 0.0041496853219150946 -0.011517568007597298 0.0580474259680165 0.024733316420351807 -0.0058310369024275385 -0.010500064938182089 0.031729699135066 -0.028683442590276879 -0.01957722774242884 -0.02359279361410492 -0.013020753958846122 -0.040274676249553311 -0.0047238449793089417 -0.018744173112303735
leaf_weight=0.26216041215229635 2.5801799111068267 5.907524577341972 3.2295632781460872 0.65164660534355778 2.595499861985445 3.2193423341959715 1.7650878243148325 4.0670995302498341 1.3512854077853262 1.5372130619361997 3.0214458163827658 1.0139303486794233 0.44002406671643257 2.8429760448634624 1.1057831458747387
leaf_count=10 19 33 20 25 29 18 12 18 14 11 29 7 4 19 8
internal_value=0 0.00664769 -0.00134007 0.0178522 0.0104327 0.00360365 -0.0162817 0.0353641 -0.0277817 -0.0114169 -0.0173542 -0.0219691 -0.0473608 -0.00693639 -0.0192287
internal_weight=0 25.2723 14.754 10.5183 8.50302 5.79952 10.3185 4.71875 3.0674 7.25106 6.25101 2.36522 0.702184 4.60806 2.643
internal_count=276 191 111 80 62 37 85 43 35 50 49 21 14 31 19
shrinkage=0.049


Tree=31
num_leaves=11
num_cat=0
split_feature=1 4 7 2 0 10 11 0 11 11
split_gain=1.50982 0.685557 0.840351 0.424513 0.22968 0.156005 0.115768 0.0134424 0.0074754 2.27188e-05
threshold=0.30847625175305093 0.64857682576071585 0.024554669465599758 0.99599037690457126 1.0000000180025095e-35 0.070973154050662138 0.45133336091856951 0.39502600680593031 0.53168496441549251 0.42474782993232335
decision_type=2 2 2 2 2 2 2 2 2 2
left_child=4 2 3 -2 -1 8 -4 -7 -6 -3
right_child=1 9 6 -5 5 7 -8 -9 -10 -11
leaf_value=-0.033211784731076291 0.012346088780091689 0.05744415022943844 -0.0033466308564085901 -0.011452588585053138 -0.023582914459558721 -0.0024058435674988222 -0.019415843360768889 -0.0089487945747686853 -0.01848981973532618 0.058041142399556683
leaf_weight=1.5600766645511601 17.054400741588335 0.32492058246862043 1.7094662860035885 2.0119068752974263 1.925112482160328 0.90043258666992176 2.9068994564004242 4.633077222853899 1.0801714360713959 0.28934804676100612
leaf_count=24 113 14 11 14 15 4 28 34 8 11
internal_value=0 0.0066186 0.00529302 0.00983481 -0.0159237 -0.0127651 -0.0134653 -0.0078841 -0.0217523 0.0577254
internal_weight=0 24.2969 23.6827 19.0663 10.0989 8.53879 4.61637 5.53351 3.00528 0.614269
internal_count=276 191 166 127 85 61 39 38 23 25
shrinkage=0.049


Tree=32
num_leaves=16
num_cat=0
split_feature=1 11 7 3 11 1 0 6 11 11 0 1 0 0 0
split_gain=1.39245 0.736106 1.05943 0.989065 0.262828 0.224179 0.206533 0.180948 0.148184 0.0857924 0.0813349 0.0388359 0.0212419 0.0198969 0.00233534
threshold=0.30847625175305093 0.45133336091856951 0.023439176392828925 0.066647304753306894 0.77915819106608775 0.13186544335975872 0.82861429136100517 0.19344759470809159 0.67688773599872754 0.67688773599872754 0.76735039005403693 1.0000000180025095e-35 0.20029640213204666 0.70657666276404862 0.60700420711197478
decision_type=2 2 2 2 2 2 2 2 2 2 2 2 2 2 2
left_child=5 3 4 7 -3 8 -5 -2 12 13 -4 -10 -1 -7 -11
right_child=1 2 10 6 -6 9 -8 -9 11 14 -12 -13 -14 -15 -16
leaf_value=-0.058769585284170291 0.012560159413537724 0.004762706650502135 -0.011010653527295234 0.045798774831709965 0.023872097679614592 -0.010953305138023724 0.024370417531212437 -0.0052728703001898329 -0.013472040477350244 -0.0018836681072998938 -0.022522683471612261 -0.026460571818402591 -0.040569846577039777 -0.01783171027772942 -0.004937318341297966
leaf_weight=0.24060581810772275 2.5121168158948439 5.5199596262536925 3.0350802233442655 1.9797968436032531 2.5156768020242453 1.682504693046212 2.3760574497282505 2.9947370775043964 0.97334310598671447 0.88868250697851192 2.8640849408693612 1.2790255169384181 0.4276590570807457 2.5251327245496213 1.8595942510291934
leaf_count=10 19 33 20 33 29 12 10 18 7 4 29 14 4 19 15
internal_value=0 0.00641911 -0.000831061 0.0166627 0.0107452 -0.0154668 0.0341099 0.0028622 -0.0268596 -0.0106833 -0.0165998 -0.0208477 -0.0471226 -0.0150812 -0.00394989
internal_weight=0 23.7975 13.9348 9.86271 8.03564 9.87655 4.35585 5.50685 2.92063 6.95591 5.89917 2.25237 0.668265 4.20764 2.74828
internal_count=276 191 111 80 62 85 43 37 35 50 49 21 14 31 19
shrinkage=0.049


Tree=33
num_leaves=16
num_cat=0
split_feature=1 11 3 7 11 1 6 0 11 11 0 1 0 11 11
split_gain=1.32013 0.623995 1.04337 0.959926 0.211117 0.211003 0.151623 0.143216 0.136272 0.0834261 0.0809951 0.0404915 0.0214034 0.0175397 0.000245624
threshold=0.30847625175305093 0.45133336091856951 0.066647304753306894 0.023439176392828925 0.77915819106608775 0.13186544335975872 0.19344759470809159 0.82861429136100517 0.67688773599872754 0.98202865771588765 0.70657666276404862 1.0000000180025095e-35 0.20029640213204666 0.67688773599872754 0.53168496441549251
decision_type=2 2 2 2 2 2 2 2 2 2 2 2 2 2 2
left_child=5 2 6 4 -3 8 -2 -4 12 -5 13 -10 -1 -7 -12
right_child=1 3 7 9 -6 10 -8 -9 11 -11 14 -13 -14 -15 -16
leaf_value=-0.058400353534912817 0.010858209085696686 0.0052944676147783573 0.04518997135767442 -0.013152136087368383 0.022551299034236374 -0.010471862195213795 -0.0056242644961563212 0.026607742710693702 -0.013037238633093699 -0.029806899217693833 -0.017196294862684414 -0.026451152085255773 -0.039670092162934406 -0.0040707025806955306 -0.018187185081000024
leaf_weight=0.22720149776432519 2.4910757988691348 5.3511078744195384 1.809722671867348 4.8591002500616014 2.4961172607727349 1.6586403315886853 2.9000597130507231 2.2143053188920021 0.95501014590263378 0.84818606358021487 1.4410884394310415 1.2442924296483397 0.41231013461947441 2.702150572091341 1.029886282980442
leaf_count=10 19 33 33 39 29 12 18 10 7 10 11 14 4 19 8
internal_value=0 0.00639406 0.0160844 -0.000336965 0.0107837 -0.0151872 0.00199177 0.0349647 -0.0264155 -0.0156273 -0.0105216 -0.0206264 -0.0463245 -0.0065054 -0.0176093
internal_weight=0 22.9697 9.41516 13.5545 7.84723 9.67058 5.39114 4.02403 2.83881 5.70729 6.83177 2.1993 0.639512 4.36079 2.47097
internal_count=276 191 80 111 62 85 37 43 35 49 50 21 14 31 19
shrinkage=0.049


Tree=34
num_leaves=11
num_cat=0
split_feature=5 4 11 11 5 11 1 0 1 11
split_gain=1.4428 0.935507 0.704276 0.983381 0.612217 0.291938 0.265973 0.1485 0.0420752 1.44472e-05
threshold=0.13317275513406593 0.64857682576071585 0.45133336091856951 0.77915819106608775 0.44338217292259219 0.64772487228375752 0.51298240439606357 1.0000000180025095e-35 0.8249191861292241 0.42474782993232335
decision_type=2 2 2 2 2 2 2 2 2 2
left_child=2 4 8 6 7 -6 -4 -2 -1 -3
right_child=1 9 3 -5 5 -7 -8 -9 -10 -11
leaf_value=0.028112005569432236 -0.030949971374751518 0.056717902293624348 0.0195746002294317 0.052282870466884228 -0.0071516624704744715 0.010991882557975782 -0.0074171097831055742 -0.014100492598929131 0.039287372556951784 0.057230401134906808
leaf_weight=2.7273081969469803 1.4225818746490464 0.27823440183419634 1.0790129373781381 0.91715844860300411 4.732814774848519 3.8707769918255508 4.6710979407653213 10.717011936008928 1.1499739065766337 0.25138873816467822
leaf_count=17 24 14 9 13 33 30 30 87 8 11
internal_value=0 -0.0073463 0.0148206 0.00516356 -0.00898822 0.00101116 -0.00235209 -0.016075 0.0314265 0.0569612
internal_weight=0 21.2728 10.5446 6.66727 20.7432 8.60359 5.75011 12.1396 3.87728 0.529623
internal_count=276 199 77 52 174 63 39 111 25 25
shrinkage=0.049


end of trees

feature_importances:
relevance=172
color=105
intensity=84
proximity2fe=32
wellknownness=20
visibility=18
shape_size=16
proximity2dp=9
choice=6
proximity2be=6
integration=4

parameters:
[boosting: gbdt]
[objective: lambdarank]
[metric: ndcg]
[tree_learner: serial]
[device_type: cpu]
[data: ]
[valid: ]
[num_iterations: 36]
[learning_rate: 0.049]
[num_leaves: 16]
[num_threads: -1]
[force_col_wise: 0]
[force_row_wise: 0]
[histogram_pool_size: -1]
[max_depth: 4]
[min_data_in_leaf: 5]
[min_sum_hessian_in_leaf: 0.001]
[bagging_fraction: 1]
[pos_bagging_fraction: 1]
[neg_bagging_fraction: 1]
[bagging_freq: 0]
[bagging_seed: 3]
[feature_fraction: 1]
[feature_fraction_bynode: 1]
[feature_fraction_seed: 2]
[extra_trees: 0]
[extra_seed: 6]
[early_stopping_round: 100]
[first_metric_only: 0]
[max_delta_step: 0]
[lambda_l1: 0]
[lambda_l2: 0]
[min_gain_to_split: 0]
[drop_rate: 0.1]
[max_drop: 50]
[skip_drop: 0.5]
[xgboost_dart_mode: 0]
[uniform_drop: 0]
[drop_seed: 4]
[top_rate: 0.2]
[other_rate: 0.1]
[min_data_per_group: 100]
[max_cat_threshold: 32]
[cat_l2: 10]
[cat_smooth: 10]
[max_cat_to_onehot: 4]
[top_k: 20]
[monotone_constraints: ]
[monotone_constraints_method: basic]
[monotone_penalty: 0]
[feature_contri: ]
[forcedsplits_filename: ]
[refit_decay_rate: 0.9]
[cegb_tradeoff: 1]
[cegb_penalty_split: 0]
[cegb_penalty_feature_lazy: ]
[cegb_penalty_feature_coupled: ]
[path_smooth: 0]
[interaction_constraints: ]
[verbosity: -1]
[saved_feature_importance_type: 0]
[max_bin: 255]
[max_bin_by_feature: ]
[min_data_in_bin: 3]
[bin_construct_sample_cnt: 200000]
[data_random_seed: 1]
[is_enable_sparse: 1]
[enable_bundle: 1]
[use_missing: 1]
[zero_as_missing: 0]
[feature_pre_filter: 1]
[pre_partition: 0]
[two_round: 0]
[header: 0]
[label_column: ]
[weight_column: ]
[group_column: ]
[ignore_column: ]
[categorical_feature: ]
[forcedbins_filename: ]
[objective_seed: 5]
[num_class: 1]
[is_unbalance: 0]
[scale_pos_weight: 1]
[sigmoid: 1]
[boost_from_average: 1]
[reg_sqrt: 0]
[alpha: 0.9]
[fair_c: 1]
[poisson_max_delta_step: 0.7]
[tweedie_variance_power: 1.5]
[lambdarank_truncation_level: 20]
[lambdarank_norm: 1]
[label_gain: ]
[eval_at: 1,2]
[multi_error_top_k: 1]
[auc_mu_weights: ]
[num_machines: 1]
[local_listen_port: 12400]
[time_out: 120]
[machine_list_filename: ]
[machines: ]
[gpu_platform_id: -1]
[gpu_device_id: -1]
[gpu_use_dp: 0]

end of parameters

pandas_categorical:null
