tree
version=v3
num_class=1
num_tree_per_iteration=1
label_index=0
max_feature_idx=11
objective=lambdarank
feature_names=color intensity shape_size integration choice visibility proximity2dp proximity2fe proximity2be uniqueness wellknownness relevance
feature_infos=[0:1] [0:1] [0:1.0000000000000002] [0:1] [0:1] [0:1] [0:1.0000000000000002] [0:0.99999999999999989] [0:0.93183904056685019] [0:1] [0:0.97986577180532408] [0:1]
tree_sizes=1565 1553 1564 1569

Tree=0
num_leaves=14
num_cat=0
split_feature=5 11 3 1 0 11 11 3 11 7 11 0 11
split_gain=9.11174 5.28783 3.06934 2.1386 1.99368 1.97935 3.2126 1.15651 0.874169 0.491811 1.08229 0.393682 0.55154
threshold=0.47104490973201341 0.77915819106608775 0.038213331732049417 0.51073282451958846 0.63252044125064555 0.49459000568800598 0.98202865771588765 0.050213589858228304 0.42474782993232335 0.025507033808343318 0.67688773599872754 0.57358709964519461 0.64772487228375752
decision_type=2 2 2 2 2 2 2 2 2 2 2 2 2
left_child=1 2 9 -4 -3 8 7 -7 -2 10 -1 -5 -13
right_child=5 4 3 11 -6 6 -8 -9 -10 -11 -12 12 -14
leaf_value=-0.17976323087221732 0.11483095690906259 0.22600000000000001 0.033998496144422373 -0.14074565564534591 -0.0069160564510644517 0.027139620857467781 0.17464040043929599 -0.11775625531967659 0.22599999999999984 -0.22599999999999976 -0.049502341670800309 -0.070097112049535226 0.034495711030214156
leaf_weight=2.1164673566818335 3.4289148934185487 1.1490597240626801 3.7244094759225836 0.86761200800537874 0.79318612813949574 1.8028736114501953 1.4781215786933897 1.1533695459365845 1.2261888384819029 0.84173232316970814 1.32395575940609 6.9769141562283039 0.70920854806900013
leaf_count=20 35 12 37 9 8 18 15 12 12 8 13 68 7
internal_value=0 -0.0455136 -0.0662016 -0.0374719 0.13088 0.0926475 0.0386194 -0.0293911 0.144114 -0.148578 -0.129636 -0.068591 -0.0604462
internal_weight=0 18.5025 16.5603 12.2781 1.94225 9.08947 4.43436 2.95624 4.6551 4.28216 3.44042 8.55373 7.68612
internal_count=274 182 162 121 20 92 45 30 47 41 33 84 75
shrinkage=0.113


Tree=1
num_leaves=14
num_cat=0
split_feature=6 4 11 6 11 11 0 0 11 0 7 11 5
split_gain=20.8553 12.7382 6.88696 7.1227 6.33235 3.16209 8.27332 4.40029 2.29602 3.90536 1.98179 1.9757 1.46072
threshold=0.13925924995232694 0.64857682576071585 0.98202865771588765 0.19344759470809159 0.38709523039848187 0.77915819106608775 0.51348607409480673 0.59033361992249433 0.67688773599872754 0.39502600680593031 0.015013004981698641 0.42474782993232335 0.20945946249560674
decision_type=2 2 2 2 2 2 2 2 2 2 2 2 2
left_child=8 2 3 5 -5 6 -2 -7 12 -10 -6 -3 -1
right_child=1 11 -4 4 10 7 -8 -9 9 -11 -12 -13 -14
leaf_value=-0.086746288944591243 -0.11400307713836676 0.099661589516482657 0.13008667835049359 0.058267938670269089 -0.0045033589059598755 0.20270438782716502 0.072467653054816311 0.036957031356612727 -0.050067337087863539 -0.20446910288737039 -0.052122497151742289 0.20555557740954686 -0.20887515941831605
leaf_weight=1.8212623149156577 4.1709656268358257 4.9581430554389936 5.488310068845748 10.769027762115 16.347452938556671 3.588685989379881 11.186888597905634 4.7554238140583038 9.4533735513687116 2.6861317753791818 35.165481135249138 4.1185302734375 3.9903580397367477
leaf_count=5 9 12 15 26 33 12 25 8 18 8 81 12 10
internal_value=0 0.0200302 0.00736056 -0.00047298 -0.0205363 0.0522477 0.021825 0.108243 -0.112194 -0.0842321 -0.0370107 0.147711 -0.170602
internal_weight=0 100.549 91.4722 85.9839 62.282 23.702 15.3579 8.34411 17.9511 12.1395 51.5129 9.07667 5.81162
internal_count=274 233 209 194 140 54 34 20 41 26 114 24 15
shrinkage=0.113


Tree=2
num_leaves=14
num_cat=0
split_feature=5 11 1 5 0 1 11 11 11 7 11 0 0
split_gain=10.3616 9.27833 6.18521 6.09154 4.70215 1.70806 1.62339 1.52425 1.51943 1.38276 1.93363 1.338 0.989769
threshold=0.66306536504090297 0.77915819106608775 0.20976926485769415 0.068691133825377962 0.63252044125064555 0.41542385403513515 0.64772487228375752 0.91589751341782366 0.42474782993232335 0.025507033808343318 0.67688773599872754 0.20029640213204666 0.51348607409480673
decision_type=2 2 2 2 2 2 2 2 2 2 2 2 2
left_child=1 2 9 -4 -3 12 -7 8 -2 10 11 -1 -5
right_child=7 4 3 5 -6 6 -8 -9 -10 -11 -12 -13 -14
leaf_value=-0.19150929460762417 0.089354603476411373 0.14328726460065455 -0.09791504543414746 -0.042440490919432514 0.012547216019146526 -0.028836698647999998 0.055579420936584731 0.02703842674953634 0.19079749300596066 -0.19051163501389995 -0.033426579936378556 -0.090337697189971561 0.041707887030637429
leaf_weight=2.2927217930555326 7.0944074988365156 5.9562904834747306 8.9197110608220083 2.0190714299678829 8.5620375573635084 18.40727657079697 3.4548627138137809 3.2680142074823371 2.5677513778209686 1.7158893942832953 5.8799984902143487 6.1370203942060471 15.385250963270662
leaf_count=10 23 27 28 5 18 54 7 8 12 8 13 17 44
internal_value=0 -0.0153969 -0.0338425 -0.0136173 0.0661846 0.0055317 -0.0154965 0.0937497 0.116313 -0.0946563 -0.0831622 -0.117854 0.0319459
internal_weight=0 78.7301 64.2118 48.1862 14.5183 39.2665 21.8621 12.9302 9.66216 16.0256 14.3097 8.42974 17.4043
internal_count=274 231 186 138 45 110 61 43 35 48 40 27 49
shrinkage=0.113


Tree=3
num_leaves=14
num_cat=0
split_feature=1 10 5 11 11 5 11 3 11 1 11 0 11
split_gain=7.12452 5.04175 2.53607 8.49503 1.95587 4.03399 2.74193 1.79098 1.52856 0.863629 1.01973 0.664278 0.983079
threshold=0.13186544335975872 0.053859060085187614 0.068691133825377962 0.77915819106608775 0.45133336091856951 0.10452880480595676 0.98202865771588765 0.019986404276603895 0.64772487228375752 1.0000000180025095e-35 0.67688773599872754 0.70657666276404862 0.42474782993232335
decision_type=2 2 2 2 2 2 2 2 2 2 2 2 2
left_child=9 11 3 -3 5 -4 8 -7 -6 -1 -11 12 -2
right_child=1 2 4 -5 6 7 -8 -9 -10 10 -12 -13 -14
leaf_value=-0.18052554954465683 0.074577937451517751 -0.093708996345626738 0.152604581835907 0.1785411480105312 -0.039941856523899109 0.060110133177179031 0.10323524127092275 -0.026145859003620132 0.010619095290152156 -0.13346147773101602 -0.049273427646805153 0.059937052472176656 0.18099440547522827
leaf_weight=1.2536450773477534 2.6773307472467405 9.0394487679004634 3.4037041887640944 1.74618148803711 15.104791916906834 5.7109714150428754 2.7593860998749724 6.6563363522291183 15.438934445381165 2.8730008527636528 5.0953764915466309 5.3373202830553055 1.891679987311363
leaf_count=8 12 28 9 12 50 23 15 21 38 15 13 18 12
internal_value=0 0.0123386 -1.90441e-05 -0.049632 0.010885 0.043667 -0.00463921 0.0136854 -0.0143848 -0.0933436 -0.0796275 0.0870107 0.118637
internal_weight=0 69.7661 59.8598 10.7856 49.0741 15.771 33.3031 12.3673 30.5437 9.22202 7.96838 9.90633 4.56901
internal_count=274 238 196 40 156 53 103 44 88 36 28 42 24
shrinkage=0.113


end of trees

feature_importances:
relevance=22
color=9
visibility=6
intensity=5
integration=3
proximity2fe=3
proximity2dp=2
choice=1
wellknownness=1

parameters:
[boosting: gbdt]
[objective: lambdarank]
[metric: ndcg]
[tree_learner: serial]
[device_type: cpu]
[data: ]
[valid: ]
[num_iterations: 28]
[learning_rate: 0.113]
[num_leaves: 14]
[num_threads: -1]
[force_col_wise: 0]
[force_row_wise: 0]
[histogram_pool_size: -1]
[max_depth: 6]
[min_data_in_leaf: 5]
[min_sum_hessian_in_leaf: 0.001]
[bagging_fraction: 1]
[pos_bagging_fraction: 1]
[neg_bagging_fraction: 1]
[bagging_freq: 0]
[bagging_seed: 3]
[feature_fraction: 1]
[feature_fraction_bynode: 1]
[feature_fraction_seed: 2]
[extra_trees: 0]
[extra_seed: 6]
[early_stopping_round: 100]
[first_metric_only: 0]
[max_delta_step: 0]
[lambda_l1: 0]
[lambda_l2: 0]
[min_gain_to_split: 0]
[drop_rate: 0.1]
[max_drop: 50]
[skip_drop: 0.5]
[xgboost_dart_mode: 0]
[uniform_drop: 0]
[drop_seed: 4]
[top_rate: 0.2]
[other_rate: 0.1]
[min_data_per_group: 100]
[max_cat_threshold: 32]
[cat_l2: 10]
[cat_smooth: 10]
[max_cat_to_onehot: 4]
[top_k: 20]
[monotone_constraints: ]
[monotone_constraints_method: basic]
[monotone_penalty: 0]
[feature_contri: ]
[forcedsplits_filename: ]
[refit_decay_rate: 0.9]
[cegb_tradeoff: 1]
[cegb_penalty_split: 0]
[cegb_penalty_feature_lazy: ]
[cegb_penalty_feature_coupled: ]
[path_smooth: 0]
[interaction_constraints: ]
[verbosity: -1]
[saved_feature_importance_type: 0]
[max_bin: 255]
[max_bin_by_feature: ]
[min_data_in_bin: 3]
[bin_construct_sample_cnt: 200000]
[data_random_seed: 1]
[is_enable_sparse: 1]
[enable_bundle: 1]
[use_missing: 1]
[zero_as_missing: 0]
[feature_pre_filter: 1]
[pre_partition: 0]
[two_round: 0]
[header: 0]
[label_column: ]
[weight_column: ]
[group_column: ]
[ignore_column: ]
[categorical_feature: ]
[forcedbins_filename: ]
[objective_seed: 5]
[num_class: 1]
[is_unbalance: 0]
[scale_pos_weight: 1]
[sigmoid: 1]
[boost_from_average: 1]
[reg_sqrt: 0]
[alpha: 0.9]
[fair_c: 1]
[poisson_max_delta_step: 0.7]
[tweedie_variance_power: 1.5]
[lambdarank_truncation_level: 20]
[lambdarank_norm: 1]
[label_gain: ]
[eval_at: 1,2]
[multi_error_top_k: 1]
[auc_mu_weights: ]
[num_machines: 1]
[local_listen_port: 12400]
[time_out: 120]
[machine_list_filename: ]
[machines: ]
[gpu_platform_id: -1]
[gpu_device_id: -1]
[gpu_use_dp: 0]

end of parameters

pandas_categorical:null
