tree
version=v3
num_class=1
num_tree_per_iteration=1
label_index=0
max_feature_idx=11
objective=lambdarank
feature_names=color intensity shape_size integration choice visibility proximity2dp proximity2fe proximity2be uniqueness wellknownness relevance
feature_infos=[0:0.96847497895343404] [0:0.83872447161812702] [0:1.0000000000000002] [0:0.2832154995656615] [0:1] [0:1] [0:1.0000000000000002] [0:0.99999999999999989] [0:0.93183904056685019] [0:1] [0:0.97986577180532408] [0:1]
tree_sizes=3050 2939 3037 3032 3043

Tree=0
num_leaves=28
num_cat=0
split_feature=11 5 2 2 11 1 1 11 0 11 5 11 1 0 0 0 0 2 0 3 0 0 2 1 1 0 5
split_gain=8.75943 10.3772 4.28195 3.50856 1.50666 1.50518 0.652883 0.862153 0.737058 0.565638 0.415303 0.30957 0.230374 0.220438 0.19069 0.110009 0.0349538 0.0201237 0.0170031 0.0127248 0.00957515 0.00541556 0.00182951 0.00181071 0.00169919 0.000373057 0.000262491
threshold=0.77915819106608775 0.51330105392746328 0.99558941459502837 0.067361668003207739 0.42474782993232335 0.51298240439606357 1.0000000180025095e-35 0.65498216224787054 0.20029640213204666 0.45133336091856951 0.66306536504090297 0.45133336091856951 0.8249191861292241 0.70657666276404862 0.92798781083676607 0.76735039005403693 0.59033361992249433 0.70769847634322391 0.60700420711197478 0.063181196419249006 1.0000000180025095e-35 0.92798781083676607 0.41900561347233373 0.30847625175305093 0.8249191861292241 0.63252044125064555 0.13317275513406593
decision_type=2 2 2 2 2 2 2 2 2 2 2 2 2 2 2 2 2 2 2 2 2 2 2 2 2 2 2
left_child=1 3 10 5 16 11 -5 8 -8 12 15 23 26 -13 -4 18 -3 22 -2 -11 -9 -18 -10 -1 -21 -19 -7
right_child=2 4 14 6 -6 9 7 20 17 19 -12 13 -14 -15 -16 -17 21 25 -20 24 -22 -23 -24 -25 -26 -27 -28
leaf_value=-0.00099277873054504973 0.19296615032536513 0.095559934839143601 -0.068603098789362757 -0.22600000000000001 0.22599999999999984 -0.041052923488872864 -0.22599999999999984 -0.062842591101978332 -0.11129733621336892 -0.075333333333333266 0.099145458611768239 0.1062923501382496 0.026699628147662222 0.02642799115437126 0.0054330870978282078 0.22599999999999973 0.065570398932237373 -0.1355999999999998 0.17464040043929596 -0.092304096559757437 -0.045199999999999928 0.076709097296598444 -0.11775625531967659 -0.008773909673692161 -0.087009544590747445 -0.13135556736676907 -0.043568833404707366
leaf_weight=0.98110456392169909 1.1490597240626803 1.1490597240626805 0.79318612813949552 0.84173232316970725 1.2209469601511953 1.0582336783409123 1.1422112584114072 1.4322064369916914 1.088423185050488 0.97425609827041615 0.68493545055389393 0.84333891049027421 0.87192182987928379 0.92570990324020386 1.0096874833106995 1.0451188683509829 1.08318130671978 0.54125338792800881 1.4781215786933899 1.8530263938009739 0.54125338792800892 1.1481276676058769 1.1533695459365845 0.62523096799850464 1.3291976377367973 0.51698029041290283 1.059840265661478
leaf_count=10 12 12 8 8 12 10 11 14 11 9 7 9 9 9 10 11 11 5 15 19 5 12 12 6 13 5 11
internal_value=0 -0.032843 0.119323 -0.0719871 0.118408 -0.0302972 -0.132429 -0.120153 -0.147763 -0.0596697 0.179925 0.0318913 -0.0221872 0.0645008 -0.0271396 0.194991 0.0795477 -0.120683 0.182656 -0.0866331 -0.0580038 0.0713019 -0.11462 -0.00402141 -0.0900926 -0.133526 -0.0423118
internal_weight=0 22.3806 6.16011 17.7793 4.60132 10.5219 7.25743 6.4157 4.44224 7.14648 4.35724 3.37538 2.99 1.76905 1.80287 3.6723 3.38037 3.30003 2.62718 4.15648 1.97346 2.23131 2.24179 1.60634 3.18222 1.05823 2.11807
internal_count=286 223 63 176 47 105 71 63 44 71 45 34 30 18 18 38 35 33 27 41 19 23 23 16 32 10 21
shrinkage=0.113


Tree=1
num_leaves=27
num_cat=0
split_feature=11 5 1 7 1 7 11 7 0 11 11 11 11 1 2 11 11 11 0 1 11 2 2 0 0 0
split_gain=19.0515 20.9791 10.4907 3.71576 4.30378 2.47629 3.61394 2.48513 1.95032 2.57569 1.21042 0.965408 5.12303 2.08824 0.954689 0.944115 0.70892 0.548145 0.363797 0.342942 0.172338 0.0903913 0.0401804 0.0170473 0.00281141 0.00175615
threshold=0.98202865771588765 0.66306536504090297 0.20976926485769415 0.023439176392828925 0.8249191861292241 0.026299892476803661 0.65498216224787054 0.020714679282958556 0.59033361992249433 0.42474782993232335 0.45133336091856951 0.77915819106608775 0.91589751341782366 0.41542385403513515 0.41900561347233373 0.45133336091856951 0.38709523039848187 0.91589751341782366 0.82861429136100517 0.6478058824532259 0.45133336091856951 0.70769847634322391 0.020449077786688061 0.92798781083676607 0.82861429136100517 0.92798781083676607
decision_type=2 2 2 2 2 2 2 2 2 2 2 2 2 2 2 2 2 2 2 2 2 2 2 2 2 2
left_child=1 2 5 11 15 6 7 21 9 -3 -6 13 -13 16 -2 18 25 -10 -5 -17 -18 -1 -22 -14 -21 -4
right_child=14 8 3 4 10 -7 -8 -9 17 -11 -12 12 23 -15 -16 19 20 -19 -20 24 22 -23 -24 -25 -26 -27
leaf_value=-0.083018584796247505 0.20556214001149553 0.084732170585328753 0.034900809818396397 -0.020609411355875434 0.056949068131422691 -0.20285713391204757 -0.028231590088441231 -0.20375908689911537 0.086411820830911965 0.20469265182967158 -0.012817504824705644 0.13574212177942416 -0.0074123580295512043 -0.05570630643632974 0.12990784991535662 -0.10309671597807915 -0.023708216956440396 0.03127998614081598 -0.058707164797203913 -0.065877304488755159 0.014335552721301888 -0.10953780922353482 0.00068156790170498423 -0.017252582334953661 -0.069554147558644072 0.037812366683477837
leaf_weight=5.6877678334713018 3.5841127634048444 5.3236501216888428 5.1091053187847155 6.9004717171192187 5.6116316914558393 2.5677843391895285 8.3403551578521729 3.597904160618782 5.5273225009441376 4.004694014787674 7.3142295181751251 4.3694138377904865 3.9711936116218567 6.9821506887674323 5.2492184191942215 5.2473621517419806 3.408453136682513 3.9472123980522156 5.9689472913742065 5.0816149711608869 3.9570941627025595 2.3068393468856812 9.0368085503578168 5.1807738840579987 5.5616613030433655 5.4852712005376816
leaf_count=12 11 12 10 11 9 8 14 11 11 12 13 12 8 14 15 11 6 7 10 9 9 5 14 10 10 12
internal_value=0 -0.0108719 -0.0294626 -0.0120674 -0.0366885 -0.0984121 -0.0849574 -0.125769 0.0995545 0.136232 0.0174709 0.00953988 0.0350775 -0.000622411 0.160604 -0.0610298 0.0136239 0.0634432 -0.0382795 -0.0794547 -0.00109265 -0.0906707 0.00483968 -0.0129827 -0.0677986 0.0364083
internal_weight=0 130.49 111.687 89.1862 41.6859 22.5007 19.9329 11.5925 18.8029 9.32834 12.9259 47.5003 13.5214 33.9789 8.83333 28.7601 26.9967 9.47453 12.8694 15.8906 16.4024 7.99461 12.9939 9.15197 10.6433 10.5944
internal_count=286 260 218 168 73 50 42 28 42 24 22 95 30 65 26 51 51 18 21 30 29 17 23 18 19 22
shrinkage=0.113


Tree=2
num_leaves=28
num_cat=0
split_feature=5 11 10 11 0 8 0 7 11 11 0 1 11 2 2 2 1 11 5 0 2 0 11 3 0 0 11
split_gain=13.0296 5.3927 10.3841 4.31537 2.60204 2.5176 1.80784 1.54758 0.922116 0.583149 1.65802 0.499151 0.478786 2.72007 0.684712 0.470797 0.444247 0.254962 0.139293 0.108882 0.0810471 0.0665645 0.0664162 0.0600668 0.0375181 0.00687356 0.000315848
threshold=0.35778948929255661 0.98202865771588765 0.070973154050662138 0.77915819106608775 0.63252044125064555 0.1538908935873867 0.70657666276404862 0.020714679282958556 0.45133336091856951 0.42474782993232335 0.59033361992249433 0.059711237090309573 0.65498216224787054 0.12028869286287094 0.12028869286287094 0.41900561347233373 0.8249191861292241 0.91589751341782366 0.13317275513406593 0.76735039005403693 0.12028869286287094 0.61341275555286834 0.45133336091856951 0.046884078193710606 0.59033361992249433 0.82861429136100517 0.53168496441549251
decision_type=2 2 2 2 2 2 2 2 2 2 2 2 2 2 2 2 2 2 2 2 2 2 2 2 2 2 2
left_child=3 2 6 5 -5 7 9 20 16 24 -11 -7 13 21 -14 -3 18 23 -9 -4 22 -10 -1 -8 -2 -23 -25
right_child=1 15 19 4 -6 11 17 8 12 10 -12 -13 14 -15 -16 -17 -18 -19 -20 -21 -22 25 -24 26 -26 -27 -28
leaf_value=-0.003611086616844767 0.065743631429912366 0.19064792586255941 -0.072163669869253377 0.13240960120511711 -0.013777002971469068 -0.18679975440146601 0.056548692936555588 -0.051387567086914075 -0.066322649351685914 0.18991684574530712 0.065146302634713771 -0.096881625916510547 -0.08018321364772632 -0.18816378858695701 -0.020523873777549707 0.12422071045156363 0.0075436176949343061 0.01303903228212475 -0.024434003716448115 -0.099127107763576305 -0.010423997731763453 -0.046211917684025362 0.020721043773806014 0.039020439414802301 0.081777866138491903 -0.052323874890285421 0.040497105398650639
leaf_weight=2.5852638036012632 3.6282571107149124 2.1915705800056449 4.152291774749755 2.9362203180789939 3.3044314533472061 1.590574972331523 4.3240626156330091 4.6918577402830106 3.9009811878204372 2.5184489116072655 2.956369936466217 1.5628905743360519 3.8394485265016538 2.2463249415159217 6.8195362091064453 3.6008114814758301 3.9533932060003272 4.0358158797025689 5.1197439879179001 3.5449591726064682 4.4346171319484711 5.5078985244035703 3.2122227698564529 3.5512306392192841 3.8307539522647858 4.0973091423511505 3.8598936647176743
leaf_count=6 12 11 12 12 8 8 12 10 9 12 7 5 9 11 14 15 9 10 11 11 10 13 9 10 11 10 9
internal_value=0 0.048082 0.0319674 -0.0339248 0.0550036 -0.0442861 0.0632202 -0.0381585 -0.0481505 0.0945349 0.122541 -0.142235 -0.0605093 -0.0730244 -0.0420136 0.149354 -0.0244371 0.037539 -0.0373231 -0.0845816 0.00107491 -0.0538746 0.00987066 0.0459648 0.0739784 -0.0488191 0.0397895
internal_weight=0 42.1945 36.4021 59.8027 6.24065 53.5621 28.7048 50.4086 40.1765 12.9338 5.47482 3.15347 26.4115 15.7525 10.659 5.79238 13.765 15.771 9.8116 7.69725 10.2321 13.5062 5.79749 11.7352 7.45901 9.60521 7.41112
internal_count=286 132 106 154 20 134 83 121 96 42 19 13 66 43 23 26 30 41 21 23 25 32 15 31 23 23 19
shrinkage=0.113


Tree=3
num_leaves=28
num_cat=0
split_feature=11 5 1 7 11 11 11 11 5 0 5 11 0 1 11 8 0 3 2 2 0 0 0 11 0 0 0
split_gain=7.01996 7.57662 3.59178 2.0557 1.35149 1.63364 1.0603 0.963775 2.25848 1.97287 0.576448 1.05716 0.95763 0.381432 0.358009 0.579795 0.358 0.340327 0.32248 0.176226 0.0949274 0.0598185 0.0563317 0.0263875 0.010817 0.0106905 0.00738902
threshold=0.98202865771588765 0.51330105392746328 0.20976926485769415 0.024554669465599758 0.91589751341782366 0.42474782993232335 0.45133336091856951 0.77915819106608775 0.068691133825377962 0.63252044125064555 0.20945946249560674 0.65498216224787054 0.60700420711197478 0.059711237090309573 0.45133336091856951 0.089282979395787207 0.82861429136100517 0.046884078193710606 0.41900561347233373 0.020449077786688061 0.92798781083676607 0.92798781083676607 0.76735039005403693 0.45133336091856951 0.59033361992249433 0.63252044125064555 0.70657666276404862
decision_type=2 2 2 2 2 2 2 2 2 2 2 2 2 2 2 2 2 2 2 2 2 2 2 2 2 2 2
left_child=1 2 10 7 5 20 -5 8 16 -9 13 12 -12 -1 17 19 -4 25 -2 -16 24 -6 -8 -18 -3 -10 -19
right_child=18 4 3 6 21 -7 22 9 14 -11 11 -13 -14 -15 15 -17 23 26 -20 -21 -22 -23 -24 -25 -26 -27 -28
leaf_value=-0.17577078475800048 0.18032510484061995 0.066809650939821774 -0.080989479432603956 -0.012358515243692577 0.028338305547758 0.17951236446338606 -0.075839974527976972 0.1249569814986617 -0.0022444215379723658 -0.018907131467793204 -0.17672995967068383 -0.033804575712749432 -0.07125989135510008 -0.08499722086825777 -0.027926940778758971 0.049918305458309747 -0.042744125382944344 0.049185902067825839 0.11640842645288156 0.0020786655642914872 0.047850733685881761 0.0045875184244324116 -0.097303259524955374 -0.029242121659400239 0.076397432617645325 0.009728587866760046 0.04136943275670571
leaf_weight=1.1506428346037856 1.5845857113599766 3.024215929210186 3.2294690757989866 4.2713775560259801 2.2837552130222312 1.8408860713243491 3.5963058918714523 2.2480738312005988 2.1682472378015536 2.6542421728372574 1.6167997047305087 5.6262475103139877 3.4339908137917519 1.2155050039291382 4.4676831364631635 2.4693025201559058 3.6424746736884117 3.4402674436569214 2.7696926295757294 5.672823891043663 3.3569091111421585 3.3261649757623672 2.7595143765211105 3.7521170452237129 2.9861890822649002 1.6979522034525873 2.8020516782999039
leaf_count=8 11 12 9 11 7 12 9 12 6 8 11 14 12 5 13 9 10 9 15 14 12 10 11 10 11 5 10
internal_value=0 -0.00772426 -0.0259938 -0.0119334 0.0595342 0.0821966 -0.0558982 0.000283226 -0.0065951 0.0470652 -0.0786771 -0.067494 -0.105022 -0.12914 0.0135164 0.00081576 -0.0496013 0.0293598 0.139669 -0.0111411 0.0630719 0.0142563 -0.0851587 -0.035893 0.0715732 0.00301387 0.0456772
internal_weight=0 78.7332 61.9151 48.8719 16.8181 11.2082 10.6272 38.2447 33.3424 4.90232 13.0432 10.677 5.05079 2.36615 22.7183 12.6098 10.6241 10.1085 4.35428 10.1405 9.36731 5.60992 6.35582 7.39459 6.01041 3.8662 6.24232
internal_count=286 260 196 146 64 47 31 115 95 20 50 37 23 13 66 36 29 30 26 27 35 17 20 20 23 11 19
shrinkage=0.113


Tree=4
num_leaves=28
num_cat=0
split_feature=5 11 2 7 1 11 3 8 3 0 6 11 1 11 11 0 11 1 0 11 0 5 0 0 1 0 11
split_gain=5.90668 4.79476 2.30921 1.51952 1.33923 1.47216 2.29608 0.701624 0.464505 0.284507 0.251396 0.221308 0.903574 0.199702 0.252108 1.13008 0.187206 0.170883 0.129925 0.101024 0.24037 0.0983563 0.0910245 0.0326893 0.0196295 0.000988032 0.00065876
threshold=0.41106719035376682 0.77915819106608775 0.99959903769045744 0.025384520271380974 0.44088151681405091 0.98202865771588765 0.050213589858228304 0.069721214827143205 0.043137279689637077 0.76735039005403693 1.0000000180025095e-35 0.42474782993232335 0.58355200773909133 0.45133336091856951 0.65498216224787054 0.57358709964519461 0.91589751341782366 0.51298240439606357 0.29739252513674613 0.45133336091856951 0.61341275555286834 0.10452880480595676 0.82861429136100517 0.92798781083676607 0.58355200773909133 0.82861429136100517 0.53168496441549251
decision_type=2 2 2 2 2 2 2 2 2 2 2 2 2 2 2 2 2 2 2 2 2 2 2 2 2 2 2
left_child=1 3 17 7 5 6 16 10 -9 -5 -1 24 -13 22 15 -15 23 -3 -16 21 -21 -10 -12 26 -6 -17 -2
right_child=4 2 -4 9 11 -7 -8 8 19 -11 13 12 -14 14 18 25 -18 -19 -20 20 -22 -23 -24 -25 -26 -27 -28
leaf_value=-0.004565690571393121 0.040030893505856369 0.17289621012376533 -0.0098611670733586149 -0.16764103087830357 0.072442416402873563 0.10998440609545725 -0.077585143885935126 -0.056817431391248306 0.024744006247181236 -0.092187855174282574 -0.018803220291458249 0.055229571569413889 0.17165928660205163 -0.16795051159580046 -0.02881367152819491 -0.047622356696611939 0.01028187957852464 0.11835482886870489 -0.060827360840557641 0.018803792979160065 -0.027649158768495889 -0.0086366556830730148 -0.04529736484042713 0.053558450524958764 0.058241403579458048 -0.050552056564474854 0.03746647447667377
leaf_weight=1.9306274652481104 2.3073197007179314 1.2301273904740802 2.2869112342596054 0.88768760487437193 2.48198154568672 2.2530647777020922 2.9168720841407767 2.3105818107724181 2.8298743069171888 2.2695984318852425 3.5913397595286396 2.1043959856033325 1.4291416034102442 1.2369627244770507 4.7283548042178154 2.8491422832012177 2.839287929236888 1.8168886750936508 2.4614072218537331 2.2489051893353462 3.8700556978583336 1.8731966316699979 3.0723895505070686 2.921800009906292 2.4895246848464012 3.0363297834992409 2.8703208714723587
leaf_count=5 10 11 8 8 11 15 12 10 9 11 11 7 12 11 14 9 10 12 9 9 13 6 10 12 12 10 9
internal_value=0 -0.0245546 0.075961 -0.0382329 0.0444234 0.0252709 0.0114957 -0.0316476 -0.0108244 -0.113402 -0.0435858 0.0806985 0.10232 -0.0471772 -0.0547006 -0.0697689 0.0352495 0.140374 -0.0397735 -0.00100458 -0.0105763 0.0114487 -0.0310187 0.044002 0.0653311 -0.0491338 0.0386093
internal_weight=0 44.5304 5.33393 39.1965 24.6137 16.1087 13.8556 36.0392 13.1326 3.15729 22.9066 8.50504 3.53354 20.9759 14.3122 7.12243 10.9387 3.04702 7.18976 10.822 6.11896 4.70307 6.66373 8.09944 4.97151 5.88547 5.17764
internal_count=286 176 31 145 110 68 53 126 47 19 79 42 19 74 53 30 41 23 23 37 22 15 21 31 23 19 19
shrinkage=0.113


end of trees

feature_importances:
relevance=39
color=37
intensity=17
shape_size=14
visibility=11
proximity2fe=6
integration=5
proximity2be=3
proximity2dp=1
wellknownness=1

parameters:
[boosting: gbdt]
[objective: lambdarank]
[metric: ndcg]
[tree_learner: serial]
[device_type: cpu]
[data: ]
[valid: ]
[num_iterations: 28]
[learning_rate: 0.113]
[num_leaves: 28]
[num_threads: -1]
[force_col_wise: 0]
[force_row_wise: 0]
[histogram_pool_size: -1]
[max_depth: 9]
[min_data_in_leaf: 5]
[min_sum_hessian_in_leaf: 0.001]
[bagging_fraction: 1]
[pos_bagging_fraction: 1]
[neg_bagging_fraction: 1]
[bagging_freq: 0]
[bagging_seed: 3]
[feature_fraction: 1]
[feature_fraction_bynode: 1]
[feature_fraction_seed: 2]
[extra_trees: 0]
[extra_seed: 6]
[early_stopping_round: 100]
[first_metric_only: 0]
[max_delta_step: 0]
[lambda_l1: 0]
[lambda_l2: 0]
[min_gain_to_split: 0]
[drop_rate: 0.1]
[max_drop: 50]
[skip_drop: 0.5]
[xgboost_dart_mode: 0]
[uniform_drop: 0]
[drop_seed: 4]
[top_rate: 0.2]
[other_rate: 0.1]
[min_data_per_group: 100]
[max_cat_threshold: 32]
[cat_l2: 10]
[cat_smooth: 10]
[max_cat_to_onehot: 4]
[top_k: 20]
[monotone_constraints: ]
[monotone_constraints_method: basic]
[monotone_penalty: 0]
[feature_contri: ]
[forcedsplits_filename: ]
[refit_decay_rate: 0.9]
[cegb_tradeoff: 1]
[cegb_penalty_split: 0]
[cegb_penalty_feature_lazy: ]
[cegb_penalty_feature_coupled: ]
[path_smooth: 0]
[interaction_constraints: ]
[verbosity: -1]
[saved_feature_importance_type: 0]
[max_bin: 255]
[max_bin_by_feature: ]
[min_data_in_bin: 3]
[bin_construct_sample_cnt: 200000]
[data_random_seed: 1]
[is_enable_sparse: 1]
[enable_bundle: 1]
[use_missing: 1]
[zero_as_missing: 0]
[feature_pre_filter: 1]
[pre_partition: 0]
[two_round: 0]
[header: 0]
[label_column: ]
[weight_column: ]
[group_column: ]
[ignore_column: ]
[categorical_feature: ]
[forcedbins_filename: ]
[objective_seed: 5]
[num_class: 1]
[is_unbalance: 0]
[scale_pos_weight: 1]
[sigmoid: 1]
[boost_from_average: 1]
[reg_sqrt: 0]
[alpha: 0.9]
[fair_c: 1]
[poisson_max_delta_step: 0.7]
[tweedie_variance_power: 1.5]
[lambdarank_truncation_level: 20]
[lambdarank_norm: 1]
[label_gain: ]
[eval_at: 1,2]
[multi_error_top_k: 1]
[auc_mu_weights: ]
[num_machines: 1]
[local_listen_port: 12400]
[time_out: 120]
[machine_list_filename: ]
[machines: ]
[gpu_platform_id: -1]
[gpu_device_id: -1]
[gpu_use_dp: 0]

end of parameters

pandas_categorical:null
