tree
version=v3
num_class=1
num_tree_per_iteration=1
label_index=0
max_feature_idx=11
objective=lambdarank
feature_names=color intensity shape_size integration choice visibility proximity2dp proximity2fe proximity2be uniqueness wellknownness relevance
feature_infos=[0.16754224544274476:1] [0:1] [0:1.0000000000000002] [0:1] [0:1] [0:1] [0:1.0000000000000002] [0:0.99999999999999989] [0.0079365420489154667:0.93183904056685019] [0:1] [0:0.97986577180532408] [0:1]
tree_sizes=1575 1562 1567 1567 1568 1576 1574 1587 1578 1588 1581

Tree=0
num_leaves=14
num_cat=0
split_feature=11 5 11 2 1 0 0 11 11 11 1 11 0
split_gain=8.47539 7.26677 3.92387 2.03965 2.0295 1.99238 1.82786 0.879587 0.788778 0.534465 0.322071 0.275374 0.138803
threshold=0.98202865771588765 0.51330105392746328 0.77915819106608775 0.37209302325581411 0.45490164452112969 0.63252044125064555 0.59033361992249433 0.45133336091856951 0.42474782993232335 0.91589751341782366 1.0000000180025095e-35 0.45133336091856951 0.92798781083676607
decision_type=2 2 2 2 2 2 2 2 2 2 2 2 2
left_child=1 2 3 4 11 -4 8 -6 -3 -8 -5 -1 -11
right_child=-2 6 5 10 7 -7 9 -9 -10 12 -12 -13 -14
leaf_value=-0.020642617690703236 0.19620006722011146 0.095559934839143615 0.19225327391349581 -0.22599999999999987 -0.030576738630939803 -0.033225150096537828 0.072966614451299414 -0.10476838186026807 0.22599999999999981 0.027709082776463209 -0.13916809632326188 0.04281232138645362 -0.038519699670527915
leaf_weight=1.4980848543346064 2.5475135445594779 1.1490597240626803 1.1247866265475743 0.73348164558410589 2.8922288529574853 0.90143680572509755 2.2555820718407631 6.9283679611980915 1.2209469601511955 0.68493545055389427 2.1276256442070007 2.0938008464872837 0.98541438579559326
leaf_count=15 26 12 12 7 29 9 23 68 12 7 21 21 10
internal_value=0 -0.0203215 -0.0563483 -0.0748118 -0.056335 0.0919413 0.0843943 -0.0829185 0.162758 0.0370876 -0.161429 0.0163469 -0.0113623
internal_weight=0 24.5958 18.2998 16.2736 13.4125 2.02622 6.29594 9.8206 2.37001 3.92593 2.86111 3.59189 1.67035
internal_count=272 246 182 161 133 21 64 97 24 40 28 36 17
shrinkage=0.113


Tree=1
num_leaves=14
num_cat=0
split_feature=11 5 7 5 11 11 9 11 2 0 0 1 0
split_gain=19.8403 20.3734 7.7188 4.4451 3.75518 4.54626 3.00697 3.29862 1.46676 1.28427 0.487639 0.409734 0.355138
threshold=0.98202865771588765 0.51330105392746328 0.025384520271380974 0.47104490973201341 0.91589751341782366 0.42474782993232335 0.66666666666666674 0.77915819106608775 0.41900561347233373 0.57358709964519461 0.92798781083676607 0.44088151681405091 0.76735039005403693
decision_type=2 2 2 2 2 2 2 2 2 2 2 2 2
left_child=1 2 3 6 5 10 9 -8 -2 -1 -3 -6 -4
right_child=8 4 12 -5 11 -7 7 -9 -10 -11 -12 -13 -14
leaf_value=-0.0023418661968235945 0.20860248372999812 0.054310175926082858 -0.20148507549342709 -0.12640029139378531 -0.0061032380672835541 0.20524755455182259 -0.012493807271540942 0.09912272686334743 0.1181386214019787 -0.048853709575007828 0.099088357138743061 0.042682473900176932 -0.14460442013812394
leaf_weight=9.4749419093132001 4.142803952097891 9.1282223686575907 2.1422807276248923 5.9480526745319358 5.8580650091171282 4.0825065523385993 14.261318087577822 4.4314556121826163 5.1132749766111374 37.908400148153305 4.7066405788063994 3.5185790956020355 4.0538710951805115
leaf_count=18 11 23 7 12 10 12 31 12 15 91 12 7 11
internal_value=0 -0.0139154 -0.0432465 -0.032835 0.0701429 0.100464 -0.0244124 0.0139669 0.158628 -0.039553 0.0695438 0.0122036 -0.164271
internal_weight=0 105.514 78.2203 72.0242 27.294 17.9174 66.0761 18.6928 9.25608 47.3833 13.8349 9.37664 6.19615
internal_count=272 246 182 164 64 47 152 43 26 109 35 17 18
shrinkage=0.113


Tree=2
num_leaves=14
num_cat=0
split_feature=11 5 7 6 11 7 6 1 11 11 11 0 0
split_gain=10.4878 10.5559 7.79603 3.54652 1.57263 7.46408 2.09019 1.40724 1.23092 0.958187 1.99135 0.505271 0.0572308
threshold=0.98202865771588765 0.66306536504090297 0.024554669465599758 0.71273283825771439 0.45133336091856951 0.023439176392828925 0.2100774150633565 0.6478058824532259 0.45133336091856951 0.91589751341782366 0.42474782993232335 0.76735039005403693 0.76735039005403693
decision_type=2 2 2 2 2 2 2 2 2 2 2 2 2
left_child=1 2 3 4 6 -6 -1 12 -9 10 -3 -2 -4
right_child=11 9 7 -5 5 -7 -8 8 -10 -11 -12 -13 -14
leaf_value=-0.037334092295967646 0.12089588145820794 0.072230074888713386 -0.18458154357936979 -0.11759355970732351 0.0046679797166508368 -0.13025627926602334 0.044650422425269391 -0.12276659827589304 -0.014344097049280047 0.026950228925623008 0.18953969061875256 0.18964154003930103 -0.15665578716305428
leaf_weight=5.5495323836803463 3.5609159022569647 7.2594316303729993 1.3060436099767665 3.7871171981096259 30.737277328968048 6.3102575391530982 13.958182260394095 3.4183822721242905 2.1959816068410873 2.7874419987201682 2.4786015152931213 2.2139769941568375 3.3170466423034668
leaf_count=15 15 23 7 12 79 22 40 10 8 7 12 11 11
internal_value=0 -0.0102323 -0.027198 -0.011729 -0.00464002 -0.0183135 0.0213276 -0.118376 -0.0803586 0.0853672 0.102089 0.147252 -0.164545
internal_weight=0 83.1053 70.5798 60.3424 56.5552 37.0475 19.5077 10.2375 5.61436 12.5255 9.73803 5.77489 4.62309
internal_count=272 246 204 168 156 101 55 36 18 42 35 26 18
shrinkage=0.113


Tree=3
num_leaves=14
num_cat=0
split_feature=11 5 7 6 9 11 11 11 0 1 1 2 0
split_gain=6.629 5.84718 6.51726 2.03404 1.11849 5.26031 0.982722 1.49875 0.642557 0.605028 0.408232 0.271555 0.052755
threshold=0.98202865771588765 0.66306536504090297 0.024554669465599758 0.71273283825771439 0.66666666666666674 0.77915819106608775 0.91589751341782366 0.42474782993232335 0.63252044125064555 0.6478058824532259 0.58355200773909133 0.41900561347233373 0.76735039005403693
decision_type=2 2 2 2 2 2 2 2 2 2 2 2 2
left_child=1 2 3 4 8 -6 7 10 -1 12 -3 -2 -4
right_child=11 6 9 -5 5 -7 -8 -9 -10 -11 -12 -13 -14
leaf_value=0.009099560135683981 0.17556945221131823 0.089834507582219628 -0.1728803654885325 -0.096452181519383659 -0.0089477604521273242 0.1646505504028892 0.004464100549205827 0.17906186067593666 -0.022228684464690666 -0.088769063924393321 0.032647009505044386 0.11589207136100996 -0.14076710793134084
leaf_weight=12.99535112082958 1.5059310942888249 3.3418944478034955 0.92873636633157586 3.0050043761730185 10.78508087992668 2.8094260618090621 2.2845446318387976 1.8092558085918424 23.436070650815964 5.8637734204530716 3.0473014488816261 2.7545154169201851 2.2017989009618759
leaf_count=40 11 11 7 12 31 12 7 12 73 18 12 15 11
internal_value=0 -0.00804904 -0.0212412 -0.0061562 -0.000732217 0.0269279 0.0700057 0.0882693 -0.0110537 -0.110183 0.0625592 0.136986 -0.150294
internal_weight=0 72.5082 62.0252 53.0309 50.0259 13.5945 10.483 8.19845 36.4314 8.99431 6.3892 4.26045 3.13054
internal_count=272 246 204 168 156 43 42 35 113 36 23 26 18
shrinkage=0.113


Tree=4
num_leaves=14
num_cat=0
split_feature=6 7 11 11 11 2 11 11 11 1 11 0 5
split_gain=5.05709 4.61562 4.42855 5.31277 1.65458 1.61755 1.149 1.37723 3.08194 2.40794 1.18762 1.14324 0.842053
threshold=0.21979189466573512 0.023439176392828925 0.45133336091856951 0.62791574843414255 0.38709523039848187 0.067361668003207739 0.38709523039848187 0.77915819106608775 0.91589751341782366 0.51298240439606357 0.45133336091856951 0.98423748947671708 0.51330105392746328
decision_type=2 2 2 2 2 2 2 2 2 2 2 2 2
left_child=1 6 4 5 -2 -4 12 9 -9 10 -8 -7 -1
right_child=2 -3 3 -5 -6 11 7 8 -10 -11 -12 -13 -14
leaf_value=-0.019153120926735774 0.050078457706544378 -0.084422638854910068 0.005572946025170538 0.094976037502940924 0.14143661391036039 -0.10886485953677708 -0.070923135512930502 0.13966933630620396 -0.016890507754244288 -0.13641327755800173 0.032410055012630598 -0.01953241843530976 0.061103184120067468
leaf_weight=2.4330567419528988 5.0864384174346942 12.236098907887934 7.4058615863323229 5.9068068750202647 5.03913389518857 4.1105335801839828 2.3523965775966644 1.9581569507718075 8.9157704859972 2.7519513741135597 3.5839967057108879 3.2960720956325531 5.3179328665137291
leaf_count=9 21 44 22 34 21 23 6 12 26 9 12 10 23
internal_value=0 -0.0267474 0.0342956 0.00436331 0.0955441 -0.0317706 -0.000909446 -0.0154983 0.0113025 -0.0490409 -0.00853748 -0.0691103 0.0359105
internal_weight=0 39.5494 30.8448 20.7193 10.1256 14.8125 27.3133 19.5623 10.8739 8.68834 5.93639 7.40661 7.75099
internal_count=272 141 131 89 42 55 97 65 38 27 18 33 32
shrinkage=0.113


Tree=5
num_leaves=14
num_cat=0
split_feature=5 11 11 11 7 10 8 11 11 2 5 11 2
split_gain=5.65124 3.26774 2.4841 3.22816 3.85277 1.87534 1.30833 0.979016 0.750613 0.467585 0.345188 0.679946 0.235971
threshold=0.26097724828890728 0.77915819106608775 0.98202865771588765 0.49459000568800598 0.015013004981698641 0.17718120777757762 0.069721214827143205 0.42474782993232335 0.45133336091856951 0.41900561347233373 0.41106719035376682 0.62791574843414255 0.12028869286287094
decision_type=2 2 2 2 2 2 2 2 2 2 2 2 2
left_child=1 5 3 7 10 6 -1 -2 -8 -6 -5 -12 -7
right_child=2 -3 -4 4 9 12 8 -9 -10 -11 11 -13 -14
leaf_value=-0.064977863455725107 0.056611122709301923 0.11686160005074832 0.1274080140692638 -0.0054165181652727108 -0.12879641415349488 -0.13034116559904144 0.023606434655776234 0.16601602730756682 -0.034542918290998606 -0.058050487344627671 0.0091493815192454711 0.064277020838055754 -0.078355894663351619
leaf_weight=9.4885260500013917 10.897656377404925 1.6188924349844445 3.0003675930201998 3.1132723912596729 1.4996100924909104 3.133636236190795 5.1780386939644796 1.1551202274858958 6.2630225569009781 5.8331798054277897 5.6494794487953168 5.7795359119772911 1.7307496853172777
leaf_count=37 49 12 26 9 11 9 19 12 21 22 19 15 11
internal_value=0 -0.0388694 0.0288539 0.0201384 -0.00573465 -0.0486435 -0.0339544 0.0670963 -0.00822546 -0.0725186 0.0279404 0.0370269 -0.111845
internal_weight=0 27.4129 36.9282 33.9279 21.8751 25.794 20.9296 12.0528 11.4411 7.33279 14.5423 11.429 4.86439
internal_count=272 109 163 137 76 97 77 61 40 33 43 34 20
shrinkage=0.113


Tree=6
num_leaves=14
num_cat=0
split_feature=5 11 7 0 11 11 11 11 9 1 11 1 6
split_gain=3.55411 2.8189 2.62751 1.53384 1.159 0.998676 1.27521 0.831955 0.733434 0.616937 0.560802 0.235635 0.195556
threshold=0.41106719035376682 0.98202865771588765 0.024554669465599758 0.63252044125064555 0.77915819106608775 0.49459000568800598 0.53168496441549251 0.42474782993232335 0.66666666666666674 0.25709665841008417 0.45133336091856951 0.44088151681405091 0.2100774150633565
decision_type=2 2 2 2 2 2 2 2 2 2 2 2 2
left_child=1 2 3 4 8 7 -7 12 -1 -8 -4 -11 -2
right_child=5 -3 10 -5 -6 6 9 -9 -10 11 -12 -13 -14
leaf_value=0.01240695893460577 0.080515008888277423 0.16510131084963967 -0.050245478841286183 -0.052120978644056459 0.10556200209558743 -0.073580627475420643 0.092882338434827391 0.16167237571427373 -0.050260565650610128 0.035584405556248401 -0.12223170901212643 0.0040763814349368014 0.039815899313128601
leaf_weight=9.9417388662695938 2.0122813284397125 0.95535612478852172 2.0937841646373263 8.7361840009689313 1.3997440077364451 1.8461884558200825 1.5787562355399121 0.95354281924665052 3.1372080370783815 5.3856495730578882 4.0641749333590269 6.9314502291381359 6.0096055679023266
leaf_count=40 11 11 10 33 12 12 15 12 13 19 26 25 33
internal_value=0 -0.0259215 -0.0321346 -0.014728 0.00783418 0.0318056 0.0146547 0.0618865 -0.00262491 0.0263776 -0.0977555 0.0178533 0.0500252
internal_weight=0 30.3282 29.3728 23.2149 14.4787 24.7175 15.742 8.97543 13.0789 13.8959 6.15796 12.3171 8.02189
internal_count=272 145 134 98 65 127 71 56 53 59 36 44 44
shrinkage=0.113


Tree=7
num_leaves=14
num_cat=0
split_feature=11 5 7 1 7 11 11 11 11 11 2 2 0
split_gain=2.37941 1.97626 3.16123 0.815968 0.761129 0.568286 0.49516 0.469814 0.383994 0.279593 0.189389 0.0756225 0.0645944
threshold=0.98202865771588765 0.66306536504090297 0.024554669465599758 0.20976926485769415 0.023439176392828925 0.91589751341782366 0.42474782993232335 0.45133336091856951 0.45133336091856951 0.56015369265413584 0.41900561347233373 0.067361668003207739 0.76735039005403693
decision_type=2 2 2 2 2 2 2 2 2 2 2 2 2
left_child=1 2 3 -1 9 6 -3 -6 -4 -5 -2 -10 -13
right_child=10 5 8 4 7 -7 -8 -9 11 -11 -12 12 -14
leaf_value=-0.062912001032435494 0.16029793492834241 0.058672420593020684 -0.052023241919948816 0.028302620153491925 0.0037267813457572156 -9.5181790770754036e-05 0.1574054822502497 -0.04699712670814496 -0.099595899315444145 0.003451926089953978 0.090718220650138029 -0.16309532898210183 -0.11568533534577938
leaf_weight=2.5768423601984969 0.78046994283795279 3.5556080676615229 1.9659588430076826 9.9641129486262816 4.2522176280617696 1.7169695720076559 0.79331294260919083 5.1622209548950195 2.0941810049116616 13.770529080182312 1.3875874280929565 0.56137166172265973 1.0595619902014732
leaf_count=16 11 23 10 49 19 7 12 22 8 62 15 7 11
internal_value=0 -0.00528696 -0.0141114 -0.00166074 0.00310063 0.0549506 0.0766829 -0.0240867 -0.0924086 0.0138846 0.115766 -0.11378 -0.132105
internal_weight=0 47.4729 41.407 35.7259 33.1491 6.06589 4.34892 9.41444 5.68107 23.7346 2.16806 3.71511 1.62093
internal_count=272 246 204 168 152 42 35 41 36 111 26 26 18
shrinkage=0.113


Tree=8
num_leaves=14
num_cat=0
split_feature=11 5 7 6 7 11 1 11 11 11 2 1 0
split_gain=1.8137 1.57994 1.57863 0.690568 0.431338 0.836962 0.351072 0.280804 0.461501 0.148902 0.138314 0.077843 0.0591275
threshold=0.98202865771588765 0.66306536504090297 0.024554669465599758 0.71273283825771439 0.023439176392828925 0.45133336091856951 0.6478058824532259 0.91589751341782366 0.42474782993232335 0.91589751341782366 0.41900561347233373 0.58355200773909133 0.76735039005403693
decision_type=2 2 2 2 2 2 2 2 2 2 2 2 2
left_child=1 2 3 4 9 -6 12 8 11 -1 -2 -3 -4
right_child=10 7 6 -5 5 -7 -8 -9 -10 -11 -12 -13 -14
leaf_value=0.012082249967404264 0.15314257056414671 0.068395703294435922 -0.15666344505229782 -0.075473933700010321 0.014234862120395696 -0.056271725800135231 -0.054703221540604557 0.01352164094560611 0.1536131320841731 -0.01034484303397531 0.087668452183876769 0.033236526900198411 -0.10627206068697802
leaf_weight=18.4242447372526 0.6189432982355344 1.5727120582014318 0.44691952038556226 1.652021538466214 4.1669721938669664 4.4410549309104681 3.3806039858609438 1.737748749554157 0.66831252630799998 4.7559798993170253 1.23213423602283 1.6452408581972122 0.88828589953482151
leaf_count=96 11 11 7 12 19 22 18 7 12 19 15 12 11
internal_value=0 -0.00463238 -0.0128738 -0.00424242 -0.000540548 -0.0221409 -0.0740797 0.0512815 0.0681658 0.00748079 0.109561 0.0504199 -0.123139
internal_weight=0 43.7801 38.1561 33.4403 31.7883 8.60803 4.71581 5.62401 3.88627 23.1802 1.85108 3.21795 1.33521
internal_count=272 246 204 168 156 41 36 42 35 115 26 23 18
shrinkage=0.113


Tree=9
num_leaves=14
num_cat=0
split_feature=11 5 7 11 1 5 11 11 11 1 2 1 11
split_gain=1.44645 1.34667 1.13858 0.697957 0.539391 0.473741 2.63604 0.402157 0.364729 0.243722 0.104081 0.0899488 0.0571342
threshold=0.98202865771588765 0.51330105392746328 0.024554669465599758 0.91589751341782366 0.20976926485769415 0.068691133825377962 0.77915819106608775 0.42474782993232335 0.45133336091856951 0.6478058824532259 0.41900561347233373 0.58355200773909133 0.45133336091856951
decision_type=2 2 2 2 2 2 2 2 2 2 2 2 2
left_child=1 2 4 7 -1 6 -6 11 -7 -4 -2 -3 -11
right_child=10 3 9 -5 5 8 -8 -9 -10 12 -12 -13 -14
leaf_value=-0.059889746571326681 0.14770173110555404 0.060668890282619771 -0.11516398727128763 -0.0016343425423530956 -0.061929698403552995 0.030580478720003135 0.12980481244552594 0.15037304995046563 -0.0035594072584151089 -0.036972778856958093 0.085690179335132954 0.027411945329671398 -0.067953453026296004
leaf_weight=2.2516202852129998 0.5017652530223119 3.1763207875192148 1.1243284940719593 4.0702152363955975 5.2898260112851885 5.7468723617494133 1.1072604618966577 0.56882627494633187 13.113784838467835 1.4131750371307135 1.1105110496282578 1.5428777262568472 1.6447688974440098
leaf_count=16 11 23 18 17 28 29 12 12 61 10 15 12 8
internal_value=0 -0.00412356 -0.0152454 0.0335406 -0.00689415 -0.00216982 -0.0287427 0.0606149 0.00684307 -0.0701769 0.104989 0.049796 -0.0536363
internal_weight=0 41.0499 31.6916 9.35824 27.5094 25.2577 6.39709 5.28802 18.8607 4.18227 1.61228 4.7192 3.05794
internal_count=272 246 182 64 146 130 40 47 90 36 26 35 18
shrinkage=0.113


Tree=10
num_leaves=14
num_cat=0
split_feature=5 11 11 11 11 0 11 4 7 0 11 1 11
split_gain=1.31431 0.792872 1.0602 0.980068 0.667416 0.852095 0.371621 0.345756 0.462501 0.334022 0.314176 0.19679 0.424009
threshold=0.35778948929255661 0.98202865771588765 0.49459000568800598 0.53168496441549251 0.77915819106608775 0.63252044125064555 0.42474782993232335 1.0000000180025095e-35 0.024554669465599758 0.63252044125064555 0.45133336091856951 0.37684203539341138 0.62791574843414255
decision_type=2 2 2 2 2 2 2 2 2 2 2 2 2
left_child=4 2 6 -4 7 -6 -2 8 9 10 -1 -5 -13
right_child=1 -3 3 11 5 -7 -8 -9 -10 -11 -12 12 -14
leaf_value=0.022332568363547703 0.044930727324988054 0.10197828193133412 -0.074646283948772804 0.042078450897657486 0.1191164042536961 -0.011770878611264335 0.14776496481309942 -0.080153706420525647 -0.061337273116156249 -0.03994759342987942 -0.021209686185149717 -0.041504255836488743 0.018035436975096596
leaf_weight=3.9697011411190051 5.5283377822488609 1.4332325132563699 2.1167667624540618 1.9700691439211349 0.93193453922867697 1.9940548725426197 0.48836708301678289 1.5061259288340814 3.2787298085168013 4.1618630699813357 4.5312395449727774 2.085230391472578 5.7079208865761757
leaf_count=19 44 26 23 9 12 9 12 9 25 24 25 10 25
internal_value=0 0.0211073 0.0146308 -0.00494213 -0.020026 0.029917 0.0532776 -0.0284015 -0.023512 -0.013718 -0.000876673 0.0101705 0.00210427
internal_weight=0 19.3299 17.8967 11.88 20.3736 2.92599 6.0167 17.4477 15.9415 12.6628 8.50094 9.76322 7.79315
internal_count=272 149 123 67 123 21 56 102 93 68 44 44 35
shrinkage=0.113


end of trees

feature_importances:
relevance=62
color=16
intensity=16
visibility=14
proximity2fe=13
shape_size=10
proximity2dp=6
uniqueness=3
choice=1
proximity2be=1
wellknownness=1

parameters:
[boosting: gbdt]
[objective: lambdarank]
[metric: ndcg]
[tree_learner: serial]
[device_type: cpu]
[data: ]
[valid: ]
[num_iterations: 28]
[learning_rate: 0.113]
[num_leaves: 14]
[num_threads: -1]
[force_col_wise: 0]
[force_row_wise: 0]
[histogram_pool_size: -1]
[max_depth: 6]
[min_data_in_leaf: 5]
[min_sum_hessian_in_leaf: 0.001]
[bagging_fraction: 1]
[pos_bagging_fraction: 1]
[neg_bagging_fraction: 1]
[bagging_freq: 0]
[bagging_seed: 3]
[feature_fraction: 1]
[feature_fraction_bynode: 1]
[feature_fraction_seed: 2]
[extra_trees: 0]
[extra_seed: 6]
[early_stopping_round: 100]
[first_metric_only: 0]
[max_delta_step: 0]
[lambda_l1: 0]
[lambda_l2: 0]
[min_gain_to_split: 0]
[drop_rate: 0.1]
[max_drop: 50]
[skip_drop: 0.5]
[xgboost_dart_mode: 0]
[uniform_drop: 0]
[drop_seed: 4]
[top_rate: 0.2]
[other_rate: 0.1]
[min_data_per_group: 100]
[max_cat_threshold: 32]
[cat_l2: 10]
[cat_smooth: 10]
[max_cat_to_onehot: 4]
[top_k: 20]
[monotone_constraints: ]
[monotone_constraints_method: basic]
[monotone_penalty: 0]
[feature_contri: ]
[forcedsplits_filename: ]
[refit_decay_rate: 0.9]
[cegb_tradeoff: 1]
[cegb_penalty_split: 0]
[cegb_penalty_feature_lazy: ]
[cegb_penalty_feature_coupled: ]
[path_smooth: 0]
[interaction_constraints: ]
[verbosity: -1]
[saved_feature_importance_type: 0]
[max_bin: 255]
[max_bin_by_feature: ]
[min_data_in_bin: 3]
[bin_construct_sample_cnt: 200000]
[data_random_seed: 1]
[is_enable_sparse: 1]
[enable_bundle: 1]
[use_missing: 1]
[zero_as_missing: 0]
[feature_pre_filter: 1]
[pre_partition: 0]
[two_round: 0]
[header: 0]
[label_column: ]
[weight_column: ]
[group_column: ]
[ignore_column: ]
[categorical_feature: ]
[forcedbins_filename: ]
[objective_seed: 5]
[num_class: 1]
[is_unbalance: 0]
[scale_pos_weight: 1]
[sigmoid: 1]
[boost_from_average: 1]
[reg_sqrt: 0]
[alpha: 0.9]
[fair_c: 1]
[poisson_max_delta_step: 0.7]
[tweedie_variance_power: 1.5]
[lambdarank_truncation_level: 20]
[lambdarank_norm: 1]
[label_gain: ]
[eval_at: 1,2]
[multi_error_top_k: 1]
[auc_mu_weights: ]
[num_machines: 1]
[local_listen_port: 12400]
[time_out: 120]
[machine_list_filename: ]
[machines: ]
[gpu_platform_id: -1]
[gpu_device_id: -1]
[gpu_use_dp: 0]

end of parameters

pandas_categorical:null
