tree
version=v3
num_class=1
num_tree_per_iteration=1
label_index=0
max_feature_idx=11
objective=lambdarank
feature_names=color intensity shape_size integration choice visibility proximity2dp proximity2fe proximity2be uniqueness wellknownness relevance
feature_infos=[0:1] [0:1] [0:1.0000000000000002] [0:1] [0:1] [0:1] [0:1.0000000000000002] [0:0.99999999999999989] [0:0.93183904056685019] [0:1] [0:0.97986577180532408] [0:1]
tree_sizes=1569 1562 1564 1466 1569 1571 1574 1581 1577 1581 1586 1588

Tree=0
num_leaves=14
num_cat=0
split_feature=1 11 5 0 11 3 2 0 11 11 11 0 11
split_gain=8.54742 6.50431 6.20794 2.62886 2.31436 2.00519 1.18679 0.787443 0.647138 0.583887 0.919702 0.297824 0.662936
threshold=0.13186544335975872 0.98202865771588765 0.66306536504090297 0.57358709964519461 0.77915819106608775 0.050213589858228304 0.0060144346431435522 0.70657666276404862 0.45133336091856951 0.91589751341782366 0.42474782993232335 0.39502600680593031 0.67688773599872754
decision_type=2 2 2 2 2 2 2 2 2 2 2 2 2
left_child=11 2 3 4 6 7 -2 -5 -7 10 -4 12 -1
right_child=1 -3 9 5 -6 8 -8 -9 -10 -11 -12 -13 -14
leaf_value=-0.19493799366990006 0.068885078543997474 0.19591339748352052 0.10425094446001038 -0.068991422060428395 0.19225327391349575 -0.025972235768095587 -0.074486683144472945 0.028796766591463165 -0.10254489187354118 0.034495711030214156 0.22599999999999976 -0.22599999999999973 -0.086459245948811131
leaf_weight=1.5752139687538178 1.5768205560743909 2.5232404470443717 2.2565141282975665 1.4184170961379994 1.1247866265475748 1.8235114179551581 1.3845922984182832 4.0646296180784702 6.2044380158185959 0.70920854806900013 1.2209469601511957 0.73348164558410633 1.3239557594060898
leaf_count=15 16 26 23 14 12 19 14 41 61 7 12 7 13
internal_value=0 0.0241618 0.00426772 -0.025156 0.054263 -0.0491751 0.0018524 0.0034998 -0.0851518 0.12794 0.146997 -0.161674 -0.145399
internal_weight=0 24.3071 21.7839 17.5972 4.0862 13.511 2.96141 5.48305 8.02795 4.18667 3.47746 3.63265 2.89917
internal_count=280 245 219 177 42 135 30 55 80 42 35 35 28
shrinkage=0.113


Tree=1
num_leaves=14
num_cat=0
split_feature=11 5 1 11 1 11 11 11 11 0 2 0 0
split_gain=18.8256 19.8884 10.8894 6.24874 6.39444 5.62996 4.20538 2.62234 1.99291 3.33141 1.87762 1.31902 1.26347
threshold=0.98202865771588765 0.51330105392746328 0.20976926485769415 0.77915819106608775 0.41542385403513515 0.91589751341782366 0.42474782993232335 0.45133336091856951 0.67688773599872754 0.39502600680593031 0.41900561347233373 0.20029640213204666 0.51348607409480673
decision_type=2 2 2 2 2 2 2 2 2 2 2 2 2
left_child=1 2 8 4 12 6 -3 -6 11 -10 -2 -1 -4
right_child=10 5 3 -5 7 -7 -8 -9 9 -11 -12 -13 -14
leaf_value=-0.2064327190948706 0.20972795647685477 0.076925921144561232 -0.046431222508528602 0.068056871240002745 -0.017937818669866872 -0.010463603948495038 0.20572071176629692 -0.082258574555775898 -0.042485782710641774 -0.20190270441073357 0.10786034580891884 -0.11937624344328772 0.033430522829656306
leaf_weight=3.5704111605882645 4.2383673340082151 14.763475507497793 3.0077500641345987 9.2188196331262571 12.26459728181362 7.5129541456699362 4.1463366150856009 23.799149766564369 7.3186081945896149 2.1701975166797638 5.0792284160852432 5.8857567608356476 15.910261541604996
leaf_count=10 11 35 5 21 24 17 12 58 13 7 15 17 35
internal_value=0 -0.0131128 -0.0402525 -0.0180379 -0.0324735 0.0722887 0.105167 -0.0603843 -0.115533 -0.0789462 0.154198 -0.152247 0.0207334
internal_weight=0 109.568 83.1456 64.2006 54.9818 26.4228 18.9098 36.0637 18.945 9.48881 9.3176 9.45617 18.918
internal_count=280 254 190 143 122 64 47 82 47 20 26 27 40
shrinkage=0.113


Tree=2
num_leaves=14
num_cat=0
split_feature=11 1 6 11 6 11 1 0 11 0 6 7 0
split_gain=10.0624 15.1317 5.15633 3.59155 3.40259 2.47607 3.31756 1.7054 1.10098 2.06025 1.0519 1.40843 1.00749
threshold=0.98202865771588765 0.25709665841008417 0.53032803014355856 0.67688773599872754 0.19344759470809159 0.77915819106608775 0.51298240439606357 0.59033361992249433 0.42474782993232335 0.70657666276404862 0.2100774150633565 0.025384520271380974 1.0000000180025095e-35
decision_type=2 2 2 2 2 2 2 2 2 2 2 2 2
left_child=1 3 4 -1 5 6 -3 -7 -4 -10 -6 -12 -5
right_child=-2 2 8 12 10 7 -8 -9 9 -11 11 -13 -14
leaf_value=-0.15818028552763536 0.14351710015823013 0.049556112833519607 0.045477299464538198 -0.02648217642477254 -0.065701706707679539 0.15376588136195238 -0.072852736053645242 0.028055459777150019 0.19021476106133856 0.060374191598374344 -0.0037480542908039354 -0.078565467833424635 -0.10054999542709553
leaf_weight=8.0729803368449211 5.839620627462863 8.9827990382909793 6.8834861516952497 5.8285750299692154 5.7653605341911307 3.2549768537282935 4.1256073117256156 2.3895808756351471 2.5276689976453781 4.0781340003013611 26.082729279994968 3.6641761362552634 3.9234896153211594
leaf_count=27 26 27 21 13 14 12 9 7 12 10 79 11 12
internal_value=0 -0.00979306 0.0145785 -0.102432 -0.000963697 0.0379746 0.0110304 0.100547 0.0771024 0.110057 -0.0215258 -0.0129639 -0.0562814
internal_weight=0 85.5796 67.7545 17.825 54.2652 18.753 13.1084 5.64456 13.4893 6.6058 35.5123 29.7469 9.75206
internal_count=280 254 202 52 159 55 36 19 43 22 104 90 25
shrinkage=0.113


Tree=3
num_leaves=13
num_cat=0
split_feature=1 11 5 1 7 10 11 11 11 2 1 0
split_gain=7.47944 5.4166 5.26646 2.62956 2.52289 1.64642 0.782612 0.75328 1.34614 0.623555 0.449618 0.33223
threshold=0.13186544335975872 0.98202865771588765 0.66306536504090297 0.20976926485769415 0.025384520271380974 0.053859060085187614 0.67688773599872754 0.91589751341782366 0.42474782993232335 0.41900561347233373 0.58355200773909133 0.20029640213204666
decision_type=2 2 2 2 2 2 2 2 2 2 2 2
left_child=6 2 3 -2 5 -5 11 8 10 -3 -4 -1
right_child=1 9 7 4 -6 -7 -8 -9 -10 -11 -12 -13
leaf_value=-0.18229922505414173 -0.11990607204482322 0.18466400185612769 0.10221892338089326 0.057499568491744736 -0.097982812825834431 -0.0059028709807514741 -0.076974620601885979 0.019140457767850099 0.18013487081718371 0.098466595520211059 0.038916999231493464 -0.10101926987852942
leaf_weight=1.6707988642156106 2.6595106348395339 1.7912115044891823 2.7957957684993726 6.0515686720609656 3.4214555695652953 38.512985602021217 5.5320742651820183 2.0087277591228485 1.8722396790981291 2.6675210222601891 2.9387128353118896 1.0429908111691475
leaf_count=10 12 11 11 19 11 135 20 7 12 15 12 5
internal_value=0 0.0129138 0.00402155 -0.0105342 -0.00447252 0.00270676 -0.101357 0.0806879 0.0969409 0.133095 0.0697791 -0.151061
internal_weight=0 64.7197 60.261 50.6455 47.986 44.5646 8.24586 9.61548 7.60675 4.45873 5.73451 2.71379
internal_count=280 245 219 177 165 154 35 42 35 26 23 15
shrinkage=0.113


Tree=4
num_leaves=14
num_cat=0
split_feature=5 11 11 11 7 0 9 1 11 6 11 2 6
split_gain=4.662 4.295 2.78973 4.7251 2.73658 2.52477 1.77316 1.63872 1.20042 0.695722 1.4494 0.53826 0.440138
threshold=0.35778948929255661 0.77915819106608775 0.98202865771588765 0.49459000568800598 0.015013004981698641 0.63252044125064555 0.66666666666666674 1.0000000180025095e-35 0.42474782993232335 1.0000000180025095e-35 0.67688773599872754 0.29911788291900571 0.53032803014355856
decision_type=2 2 2 2 2 2 2 2 2 2 2 2 2
left_child=1 6 3 8 12 -3 7 -1 11 -9 -11 -2 -5
right_child=2 5 -4 4 -6 -7 -8 9 -10 10 -12 -13 -14
leaf_value=-0.17701798587420275 0.034980947854804947 0.15464151781816765 0.12616972588755204 0.0048860852045831803 -0.070026436863057581 -0.0057860218876667133 -0.11084120154794934 -0.089031232419028217 0.17156976091914852 -0.037900260027758967 0.031995902582913446 0.087275129734845525 0.057058567069356268
leaf_weight=0.98018218204379692 4.9817697554826772 2.2920664697885504 3.5007912330329409 6.5018247514963168 7.4332218244671813 2.7621610015630722 4.5323577225208274 2.1568752601742771 1.4432022087275989 16.319936458021406 4.9333897158503524 5.0722040683031082 3.0255145281553268
leaf_count=7 21 12 26 24 33 9 14 5 12 71 13 23 10
internal_value=0 -0.0291411 0.0309816 0.0192718 -0.0186387 0.0669671 -0.0459359 -0.0338749 0.0751971 -0.0278815 -0.0216757 0.0613632 0.021454
internal_weight=0 33.977 31.9585 28.4577 16.9606 5.05423 28.9227 24.3904 11.4972 23.4102 21.2533 10.054 9.52734
internal_count=280 131 149 123 67 21 110 96 56 89 84 44 34
shrinkage=0.113


Tree=5
num_leaves=14
num_cat=0
split_feature=1 11 11 7 6 3 5 11 0 7 11 0 0
split_gain=5.47873 2.95172 3.23386 4.31891 1.69573 1.49141 2.08547 1.32312 1.18359 0.826828 0.355276 0.310093 0.305953
threshold=0.13186544335975872 0.98202865771588765 0.45133336091856951 0.023478796550872542 0.71273283825771439 0.074341772731512254 0.41106719035376682 0.38709523039848187 0.61341275555286834 0.0087457090840113907 0.67688773599872754 0.76735039005403693 0.20029640213204666
decision_type=2 2 2 2 2 2 2 2 2 2 2 2 2
left_child=10 2 5 4 9 6 -2 -7 -5 -4 12 -10 -1
right_child=1 -3 3 8 -6 7 -8 -9 11 -11 -12 -13 -14
leaf_value=-0.17406081608576657 -0.033229755027094909 0.12221341377444141 -0.03018999321591399 -0.0013117648158397124 -0.097059304794702275 0.02575718834352243 0.065241608964380485 0.13454797490728215 -0.14140534847323347 0.024679203098476078 -0.081844262163553061 -0.086518592900544672 -0.082370382350250043
leaf_weight=1.2448643706738938 5.018374443054201 2.9292036369442931 4.3183277323842146 1.3595607355236996 1.8871378414332856 2.386369213461875 6.0655577555298805 3.5525972098112106 3.2427699565887451 18.661352287977934 4.2045698948204517 2.2101978249847889 0.74147219583392132
leaf_count=10 22 26 14 8 12 12 32 21 13 74 20 11 5
internal_value=0 0.0120445 0.00541842 -0.0159264 0.005912 0.0451409 0.0206576 0.0908341 -0.0956402 0.0143682 -0.10045 -0.119159 -0.139834
internal_weight=0 51.6314 48.7022 31.6793 24.8668 17.0229 11.0839 5.93897 6.81253 22.9797 6.19091 5.45297 1.98634
internal_count=280 245 219 132 100 87 54 33 32 88 35 24 15
shrinkage=0.113


Tree=6
num_leaves=14
num_cat=0
split_feature=11 11 11 0 11 0 7 1 11 3 0 0 0
split_gain=2.6734 2.89295 2.24352 2.1171 2.80187 2.04617 1.45019 0.955833 1.68392 0.560196 0.522012 0.401674 0.363718
threshold=0.98202865771588765 0.45133336091856951 0.77915819106608775 0.59033361992249433 0.42474782993232335 0.59033361992249433 0.021742116557478177 0.25709665841008417 0.67688773599872754 0.18015127281857102 0.63252044125064555 0.57358709964519461 0.86910145947767325
decision_type=2 2 2 2 2 2 2 2 2 2 2 2 2
left_child=1 3 6 4 9 -4 7 8 -3 -1 -5 -8 -7
right_child=-2 2 5 10 -6 12 11 -9 -10 -11 -12 -13 -14
leaf_value=-0.058341450275063003 0.11436476538107065 -0.12440826245308487 0.13829184816581339 0.097643753905134134 0.16338067216785748 0.017518591353397464 -0.11025583639782158 0.0041681044058239957 -0.01164003340575148 0.0094469614759783646 0.043806644149890279 -0.060487319694134289 -0.036535739344108267
leaf_weight=4.7021967209875601 2.4884337447583667 2.6039686277508798 1.6462884396314601 4.3033256977796537 1.0333275608718393 4.4239976033568382 3.1983169652521592 8.5936956629157049 4.8218724951148033 2.326954610645771 4.939288429915905 5.8734016120433807 2.4808472543954849
leaf_count=22 26 22 12 20 12 16 16 36 18 12 26 32 10
internal_value=0 -0.00558593 -0.0248981 0.0319583 -0.0103597 0.025088 -0.0419334 -0.0214902 -0.0511837 -0.0359005 0.068873 -0.0780337 -0.00190263
internal_weight=0 50.9475 33.6424 17.3051 8.06248 8.55113 25.0913 16.0195 7.42584 7.02915 9.24261 9.07172 6.90484
internal_count=280 254 162 92 46 38 124 76 40 34 46 48 26
shrinkage=0.113


Tree=7
num_leaves=14
num_cat=0
split_feature=11 1 11 7 11 0 2 11 7 11 11 0 2
split_gain=2.26065 2.69307 1.62364 1.24484 1.10372 1.49426 0.827847 0.578574 0.538178 0.634774 0.486937 0.366169 0.236803
threshold=0.98202865771588765 0.25709665841008417 0.45133336091856951 0.023478796550872542 0.42474782993232335 0.59033361992249433 0.99959903769045744 0.67688773599872754 0.013945658280811976 0.64772487228375752 0.77915819106608775 0.20029640213204666 0.41900561347233373
decision_type=2 2 2 2 2 2 2 2 2 2 2 2 2
left_child=1 7 4 8 5 -3 -7 11 9 -4 -10 -1 -2
right_child=12 2 3 -5 -6 6 -8 -9 10 -11 -12 -13 -14
leaf_value=-0.16599167991333433 0.16120667672204556 -0.014508982726399005 -0.080201248576723824 -0.059433744628965307 0.1595948471360403 0.07164613013629316 -0.042949486187171836 -0.042114913929955047 -0.0058136514608619159 -0.0019809608499163612 0.039651075162028961 -0.078796017605698335 0.084019288495184793
leaf_weight=0.88647418841719572 0.80563266947865408 6.0406891219317886 1.8229510560631812 5.3483003545552483 0.86687082797288972 7.4509555324912053 0.90244898200035084 5.0413148496299982 6.0857429318129999 4.8474705964326859 5.9479209892451763 2.0078325681388378 1.3715362139046192
leaf_count=10 11 29 9 32 12 41 5 25 28 17 29 17 15
internal_value=0 -0.0051876 0.00693307 -0.0113591 0.0357629 0.0283052 0.0592659 -0.0652338 0.00238747 -0.0233577 0.0166584 -0.105502 0.112581
internal_weight=0 47.249 39.3134 24.0524 15.261 14.3941 8.3534 7.93562 18.7041 6.67042 12.0337 2.89431 2.17717
internal_count=280 254 202 115 87 75 46 52 83 26 57 27 26
shrinkage=0.113


Tree=8
num_leaves=14
num_cat=0
split_feature=11 11 11 0 11 0 2 7 2 8 11 0 2
split_gain=1.82192 2.41421 1.11491 1.52515 0.898484 1.039 0.829487 0.708353 0.388903 0.340658 0.27842 0.218563 0.163552
threshold=0.98202865771588765 0.45133336091856951 0.77915819106608775 0.59033361992249433 0.42474782993232335 0.59033361992249433 0.37209302325581411 0.020714679282958556 0.99959903769045744 0.089282979395787207 0.67688773599872754 0.86910145947767325 0.41900561347233373
decision_type=2 2 2 2 2 2 2 2 2 2 2 2 2
left_child=1 4 6 -4 5 9 7 -3 -7 -1 -9 -5 -2
right_child=12 2 3 11 -6 8 -8 10 -10 -11 -12 -13 -14
leaf_value=-0.049963408213768865 0.1550492802937361 -0.0070625405543510867 0.1278055679743165 0.0066865591079956193 0.15546655355701619 0.063202634422640638 -0.11083982902274545 -0.067359300863851793 -0.017325292923270584 0.008861057414921646 -0.030416667303558464 -0.036703724999615168 0.084845547893325018
leaf_weight=1.7809957284480296 0.64737671893089888 9.1331814602017491 1.2464952431619156 4.1853968910872936 0.72699430305510837 6.817307785153389 1.7696957839652885 5.5843128031119686 0.86268751695752133 4.2731757387518883 4.8825971223413944 2.2952478975057602 1.2265683375298977
leaf_count=10 11 41 12 16 12 41 19 42 5 24 22 10 15
internal_value=0 -0.0046936 -0.0234483 0.0133362 0.0330422 0.0265619 -0.0367493 -0.0300596 0.054157 -0.00844373 -0.0501263 -0.00868096 0.109098
internal_weight=0 43.5581 29.0969 7.72714 14.4612 13.7342 21.3698 19.6001 7.68 6.05417 10.4669 6.48064 1.87395
internal_count=280 254 162 38 92 80 124 105 46 34 64 26 26
shrinkage=0.113


Tree=9
num_leaves=14
num_cat=0
split_feature=11 11 7 3 5 11 10 7 0 11 5 11 2
split_gain=1.65561 2.03159 0.824363 0.755857 1.07026 0.391485 1.00181 0.525448 0.398055 0.273035 0.258735 0.25453 0.235769
threshold=0.45133336091856951 0.98202865771588765 0.024554669465599758 0.074341772731512254 0.41106719035376682 0.64772487228375752 0.17718120777757762 0.0087457090840113907 0.60700420711197478 0.77915819106608775 0.13317275513406593 0.38709523039848187 1.0000000180025095e-35
decision_type=2 2 2 2 2 2 2 2 2 2 2 2 2
left_child=3 2 5 4 10 6 8 -7 -2 -9 -1 -5 -13
right_child=1 -3 -4 11 -6 7 -8 9 -10 -11 -12 12 -14
leaf_value=0.01613524383378603 0.023188001566815369 0.10685851476354412 -0.077980705800425987 0.037234570640073524 0.054682147924101823 -0.039732641367453608 -0.16262587761488967 -0.007661979643824225 -0.035683515815651885 0.026819393627906262 -0.041971010855500118 0.07320619428000498 0.15206424912123556
leaf_weight=1.4049313999712447 1.8675436787307331 1.6556581994518627 2.9952307678759089 1.9421735666692246 4.1521846950054169 4.0399991050362578 0.71016505640000183 6.7016493380069715 6.8295961134135723 5.2133730724453926 3.2239424735307693 2.2394925281405453 0.61763358861207951
leaf_count=7 9 26 26 12 32 14 10 30 44 29 20 9 12
internal_value=0 -0.0148131 -0.0219169 0.0327376 0.0130289 -0.0152959 -0.0335793 -0.00451571 -0.023042 0.00742522 -0.0243349 0.0687977 0.0902532
internal_weight=0 30.0132 28.3576 13.5804 8.78106 25.3623 9.4073 15.955 8.69714 11.915 4.62887 4.7993 2.85713
internal_count=280 188 162 92 59 136 63 73 53 59 27 33 21
shrinkage=0.113


Tree=10
num_leaves=14
num_cat=0
split_feature=11 5 7 1 11 11 11 11 11 0 7 11 2
split_gain=1.22287 1.38706 1.07814 0.884597 0.76366 0.461312 0.472742 0.27151 0.327349 0.269859 0.210021 0.136189 0.129965
threshold=0.98202865771588765 0.66306536504090297 0.024554669465599758 0.20976926485769415 0.67688773599872754 0.56015369265413584 0.77915819106608775 0.91589751341782366 0.42474782993232335 0.70657666276404862 0.020714679282958556 0.45133336091856951 0.41900561347233373
decision_type=2 2 2 2 2 2 2 2 2 2 2 2 2
left_child=1 2 3 4 10 9 -7 8 -3 -5 -1 -4 -2
right_child=12 7 11 5 -6 6 -8 -9 -10 -11 -12 -13 -14
leaf_value=-0.076540883948716096 0.14964997110424305 0.053706559363163243 -0.039052352740730691 0.0075020013306827064 -0.0082670010572315281 -0.031231497703666351 0.014498205237238004 0.011834049267097113 0.14969938718046127 0.042464669752245325 -0.15627726353275376 -0.078323923246450169 0.077911762813151569
leaf_weight=1.6147369369864493 0.48265950148925074 3.029123622924089 1.8886159751564253 7.5460603069514054 2.8037752173841 6.5066188210621458 5.1883226409554482 1.5825770534574983 0.53351349756121624 4.4999381583184004 0.57094157813116897 2.7981510506942868 0.97157182358205318
leaf_count=17 11 23 10 43 13 31 31 7 12 31 10 26 15
internal_value=0 -0.00383604 -0.0122454 -0.00404758 -0.0472992 0.0050423 -0.0109441 0.0507809 0.0680817 0.0205628 -0.0973696 -0.0624987 0.101722
internal_weight=0 38.5624 33.4172 28.7304 4.98945 23.7409 11.6949 5.14521 3.56264 12.046 2.18568 4.68677 1.45423
internal_count=280 254 212 176 40 136 62 42 35 74 27 36 26
shrinkage=0.113


Tree=11
num_leaves=14
num_cat=0
split_feature=1 11 8 11 7 11 11 5 11 11 0 1 1
split_gain=1.10517 0.880696 1.12584 1.93544 1.79016 0.619258 0.437355 0.233829 0.326774 0.184685 0.212323 0.175119 0.116021
threshold=0.13186544335975872 0.98202865771588765 0.069721214827143205 0.77915819106608775 0.015013004981698641 0.91589751341782366 0.45133336091856951 0.51330105392746328 0.42474782993232335 0.67688773599872754 0.20029640213204666 0.41542385403513515 0.76802290272045926
decision_type=2 2 2 2 2 2 2 2 2 2 2 2 2
left_child=9 2 3 4 -2 7 -6 12 -9 10 -1 -7 -4
right_child=1 -3 5 -5 6 11 -8 8 -10 -11 -12 -13 -14
leaf_value=-0.1523081543480537 0.010684009899147594 0.09836986832587738 0.0096474798058844933 0.13300148755788935 -0.023193866009736702 -0.037299071810982971 -0.085585407900100607 0.046343549608144692 0.14688322550868055 -0.041947778986163989 -0.047718481123730117 0.0054126282837667688 0.037312378575811087
leaf_weight=0.47691318858414788 7.0818011052906478 1.2851053429767478 3.6811903007328528 0.99630608223378736 1.9559345273301003 1.8992478698492039 5.382698810659349 4.2224745862185955 0.45751658640801895 3.0959712322801352 0.51599767990410328 3.4564657956361771 4.0822708643972874
leaf_count=10 41 26 21 12 10 10 40 35 12 20 5 16 22
internal_value=0 0.00658327 0.0030321 -0.0193215 -0.0298454 0.0223936 -0.0689565 0.0362214 0.0561723 -0.0555481 -0.0979548 -0.00973383 0.0241945
internal_weight=0 34.501 33.2159 15.4167 14.4204 17.7992 7.33863 12.4435 4.67999 4.08888 0.992911 5.35571 7.76346
internal_count=280 245 219 103 91 116 50 90 47 35 15 26 43
shrinkage=0.113


end of trees

feature_importances:
relevance=63
color=27
intensity=16
proximity2fe=14
shape_size=11
visibility=9
proximity2dp=6
integration=4
proximity2be=2
wellknownness=2
uniqueness=1

parameters:
[boosting: gbdt]
[objective: lambdarank]
[metric: ndcg]
[tree_learner: serial]
[device_type: cpu]
[data: ]
[valid: ]
[num_iterations: 28]
[learning_rate: 0.113]
[num_leaves: 14]
[num_threads: -1]
[force_col_wise: 0]
[force_row_wise: 0]
[histogram_pool_size: -1]
[max_depth: 6]
[min_data_in_leaf: 5]
[min_sum_hessian_in_leaf: 0.001]
[bagging_fraction: 1]
[pos_bagging_fraction: 1]
[neg_bagging_fraction: 1]
[bagging_freq: 0]
[bagging_seed: 3]
[feature_fraction: 1]
[feature_fraction_bynode: 1]
[feature_fraction_seed: 2]
[extra_trees: 0]
[extra_seed: 6]
[early_stopping_round: 100]
[first_metric_only: 0]
[max_delta_step: 0]
[lambda_l1: 0]
[lambda_l2: 0]
[min_gain_to_split: 0]
[drop_rate: 0.1]
[max_drop: 50]
[skip_drop: 0.5]
[xgboost_dart_mode: 0]
[uniform_drop: 0]
[drop_seed: 4]
[top_rate: 0.2]
[other_rate: 0.1]
[min_data_per_group: 100]
[max_cat_threshold: 32]
[cat_l2: 10]
[cat_smooth: 10]
[max_cat_to_onehot: 4]
[top_k: 20]
[monotone_constraints: ]
[monotone_constraints_method: basic]
[monotone_penalty: 0]
[feature_contri: ]
[forcedsplits_filename: ]
[refit_decay_rate: 0.9]
[cegb_tradeoff: 1]
[cegb_penalty_split: 0]
[cegb_penalty_feature_lazy: ]
[cegb_penalty_feature_coupled: ]
[path_smooth: 0]
[interaction_constraints: ]
[verbosity: -1]
[saved_feature_importance_type: 0]
[max_bin: 255]
[max_bin_by_feature: ]
[min_data_in_bin: 3]
[bin_construct_sample_cnt: 200000]
[data_random_seed: 1]
[is_enable_sparse: 1]
[enable_bundle: 1]
[use_missing: 1]
[zero_as_missing: 0]
[feature_pre_filter: 1]
[pre_partition: 0]
[two_round: 0]
[header: 0]
[label_column: ]
[weight_column: ]
[group_column: ]
[ignore_column: ]
[categorical_feature: ]
[forcedbins_filename: ]
[objective_seed: 5]
[num_class: 1]
[is_unbalance: 0]
[scale_pos_weight: 1]
[sigmoid: 1]
[boost_from_average: 1]
[reg_sqrt: 0]
[alpha: 0.9]
[fair_c: 1]
[poisson_max_delta_step: 0.7]
[tweedie_variance_power: 1.5]
[lambdarank_truncation_level: 20]
[lambdarank_norm: 1]
[label_gain: ]
[eval_at: 1,2]
[multi_error_top_k: 1]
[auc_mu_weights: ]
[num_machines: 1]
[local_listen_port: 12400]
[time_out: 120]
[machine_list_filename: ]
[machines: ]
[gpu_platform_id: -1]
[gpu_device_id: -1]
[gpu_use_dp: 0]

end of parameters

pandas_categorical:null
