tree
version=v3
num_class=1
num_tree_per_iteration=1
label_index=0
max_feature_idx=11
objective=lambdarank
feature_names=color intensity shape_size integration choice visibility proximity2dp proximity2fe proximity2be uniqueness wellknownness relevance
feature_infos=[0:1] [0:1] [0:1.0000000000000002] [0:1] [0:1] [0:1] [0:1.0000000000000002] [0:0.99999999999999989] [0:0.93183904056685019] [0:1] [0:0.97986577180532408] [0:1]
tree_sizes=1544 1557 1569 1567 1572 1576 1568 1580 1580 1586 1588 1588 1584 1582 1591 1593 1594 1595 1592 1593 1584 1595 1602 1594 1584 1605

Tree=0
num_leaves=14
num_cat=0
split_feature=6 11 0 3 1 11 1 11 11 0 0 11 11
split_gain=8.63807 6.42246 7.0438 1.66996 1.41832 1.34496 2.0288 1.24414 0.927782 1.04315 0.831514 0.796304 0.725435
threshold=0.13925924995232694 0.98202865771588765 0.60700420711197478 0.050213589858228304 0.58355200773909133 0.77915819106608775 0.51298240439606357 0.45133336091856951 0.67688773599872754 0.39502600680593031 0.70657666276404862 0.42474782993232335 0.64772487228375752
decision_type=2 2 2 2 2 2 2 2 2 2 2 2 2
left_child=8 2 4 10 5 6 -2 -5 -1 -10 -4 -6 -9
right_child=1 -3 3 7 11 -7 -8 12 9 -11 -12 -13 -14
leaf_value=-0.22599999999999937 0.067535305431638867 0.19591339748352052 -0.068991422060428395 0.0021100090676843472 0.095559934839143532 0.13539686473832913 -0.12904880132141214 -0.1140456307516341 -0.065629814031439443 -0.22599999999999973 0.031496013781915591 0.22599999999999981 0
leaf_weight=1.4669632911682158 2.6600018627941675 2.5232404470443717 1.4184170961379994 2.0384061858057958 1.1490597240626812 1.9179727546870706 0.89619492739439 5.5306608527898788 1.7622003480792048 0.73348164558410633 4.0646296180784702 1.2452200576663017 0.81745922565460194
leaf_count=14 27 26 14 20 12 20 9 55 17 7 41 12 8
internal_value=0 0.0252647 0.00545665 -0.0429924 0.0908568 0.0591284 0.0179943 -0.0746968 -0.154683 -0.112763 0.00550078 0.163399 -0.0993598
internal_weight=0 24.2613 21.738 13.8696 7.86845 5.47417 3.5562 8.38653 3.96265 2.49568 5.48305 2.39428 6.34812
internal_count=282 244 218 138 80 56 36 83 38 24 55 24 63
shrinkage=0.113


Tree=1
num_leaves=14
num_cat=0
split_feature=6 11 5 11 11 3 11 11 1 0 2 11 11
split_gain=21.6526 13.0267 13.1869 4.31397 7.42412 6.64565 3.80191 2.77067 2.71828 2.59784 1.69321 1.54525 4.38849
threshold=0.13925924995232694 0.98202865771588765 0.66306536504090297 0.77915819106608775 0.91589751341782366 0.050213589858228304 0.45133336091856951 0.67688773599872754 0.41542385403513515 0.39502600680593031 0.41900561347233373 0.91589751341782366 0.42474782993232335
decision_type=2 2 2 2 2 2 2 2 2 2 2 2 2
left_child=7 2 3 5 -5 8 -7 -1 -2 -9 -3 12 -4
right_child=1 10 11 4 -6 6 -8 9 -10 -11 -12 -13 -14
leaf_value=-0.20364558730131344 0.032361980517177875 0.20691161698123309 0.069391540700559903 0.15843384551964973 -0.016144163208848501 0.0051749594095380803 -0.077177883795234964 -0.063509271902653069 -0.09440462265125231 -0.20294106721503999 0.10662924186425875 0.016985856964573835 0.20541803641784973
leaf_weight=4.6001877486705753 21.165948539972309 3.7598579078912717 11.063295841217043 4.6442805230617497 9.4180750846862793 9.5137086212635023 28.910891965031624 7.1783819198608398 2.4054074436426154 2.23828986287117 5.0208258181810379 2.9273296296596518 4.1699789762496939
leaf_count=14 45 11 24 12 20 20 72 17 5 7 15 8 12
internal_value=0 0.0179316 0.00566359 -0.0149937 0.0415126 -0.0278108 -0.0567878 -0.131766 0.0194257 -0.0966514 0.14957 0.0921782 0.106628
internal_weight=0 103 94.2189 76.0583 14.0624 61.996 38.4246 14.0169 23.5714 9.41667 8.78068 18.1606 15.2333
internal_count=282 244 218 174 32 142 92 38 50 24 26 44 36
shrinkage=0.113


Tree=2
num_leaves=14
num_cat=0
split_feature=6 11 11 5 7 5 11 11 11 1 1 1 0
split_gain=11.3048 8.13833 7.84661 5.12242 4.75051 3.29497 3.86646 2.44119 1.72687 1.60571 1.45213 1.01438 0.699228
threshold=0.13925924995232694 0.98202865771588765 0.45133336091856951 0.41106719035376682 0.023439176392828925 0.47104490973201341 0.77915819106608775 0.42474782993232335 0.67688773599872754 0.8249191861292241 1.0000000180025095e-35 0.37684203539341138 0.76735039005403693
decision_type=2 2 2 2 2 2 2 2 2 2 2 2 2
left_child=8 2 3 9 5 6 -4 -5 -1 -2 -10 -7 -3
right_child=1 12 4 7 -6 11 -8 -9 10 -11 -12 -13 -14
leaf_value=-0.1886216889350508 -0.038282782247122428 0.11139947605704853 -0.013386678763739458 0.069936109060619756 -0.099713612734543267 -0.11589972354062548 0.085592813381108079 0.18956950050183727 -0.18722757999371517 0.051084328114497667 -0.057238120602928731 -0.038303395229280279 0.19182333144345667
leaf_weight=2.9113062024116498 7.9000496715307253 3.5109706968069068 17.615874223411087 15.334283843636515 8.9770257771015149 3.0254880338907224 7.0587124675512305 2.5385396853089324 1.3857128918170927 3.803166002035141 5.2732717990875244 7.4440186470746994 2.2747700363397598
leaf_count=14 22 15 44 45 33 12 21 12 7 10 17 19 11
internal_value=0 0.0139704 0.00383919 0.0488739 -0.0263493 -0.00760946 0.0149286 0.0869281 -0.116027 -0.00924137 -0.0842885 -0.0607273 0.14302
internal_weight=0 79.4829 73.6972 29.576 44.1211 35.1441 24.6746 17.8728 9.57029 11.7032 6.65898 10.4695 5.78574
internal_count=282 244 218 89 129 96 65 57 38 32 24 31 26
shrinkage=0.113


Tree=3
num_leaves=14
num_cat=0
split_feature=5 1 11 0 11 11 11 11 7 11 11 9 11
split_gain=7.87826 5.2775 4.34379 4.47745 3.8782 3.71957 3.20959 3.13211 2.33965 1.96819 1.08336 0.912976 2.5342
threshold=0.35778948929255661 0.8249191861292241 0.77915819106608775 0.63252044125064555 0.98202865771588765 0.49459000568800598 0.45133336091856951 0.53168496441549251 0.021742116557478177 0.42474782993232335 0.45133336091856951 1.0000000180025095e-35 0.67688773599872754
decision_type=2 2 2 2 2 2 2 2 2 2 2 2 2
left_child=1 2 8 -4 5 9 -3 -7 11 -2 -10 -1 -13
right_child=4 6 3 -5 -6 7 -8 -9 10 -11 -12 12 -14
leaf_value=-0.02251939837389421 0.052600742970429909 0.10285252399330672 0.14574339482814599 -0.052853814908338757 0.13607150023602832 -0.068221641323552754 -0.040411540518655739 0.022018347073249279 -0.06244082486404115 0.17836051276432482 -0.14127778159511428 -0.17905591675466959 -0.030719672329088597
leaf_weight=7.9430586323142105 11.89053691923618 4.8793397247791273 2.4728947505354872 3.502967894077301 4.2885652519762507 6.9604209885001209 3.3799986988306046 16.682535842061043 3.1599773019552213 1.8341827467083938 7.5282116681337357 2.1844025738537312 4.500681146979332
leaf_count=20 45 10 12 9 26 23 13 46 10 12 25 14 17
internal_value=0 -0.0361204 -0.0573268 0.0293285 0.0342954 0.0226149 0.0442241 -0.00454806 -0.0777815 0.0694074 -0.11797 -0.0484178 -0.0791897
internal_weight=0 39.5515 31.2922 5.97586 41.6562 37.3677 8.25934 23.643 25.3163 13.7247 10.6882 14.6281 6.68508
internal_count=282 130 107 21 152 126 23 69 86 57 35 51 31
shrinkage=0.113


Tree=4
num_leaves=14
num_cat=0
split_feature=11 1 0 7 5 11 5 11 0 11 11 11 0
split_gain=4.78746 4.76453 4.57826 4.31156 1.87163 1.00868 0.897143 0.807822 1.32242 0.579894 0.522443 0.426207 0.830645
threshold=0.98202865771588765 0.25709665841008417 0.76735039005403693 0.023439176392828925 0.41106719035376682 0.56015369265413584 0.20730849983476043 0.77915819106608775 0.63252044125064555 0.91589751341782366 0.3528195894986903 0.67688773599872754 0.60700420711197478
decision_type=2 2 2 2 2 2 2 2 2 2 2 2 2
left_child=1 6 4 5 7 -4 -1 -3 -9 10 -6 12 -8
right_child=-2 2 3 -5 9 -7 11 8 -10 -11 -12 -13 -14
leaf_value=-0.16972319212142037 0.12939588065396407 -0.0037013849365615547 0.060338128297780833 -0.10077246084814012 0.041326683522836249 -0.013772633415890665 -0.17191043648780863 0.12218984925409269 0.00454984549484374 0.0070608930651775842 0.090031494964297923 -0.039968021409467293 -0.060804623790600053
leaf_weight=1.2920107468962649 3.4660305753350249 15.942407228052618 3.1486273109912899 8.149800091981886 4.509315110743044 9.1881731897592527 1.2052301056683061 1.9171677380800236 3.3560972660779953 2.0797259211540213 7.4724109061062336 3.6658325418829918 2.9927160069346428
leaf_count=11 26 52 12 30 21 29 10 12 9 8 33 17 12
internal_value=0 -0.0069084 0.00549592 -0.0369919 0.03017 0.00514209 -0.0824574 0.00898011 0.0473195 0.062141 0.0717015 -0.0681198 -0.0927031
internal_weight=0 64.9195 55.7637 20.4866 35.2771 12.3368 9.15579 21.2157 5.27327 14.0615 11.9817 7.86378 4.19795
internal_count=282 256 206 71 135 41 50 73 21 62 54 39 22
shrinkage=0.113


Tree=5
num_leaves=14
num_cat=0
split_feature=5 11 11 11 9 11 0 0 0 2 5 11 2
split_gain=3.78523 4.50735 2.88667 3.86879 2.51098 1.70433 1.11621 0.999994 1.18773 0.643414 0.571954 0.919085 0.449526
threshold=0.068691133825377962 0.77915819106608775 0.45133336091856951 0.98202865771588765 1.0000000180025095e-35 0.42474782993232335 0.58729677992026852 0.58729677992026852 0.98423748947671708 0.99959903769045744 0.20945946249560674 0.67688773599872754 0.41900561347233373
decision_type=2 2 2 2 2 2 2 2 2 2 2 2 2
left_child=1 -1 5 4 7 6 -2 -4 -9 -8 -6 -12 -5
right_child=2 -3 3 12 10 -7 9 8 -10 -11 11 -13 -14
leaf_value=-0.10218380368720312 -0.0074893652611845753 0.10632938588171567 0.07945932904917187 0.17216944808877949 -0.1328714009945226 0.17124848038099885 0.067465216347224286 -0.023428649981853341 0.039290414213339897 -0.022800564699866872 -0.06823243027001924 0.0050502051012143064 0.081785160765321052
leaf_weight=7.7094464264810068 4.6167356930673131 1.5981846973299978 2.1836440488696161 1.1428792569786301 1.1608632281422604 1.3568537123501307 10.139530088752505 11.159076657146217 5.8907095044851294 1.1196719855070121 8.6245125439017993 2.9269292727112761 1.8240068405866623
leaf_count=28 23 12 8 11 11 12 43 41 18 5 42 13 15
internal_value=0 -0.0663806 0.0118485 -0.00683056 -0.0182941 0.0496913 0.0393022 0.00746186 -0.00175918 0.0584887 -0.0572623 -0.0496639 0.116602
internal_weight=0 9.30763 52.1454 34.9126 31.9457 17.2328 15.8759 19.2334 17.0498 11.2592 12.7123 11.5514 2.96689
internal_count=282 40 242 159 133 83 71 67 59 48 66 55 26
shrinkage=0.113


Tree=6
num_leaves=14
num_cat=0
split_feature=5 11 2 2 11 8 0 11 11 11 11 0 0
split_gain=3.50416 3.71476 1.51048 1.31199 1.19566 1.03719 0.838436 0.743256 0.701307 0.786545 0.53444 0.590189 0.581164
threshold=0.41106719035376682 0.77915819106608775 0.99959903769045744 0.41900561347233373 0.98202865771588765 0.1538908935873867 0.76735039005403693 0.49459000568800598 0.56015369265413584 0.64772487228375752 0.3528195894986903 0.70657666276404862 0.58729677992026852
decision_type=2 2 2 2 2 2 2 2 2 2 2 2 2
left_child=1 5 -3 8 7 6 -1 -5 10 -10 11 -2 -12
right_child=3 2 -4 4 -6 -7 -8 -9 9 -11 12 -13 -14
leaf_value=-0.028050226151682942 0.00055369092453329293 0.12909720988614679 0.0062108391388035616 0.032038876264512621 0.085034148263137349 -0.1618762345947985 -0.076689286911563792 -0.044951684405547677 -0.032256885862924224 0.045864547793592524 0.16441132186854093 0.085772561584975857 0.072359804147527157
leaf_weight=17.167714856565009 2.4427980370819622 2.2623675391077986 2.9330942779779434 2.2444716542959195 1.5745688453316686 0.941014489158987 6.1452902071177951 5.5856985524296761 2.3769386038184157 5.3490206003189087 1.0776978675276039 1.8041011504828928 4.6742446571588516
leaf_count=79 12 23 9 12 15 11 30 23 10 16 12 9 21
internal_value=0 -0.0269914 0.0597218 0.0292995 -0.00481503 -0.0455662 -0.0408714 -0.0228828 0.0474006 0.02183 0.0671586 0.036755 0.0896068
internal_weight=0 29.4495 5.19546 27.1295 9.40474 24.254 23.313 7.83017 17.7248 7.72596 9.99884 4.2469 5.75194
internal_count=282 152 32 130 50 120 109 35 80 26 54 21 33
shrinkage=0.113


Tree=7
num_leaves=14
num_cat=0
split_feature=11 11 7 11 9 11 5 6 3 2 7 2 0
split_gain=2.56083 3.22966 1.75665 1.08306 0.722964 1.56029 0.970186 0.548236 0.802285 0.249697 0.24597 0.241743 0.196087
threshold=0.45133336091856951 0.98202865771588765 0.023439176392828925 0.42474782993232335 1.0000000180025095e-35 0.77915819106608775 0.20945946249560674 0.21971763531722902 0.019986404276603895 0.41900561347233373 0.015956381001454256 0.70769847634322391 0.61341275555286834
decision_type=2 2 2 2 2 2 2 2 2 2 2 2 2
left_child=3 2 4 7 10 6 -6 8 -1 -3 -2 -10 -9
right_child=1 9 -4 -5 5 -7 -8 12 11 -11 -12 -13 -14
leaf_value=0.05182056473749537 -0.0073423767549452004 0.16456644921619601 -0.082446190309842696 0.15906174994740557 -0.10384945924252659 0.089782131485551517 -0.027416453410813692 0.028611134053996522 -0.0032519510090579453 0.085671801336569597 0.024387112177154852 -0.060866179596611815 0.070090771525284479
leaf_weight=3.773716811090706 9.1770530790090614 0.81616673711687249 5.8948480021208516 0.87632907740771848 2.8865625206381047 1.1671861391514546 7.9909676415845752 2.2571290619671354 4.0662953965365887 1.3755870014429092 4.7264174260199061 1.2056550998240707 4.0961697623133659
leaf_count=24 35 11 40 12 13 12 44 12 17 15 19 9 19
internal_value=0 -0.0176297 -0.0267621 0.0368671 -0.0141119 -0.0343769 -0.0476994 0.0299132 0.0120443 0.115051 0.00344391 -0.0164279 0.0553543
internal_weight=0 34.0348 31.843 16.2753 25.9482 12.0447 10.8775 15.399 9.04567 2.19175 13.9035 5.27195 6.3533
internal_count=282 189 163 93 123 69 57 81 50 26 54 26 31
shrinkage=0.113


Tree=8
num_leaves=14
num_cat=0
split_feature=5 11 2 9 11 0 11 11 0 11 0 0 11
split_gain=2.34793 1.21584 1.73196 0.970652 1.13962 1.22218 0.818537 1.00513 0.620206 0.604613 0.396764 0.341722 0.326082
threshold=0.41106719035376682 0.77915819106608775 0.99959903769045744 1.0000000180025095e-35 0.67688773599872754 1.0000000180025095e-35 0.49459000568800598 0.53168496441549251 0.82861429136100517 0.42474782993232335 0.92798781083676607 0.76735039005403693 0.64772487228375752
decision_type=2 2 2 2 2 2 2 2 2 2 2 2 2
left_child=1 3 -3 8 11 -6 9 -8 -1 -2 -9 -5 -12
right_child=6 2 -4 4 5 -7 7 10 -10 -11 12 -13 -14
leaf_value=0.0010564618609252927 0.046691375862462796 0.11928339649178168 -0.026245290593568418 -0.16743458125273239 0.022536613142410341 -0.084741552788304378 -0.065935029446097346 0.046259321205595408 -0.055888493103172329 0.15483125305154291 -0.033184330712668256 -0.088819769662376494 0.020351630509554613
leaf_weight=8.6799849215894991 6.7521716300398138 1.7028989065438498 2.6997417360544205 1.23739513941109 2.541082788258791 2.9076886726543307 1.8759521860629309 5.2979416158050281 3.3983786311000577 0.73172377515584219 2.0045570954680443 1.6441153064370155 5.2774756588041782
leaf_count=43 45 23 9 14 13 20 12 32 19 12 10 11 19
internal_value=0 -0.0238132 0.0300438 -0.0354314 -0.0651055 -0.0347114 0.0269298 0.0112254 -0.0149656 0.0572645 0.0227317 -0.122579 0.00561455
internal_weight=0 24.8113 4.40264 20.4086 8.33028 5.44877 21.9398 14.4559 12.0784 7.4839 12.58 2.88151 7.28203
internal_count=282 152 32 120 58 33 130 73 62 57 61 25 29
shrinkage=0.113


Tree=9
num_leaves=14
num_cat=0
split_feature=11 11 7 1 5 6 11 11 7 7 1 11 11
split_gain=1.83443 1.86869 1.41467 0.959259 0.757671 0.700159 0.36089 0.349836 0.514687 0.287927 0.247348 0.221678 0.236339
threshold=0.98202865771588765 0.45133336091856951 0.023439176392828925 0.25709665841008417 0.66306536504090297 0.21971763531722902 0.42474782993232335 0.67688773599872754 0.020714679282958556 0.015956381001454256 0.8249191861292241 0.68736184834557201 0.64772487228375752
decision_type=2 2 2 2 2 2 2 2 2 2 2 2 2
left_child=1 4 3 7 5 9 -6 8 -3 -1 -4 12 -5
right_child=-2 2 10 11 6 -7 -8 -9 -10 -11 -12 -13 -14
leaf_value=-0.068388673030731678 0.11373489261233592 -0.049403161444184093 -0.097299103141531243 0.0051811369148583438 0.055912834570215245 0.05356723267848227 0.15023984698082626 -0.024871177513584669 -0.16335633907905717 -0.00066814821623102443 -0.045532047863475464 -0.0086135086770829337 0.049866710155696166
leaf_weight=0.95457423850893786 1.7351065278053273 1.640346804633743 2.9926758203655472 5.3859315179288414 3.5055808722972861 3.2681778781116009 0.60769692249596108 2.6589368619024754 0.7319486942142247 5.0049836561083794 1.9442769624292848 8.9751951247453672 2.100828506052494
leaf_count=9 26 12 27 27 24 19 12 17 10 29 13 49 8
internal_value=0 -0.00496194 -0.0223643 -0.00983469 0.0295141 0.0115349 0.0698487 -0.0530164 -0.0845623 -0.0115153 -0.0769121 0.00336283 0.0177202
internal_weight=0 39.7712 26.4301 21.4932 13.341 9.22774 4.11328 5.03123 2.3723 5.95956 4.93695 16.462 7.48676
internal_count=282 256 163 123 93 57 36 39 22 38 40 84 35
shrinkage=0.113


Tree=10
num_leaves=14
num_cat=0
split_feature=11 5 11 7 8 11 11 1 11 3 11 2 6
split_gain=1.37496 1.38111 0.931528 0.520791 0.409709 1.51525 0.400858 0.394711 0.188057 0.171217 0.181323 0.14151 0.130667
threshold=0.98202865771588765 0.41106719035376682 0.49459000568800598 0.025347528134060101 0.069721214827143205 0.77915819106608775 0.42474782993232335 0.25709665841008417 0.67688773599872754 0.043137279689637077 0.45133336091856951 0.41900561347233373 0.2100774150633565
decision_type=2 2 2 2 2 2 2 2 2 2 2 2 2
left_child=1 3 6 4 5 8 12 -4 -1 -6 -11 -2 -3
right_child=11 2 7 -5 9 -7 -8 -9 -10 10 -12 -13 -14
leaf_value=-0.074124248996636041 0.15397663126631764 0.074073805786726413 -0.054954561355870062 -0.088398981508120783 -0.026773500968149691 0.10082123105923635 0.1479045224378433 0.0075011386918726391 -0.038151954543593498 0.024344594737650473 -0.012492285459401085 0.080919938724708415 0.035071596081433051
leaf_weight=3.3861906267702633 0.51878102123737224 1.4614368285983825 1.4982821475714434 1.5177718135528255 2.882398867979644 0.89931881986558426 0.5246330783702432 9.3888029232621175 4.1057758899405599 3.4396735765039921 3.3857880476862192 0.9744899645447731 4.3966363742947578
leaf_count=29 11 12 12 18 18 12 12 46 26 17 21 15 33
internal_value=0 -0.00430333 0.0190006 -0.024819 -0.0194872 -0.0377739 0.0532763 -0.00109402 -0.0544106 -0.00368059 0.00607156 0.106301 0.0448016
internal_weight=0 36.8867 17.2698 19.6169 18.0991 8.39129 6.38271 10.8871 7.49197 9.70786 6.82546 1.49327 5.85807
internal_count=282 256 115 141 123 67 57 58 55 56 38 26 45
shrinkage=0.113


Tree=11
num_leaves=14
num_cat=0
split_feature=11 11 7 5 10 11 11 0 1 11 1 2 3
split_gain=1.15099 1.19661 0.845789 0.630674 0.604323 0.767186 0.646103 0.487207 0.165662 0.135293 0.252715 0.120257 0.101491
threshold=0.98202865771588765 0.45133336091856951 0.023439176392828925 0.41106719035376682 0.061912751363057981 0.64772487228375752 0.67688773599872754 0.60700420711197478 0.8249191861292241 0.3528195894986903 0.58355200773909133 0.41900561347233373 0.069743716424579091
decision_type=2 2 2 2 2 2 2 2 2 2 2 2 2
left_child=1 3 4 8 -3 7 -7 -6 -1 -5 -11 -2 -4
right_child=11 2 12 9 5 6 -8 -9 -10 10 -12 -13 -14
leaf_value=-0.014340698850386253 0.15131916290192934 0.035603401763320615 -0.093566728533839474 0.03263668730661072 -0.15912673176610018 0.05815213927716336 -0.015628603114754884 -0.045943929016081943 0.026628126162429721 0.054330949578507606 0.14545508401222321 0.079177441689085734 -0.054458966587985387
leaf_weight=3.8944289591163379 0.44220643956214079 3.2007923722267213 1.2317061778157943 2.6435696016997099 0.58063913602381889 1.7812809459865082 10.159541722387074 2.9680442931130528 1.8632885329425333 2.7642512284219269 0.45218693558126677 0.88661868683993816 2.7153581958264112
leaf_count=26 11 17 16 21 10 8 66 22 10 24 12 15 24
internal_value=0 -0.00400275 -0.0191328 0.0254785 -0.0090953 -0.018332 -0.00462231 -0.064463 -0.00108254 0.0515758 0.0671417 0.103185 -0.0666628
internal_weight=0 34.2551 22.6374 11.6177 18.6903 15.4895 11.9408 3.54868 5.75772 5.86001 3.21644 1.32883 3.94706
internal_count=282 256 163 93 123 106 74 32 36 57 36 26 40
shrinkage=0.113


Tree=12
num_leaves=14
num_cat=0
split_feature=5 11 2 9 11 11 11 1 5 7 11 11 1
split_gain=1.23264 1.06955 0.980968 0.808265 0.675881 0.368425 0.473053 0.247749 0.192325 0.150005 0.197415 0.130716 0.232473
threshold=0.41106719035376682 0.77915819106608775 0.99959903769045744 0.66666666666666674 0.45133336091856951 0.49459000568800598 0.53168496441549251 0.25709665841008417 0.068691133825377962 0.023439176392828925 0.67688773599872754 0.3528195894986903 0.58355200773909133
decision_type=2 2 2 2 2 2 2 2 2 2 2 2 2
left_child=1 3 -3 4 8 11 -7 -8 -1 10 -6 -2 -13
right_child=5 2 -4 -5 9 6 7 -9 -10 -11 -12 12 -14
leaf_value=-0.024294319259724303 0.027253965274649346 0.12396410079118313 -0.012693185325450312 -0.10706482425475841 -0.054502898734749311 -0.054205334361996933 0.078550590831671194 0.013372419037016837 0.022730153788000411 -0.060862042749038635 -0.0071659696979896968 0.04988475666152322 0.14321316714864948
leaf_weight=1.5991082796826965 2.528830578550699 1.1458932179957619 1.6175050362944603 1.6529411692172296 2.1694393595680577 1.2815374853089441 0.81323045399039884 8.8330468982458097 3.6351602971553802 3.6134355256799608 2.3366009350866079 2.5840593744069342 0.3925772311631589
leaf_count=10 21 23 9 13 18 12 15 46 22 40 17 24 12
internal_value=0 -0.0206291 0.0439742 -0.0325254 -0.0232989 0.0223072 0.0102978 0.0188673 0.00836382 -0.0437104 -0.0299564 0.0461447 0.0621935
internal_weight=0 17.7701 2.7634 15.0067 13.3537 16.4333 10.9278 9.64628 5.23427 8.11948 4.50604 5.50547 2.97664
internal_count=282 152 32 120 107 130 73 61 32 75 35 57 36
shrinkage=0.113


Tree=13
num_leaves=14
num_cat=0
split_feature=11 1 6 11 1 5 11 11 5 11 0 0 5
split_gain=0.823608 1.00387 0.606107 0.563653 0.538937 0.494419 0.611392 0.356176 0.32871 0.307658 0.453722 0.299174 0.163342
threshold=0.98202865771588765 0.25709665841008417 0.36000337259961346 0.45133336091856951 0.37684203539341138 0.20945946249560674 0.67688773599872754 0.77915819106608775 0.068691133825377962 0.64772487228375752 0.98423748947671708 0.60700420711197478 0.66306536504090297
decision_type=2 2 2 2 2 2 2 2 2 2 2 2 2
left_child=1 5 3 8 -5 -1 11 -6 -3 10 -4 -7 -10
right_child=-2 2 9 4 7 6 -8 -9 12 -11 -12 -13 -14
leaf_value=-0.12649444938534621 0.097369037969378888 -0.029546108537094891 0.03794545962960473 0.043714005595446935 -0.054448516335681596 -0.15646102548304397 0.013633558610825854 -0.011830206451907896 0.02119830439368935 0.073899979201175844 -0.035948857255286425 -0.051858284645411146 0.068297138708685229
leaf_weight=0.93191292951815441 1.071902795229106 1.445329356007284 4.2690313279163083 1.4288672693073738 4.4361852044239622 0.48690081341192115 1.7328727906569839 5.7488641673699021 4.7124241571873426 1.738913372159004 1.4119468107819555 1.2339532161131501 1.1745865028351543
leaf_count=15 26 10 42 8 42 10 13 40 34 8 10 12 12
internal_value=0 -0.00339395 0.00493277 -0.00578901 -0.0212755 -0.0534536 -0.0337451 -0.030393 0.0187406 0.0323102 0.0195798 -0.0814547 0.0305955
internal_weight=0 30.7518 26.3661 18.9463 11.6139 4.38564 3.45373 10.185 7.33234 7.41989 5.68098 1.72085 5.88701
internal_count=282 256 206 146 90 50 35 82 56 60 52 22 46
shrinkage=0.113


Tree=14
num_leaves=14
num_cat=0
split_feature=6 11 11 4 11 11 0 0 5 3 2 1 1
split_gain=0.787948 0.547117 0.558268 0.626395 0.525916 0.509031 0.620037 0.360256 0.333417 0.31967 0.170997 0.122401 0.120427
threshold=0.13925924995232694 0.98202865771588765 0.45133336091856951 1.0000000180025095e-35 0.67688773599872754 0.77915819106608775 0.98423748947671708 1.0000000180025095e-35 0.068691133825377962 0.050213589858228304 0.99959903769045744 0.8249191861292241 0.30847625175305093
decision_type=2 2 2 2 2 2 2 2 2 2 2 2 2
left_child=4 2 8 9 -1 6 -5 -6 -2 12 -10 -11 -4
right_child=1 -3 3 5 7 -7 -8 -9 10 11 -12 -13 -14
leaf_value=-0.1513958762260792 -0.027550117878274542 0.088751803569613957 0.019029994115246002 -0.060560566245007913 -0.0026714446436989611 0.11445908922201101 0.036211711720265001 -0.10498694397714477 0.037160813718437311 -0.061948060979914524 -0.031016692125471011 -0.020679569085770705 -0.016551901087050722
leaf_weight=0.59774307475891264 1.3494929680600822 0.97743390349205483 1.4853926301002518 1.1611597691662598 1.551142876967788 0.69066270999610413 3.109096116386354 0.61311701801605512 7.758708941517396 2.817740131635218 0.50001860037446011 1.3609518292360006 6.6614606194198132
leaf_count=14 10 26 9 9 13 12 18 11 74 32 5 13 36
internal_value=0 0.00570495 0.00268677 -0.00945089 -0.0575701 0.0244547 0.00989758 -0.0316566 0.024524 -0.0230976 0.0330331 -0.0485074 -0.0100644
internal_weight=0 27.8721 26.8947 17.2865 2.762 4.96092 4.27026 2.16426 9.60822 12.3255 8.25873 4.17869 8.14685
internal_count=282 244 218 129 38 39 27 24 89 90 79 45 45
shrinkage=0.113


Tree=15
num_leaves=14
num_cat=0
split_feature=5 11 2 9 11 2 11 2 3 0 11 11 0
split_gain=0.839495 0.569046 0.792883 0.431647 0.319385 0.254787 0.245565 0.309077 0.265458 0.231516 0.19235 0.182319 0.15242
threshold=0.41106719035376682 0.77915819106608775 0.99959903769045744 1.0000000180025095e-35 0.49459000568800598 0.37209302325581411 0.64772487228375752 0.20208500400962315 0.050213589858228304 0.63252044125064555 0.67688773599872754 0.45133336091856951 0.76735039005403693
decision_type=2 2 2 2 2 2 2 2 2 2 2 2 2
left_child=1 3 -3 9 -2 10 7 -6 -8 11 12 -1 -5
right_child=4 2 -4 5 6 -7 8 -9 -10 -11 -12 -13 -14
leaf_value=0.020527683876023987 0.043638042171912764 0.11627531787415531 -0.021087141440623458 -0.14898387257395404 0.026385036346297259 -0.14543152334518361 0.0031392303489994112 -0.040106829245337761 0.05436303122145919 -0.041944638650028031 -0.032560347770423888 -0.02044889479829631 -0.060310283985739538
leaf_weight=2.7619623299688119 4.7416728968964881 0.88970322464592677 1.3518912494182587 0.35326089127920546 1.4482262767851337 0.37912373442668457 3.3499402813613415 2.3269522837363183 2.1027072183787823 2.4176567867398262 2.8344323062337935 2.7840988030657172 0.82691218657419086
leaf_count=17 57 23 9 10 9 11 19 22 23 24 26 21 11
internal_value=0 -0.0189484 0.0334329 -0.0284501 0.0198023 -0.0568829 0.00755439 -0.0145994 0.0228927 -0.0127632 -0.0485207 -4.23821e-05 -0.0868529
internal_weight=0 14.599 2.24159 12.3574 13.9695 4.39373 9.22783 3.77518 5.45265 7.96372 4.01461 5.54606 1.18017
internal_count=282 152 32 120 130 58 73 31 42 62 47 38 21
shrinkage=0.113


Tree=16
num_leaves=14
num_cat=0
split_feature=5 11 2 9 11 0 2 11 11 11 0 2 7
split_gain=0.599579 0.453575 0.645302 0.456252 0.325486 0.27792 0.20839 0.170599 0.16633 0.124405 0.207888 0.137221 0.103585
threshold=0.41106719035376682 0.77915819106608775 0.99959903769045744 1.0000000180025095e-35 0.49459000568800598 0.82861429136100517 0.37209302325581411 0.53168496441549251 0.45133336091856951 0.67688773599872754 1.0000000180025095e-35 0.12028869286287094 0.015956381001454256
decision_type=2 2 2 2 2 2 2 2 2 2 2 2 2
left_child=1 3 -3 5 12 -1 9 -6 -7 11 -11 -5 -2
right_child=4 2 -4 6 7 8 -8 -9 -10 10 -12 -13 -14
leaf_value=0.0038150963253319741 0.062714543343813753 0.11120755666431024 -0.018235119233580163 -0.055356001667905261 -0.038782937451301513 -0.021039435407668831 -0.14215160660672396 0.010288141241027463 -0.091019271212193498 -0.0034943965410544524 -0.066100248182326571 -0.14540973476753016 0.027854670406539606
leaf_weight=5.6892406665720063 1.8182637225836504 0.80729975708527413 1.2582398653030396 0.77435156004503392 1.029901591129599 1.2016484281048176 0.3255839820485561 7.4389748240355402 0.67861549067310978 1.344254526309669 1.3649508012458682 0.29967673070495948 2.7116590421646833
leaf_count=43 21 23 9 11 12 10 11 61 9 13 13 10 36
internal_value=0 -0.016455 0.0323565 -0.0250882 0.0173981 -0.00863255 -0.0554038 0.0043206 -0.0462962 -0.0479383 -0.0350365 -0.0804829 0.0418471
internal_weight=0 13.7439 2.06554 11.6783 12.9988 7.5695 4.10882 8.46888 1.88026 3.78323 2.70921 1.07403 4.52992
internal_count=282 152 32 120 130 62 58 73 19 47 26 21 57
shrinkage=0.113


Tree=17
num_leaves=14
num_cat=0
split_feature=6 11 11 7 11 6 5 5 2 11 11 2 0
split_gain=0.497517 0.389234 0.477007 0.485859 0.30076 0.268772 0.261099 0.205444 0.176155 0.127416 0.109719 0.104862 0.0657811
threshold=0.13925924995232694 0.98202865771588765 0.45133336091856951 0.023439176392828925 0.67688773599872754 0.21971763531722902 0.51330105392746328 0.20945946249560674 0.41900561347233373 0.38709523039848187 0.77915819106608775 0.41900561347233373 0.70657666276404862
decision_type=2 2 2 2 2 2 2 2 2 2 2 2 2
left_child=4 2 5 8 -1 6 -2 -6 10 12 -4 -3 -7
right_child=1 11 3 -5 7 9 -8 -9 -10 -11 -12 -13 -14
leaf_value=-0.14300489261516078 -0.018218565443738264 0.14322751648113177 0.00074123051933938796 -0.056008147069766819 -0.099183062851776471 0.0088175255691992586 0.036167798340080208 -0.0094404405764120097 -0.022016730843801662 0.066969068473518967 0.031556398263029514 0.054972993381364951 0.052196845529334387
leaf_weight=0.38487498520408103 2.6374092325568252 0.23809548967983474 6.0889723508153093 2.4969110260717562 0.43794789165258396 1.1785417618229987 1.9683807031251488 1.2711483472958207 3.5498820776119819 1.8424036514479665 1.9472359064966438 0.61841776757501066 0.71849419223144639
leaf_count=14 22 11 44 33 11 12 24 13 32 22 20 15 9
internal_value=0 0.00474458 0.0018895 -0.0107962 -0.0527592 0.0232973 0.00502459 -0.0324366 -0.00105262 0.0458034 0.00820799 0.0795062 0.0252473
internal_weight=0 23.2847 22.4282 14.083 2.09397 8.34523 4.60579 1.7091 11.5861 3.73944 8.03621 0.856513 1.89704
internal_count=282 244 218 129 38 89 46 24 96 43 64 26 21
shrinkage=0.113


Tree=18
num_leaves=14
num_cat=0
split_feature=6 10 11 11 11 5 1 11 6 2 5 11 0
split_gain=0.424078 0.379807 0.386561 0.262572 0.257613 0.152895 0.131579 0.293176 0.281047 0.089213 0.0831922 0.0583036 0.0240396
threshold=0.13925924995232694 0.053859060085187614 0.98202865771588765 0.67688773599872754 0.38709523039848187 0.20945946249560674 0.8249191861292241 0.64772487228375752 0.21485163453498135 0.41900561347233373 0.51330105392746328 0.42474782993232335 0.92798781083676607
decision_type=2 2 2 2 2 2 2 2 2 2 2 2 2
left_child=3 11 4 -1 10 -5 8 -8 -6 -4 -3 -2 -12
right_child=1 2 9 5 6 -7 7 -9 -10 -11 12 -13 -14
leaf_value=-0.14095941028064493 0.025315270539272121 -0.016896357970918603 0.14012927689913843 -0.093212805789762945 -0.005402787178948789 -0.0117945583669091 -0.011508485087957038 0.051480746717411555 -0.045063649361093132 0.053227043606339099 0.052522292610776226 0.055221000777268534 0.027406066014746711
leaf_weight=0.33912461990257958 1.7462179325521019 0.40558032691479384 0.20250113523797963 0.3886933231842703 7.5955627356888709 1.2155086705461144 3.5920334327965966 1.279652828350663 3.2609224603511393 0.5912966332398355 0.92781119048595395 1.5907141951029189 1.0232765995897353
leaf_count=14 21 5 11 11 64 13 33 8 42 15 12 21 12
internal_value=0 0.00442799 -0.00178384 -0.0506196 -0.0051715 -0.031522 -0.010392 0.00503699 -0.0173156 0.0753962 0.0296698 0.0395713 0.0393497
internal_weight=0 22.2156 18.8786 1.94333 18.0848 1.6042 15.7282 4.87169 10.8565 0.793798 2.35667 3.33693 1.95109
internal_count=282 244 202 38 176 24 147 41 106 26 29 42 24
shrinkage=0.113


Tree=19
num_leaves=14
num_cat=0
split_feature=11 11 8 7 1 6 5 5 11 2 11 0 2
split_gain=0.599747 0.447029 0.620744 0.490613 0.193689 0.166593 0.149715 0.132587 0.104162 0.0977424 0.0655162 0.141935 0.0390254
threshold=0.45133336091856951 0.77915819106608775 0.11894957130682277 0.020714679282958556 0.25709665841008417 0.21971763531722902 0.068691133825377962 0.51330105392746328 0.38709523039848187 0.41900561347233373 0.64772487228375752 0.98423748947671708 0.70769847634322391
decision_type=2 2 2 2 2 2 2 2 2 2 2 2 2
left_child=5 3 9 4 -2 7 -5 12 -7 -3 11 -6 -1
right_child=1 2 -4 6 10 8 -8 -9 -10 -11 -12 -13 -14
leaf_value=0.00099596028076866998 -0.046886853939538418 0.11521801028139499 -0.0078921297178509882 -0.083019814535263636 0.013088589505406431 0.024350263472939095 -0.039608341744113956 0.034040493644899403 0.063630792728106636 0.051003545007414282 0.029393024021603972 -0.036531905737883924 -0.034459518360721024
leaf_weight=2.0578522942960293 1.0970932375639657 0.64616735652089008 3.7142128329724073 1.492072968627326 2.4604352554306388 1.7202388020232322 3.1687239209422842 1.8288196716457603 1.7277998602949081 0.5693768875207752 1.1428898144513366 1.0502930525690319 0.4909804647322743
leaf_count=17 16 23 28 18 17 21 54 24 22 15 8 10 9
internal_value=0 -0.0129855 0.0150468 -0.0262586 -0.00417546 0.0254564 -0.0535058 0.0108242 0.0440336 0.0851391 0.00589378 -0.00175621 -0.00583381
internal_weight=0 15.3413 4.92976 10.4115 5.75071 7.82569 4.6608 4.37765 3.44804 1.21554 4.65362 3.51073 2.54883
internal_count=282 189 66 123 51 93 72 50 43 38 35 27 26
shrinkage=0.113


Tree=20
num_leaves=14
num_cat=0
split_feature=5 11 1 1 5 11 0 1 11 2 11 11 11
split_gain=0.464303 0.330517 0.273593 0.191512 0.173926 0.152755 0.304036 0.285321 0.10648 0.0736124 0.0673541 0.0475987 0.13041
threshold=0.66306536504090297 0.98202865771588765 0.25709665841008417 0.41542385403513515 0.20730849983476043 0.77915819106608775 0.63252044125064555 0.8249191861292241 0.67688773599872754 0.41900561347233373 0.38709523039848187 0.3528195894986903 0.91589751341782366
decision_type=2 2 2 2 2 2 2 2 2 2 2 2 2
left_child=1 2 4 10 -1 7 -7 -5 -6 -3 -4 -2 -13
right_child=11 9 3 5 8 6 -8 -9 -10 -11 -12 12 -14
leaf_value=-0.13737606293562563 0.017793491808523625 0.13662428115523684 0.031642121362447061 -0.045001851270152132 -0.06206604678895495 0.099782202251971666 -0.013363938766594001 -0.001633008317282108 -0.013766905577962757 0.04918339115320524 0.0043578641214543808 0.073776894863478396 0.02142750463963989
leaf_weight=0.23151574283839282 1.05362060945481 0.15856925185653281 1.5472735331859429 3.4646106106229109 1.0311053840850946 0.42295533872675117 1.071487145498395 4.3932326755020767 1.3406295785680413 0.54706647933926433 4.5605055363848805 1.16799309279304 1.2665524780750275
leaf_count=11 12 11 21 44 22 12 9 41 17 15 35 24 8
internal_value=0 -0.00703596 -0.00999974 -0.00429305 -0.0438904 -0.0144568 0.0186585 -0.0207548 -0.0347648 0.068833 0.0112697 0.0378587 0.0465426
internal_weight=0 18.769 18.0633 15.4601 2.60325 9.35229 1.49444 7.85784 2.37173 0.705636 6.10778 3.48817 2.43455
internal_count=282 238 212 162 50 106 21 85 39 26 56 44 32
shrinkage=0.113


Tree=21
num_leaves=14
num_cat=0
split_feature=11 11 7 6 1 5 3 0 11 11 1 11 0
split_gain=0.389791 0.345276 0.358018 0.161837 0.150204 0.121959 0.0877561 0.0649195 0.0492316 0.0404181 0.0395339 0.0673948 0.0129416
threshold=0.45133336091856951 0.98202865771588765 0.023439176392828925 0.21971763531722902 0.25709665841008417 0.51330105392746328 0.069743716424579091 0.76735039005403693 0.67688773599872754 0.38709523039848187 0.37684203539341138 0.77915819106608775 0.70657666276404862
decision_type=2 2 2 2 2 2 2 2 2 2 2 2 2
left_child=3 2 4 5 8 -1 -4 -3 -2 12 -6 -12 -5
right_child=1 7 6 9 10 -7 -8 -9 -10 -11 11 -13 -14
leaf_value=-0.010171109572172432 -0.052022715321192139 0.050014171185987333 -0.092695273063395728 0.020316376177250749 0.01269672333519687 0.029748628213118421 -0.042424692616354703 0.13602169032930314 -0.01823861798002523 0.053594817831917503 -0.017489466095867275 0.0052711800583176748 0.041723169743908065
leaf_weight=2.3420801551546928 0.9699354730400912 0.52972960402257818 0.6156976124038932 1.0124566867016258 2.2774991113692504 1.6769089046865699 1.5846066812518982 0.1421289670834085 1.274503706023097 1.5642611769726498 2.9133592301514 3.8649020170560107 0.56011470616795112
leaf_count=26 22 15 16 12 17 24 24 11 17 22 27 40 9
internal_value=0 -0.0108549 -0.0147895 0.0214985 -0.00666958 0.00648526 -0.0564916 0.0682087 -0.0328384 0.0407339 -0.00018372 -0.00451156 0.027941
internal_weight=0 14.1724 13.5005 7.15582 11.3002 4.01899 2.2003 0.671859 2.24444 3.13683 9.05576 6.77826 1.57257
internal_count=282 189 163 93 123 50 40 26 39 43 84 67 21
shrinkage=0.113


Tree=22
num_leaves=14
num_cat=0
split_feature=5 11 2 9 11 11 0 5 11 0 11 2 11
split_gain=0.360702 0.280048 0.379012 0.253235 0.219369 0.269656 0.147644 0.118582 0.134357 0.114058 0.0852139 0.0935162 0.0662961
threshold=0.41106719035376682 0.77915819106608775 0.99959903769045744 1.0000000180025095e-35 0.49459000568800598 0.42474782993232335 0.82861429136100517 0.20945946249560674 0.67688773599872754 0.76735039005403693 0.98202865771588765 0.41900561347233373 0.45133336091856951
decision_type=2 2 2 2 2 2 2 2 2 2 2 2 2
left_child=1 3 -3 6 5 -2 -1 -5 9 -9 11 -6 -8
right_child=4 2 -4 7 10 -7 12 8 -10 -11 -12 -13 -14
leaf_value=0.00158662635533292 0.02888726433476815 0.11113771109087026 -0.0093953519676518368 -0.075234787102772954 0.0089009718593091817 0.14415590210708457 -0.023091091083311192 -0.14100816306524774 -0.0037073726410266697 -0.04093952335096248 0.047681138328871546 -0.020977310783450314 -0.074617527561846864
leaf_weight=4.4832435420248675 3.161777961766346 0.49749811374931474 1.0081790047697723 1.2538889078714421 4.3505965881049633 0.28228292663698074 0.97876272955909349 0.19275975096388687 1.049914110917598 0.59248092689085752 0.51142615417484183 1.9314590581925584 0.47290541452821344
leaf_count=43 45 23 9 24 35 12 10 10 13 11 15 23 9
internal_value=0 -0.0146844 0.0304306 -0.0222119 0.0151033 0.0383349 -0.00855522 -0.0484503 -0.0301495 -0.0655042 0.0033257 -0.000285301 -0.0398767
internal_weight=0 10.5296 1.50568 9.02396 10.2375 3.44406 5.93491 3.08904 1.83515 0.785241 6.79348 6.28206 1.45167
internal_count=282 152 32 120 130 57 62 58 34 21 73 58 19
shrinkage=0.113


Tree=23
num_leaves=14
num_cat=0
split_feature=5 11 2 9 11 0 11 3 2 11 5 11 2
split_gain=0.312723 0.203366 0.338972 0.22011 0.183123 0.132768 0.116081 0.16053 0.117442 0.086777 0.0960529 0.0768179 0.118031
threshold=0.41106719035376682 0.77915819106608775 0.99959903769045744 1.0000000180025095e-35 0.49459000568800598 0.82861429136100517 0.64772487228375752 0.050213589858228304 0.20208500400962315 0.45133336091856951 0.10452880480595676 0.67688773599872754 0.12028869286287094
decision_type=2 2 2 2 2 2 2 2 2 2 2 2 2
left_child=1 3 -3 5 -2 9 8 -8 -6 -1 -11 12 -5
right_child=4 2 -4 11 6 -7 7 -9 -10 10 -12 -13 -14
leaf_value=0.016640393168619847 0.036164861408673032 0.10641292566868961 -0.011464313339270791 -0.046677890762214951 0.014621941526562059 -0.038464057645444513 -0.0024967164136939059 0.044253501680547765 -0.034038220009627834 -0.04318912828768106 0.0068957223016649621 -0.034001368886205849 -0.13865543261611293
leaf_weight=2.3703153040260094 3.272996476502156 0.45170019095530611 1.0036201165057719 0.59374520892743055 1.0467552207410338 1.3540325991343705 2.4008630202151835 1.539119979250245 1.6035559374140573 0.88156185485422578 1.0978212472982705 2.1064251894131303 0.25452031794702634
leaf_count=22 57 23 9 11 9 19 19 23 22 13 8 33 14
internal_value=0 -0.013962 0.0251223 -0.0205313 0.0143165 -0.00756386 0.00346579 0.0157658 -0.0148196 0.00205517 -0.0154107 -0.0455637 -0.0742756
internal_weight=0 10.1137 1.45532 8.65842 9.86329 5.70373 6.59029 3.93998 2.65031 4.3497 1.97938 2.95469 0.848266
internal_count=282 152 32 120 130 62 73 42 31 43 21 58 25
shrinkage=0.113


Tree=24
num_leaves=14
num_cat=0
split_feature=5 11 2 11 11 7 11 2 1 2 0 0 11
split_gain=0.342162 0.179545 0.295321 0.193361 0.142396 0.115994 0.110157 0.0913365 0.0884926 0.058286 0.0315748 0.0290151 0.211425
threshold=0.41106719035376682 0.77915819106608775 0.99959903769045744 0.45133336091856951 0.49459000568800598 0.021742116557478177 0.64772487228375752 0.20208500400962315 0.8249191861292241 0.99558941459502837 0.51348607409480673 0.92798781083676607 0.42474782993232335
decision_type=2 2 2 2 2 2 2 2 2 2 2 2 2
left_child=1 3 -3 8 11 10 7 -6 -1 -8 -5 12 -2
right_child=4 2 -4 5 6 -7 9 -9 -10 -11 -12 -13 -14
leaf_value=-0.013247723344017802 0.029796035627213516 0.10243850847834991 -0.011528706027569547 -0.028540248563891278 0.01359826497278116 -0.05065532275237588 0.027115949151229144 -0.029940724985428102 0.025689062511110555 -0.0037650097802878995 -0.0024808457804428789 0.016399876261647361 0.14164304144008552
leaf_weight=2.1222169518005121 2.1184256214182815 0.41666889376210636 0.95751331397332251 1.2922241744745406 1.0246079526841643 2.730659293330973 2.6115036668488756 1.5398840146372093 1.1487679826095702 1.113080903189257 1.098316534422338 0.80986364907585073 0.240284767205594
leaf_count=26 33 23 9 27 9 49 31 22 10 11 8 12 12
internal_value=0 -0.0148353 0.0230276 -0.0210352 0.0153196 -0.0347433 0.0054778 -0.0125453 0.000426853 0.0178873 -0.0165674 0.0348539 0.04119
internal_weight=0 9.76637 1.37418 8.39218 9.45765 5.1212 6.28908 2.56449 3.27098 3.72458 2.39054 3.16857 2.35871
internal_count=282 152 32 120 130 84 73 31 36 42 35 57 45
shrinkage=0.113


Tree=25
num_leaves=14
num_cat=0
split_feature=5 11 11 2 8 3 0 11 1 11 5 11 3
split_gain=0.260507 0.16086 0.134219 0.260651 0.202594 0.130363 0.121755 0.100228 0.0812911 0.0586934 0.0840226 0.0511053 0.0482111
threshold=0.41106719035376682 0.49459000568800598 0.77915819106608775 0.99959903769045744 0.069721214827143205 0.043137279689637077 0.63252044125064555 0.98202865771588765 0.25709665841008417 0.67688773599872754 0.20945946249560674 0.45133336091856951 0.069743716424579091
decision_type=2 2 2 2 2 2 2 2 2 2 2 2 2
left_child=2 -2 4 -4 9 6 -6 8 -3 11 -11 -1 -13
right_child=1 7 3 -5 5 -7 -8 -9 -10 10 -12 12 -14
leaf_value=-0.030489090514822348 0.034780468278631564 -0.03819114768363735 0.098462727041218404 -0.012182753971450933 -0.13347083667568008 0.0056421030911433167 -0.0131748820865991 0.054412942361724156 0.0038521121527325063 -0.046505659558451998 0.00097669243778168518 -0.090242906815632948 -0.043228239483752283
leaf_weight=0.9014321393333401 3.0540259827685059 0.66674058185890306 0.3854997133166751 0.92226013680920005 0.17164718543062907 3.7406670638592914 0.28718182910233736 0.44754216988803808 4.9241473488509655 0.95411385269835569 0.9493800662457943 0.55566944293968823 0.55836740985978395
leaf_count=10 57 12 23 9 11 38 5 15 46 13 13 19 11
internal_value=0 0.0136462 -0.013163 0.0204332 -0.0185748 -0.0013307 -0.0581774 0.0029572 -0.00116175 -0.0370534 -0.0228235 -0.0504926 -0.0666786
internal_weight=0 9.09246 9.42622 1.30776 8.11846 4.1995 0.458829 6.03843 5.59089 3.91896 1.90349 2.01547 1.11404
internal_count=282 130 152 32 120 54 16 73 58 66 26 40 30
shrinkage=0.113


end of trees

feature_importances:
relevance=141
color=41
visibility=38
shape_size=33
intensity=28
proximity2fe=16
proximity2dp=14
integration=11
uniqueness=9
proximity2be=4
wellknownness=2
choice=1

parameters:
[boosting: gbdt]
[objective: lambdarank]
[metric: ndcg]
[tree_learner: serial]
[device_type: cpu]
[data: ]
[valid: ]
[num_iterations: 28]
[learning_rate: 0.113]
[num_leaves: 14]
[num_threads: -1]
[force_col_wise: 0]
[force_row_wise: 0]
[histogram_pool_size: -1]
[max_depth: 6]
[min_data_in_leaf: 5]
[min_sum_hessian_in_leaf: 0.001]
[bagging_fraction: 1]
[pos_bagging_fraction: 1]
[neg_bagging_fraction: 1]
[bagging_freq: 0]
[bagging_seed: 3]
[feature_fraction: 1]
[feature_fraction_bynode: 1]
[feature_fraction_seed: 2]
[extra_trees: 0]
[extra_seed: 6]
[early_stopping_round: 100]
[first_metric_only: 0]
[max_delta_step: 0]
[lambda_l1: 0]
[lambda_l2: 0]
[min_gain_to_split: 0]
[drop_rate: 0.1]
[max_drop: 50]
[skip_drop: 0.5]
[xgboost_dart_mode: 0]
[uniform_drop: 0]
[drop_seed: 4]
[top_rate: 0.2]
[other_rate: 0.1]
[min_data_per_group: 100]
[max_cat_threshold: 32]
[cat_l2: 10]
[cat_smooth: 10]
[max_cat_to_onehot: 4]
[top_k: 20]
[monotone_constraints: ]
[monotone_constraints_method: basic]
[monotone_penalty: 0]
[feature_contri: ]
[forcedsplits_filename: ]
[refit_decay_rate: 0.9]
[cegb_tradeoff: 1]
[cegb_penalty_split: 0]
[cegb_penalty_feature_lazy: ]
[cegb_penalty_feature_coupled: ]
[path_smooth: 0]
[interaction_constraints: ]
[verbosity: -1]
[saved_feature_importance_type: 0]
[max_bin: 255]
[max_bin_by_feature: ]
[min_data_in_bin: 3]
[bin_construct_sample_cnt: 200000]
[data_random_seed: 1]
[is_enable_sparse: 1]
[enable_bundle: 1]
[use_missing: 1]
[zero_as_missing: 0]
[feature_pre_filter: 1]
[pre_partition: 0]
[two_round: 0]
[header: 0]
[label_column: ]
[weight_column: ]
[group_column: ]
[ignore_column: ]
[categorical_feature: ]
[forcedbins_filename: ]
[objective_seed: 5]
[num_class: 1]
[is_unbalance: 0]
[scale_pos_weight: 1]
[sigmoid: 1]
[boost_from_average: 1]
[reg_sqrt: 0]
[alpha: 0.9]
[fair_c: 1]
[poisson_max_delta_step: 0.7]
[tweedie_variance_power: 1.5]
[lambdarank_truncation_level: 20]
[lambdarank_norm: 1]
[label_gain: ]
[eval_at: 1,2]
[multi_error_top_k: 1]
[auc_mu_weights: ]
[num_machines: 1]
[local_listen_port: 12400]
[time_out: 120]
[machine_list_filename: ]
[machines: ]
[gpu_platform_id: -1]
[gpu_device_id: -1]
[gpu_use_dp: 0]

end of parameters

pandas_categorical:null
