tree
version=v3
num_class=1
num_tree_per_iteration=1
label_index=0
max_feature_idx=11
objective=lambdarank
feature_names=color intensity shape_size integration choice visibility proximity2dp proximity2fe proximity2be uniqueness wellknownness relevance
feature_infos=[0:1] [0:1] [0:1.0000000000000002] [0:1] [0:0.29715365152143142] [0:0.77589414853660998] [0:0.82092946605032169] [0:0.026422406013766001] [0:0.30563481590982955] [0:1] [0:0.97986577180532408] [0:1]
tree_sizes=3046 2725

Tree=0
num_leaves=28
num_cat=0
split_feature=11 1 2 1 7 11 11 1 5 7 11 7 8 11 0 0 1 1 0 11 0 0 0 2 5 0 0
split_gain=10.2239 5.24805 4.52206 3.16697 1.95629 0.785761 0.784463 0.660387 0.513354 0.486281 0.899902 0.516756 0.353798 0.390164 0.218815 0.15371 0.0690179 0.0656907 0.0489235 0.0186018 0.0252103 0.00835681 0.00796528 0.00707884 0.00691004 0.00307758 0.00170331
threshold=0.77915819106608775 0.20976926485769415 0.99558941459502837 0.45490164452112969 0.013945658280811976 0.33440516602350295 0.43510480038724852 0.8249191861292241 0.66306536504090297 0.026299892476803661 0.67688773599872754 0.020714679282958556 0.019609508434526818 0.64772487228375752 0.92798781083676607 0.63252044125064555 0.37684203539341138 0.75421761723155623 0.76735039005403693 0.43510480038724852 0.70657666276404862 0.76735039005403693 0.98423748947671708 0.70769847634322391 0.13317275513406593 0.60700420711197478 0.92798781083676607
decision_type=2 2 2 2 2 2 2 2 2 2 2 2 2 2 2 2 2 2 2 2 2 2 2 2 2 2 2
left_child=1 9 8 4 15 -6 7 24 18 10 11 23 13 22 -4 -3 19 21 25 -7 -21 -14 -8 -1 -5 -2 -18
right_child=2 3 14 6 5 16 12 -9 -10 -11 -12 -13 17 -15 -16 -17 26 -19 -20 20 -22 -23 -24 -25 -26 -27 -28
leaf_value=-0.11998733194095455 0.19296615032536513 -0.045199999999999713 -0.068603098789362743 -0.041052923488872926 -0.014576070765029682 0.069484060217538404 -0.056499999999999918 0.082816248459217146 0.099145458611768239 -0.22599999999999973 -0.04950234167080033 -0.22599999999999976 -0.096995839089523417 0.034495711030214156 0.01113383388245341 -0.13135556736676907 0.11074225147912593 -0.076669070966122022 0.22599999999999973 0.1062923501382496 0.079283973463113777 -0.1118470999645477 -0.071483636349946936 -0.13559999999999972 -0.027869772331548068 0.20073509005792259 0.11702174524498456
leaf_weight=1.1776426434516967 1.1490597240626803 0.54125338792801148 0.79318612813949563 1.0582336783409108 0.92570990324020375 0.62523096799850497 0.86600542068481468 0.87192182987928379 0.68493545055389393 0.73348164558410633 1.3239557594060896 1.0339605808258057 0.8676120080053803 0.70920854806900013 0.98541438579559326 0.51698029041290283 1.08318130671978 2.1466568633913994 1.0693919658660891 0.84333891049027421 0.92570990324020386 1.0936650633811951 0.94998300075531006 0.54125338792800914 0.97586268559098233 1.5023946762084961 1.1238545700907707
leaf_count=12 12 5 8 10 9 6 8 9 7 7 13 10 9 7 10 5 11 21 11 9 9 11 9 5 10 15 12
internal_value=0 -0.0377106 0.127654 -0.00680851 0.0534651 0.0804147 -0.0484178 0.000539789 0.189048 -0.141296 -0.126057 -0.162875 -0.0698664 -0.0365805 -0.0244257 -0.0872897 0.0995253 -0.0903277 0.205597 0.0862381 0.0921594 -0.105277 -0.0643383 -0.124904 -0.0347283 0.197368 0.11394
internal_weight=0 20.9347 6.18438 16.1244 6.58526 5.52703 9.53915 2.90602 4.40578 4.81029 4.07681 2.75286 6.63313 2.5252 1.7786 1.05823 4.60132 4.10793 3.72085 2.39428 1.76905 1.96128 1.81599 1.7189 2.0341 2.65145 2.20704
internal_count=270 207 63 160 66 56 94 29 45 47 40 27 65 24 18 10 47 41 38 24 18 20 17 17 20 27 23
shrinkage=0.113


Tree=1
num_leaves=25
num_cat=0
split_feature=11 1 5 7 7 11 7 7 11 1 0 11 11 0 1 11 2 0 11 0 11 0 2 5
split_gain=24.9682 11.0552 7.88783 5.28157 2.67152 5.70073 2.21243 2.15933 1.07031 3.4878 0.972982 0.787709 4.65141 3.25109 1.09304 0.464561 0.487187 0.401806 0.379414 0.177938 0.174711 0.0892395 0.068886 0.0421363
threshold=0.98202865771588765 0.20976926485769415 0.66306536504090297 0.025384520271380974 0.026299892476803661 0.67688773599872754 0.020714679282958556 0.023439176392828925 0.43510480038724852 0.8249191861292241 0.82861429136100517 0.77915819106608775 0.91589751341782366 0.70657666276404862 0.51298240439606357 0.64772487228375752 0.99558941459502837 0.82861429136100517 0.91589751341782366 0.76735039005403693 0.43510480038724852 0.92798781083676607 0.70769847634322391 0.13317275513406593
decision_type=2 2 2 2 2 2 2 2 2 2 2 2 2 2 2 2 2 2 2 2 2 2 2 2
left_child=1 4 3 7 5 6 22 11 9 10 -9 13 -13 14 20 16 -15 23 -4 -2 -3 -14 -1 -10
right_child=19 2 18 -5 -6 -7 -8 8 17 -11 -12 12 21 15 -16 -17 -18 -19 -20 -21 -22 -23 -24 -25
leaf_value=-0.086223187447830987 0.1721386885736538 -0.027918151634824785 0.12269015673811794 -0.11686988435706273 -0.20335273906535628 0.00064648069642359767 -0.20388799240048155 -0.0067318558156359756 -0.064091533865813455 0.067593080011029996 -0.071391086666498835 0.13380301157031765 0.0039736762295904697 0.015658209455111965 -0.073809433294145868 0.070272798436879905 0.055627128492559456 -0.016568534304254062 0.074623215994739034 0.20505966852623933 -0.0016242555199079641 -0.018102995061612698 -0.10998907413639475 -0.049761841181084177
leaf_weight=5.5026825964450889 5.0411079078912717 5.7245367765426654 5.4532078802585584 5.3030885756015769 2.2763907462358466 7.7239969670772544 3.2748867124319077 5.7876929640769976 6.0797197967767698 5.6969745159149161 6.1075864136219025 4.2860577553510639 4.2607095837593079 15.119121909141546 5.3226324319839469 3.5457577407360068 5.2450170516967765 4.1733124256134024 3.4069579541683197 3.588941290974617 7.3953118026256561 5.1810575127601624 2.1720425188541412 4.6047942340373993
leaf_count=12 15 11 11 11 7 13 10 10 12 9 10 12 8 27 9 7 12 9 7 11 14 10 5 8
internal_value=0 -0.0129705 0.00229099 -0.00733239 -0.0877798 -0.073691 -0.12613 -0.000770943 -0.023971 -0.00511095 -0.0399309 0.0126535 0.0361766 0.00502883 -0.030619 0.0325252 0.0259527 -0.046302 0.104207 0.185829 -0.013097 -0.00814063 -0.0929492 -0.0579157
internal_weight=0 123.644 102.694 93.8334 20.95 18.6736 10.9496 88.5303 32.4501 17.5923 11.8953 56.0802 13.7278 42.3524 18.4425 23.9099 20.3641 14.8578 8.86017 8.63005 13.1198 9.44177 7.67473 10.6845
internal_count=270 244 197 179 47 40 27 168 58 29 20 110 30 80 34 46 39 29 18 26 25 18 17 20
shrinkage=0.113


end of trees

feature_importances:
relevance=14
color=13
intensity=8
proximity2fe=7
shape_size=4
visibility=4
proximity2be=1

parameters:
[boosting: gbdt]
[objective: lambdarank]
[metric: ndcg]
[tree_learner: serial]
[device_type: cpu]
[data: ]
[valid: ]
[num_iterations: 28]
[learning_rate: 0.113]
[num_leaves: 28]
[num_threads: -1]
[force_col_wise: 0]
[force_row_wise: 0]
[histogram_pool_size: -1]
[max_depth: 9]
[min_data_in_leaf: 5]
[min_sum_hessian_in_leaf: 0.001]
[bagging_fraction: 1]
[pos_bagging_fraction: 1]
[neg_bagging_fraction: 1]
[bagging_freq: 0]
[bagging_seed: 3]
[feature_fraction: 1]
[feature_fraction_bynode: 1]
[feature_fraction_seed: 2]
[extra_trees: 0]
[extra_seed: 6]
[early_stopping_round: 100]
[first_metric_only: 0]
[max_delta_step: 0]
[lambda_l1: 0]
[lambda_l2: 0]
[min_gain_to_split: 0]
[drop_rate: 0.1]
[max_drop: 50]
[skip_drop: 0.5]
[xgboost_dart_mode: 0]
[uniform_drop: 0]
[drop_seed: 4]
[top_rate: 0.2]
[other_rate: 0.1]
[min_data_per_group: 100]
[max_cat_threshold: 32]
[cat_l2: 10]
[cat_smooth: 10]
[max_cat_to_onehot: 4]
[top_k: 20]
[monotone_constraints: ]
[monotone_constraints_method: basic]
[monotone_penalty: 0]
[feature_contri: ]
[forcedsplits_filename: ]
[refit_decay_rate: 0.9]
[cegb_tradeoff: 1]
[cegb_penalty_split: 0]
[cegb_penalty_feature_lazy: ]
[cegb_penalty_feature_coupled: ]
[path_smooth: 0]
[interaction_constraints: ]
[verbosity: -1]
[saved_feature_importance_type: 0]
[max_bin: 255]
[max_bin_by_feature: ]
[min_data_in_bin: 3]
[bin_construct_sample_cnt: 200000]
[data_random_seed: 1]
[is_enable_sparse: 1]
[enable_bundle: 1]
[use_missing: 1]
[zero_as_missing: 0]
[feature_pre_filter: 1]
[pre_partition: 0]
[two_round: 0]
[header: 0]
[label_column: ]
[weight_column: ]
[group_column: ]
[ignore_column: ]
[categorical_feature: ]
[forcedbins_filename: ]
[objective_seed: 5]
[num_class: 1]
[is_unbalance: 0]
[scale_pos_weight: 1]
[sigmoid: 1]
[boost_from_average: 1]
[reg_sqrt: 0]
[alpha: 0.9]
[fair_c: 1]
[poisson_max_delta_step: 0.7]
[tweedie_variance_power: 1.5]
[lambdarank_truncation_level: 20]
[lambdarank_norm: 1]
[label_gain: ]
[eval_at: 1,2]
[multi_error_top_k: 1]
[auc_mu_weights: ]
[num_machines: 1]
[local_listen_port: 12400]
[time_out: 120]
[machine_list_filename: ]
[machines: ]
[gpu_platform_id: -1]
[gpu_device_id: -1]
[gpu_use_dp: 0]

end of parameters

pandas_categorical:null
