tree
version=v3
num_class=1
num_tree_per_iteration=1
label_index=0
max_feature_idx=11
objective=lambdarank
feature_names=color intensity shape_size integration choice visibility proximity2dp proximity2fe proximity2be uniqueness wellknownness relevance
feature_infos=[0:1] [0:1] [0:1.0000000000000002] [0:1] [0:1] [0:1] [0:1.0000000000000002] [0:0.99999999999999989] [0:0.93183904056685019] [0:1] [0:0.97986577180532408] [0:1]
tree_sizes=1568 1567 1570 1572 1574 1563 1571

Tree=0
num_leaves=14
num_cat=0
split_feature=1 1 11 1 3 7 11 11 1 0 11 0 11
split_gain=6.8702 5.30134 2.39472 3.0252 1.75309 1.52679 1.09173 0.772004 0.554395 0.459215 1.13393 0.263314 0.0606502
threshold=0.17128432351613071 0.6478058824532259 0.98202865771588765 0.58355200773909133 0.069743716424579091 1.0000000180025095e-35 0.45133336091856951 0.42474782993232335 0.8249191861292241 0.39502600680593031 0.67688773599872754 0.82861429136100517 0.64772487228375752
decision_type=2 2 2 2 2 2 2 2 2 2 2 2 2
left_child=9 2 3 4 5 -2 8 -5 -3 10 -1 -8 -13
right_child=1 6 -4 7 -6 -7 11 -9 -10 -11 -12 12 -14
leaf_value=-0.1931887658858065 -0.078257969891230836 -0.032418242019010557 0.22599999999999962 0.098258388648071002 -0.1112973362133689 0.054521103665790244 -0.11577284991817882 0.22599999999999981 0.074452078250294415 -0.22599999999999973 -0.049502341670800316 -0.073358013268443018 -0.034495711030214156
leaf_weight=1.4912363886833222 1.2504619359970064 2.0098232664167877 1.0451188683509833 1.1733328215777883 1.0884231850504882 9.5587624385952932 2.219476155936718 1.2452200576663017 0.89619492739439 0.73348164558410633 1.3239557594060898 1.8514198064804079 0.70920854806900013
leaf_count=14 12 20 11 12 11 97 21 12 9 7 13 18 7
internal_value=0 0.0225359 0.0608713 0.0488165 0.0253964 0.0391606 -0.0540803 0.164028 0.000539789 -0.146363 -0.125615 -0.087286 -0.0625945
internal_weight=0 23.0474 15.3613 14.3162 11.8976 10.8092 7.68612 2.41855 2.90602 3.54867 2.81519 4.7801 2.56063
internal_count=264 230 155 144 120 109 75 24 29 34 27 46 25
shrinkage=0.113


Tree=1
num_leaves=14
num_cat=0
split_feature=1 1 11 11 11 8 11 5 11 0 11 1 11
split_gain=17.1145 12.2892 6.37014 6.77796 5.24554 4.69788 7.10565 4.42443 2.09036 3.12334 1.78982 1.94611 1.66134
threshold=0.17128432351613071 0.6478058824532259 0.98202865771588765 0.49547696286493942 0.42474782993232335 0.042709224951317785 0.77915819106608775 0.41106719035376682 0.67688773599872754 0.39502600680593031 0.45133336091856951 0.8249191861292241 0.91589751341782366
decision_type=2 2 2 2 2 2 2 2 2 2 2 2 2
left_child=8 2 3 4 7 6 -5 -2 -1 -10 11 -3 -7
right_child=1 10 -4 5 -6 12 -8 -9 9 -11 -12 -13 -14
leaf_value=-0.17276344171038932 -0.044348029296971361 -0.035500605314415304 0.20278772613109272 -0.0060452927108215994 0.17270224036047965 -0.096676930941995309 0.17922985999073701 0.080145187739196488 -0.045746702585968808 -0.2014504016131044 -0.055547376398652523 0.048150752795344413 -0.016095392947920527
leaf_weight=5.1729699671268436 4.6249603629112306 9.6518477499484998 3.2720725685358039 8.5114293023943919 6.0471738390624514 4.9160482734441731 3.8337195925414553 17.207530237734318 6.919771283864975 2.1580952554941177 21.034457489848137 5.6184395849704734 9.7391057908535004
leaf_count=14 10 20 11 22 20 11 12 44 13 7 46 9 25
internal_value=0 0.0174154 0.0496204 0.0404882 0.0795689 0.000134804 0.0514909 0.0537727 -0.115432 -0.0827624 -0.0341697 -0.00472253 -0.0431263
internal_weight=0 94.4568 58.152 54.88 27.8797 27.0003 12.3451 21.8325 14.2508 9.07787 36.3047 15.2703 14.6552
internal_count=264 230 155 144 74 70 34 54 34 20 75 29 36
shrinkage=0.113


Tree=2
num_leaves=14
num_cat=0
split_feature=5 11 11 11 0 5 11 11 1 0 4 11 0
split_gain=11.6894 17.6186 4.88343 6.29915 3.78854 3.76143 3.3 2.53069 1.17488 1.05137 0.633691 0.670297 0.57998
threshold=0.2629668647751674 0.77915819106608775 0.49547696286493942 0.98202865771588765 0.76735039005403693 0.50798043734974596 0.3528195894986903 0.45133336091856951 1.0000000180025095e-35 0.98423748947671708 1.0000000180025095e-35 0.67688773599872754 0.63252044125064555
decision_type=2 2 2 2 2 2 2 2 2 2 2 2 2
left_child=1 7 5 4 12 -2 -7 -1 -9 -6 11 -10 -4
right_child=2 -3 3 -5 9 6 -8 8 10 -11 -12 -13 -14
leaf_value=-0.025866379575609451 -0.0053193745444620414 0.17869454349248776 -0.0025065685467004144 0.19084942866005447 -0.075915466098201961 0.024790605022046878 0.1458419747373596 -0.18537988266106548 -0.084465721035056063 -0.013699863780542724 -0.12578964415855667 -0.042452088500511548 0.061463943697698684
leaf_weight=15.741991907358168 4.5215981453657177 4.2847138345241538 2.3925818055868202 2.2291405349969855 7.1700503379106504 3.9575381875038138 10.518753364682196 1.3591547012329126 14.988503873348241 6.7177463322877884 3.0528261661529532 7.1677282601594916 7.4285905957221985
leaf_count=39 13 12 7 11 21 12 35 7 48 16 9 17 17
internal_value=0 -0.0396568 0.0411209 0.00924021 -0.00783487 0.084648 0.112749 -0.0617691 -0.0830419 -0.0458208 -0.0775243 -0.070874 0.0458798
internal_weight=0 46.5949 44.936 25.9381 23.709 18.9979 14.4763 42.3102 26.5682 13.8878 25.2091 22.1562 9.82117
internal_count=264 132 132 72 61 60 47 120 81 37 74 65 24
shrinkage=0.113


Tree=3
num_leaves=14
num_cat=0
split_feature=5 11 5 11 2 11 11 7 11 11 10 2 7
split_gain=7.53522 5.30106 3.85849 3.92167 3.39861 2.33822 1.84849 1.00636 1.00234 0.955523 2.60679 0.393758 0.366556
threshold=0.41106719035376682 0.98202865771588765 0.13317275513406593 0.77915819106608775 0.0060144346431435522 0.53168496441549251 0.42474782993232335 0.025384520271380974 0.45133336091856951 0.67688773599872754 0.17718120777757762 0.29911788291900571 1.0000000180025095e-35
decision_type=2 2 2 2 2 2 2 2 2 2 2 2 2
left_child=1 2 3 4 8 6 11 9 -1 10 -4 -2 -11
right_child=5 -3 7 -5 -6 -7 -8 -9 -10 12 -12 -13 -14
leaf_value=0.029855803426363733 0.043981440022157967 0.17882875364268905 -0.049527723717305204 0.13791755877010531 -0.10593590829393873 0.017925728624699683 0.18210020879554434 -0.11716812248384689 -0.022726902145056294 -0.059475098822148513 -0.19049456617350222 0.088221370150797382 -0.013583317100132055
leaf_weight=9.8443129062652659 5.557509511709215 1.564333640038966 7.98156032711268 2.3319033086299887 4.3395487964153281 15.450848110020159 2.0414526909589759 3.9509455636143676 8.7374833598732948 3.4107491672039014 2.1199655905365944 4.777232825756073 6.3788657039403915
leaf_count=25 21 11 26 12 9 42 12 18 30 8 10 23 17
internal_value=0 -0.0259496 -0.0324745 -0.00169363 -0.015897 0.0472417 0.0838408 -0.0650772 0.0051305 -0.0547305 -0.0791119 0.0644313 -0.0295722
internal_weight=0 50.6597 49.0953 25.2532 22.9213 27.827 12.3762 23.8421 18.5818 19.8911 10.1015 10.3347 9.78961
internal_count=264 166 155 76 64 98 56 79 55 61 36 44 25
shrinkage=0.113


Tree=4
num_leaves=14
num_cat=0
split_feature=8 11 7 11 1 11 11 0 8 1 0 11 0
split_gain=5.90464 7.55164 4.10003 3.68776 2.59184 1.32903 1.25462 1.76749 0.797806 0.699379 0.51461 2.11314 0.765994
threshold=0.069721214827143205 0.77915819106608775 0.020714679282958556 0.45133336091856951 0.37684203539341138 0.38709523039848187 0.45133336091856951 0.82861429136100517 0.17401008243048613 0.44088151681405091 0.29739252513674613 0.67688773599872754 0.82861429136100517
decision_type=2 2 2 2 2 2 2 2 2 2 2 2 2
left_child=1 2 -1 4 -2 -6 7 -4 -5 -10 11 -8 -12
right_child=3 -3 6 8 5 -7 10 -9 9 -11 12 -13 -14
leaf_value=0.0098959825602981232 -0.020032112848018747 0.14301425362149944 0.024259003658617467 0.017635965487289643 0.067384592849764002 0.14073188223339314 -0.17733112369645126 -0.087253324068348709 -0.06286507156543189 0.017730241510120578 -0.11457638152285009 -0.02270567023525126 -0.045544189685676563
leaf_weight=12.883637748658655 3.0699534937739399 3.0436675623059264 3.8071926459670093 9.1530748195946234 8.3614501729607564 5.0654660239815703 1.4700759015977407 3.4684406816959381 3.99635425209999 2.0958508849143982 8.9221845269203168 4.8578478172421455 2.6657030805945388
leaf_count=38 10 23 10 29 39 21 10 10 17 7 28 13 9
internal_value=0 -0.0282635 -0.0419552 0.0366125 0.0736387 0.0950557 -0.0684734 -0.0289012 -0.00345339 -0.0351385 -0.0845437 -0.0586276 -0.0986961
internal_weight=0 41.1187 38.0751 31.7421 16.4969 13.4269 25.1914 7.27563 15.2453 6.09221 17.9158 6.32792 11.5879
internal_count=264 141 118 123 70 60 80 20 53 24 60 23 37
shrinkage=0.113


Tree=5
num_leaves=14
num_cat=0
split_feature=5 0 11 11 2 8 11 11 11 7 0 5 1
split_gain=5.30345 2.90086 1.93928 1.63409 1.9225 1.3085 0.885721 0.875142 1.49399 1.04004 0.861814 0.50876 0.391305
threshold=0.35778948929255661 0.82861429136100517 0.49547696286493942 0.53168496441549251 0.20208500400962315 0.1538908935873867 0.42474782993232335 0.45133336091856951 0.77915819106608775 0.020714679282958556 0.63252044125064555 0.41106719035376682 0.059711237090309573
decision_type=2 2 2 2 2 2 2 2 2 2 2 2 2
left_child=1 5 6 -4 11 7 -2 -1 9 -9 -10 -5 -7
right_child=2 -3 3 4 -6 12 -8 8 10 -11 -12 -13 -14
leaf_value=0.022939637788272984 0.066929874439848089 -0.096412691513809379 -0.084479514524561247 0.16808549390248859 0.0072552928347669292 -0.16882907842188288 0.16769888343372982 0.022525599008928674 0.10560026923608642 -0.050419557761803728 0.0036432934809797254 0.074229730997235163 -0.057510791960888784
leaf_weight=8.5311380177736336 7.6411687880754489 6.4055998027324668 1.8173829279840017 1.0391247998923057 12.155491791665552 0.79169771820306667 1.3038272671401498 3.0779164582490983 1.4927611835300911 13.19730553217232 3.6398813128471375 2.5404706448316574 0.82173049449920654
leaf_count=29 44 19 11 11 33 7 12 12 12 53 8 9 4
internal_value=0 -0.0270818 0.0387951 0.016972 0.0286895 -0.0130067 0.081618 -0.00766465 -0.0198606 -0.0366244 0.0332961 0.101475 -0.112134
internal_weight=0 37.958 26.4975 17.5525 15.7351 31.5524 8.945 29.939 21.4079 16.2752 5.13264 3.5796 1.61343
internal_count=264 144 120 64 53 125 56 114 85 65 20 20 11
shrinkage=0.113


Tree=6
num_leaves=14
num_cat=0
split_feature=5 11 11 5 7 11 11 2 0 5 11 3 11
split_gain=2.97109 1.93201 1.02374 1.13475 1.29823 1.06239 0.99686 1.04148 0.843269 0.717631 0.710446 0.588232 2.07026
threshold=0.35778948929255661 0.49547696286493942 0.77915819106608775 0.068691133825377962 0.024554669465599758 0.45133336091856951 0.53168496441549251 0.20208500400962315 0.63252044125064555 0.41106719035376682 0.3528195894986903 0.038213331732049417 0.67688773599872754
decision_type=2 2 2 2 2 2 2 2 2 2 2 2 2
left_child=2 10 3 -1 11 -6 -3 9 -4 -8 -2 12 -5
right_child=1 6 8 4 5 -7 7 -9 -10 -11 -12 -13 -14
leaf_value=-0.067535747016955056 0.039204939247103124 -0.076786814357198044 0.1045174382344765 -0.10208929747509658 -0.016066865419946775 -0.12315874353064563 0.16298684742053896 0.0010176998052087367 -0.0022376856194451238 0.042039022604243789 0.10782887633459547 0.016148638327625437 0.028016416704046712
leaf_weight=7.5279481075704124 3.5192154198884991 1.5923693440854538 1.292559228837489 2.7396043427288594 2.418496645987033 2.3151455782353878 0.85180906951427404 11.068071883171795 3.5118201076984406 2.3673443719744682 4.2560399174690247 9.8363169990479928 3.6320866867899895
leaf_count=28 21 11 12 18 10 15 11 33 8 9 35 40 13
internal_value=0 0.030617 -0.021766 -0.0299083 -0.0163822 -0.0684437 0.00801944 0.0174714 0.0264835 0.0740426 0.0767685 -0.00117739 -0.0279245
internal_weight=0 23.6549 33.274 28.4696 20.9417 4.73364 15.8796 14.2872 4.80438 3.21915 7.77526 16.208 6.37169
internal_count=264 120 144 124 96 25 64 53 20 20 56 71 31
shrinkage=0.113


end of trees

feature_importances:
relevance=40
color=12
intensity=11
visibility=10
proximity2fe=6
shape_size=4
proximity2be=4
integration=2
choice=1
wellknownness=1

parameters:
[boosting: gbdt]
[objective: lambdarank]
[metric: ndcg]
[tree_learner: serial]
[device_type: cpu]
[data: ]
[valid: ]
[num_iterations: 28]
[learning_rate: 0.113]
[num_leaves: 14]
[num_threads: -1]
[force_col_wise: 0]
[force_row_wise: 0]
[histogram_pool_size: -1]
[max_depth: 6]
[min_data_in_leaf: 5]
[min_sum_hessian_in_leaf: 0.001]
[bagging_fraction: 1]
[pos_bagging_fraction: 1]
[neg_bagging_fraction: 1]
[bagging_freq: 0]
[bagging_seed: 3]
[feature_fraction: 1]
[feature_fraction_bynode: 1]
[feature_fraction_seed: 2]
[extra_trees: 0]
[extra_seed: 6]
[early_stopping_round: 100]
[first_metric_only: 0]
[max_delta_step: 0]
[lambda_l1: 0]
[lambda_l2: 0]
[min_gain_to_split: 0]
[drop_rate: 0.1]
[max_drop: 50]
[skip_drop: 0.5]
[xgboost_dart_mode: 0]
[uniform_drop: 0]
[drop_seed: 4]
[top_rate: 0.2]
[other_rate: 0.1]
[min_data_per_group: 100]
[max_cat_threshold: 32]
[cat_l2: 10]
[cat_smooth: 10]
[max_cat_to_onehot: 4]
[top_k: 20]
[monotone_constraints: ]
[monotone_constraints_method: basic]
[monotone_penalty: 0]
[feature_contri: ]
[forcedsplits_filename: ]
[refit_decay_rate: 0.9]
[cegb_tradeoff: 1]
[cegb_penalty_split: 0]
[cegb_penalty_feature_lazy: ]
[cegb_penalty_feature_coupled: ]
[path_smooth: 0]
[interaction_constraints: ]
[verbosity: -1]
[saved_feature_importance_type: 0]
[max_bin: 255]
[max_bin_by_feature: ]
[min_data_in_bin: 3]
[bin_construct_sample_cnt: 200000]
[data_random_seed: 1]
[is_enable_sparse: 1]
[enable_bundle: 1]
[use_missing: 1]
[zero_as_missing: 0]
[feature_pre_filter: 1]
[pre_partition: 0]
[two_round: 0]
[header: 0]
[label_column: ]
[weight_column: ]
[group_column: ]
[ignore_column: ]
[categorical_feature: ]
[forcedbins_filename: ]
[objective_seed: 5]
[num_class: 1]
[is_unbalance: 0]
[scale_pos_weight: 1]
[sigmoid: 1]
[boost_from_average: 1]
[reg_sqrt: 0]
[alpha: 0.9]
[fair_c: 1]
[poisson_max_delta_step: 0.7]
[tweedie_variance_power: 1.5]
[lambdarank_truncation_level: 20]
[lambdarank_norm: 1]
[label_gain: ]
[eval_at: 1,2]
[multi_error_top_k: 1]
[auc_mu_weights: ]
[num_machines: 1]
[local_listen_port: 12400]
[time_out: 120]
[machine_list_filename: ]
[machines: ]
[gpu_platform_id: -1]
[gpu_device_id: -1]
[gpu_use_dp: 0]

end of parameters

pandas_categorical:null
