tree
version=v3
num_class=1
num_tree_per_iteration=1
label_index=0
max_feature_idx=11
objective=lambdarank
feature_names=color intensity shape_size integration choice visibility proximity2dp proximity2fe proximity2be uniqueness wellknownness relevance
feature_infos=[0.16754224544274476:1] [0:1] [0:1.0000000000000002] [0:1] [0:1] [0:1] [0:1.0000000000000002] [0:0.99999999999999989] [0.0079365420489154667:0.93183904056685019] [0:1] [0:0.97986577180532408] [0:1]
tree_sizes=2711 2301 2825 2837

Tree=0
num_leaves=25
num_cat=0
split_feature=11 5 11 2 1 0 0 11 11 0 11 1 1 11 11 1 0 2 1 0 3 0 0 0
split_gain=8.47539 7.26677 3.92387 2.03965 2.0295 1.99238 1.82786 0.879587 0.788778 0.620911 0.534465 0.33705 0.322071 0.275374 0.275204 0.186509 0.138803 0.128179 0.103547 0.0391383 0.0351839 0.0344715 0.0118382 0.00256499
threshold=0.98202865771588765 0.51330105392746328 0.77915819106608775 0.37209302325581411 0.45490164452112969 0.63252044125064555 0.59033361992249433 0.45133336091856951 0.42474782993232335 0.98423748947671708 0.91589751341782366 0.8249191861292241 1.0000000180025095e-35 0.45133336091856951 0.62791574843414255 0.30847625175305093 0.92798781083676607 0.41900561347233373 0.51298240439606357 0.82861429136100517 0.050213589858228304 0.57358709964519461 0.70657666276404862 0.92798781083676607
decision_type=2 2 2 2 2 2 2 2 2 2 2 2 2 2 2 2 2 2 2 2 2 2 2 2
left_child=1 2 3 4 13 -4 8 11 -3 18 23 19 -5 22 -11 -15 -12 -2 -9 -6 -14 -20 -1 -8
right_child=17 6 5 12 7 -7 10 9 -10 14 16 -13 20 15 -16 -17 -18 -19 21 -21 -22 -23 -24 -25
leaf_value=-0.0087739096736919684 0.22599999999999995 0.095559934839143615 0.19225327391349581 -0.22599999999999987 -0.072589578248985126 -0.033225150096537828 0.069086682163525565 -0.15625163977905637 0.22599999999999981 -0.087289692616654618 0.027709082776463209 0.027890635357304579 -0.12298909089996453 0.018005759930231569 0 0.088663943601921702 -0.038519699670527915 0.17464040043929596 -0.096995839089523347 -0.041052923488872885 -0.15221940709798992 -0.12248061195662469 -0.029144251146810022 0.076709097296598444
leaf_weight=0.62523096799851818 1.069391965866088 1.1490597240626803 1.1247866265475743 0.73348164558410589 0.95683146640658256 0.90143680572509755 1.1074544042348862 1.0884231850504873 1.2209469601511955 1.0582336783409116 0.68493545055389427 0.87716370820999134 0.94998300075531017 1.3587126135826113 0.81745922565460194 0.73508823290467251 0.98541438579559326 1.4781215786933899 0.86761200800538096 1.0582336783409119 1.1776426434516907 3.0966398641467094 0.87285388633608818 1.1481276676058769
leaf_count=6 11 12 12 7 10 9 11 11 12 10 7 9 9 13 8 8 10 15 9 10 12 30 9 12
internal_value=0 -0.0203215 -0.0563483 -0.0748118 -0.056335 0.0919413 0.0843943 -0.0829185 0.162758 -0.104768 0.0370876 -0.0305767 -0.161429 0.0163469 -0.0492473 0.0428123 -0.0113623 0.1962 -0.125379 -0.0560278 -0.139168 -0.116903 -0.0206426 0.0729666
internal_weight=0 24.5958 18.2998 16.2736 13.4125 2.02622 6.29594 9.8206 2.37001 6.92837 3.92593 2.89223 2.86111 3.59189 1.87569 2.0938 1.67035 2.54751 5.05268 2.01507 2.12763 3.96425 1.49808 2.25558
internal_count=272 246 182 161 133 21 64 97 24 68 40 29 28 36 18 21 17 26 50 20 21 39 15 23
shrinkage=0.113


Tree=1
num_leaves=21
num_cat=0
split_feature=11 5 7 6 7 11 11 11 0 1 7 11 0 5 2 11 0 0 0 0
split_gain=19.3096 16.9185 11.1115 4.10688 4.18894 3.18232 3.56187 2.80839 3.01388 2.77268 1.60133 1.22964 4.1885 2.77606 0.946109 0.620721 0.232495 0.0978951 0.0328697 0.0176162
threshold=0.98202865771588765 0.66306536504090297 0.025384520271380974 0.71273283825771439 0.023439176392828925 0.91589751341782366 0.42474782993232335 0.45133336091856951 0.61341275555286834 0.8249191861292241 1.0000000180025095e-35 0.77915819106608775 0.92798781083676607 0.10452880480595676 0.41900561347233373 0.38709523039848187 0.76735039005403693 0.59033361992249433 0.82861429136100517 0.82861429136100517
decision_type=2 2 2 2 2 2 2 2 2 2 2 2 2 2 2 2 2 2 2 2
left_child=1 2 3 4 10 6 17 9 -9 18 -1 13 -13 -12 -2 -15 -4 -3 -6 -10
right_child=14 5 16 -5 7 -7 -8 8 19 -11 11 12 -14 15 -16 -17 -18 -19 -20 -21
leaf_value=-0.045642901248028646 0.20517793173013779 0.066058050335846455 -0.2024280636909126 -0.1152111646751267 -0.061643928960537844 -0.0070123899239034251 0.20429173066799586 0.0058558074810067841 -0.12607218054781172 0.045761134739151742 -0.076592542466188379 0.13178205996691583 -0.016513689358932441 0.032445215558165673 0.13005932871888123 0.0012157404093167657 -0.15745616049148878 0.088203157963374607 -0.048841931603474394 -0.13682227128273303
leaf_weight=7.7087453901767722 3.6125612556934339 4.7604393661022204 2.2042808830738059 5.5020307600498191 5.0347461402416211 3.5187474191188803 3.9437490552663794 2.784566968679429 4.9476805925369245 5.2651351690292367 5.1548013091087332 4.1612289696931821 5.8521913439035416 12.477335587143896 5.2555709481239319 23.308294236660004 4.3937348127365112 5.4868806898593903 5.2120243012905121 3.2088358402252197
leaf_count=14 11 12 7 12 10 7 12 8 13 9 9 12 10 25 15 45 11 11 10 9
internal_value=0 -0.0123972 -0.0309022 -0.0205937 -0.0144774 0.0891836 0.113036 -0.0518084 -0.0956486 -0.0208864 0.00235639 0.00961814 0.0451129 0.000936662 0.16066 0.0121045 -0.17248 0.0779155 -0.0551322 -0.130301
internal_weight=0 114.925 97.2156 90.6176 85.1156 17.7098 14.1911 26.453 10.9411 15.5119 58.6626 50.9539 10.0134 40.9404 8.86813 35.7856 6.59802 10.2473 10.2468 8.15652
internal_count=272 246 204 186 174 42 35 59 30 29 115 101 22 79 26 70 18 23 20 22
shrinkage=0.113


Tree=2
num_leaves=26
num_cat=0
split_feature=11 5 7 11 7 11 8 11 11 2 0 11 11 0 0 6 11 2 0 11 11 0 0 0 0
split_gain=10.7497 8.50659 5.8519 4.78134 3.00508 6.5454 5.82113 2.28089 0.68588 0.466358 0.320833 0.607804 0.313086 0.604192 0.299307 0.184014 0.347653 0.148525 0.128885 0.0742007 0.0532241 0.0496976 0.0173203 0.00851997 0.000460737
threshold=0.98202865771588765 0.51330105392746328 0.025384520271380974 0.91589751341782366 0.014651163316868462 0.77915819106608775 0.069721214827143205 0.42474782993232335 0.91589751341782366 0.41900561347233373 0.82861429136100517 0.45133336091856951 0.45133336091856951 0.61341275555286834 0.61341275555286834 0.53032803014355856 0.62791574843414255 0.99959903769045744 0.76735039005403693 0.53168496441549251 0.45133336091856951 0.59033361992249433 0.57358709964519461 0.92798781083676607 0.92798781083676607
decision_type=2 2 2 2 2 2 2 2 2 2 2 2 2 2 2 2 2 2 2 2 2 2 2 2 2
left_child=1 2 4 7 8 6 10 21 15 -2 20 -12 13 -8 -14 16 17 -1 -4 -17 -6 -3 -22 -23 -5
right_child=9 3 18 24 5 -7 12 -9 -10 -11 11 -13 14 -15 -16 19 -18 -19 -20 -21 22 23 -24 -25 -26
leaf_value=-0.015719195341405239 0.18974296108054564 0.058830756149220231 -0.1873509638103108 -0.021073493336799899 -0.064759266321723977 0.12913256085707189 -0.040234478546445573 0.18964242496334863 -0.032231367717404244 0.12381842716906967 -0.075166685402461728 -0.13644829272103962 0.051274024406061901 0.020096050965600881 0.0034019885870932944 0.0226990363647614 0.034383198725118767 0.019703802715727907 -0.1450726001525775 0.045925087148264369 -0.085791827385402725 0.079072975566261139 -0.076580217935320383 0.071737118192503696 -0.022919560960414684
leaf_weight=4.6306666135788017 2.1974325329065314 3.402957737445834 1.3898237645626057 2.9243807941675177 4.0266059190034875 2.7864259481430045 4.5415496379137021 2.4848522096872321 3.6756003350019446 3.6397162973880768 4.473472535610199 3.8410915434360504 2.5250083655118933 3.9746642857789993 4.9115897864103317 3.1884473562240592 5.2871300131082535 2.2437877207994461 2.7277238667011261 3.9104358106851578 4.0640334784984571 3.7238902300596219 7.2669123411178589 4.4223630577325821 4.2136711478233337
leaf_count=10 11 12 7 7 10 12 10 12 9 15 10 9 8 9 13 9 12 5 11 9 9 11 20 12 10
internal_value=0 -0.00957237 -0.0286842 0.0531329 -0.0204514 -0.0382715 -0.0500434 0.0914303 0.0125 0.148636 -0.0855981 -0.103477 0.0027158 -0.0120772 0.0196564 0.0210364 0.0125978 -0.0041573 -0.159343 0.0354932 -0.0759185 0.0702996 -0.0798841 0.0750906 -0.0221632
internal_weight=0 90.6371 69.465 21.1721 65.3474 42.4114 39.6249 14.0341 22.9361 5.83715 23.6721 8.31456 15.9528 8.51621 7.4366 19.2605 12.1616 6.87445 4.11755 7.09888 15.3576 11.5492 11.3309 8.14625 7.13805
internal_count=272 246 182 64 164 110 98 47 54 26 58 19 40 19 21 45 27 15 18 18 39 35 29 23 17
shrinkage=0.113


Tree=3
num_leaves=26
num_cat=0
split_feature=11 5 7 11 11 11 0 3 1 11 11 3 11 2 0 11 11 6 0 5 1 0 7 0 0
split_gain=7.29667 6.37744 3.91861 2.51049 1.56629 1.46868 2.04711 1.80554 2.6408 0.847269 1.29042 0.546283 0.338356 0.295642 0.145632 0.140941 0.139035 0.119045 0.0810221 0.0647738 0.0608576 0.0333249 0.0288381 0.0240959 0.000974885
threshold=0.98202865771588765 0.51330105392746328 0.025384520271380974 0.91589751341782366 0.42474782993232335 0.77915819106608775 0.63252044125064555 0.050213589858228304 0.8249191861292241 0.45133336091856951 0.62791574843414255 0.038213331732049417 0.45133336091856951 0.41900561347233373 0.57358709964519461 0.53168496441549251 0.45133336091856951 0.2100774150633565 0.76735039005403693 0.13317275513406593 0.30847625175305093 0.82861429136100517 0.024478057170235268 0.92798781083676607 0.92798781083676607
decision_type=2 2 2 2 2 2 2 2 2 2 2 2 2 2 2 2 2 2 2 2 2 2 2 2 2
left_child=1 2 5 4 17 7 -7 11 12 -10 22 -1 21 -2 -14 16 20 -3 -4 -16 -13 -9 -11 -5 -19
right_child=13 3 18 23 -6 6 -8 8 9 10 -12 15 14 -15 19 -17 -18 24 -20 -21 -22 -23 -24 -25 -26
leaf_value=-0.036645118549952525 0.17950607159851656 0.08281002784888454 -0.17756993276492028 -0.016951278034129127 0.17936266204780174 0.12160570413837177 -0.022464043431489149 -0.042604148903922792 0.045142745024274629 -0.051991295004821199 0.044453253309834052 0.030261557480622904 -0.060613920407280003 0.11875685623443119 -0.10600404797560736 0.0031689809877748052 0.054463470440859724 0.05716065856300323 -0.13864188316579437 -0.083880648584456055 0.0042596962099881947 -0.058424897814796477 -0.038084359551562835 -0.0022100134871056222 0.054323560619175607
leaf_weight=2.9192725121974936 1.6059934347867955 3.0432118773460388 1.022217117249965 2.3926760703325263 1.8093466609716422 2.1343128085136405 3.0720440447330475 3.3517977073788705 3.3164445459842673 3.5630211085081083 2.8556839674711227 2.4999790638685209 2.8390004932880393 2.8174899742007256 2.3821994587779027 4.6355551034212112 1.9221214503049848 2.7658891752362251 2.0555431693792343 5.8145457953214645 2.1275103986263275 3.4499852582812309 4.0890342593193054 3.4682962745428085 3.5080755352973938
leaf_count=9 11 11 7 7 12 12 9 10 9 10 8 9 9 15 9 13 8 12 11 20 6 10 13 10 12
internal_value=0 -0.00876832 -0.0277495 0.0516253 0.0831535 -0.020273 0.0365964 -0.0267425 -0.0417228 -0.00465246 -0.0203688 0.00688536 -0.0704525 0.140813 -0.0826708 0.0182466 0.0289179 0.0644701 -0.151571 -0.0903103 0.0183071 -0.0506287 -0.0445598 -0.00822797 0.0555743
internal_weight=0 71.0378 54.0503 16.9875 11.1265 50.9725 5.20636 45.7662 31.6617 13.8242 10.5077 14.1044 17.8375 4.42348 11.0357 11.1852 6.54961 9.31718 3.07776 8.19675 4.62749 6.80178 7.65206 5.86097 6.27396
internal_count=272 246 182 64 47 164 21 143 98 40 31 45 58 26 38 36 23 35 18 29 15 20 23 17 24
shrinkage=0.113


end of trees

feature_importances:
relevance=32
color=28
intensity=8
proximity2fe=7
shape_size=6
visibility=6
integration=3
proximity2dp=3
proximity2be=1

parameters:
[boosting: gbdt]
[objective: lambdarank]
[metric: ndcg]
[tree_learner: serial]
[device_type: cpu]
[data: ]
[valid: ]
[num_iterations: 28]
[learning_rate: 0.113]
[num_leaves: 28]
[num_threads: -1]
[force_col_wise: 0]
[force_row_wise: 0]
[histogram_pool_size: -1]
[max_depth: 9]
[min_data_in_leaf: 5]
[min_sum_hessian_in_leaf: 0.001]
[bagging_fraction: 1]
[pos_bagging_fraction: 1]
[neg_bagging_fraction: 1]
[bagging_freq: 0]
[bagging_seed: 3]
[feature_fraction: 1]
[feature_fraction_bynode: 1]
[feature_fraction_seed: 2]
[extra_trees: 0]
[extra_seed: 6]
[early_stopping_round: 100]
[first_metric_only: 0]
[max_delta_step: 0]
[lambda_l1: 0]
[lambda_l2: 0]
[min_gain_to_split: 0]
[drop_rate: 0.1]
[max_drop: 50]
[skip_drop: 0.5]
[xgboost_dart_mode: 0]
[uniform_drop: 0]
[drop_seed: 4]
[top_rate: 0.2]
[other_rate: 0.1]
[min_data_per_group: 100]
[max_cat_threshold: 32]
[cat_l2: 10]
[cat_smooth: 10]
[max_cat_to_onehot: 4]
[top_k: 20]
[monotone_constraints: ]
[monotone_constraints_method: basic]
[monotone_penalty: 0]
[feature_contri: ]
[forcedsplits_filename: ]
[refit_decay_rate: 0.9]
[cegb_tradeoff: 1]
[cegb_penalty_split: 0]
[cegb_penalty_feature_lazy: ]
[cegb_penalty_feature_coupled: ]
[path_smooth: 0]
[interaction_constraints: ]
[verbosity: -1]
[saved_feature_importance_type: 0]
[max_bin: 255]
[max_bin_by_feature: ]
[min_data_in_bin: 3]
[bin_construct_sample_cnt: 200000]
[data_random_seed: 1]
[is_enable_sparse: 1]
[enable_bundle: 1]
[use_missing: 1]
[zero_as_missing: 0]
[feature_pre_filter: 1]
[pre_partition: 0]
[two_round: 0]
[header: 0]
[label_column: ]
[weight_column: ]
[group_column: ]
[ignore_column: ]
[categorical_feature: ]
[forcedbins_filename: ]
[objective_seed: 5]
[num_class: 1]
[is_unbalance: 0]
[scale_pos_weight: 1]
[sigmoid: 1]
[boost_from_average: 1]
[reg_sqrt: 0]
[alpha: 0.9]
[fair_c: 1]
[poisson_max_delta_step: 0.7]
[tweedie_variance_power: 1.5]
[lambdarank_truncation_level: 20]
[lambdarank_norm: 1]
[label_gain: ]
[eval_at: 1,2]
[multi_error_top_k: 1]
[auc_mu_weights: ]
[num_machines: 1]
[local_listen_port: 12400]
[time_out: 120]
[machine_list_filename: ]
[machines: ]
[gpu_platform_id: -1]
[gpu_device_id: -1]
[gpu_use_dp: 0]

end of parameters

pandas_categorical:null
