tree
version=v3
num_class=1
num_tree_per_iteration=1
label_index=0
max_feature_idx=11
objective=lambdarank
feature_names=color intensity shape_size integration choice visibility proximity2dp proximity2fe proximity2be uniqueness wellknownness relevance
feature_infos=[0:1] [0:1] [0:0.99919807538091443] [0:1] [0:1] [0:1] [0:1.0000000000000002] [0.0039938353199395586:0.99999999999999989] [0:0.93183904056685019] [0:1] [0:0.97986577180532408] [0:1]
tree_sizes=1572 1565 1569 1566 1567 1569 1572 1576 1587 1585 1580 1590 1589 1588 1584 1592 1590 1598 1607 1605 1596 1601 1594 1602 1591

Tree=0
num_leaves=14
num_cat=0
split_feature=11 5 5 1 1 11 11 1 7 11 7 0 2
split_gain=9.28691 11.8351 3.37939 3.26727 1.31869 1.31762 0.631496 0.532478 0.496395 0.784089 0.549259 0.334185 0.328429
threshold=0.77915819106608775 0.51330105392746328 0.51330105392746328 0.20976926485769415 0.45490164452112969 0.42474782993232335 0.45133336091856951 0.8249191861292241 0.026299892476803661 0.67688773599872754 0.020714679282958556 0.98423748947671708 0.020449077786688061
decision_type=2 2 2 2 2 2 2 2 2 2 2 2 2
left_child=1 3 -2 8 12 -3 7 -6 9 10 -1 -8 -5
right_child=2 5 -4 4 6 -7 11 -9 -10 -11 -12 -13 -14
leaf_value=-0.12490351612387479 0.19499120625499858 0.093067708162895196 0.0060855292390700599 0.057303881792282893 -0.051243310265084295 0.22599999999999987 -0.095059911274484543 0.04871044780621181 -0.22599999999999976 -0.062842591101978332 -0.22599999999999978 -0.038421759053794635 -0.010872077153045593
leaf_weight=1.7188960313797095 3.6723001711070529 3.356095600873231 1.8028736114501951 1.4685698784887784 2.2263246215879904 1.3291976377367971 5.377427089959383 0.9801725074648856 0.84173232316970814 1.4322064369916914 1.1422112584114075 1.7674422264099119 2.3398171775043011
leaf_count=17 38 35 18 15 22 13 53 10 8 14 11 17 23
internal_value=0 -0.0303184 0.132788 -0.0694374 -0.041435 0.13078 -0.0623517 -0.0206891 -0.146653 -0.131097 -0.165263 -0.0810492 0.0154176
internal_weight=0 23.9801 5.47517 19.2948 14.1598 4.68529 10.3514 3.2065 5.13505 4.29331 2.86111 7.14487 3.80839
internal_count=294 238 56 190 140 48 102 32 50 42 28 70 38
shrinkage=0.113


Tree=1
num_leaves=14
num_cat=0
split_feature=4 11 1 7 11 0 1 7 11 7 11 11 11
split_gain=18.2471 18.5019 13.4018 7.62411 2.71218 3.29034 3.24432 2.32931 3.5431 2.60868 2.02179 1.74209 7.49684
threshold=0.64857682576071585 0.98202865771588765 0.20976926485769415 0.023439176392828925 0.45133336091856951 0.61341275555286834 0.8249191861292241 0.026299892476803661 0.67688773599872754 0.020714679282958556 0.42474782993232335 0.91589751341782366 0.77915819106608775
decision_type=2 2 2 2 2 2 2 2 2 2 2 2 2
left_child=1 2 7 11 6 -6 -5 8 9 -1 -2 12 -4
right_child=10 -3 3 4 5 -7 -8 -9 -10 -11 -12 -13 -14
leaf_value=-0.091822899957387849 0.10085508725064798 0.14880590972336777 0.018293751082514582 -0.047371196945886443 0.024115405205895078 -0.098805726363188864 0.056645763255233884 -0.20284558698083746 -0.031366230582454559 -0.20524911125218614 0.20603689635747505 -0.022501672219917279 0.19267930340783374
leaf_weight=8.1949891448020953 4.7808103561401349 8.5228324085473997 41.844942525029182 11.604393824934961 3.428735256195071 14.71097971498966 5.7143399119377127 2.5602702349424353 8.232142299413681 3.7849210202693948 4.5585488229990005 9.2107184529304487 3.4039161354303351
leaf_count=17 12 26 87 22 9 35 10 8 14 11 13 18 12
internal_value=0 -0.0117264 -0.0238676 -0.00425672 -0.0450348 -0.0755714 -0.0130507 -0.101302 -0.0884398 -0.127659 0.152194 0.0222938 0.0314122
internal_weight=0 121.213 112.69 89.918 35.4584 18.1397 17.3187 22.7723 20.2121 11.9799 9.33936 54.4596 45.2489
internal_count=294 269 243 193 76 44 32 50 42 28 25 117 99
shrinkage=0.113


Tree=2
num_leaves=14
num_cat=0
split_feature=5 11 11 7 11 1 0 11 5 11 6 2 11
split_gain=12.0282 7.31907 11.5886 7.98198 3.48458 3.0181 2.67747 1.86306 2.43213 1.59923 3.3882 2.68549 1.38086
threshold=0.30627170349925609 0.49459000568800598 0.98202865771588765 0.015013004981698641 0.77915819106608775 0.37684203539341138 0.51348607409480673 0.67688773599872754 0.20730849983476043 0.64772487228375752 0.53032803014355856 0.29911788291900571 0.42474782993232335
decision_type=2 2 2 2 2 2 2 2 2 2 2 2 2
left_child=4 5 3 9 6 -2 7 -1 -9 10 -3 -11 -7
right_child=1 2 -4 -5 -6 12 -8 8 -10 11 -12 -13 -14
leaf_value=-0.14519076364817171 4.0641794071881572e-05 -0.064879981798472819 0.14781002258488968 -0.086844707531035611 0.088207825196176801 0.10296258663189742 -0.024049040322237668 -0.11518892566447927 -0.022967434084494209 0.13692777894639163 0.073942853297871675 -0.00080107083383469007 0.19113574372228026
leaf_weight=4.0861393138766315 3.2635218948125866 4.8054341524839455 6.2993193566799155 13.075596801936625 2.6647330820560446 11.372361689805983 31.56505361199379 6.0252692326903334 9.2689270079135877 3.7916229367256156 4.2131995409727097 3.4548951089382172 2.8329050317406645
leaf_count=16 9 10 26 34 12 35 79 17 19 7 9 8 13
internal_value=0 0.0381152 0.00874652 -0.0211098 -0.0377588 0.0980337 -0.0443476 -0.0774082 -0.0592988 0.0317347 -2.66653e-05 0.0712633 0.120547
internal_weight=0 53.1089 35.6401 29.3407 53.6101 17.4688 50.9454 19.3803 15.2942 16.2652 9.01863 7.24652 14.2053
internal_count=294 151 94 68 143 57 131 52 36 34 19 15 48
shrinkage=0.113


Tree=3
num_leaves=14
num_cat=0
split_feature=11 5 1 11 7 11 11 11 2 7 11 0 0
split_gain=9.13028 9.7502 3.77811 3.58776 2.77067 1.50229 1.30105 1.53528 1.0013 0.692723 0.649188 0.539549 0.381023
threshold=0.98202865771588765 0.51330105392746328 0.8249191861292241 0.45133336091856951 0.025384520271380974 0.77915819106608775 0.91589751341782366 0.42474782993232335 0.41900561347233373 0.020714679282958556 0.64772487228375752 0.92798781083676607 0.76735039005403693
decision_type=2 2 2 2 2 2 2 2 2 2 2 2 2
left_child=1 2 4 -4 5 9 7 -3 -2 -1 -5 -8 -6
right_child=8 6 3 10 12 -7 11 -9 -10 -11 -12 -13 -14
leaf_value=-0.023216945980091865 0.19731288929820512 0.072406497242904766 0.10599281860061449 -0.032154446390241676 -0.17990897950668477 0.04787112191790234 0.066856397689320932 0.18136208749513349 0.097755458821860833 -0.052167512870013914 0.040029177852028398 -0.0031300387647153565 -0.10703722938484385
leaf_weight=18.249945051968098 2.4818832352757445 7.8226758763194066 4.5212103128433219 7.3546519130468351 1.2758554890751828 2.6383269652724257 2.5131554752588263 2.093261756002903 2.6860072836279869 25.025402188301086 2.030059352517128 3.194430336356163 3.2501368448138237
leaf_count=55 11 35 10 23 8 12 8 13 15 75 7 10 12
internal_value=0 -0.00940712 -0.0288497 0.0232989 -0.0432268 -0.0349116 0.0706673 0.0954071 0.145568 -0.0399586 -0.01654 0.0276863 -0.127579
internal_weight=0 79.9691 64.3456 13.9059 50.4397 45.9137 15.6235 9.91594 5.16789 43.2753 9.38471 5.70759 4.52599
internal_count=294 268 202 40 162 142 66 48 26 130 30 18 20
shrinkage=0.113


Tree=4
num_leaves=14
num_cat=0
split_feature=5 11 1 5 7 11 6 3 11 11 5 0 11
split_gain=5.79243 8.37638 2.44945 1.87654 1.42101 1.25668 1.41436 1.17394 0.717297 1.01855 0.581675 0.373445 0.850516
threshold=0.41106719035376682 0.77915819106608775 0.8249191861292241 0.66306536504090297 0.025384520271380974 0.98202865771588765 0.71273283825771439 0.063181196419249006 0.56015369265413584 0.3528195894986903 0.13317275513406593 0.59033361992249433 0.42474782993232335
decision_type=2 2 2 2 2 2 2 2 2 2 2 2 2
left_child=1 2 4 5 7 6 8 10 9 -2 -1 12 -5
right_child=3 -3 -4 11 -6 -7 -8 -9 -10 -11 -12 -13 -14
leaf_value=0.0050984780545180177 -0.01223375119963566 0.14301193560089356 0.020801637815752373 0.064962884997702142 -0.1190026982349645 0.10081329854473497 -0.056482560910990444 -0.075271720860363905 0.0016294302881789359 0.077198703843491284 -0.039016060182916791 0.061810338542676729 0.17250245749926865
leaf_weight=4.9815088585019174 2.3402082473039725 3.4896678291261187 7.2214510515332213 2.3002290576696378 3.572842873632907 2.227956846356391 3.2722730413079253 10.230333007872103 8.0583704337477666 5.3289326801896095 16.320464704185724 4.8286090716719627 1.5869695916771891
leaf_count=15 9 23 23 12 20 15 12 30 27 21 55 19 13
internal_value=0 -0.0252599 -0.0391332 0.0386498 -0.0514624 0.0205236 0.0111086 -0.0438096 0.0251717 0.0499087 -0.0286998 0.0827971 0.108866
internal_weight=0 45.8163 42.3266 29.9435 35.1051 21.2277 18.9998 31.5323 15.7275 7.66914 21.302 8.71581 3.8872
internal_count=294 166 143 128 120 84 69 100 57 30 70 44 25
shrinkage=0.113


Tree=5
num_leaves=14
num_cat=0
split_feature=5 11 7 6 11 11 7 0 11 11 11 2 0
split_gain=4.94006 5.1789 2.17538 1.61269 1.52569 1.12446 1.95482 1.15803 1.11536 1.39546 0.376605 0.348296 0.27026
threshold=0.66306536504090297 0.98202865771588765 0.025384520271380974 0.21960082334441897 0.91589751341782366 0.77915819106608775 0.020714679282958556 0.92798781083676607 0.64772487228375752 0.45133336091856951 0.42474782993232335 0.41900561347233373 0.76735039005403693
decision_type=2 2 2 2 2 2 2 2 2 2 2 2 2
left_child=1 2 3 5 10 6 -1 -7 9 -5 -2 -3 -4
right_child=4 11 12 8 -6 7 -8 -9 -10 -11 -12 -13 -14
leaf_value=-0.00078146898378420005 0.096798101391156355 0.17567425756899338 -0.16767445872477946 0.035459068835351396 0.0040117044036393872 0.095394018685379653 -0.066183078386807787 -0.023577012566887455 0.088938773237495189 -0.021169488623386218 0.16605492492705784 0.099084692941009717 -0.091903575964569398
leaf_weight=9.4038595333695465 4.7715209349989873 1.2620584815740576 0.84441960975527708 8.9016133025288635 2.3481530845165253 1.6494129821658123 15.379342794418333 2.8495598584413528 1.9538560509681691 14.786394603550432 1.2692735753953455 1.8989429473876953 2.0858619585633278
leaf_count=37 23 11 8 30 8 12 55 10 7 53 13 15 12
internal_value=0 -0.0111786 -0.0188738 -0.0138126 0.081305 -0.0319321 -0.0413668 0.0200401 0.00687922 0.00011071 0.11135 0.129664 -0.113738
internal_weight=0 61.0153 57.8543 54.924 8.38895 29.2822 24.7832 4.49897 25.6419 23.688 6.04079 3.161 2.93028
internal_count=294 250 224 204 44 114 92 22 90 83 36 26 20
shrinkage=0.113


Tree=6
num_leaves=14
num_cat=0
split_feature=5 11 11 5 5 5 11 0 7 5 11 11 2
split_gain=3.96054 2.00902 1.91321 2.16525 1.51667 1.67184 1.48649 1.53392 1.13838 0.462176 0.354117 0.465646 0.266347
threshold=0.30627170349925609 0.77915819106608775 0.98202865771588765 0.66306536504090297 0.068691133825377962 0.13317275513406593 0.67688773599872754 0.20029640213204666 0.025384520271380974 0.20945946249560674 0.91589751341782366 0.42474782993232335 0.41900561347233373
decision_type=2 2 2 2 2 2 2 2 2 2 2 2 2
left_child=1 4 3 8 -1 -6 7 -7 -2 -8 11 -5 -4
right_child=2 -3 12 10 5 6 9 -9 -10 -11 -12 -13 -14
leaf_value=-0.073570732223283752 0.011151964200396294 0.10437491139840389 0.16909885104725117 0.07473556501723945 0.018365683694610602 -0.17701206820470375 -0.042253799353246538 -0.050493312258756473 -0.083144020902880617 0.023418041270222529 0.035994947520805523 0.16052693867139847 0.095180911172277505
leaf_weight=8.2708688415586931 16.077670134603988 1.4439496956765641 1.0084987934678784 3.8019450418651095 9.8121632710099238 1.5060105714946965 2.1177535597234955 6.5259534567594528 1.8198169320821751 3.8670532554388046 1.9583671838045118 1.0258031543344257 1.6260663233697414
leaf_count=30 69 12 11 23 38 11 13 25 12 14 8 13 15
internal_value=0 -0.0260137 0.031942 0.0221723 -0.031879 -0.0174081 -0.0424508 -0.0742159 0.00156395 0.000179735 0.076524 0.0929646 0.123476
internal_weight=0 33.5438 27.3182 24.6836 32.0998 23.8289 14.0168 8.03196 17.8975 5.98481 6.78612 4.82775 2.63457
internal_count=294 143 151 125 131 101 63 36 81 27 44 36 26
shrinkage=0.113


Tree=7
num_leaves=14
num_cat=0
split_feature=1 11 8 11 7 11 3 11 11 0 11 6 2
split_gain=2.77807 2.16084 2.05537 1.49639 1.73559 1.17865 0.804164 0.609022 0.470134 0.461363 0.412036 0.266939 0.216663
threshold=0.13186544335975872 0.98202865771588765 0.069721214827143205 0.77915819106608775 0.015013004981698641 0.45133336091856951 0.18015127281857102 0.67688773599872754 0.38709523039848187 0.20029640213204666 0.42474782993232335 0.53032803014355856 0.41900561347233373
decision_type=2 2 2 2 2 2 2 2 2 2 2 2 2
left_child=7 2 3 4 11 -6 8 9 -4 -1 -8 -2 -3
right_child=1 12 6 -5 5 -7 10 -9 -10 -11 -12 -13 -14
leaf_value=-0.16746880771973305 0.0003427589207460575 0.16391768588529415 0.058492619475424661 0.10429227792645385 -0.002399338095695743 -0.065998175010570356 0.058213427978681641 -0.044692486404848603 0.013448344754113026 -0.063549947375871135 0.15602538210251221 0.039452048379030658 0.090965631052732046
leaf_weight=1.1388444043695918 5.0883465446531826 0.82154545560479086 3.7707620710134568 1.2511117309331883 5.6733871847391155 10.811622578650711 1.5535786896944039 4.3907469101250172 13.738343123346565 1.0470875985920429 0.85125540941953648 3.9649821370840073 1.4155040942132473
leaf_count=11 22 11 23 12 22 52 12 22 56 5 13 18 15
internal_value=0 0.0092663 0.0040697 -0.0163687 -0.0222798 -0.0441104 0.0315646 -0.0689553 0.0231491 -0.11769 0.0928366 0.017471 0.117757
internal_weight=0 48.9404 46.7034 26.7895 25.5383 16.485 19.9139 6.57668 17.5091 2.18593 2.40483 9.05333 2.23705
internal_count=294 256 230 126 114 74 104 38 79 16 25 40 26
shrinkage=0.113


Tree=8
num_leaves=14
num_cat=0
split_feature=11 5 7 1 7 11 0 11 11 11 0 11 2
split_gain=2.03776 2.09203 1.44638 0.873394 0.902021 0.870639 0.642185 0.484234 0.438204 0.337555 0.239604 0.232515 0.174493
threshold=0.98202865771588765 0.66306536504090297 0.025384520271380974 0.20976926485769415 0.023439176392828925 0.67688773599872754 0.20029640213204666 0.45133336091856951 0.91589751341782366 0.42474782993232335 0.76735039005403693 0.56015369265413584 0.41900561347233373
decision_type=2 2 2 2 2 2 2 2 2 2 2 2 2
left_child=1 2 3 5 11 6 -1 -6 9 -3 -4 -5 -2
right_child=12 8 10 4 7 -7 -8 -9 -10 -11 -12 -13 -14
leaf_value=-0.16096426020449217 0.15973490572318111 0.066267679006812491 -0.16221704494817296 0.029277793610986046 -0.001641366560234875 0.00028095360738205255 -0.05393620844663035 -0.043491651853931279 0.015339298670203555 0.1523927722971718 -0.079285823893118806 0.0039668018026921756 0.088673548804411334
leaf_weight=0.91495086438953777 0.67799805104732391 2.9929109588265415 0.63715483807027262 8.8207336105406302 7.2945320531725866 3.3054165244102478 3.2896207980811596 6.8413308560848236 1.8226484060287473 0.72109233774244774 1.4739053416997194 9.7646542005240899 1.2635070756077766
leaf_count=11 11 23 8 45 32 14 17 32 8 13 12 53 15
internal_value=0 -0.00460201 -0.0131434 -0.00835925 -0.000382862 -0.0431126 -0.0772264 -0.0218956 0.0607191 0.0829893 -0.104316 0.0159795 0.113489
internal_weight=0 47.879 42.3423 40.2312 32.7213 7.50999 4.20457 14.1359 5.53665 3.714 2.11106 18.5854 1.94151
internal_count=294 268 224 204 162 42 28 64 44 36 20 98 26
shrinkage=0.113


Tree=9
num_leaves=14
num_cat=0
split_feature=11 5 7 1 11 5 11 0 11 11 7 0 2
split_gain=1.57482 1.3388 0.972106 0.597545 0.606628 0.594807 2.2521 0.564592 0.346686 0.35526 0.339538 0.20875 0.129738
threshold=0.98202865771588765 0.66306536504090297 0.025384520271380974 0.20976926485769415 0.67688773599872754 0.068691133825377962 0.77915819106608775 0.20029640213204666 0.91589751341782366 0.42474782993232335 0.024554669465599758 0.76735039005403693 0.41900561347233373
decision_type=2 2 2 2 2 2 2 2 2 2 2 2 2
left_child=1 2 3 4 7 6 -5 -1 9 -3 -7 -4 -2
right_child=12 8 11 5 -6 10 -8 -9 -10 -11 -12 -13 -14
leaf_value=-0.15533625272394755 0.15306097660109411 0.054221761993219424 -0.15486333345324746 -0.057593951167404789 -0.00060820818319261868 0.014118930389764268 0.12142556446880784 -0.045959680960527084 0.010354057522451585 0.14924216567691898 -0.020480251102976684 -0.068598875154829347 0.085826941567077236
leaf_weight=0.75069623906165306 0.5409801499918091 2.7322007045149799 0.50104827992617962 5.7999660726636675 3.1696886345744133 19.798519771546129 1.0615441612899301 3.0550698023289442 1.8139709308743475 0.61563048698008049 4.4325402695685616 1.2563489079475403 1.1361075881868601
leaf_count=11 11 23 8 30 14 100 12 17 8 13 20 12 15
internal_value=0 -0.00400806 -0.011026 -0.00723279 -0.0371228 -0.000527135 -0.0298978 -0.0675345 0.0501384 0.071695 0.00778977 -0.0931936 0.107515
internal_weight=0 44.9872 39.8254 38.068 6.97545 31.0926 6.86151 3.80577 5.1618 3.34783 24.2311 1.7574 1.67709
internal_count=294 268 224 204 42 162 42 28 44 36 120 20 26
shrinkage=0.113


Tree=10
num_leaves=14
num_cat=0
split_feature=11 1 5 11 11 1 1 11 11 2 0 11 5
split_gain=1.30223 1.28091 0.918493 1.13896 0.705995 0.962305 0.809813 0.616024 0.865032 1.10435 0.190661 0.286567 0.160145
threshold=0.98202865771588765 0.20976926485769415 0.41106719035376682 0.77915819106608775 0.45133336091856951 0.8249191861292241 0.45490164452112969 0.56015369265413584 0.64772487228375752 0.29911788291900571 0.69091661859275844 0.42474782993232335 0.20945946249560674
decision_type=2 2 2 2 2 2 2 2 2 2 2 2 2
left_child=1 12 3 4 5 -3 -6 10 -9 -10 11 -4 -1
right_child=-2 2 7 -5 6 -7 -8 8 9 -11 -12 -13 -14
leaf_value=-0.08651394096737508 0.10402233379604725 -0.013895884409098077 0.054456671790428235 0.11295878492779395 0.019351383675893584 0.073947934713375574 -0.052008019069238028 -0.066666184285226804 0.1116580652652715 -0.006910988066405898 0.034332650851092592 0.14643366336212479 -0.040615562956797933
leaf_weight=1.1723046000115562 1.4841511771082867 6.2332255635410601 2.4699179418385016 0.91189064830541511 2.6716785840690127 2.1387663595378399 8.4636706896126253 1.7543492242693899 1.3791169933974741 3.6783601269125938 4.8725963551551104 0.52436717553064216 5.6437398679554462
leaf_count=13 26 29 23 12 13 10 53 10 7 18 30 13 37
internal_value=0 -0.00368337 0.00502193 -0.0104769 -0.0162471 0.0085453 -0.0348869 0.0265821 0.00170478 0.0254215 0.048123 0.0705639 -0.0485097
internal_weight=0 41.914 35.0979 20.4192 19.5073 8.37199 11.1353 14.6787 6.81183 5.05748 7.86688 2.99429 6.81604
internal_count=294 268 218 117 105 39 66 101 35 25 66 36 50
shrinkage=0.113


Tree=11
num_leaves=14
num_cat=0
split_feature=5 11 7 1 5 11 11 0 11 0 2 11 11
split_gain=1.69712 1.31803 0.66357 0.444684 0.483734 1.35768 0.311567 0.471803 0.299991 0.160313 0.125539 0.0407015 0.0497484
threshold=0.66306536504090297 0.98202865771588765 0.025384520271380974 0.20976926485769415 0.068691133825377962 0.77915819106608775 0.67688773599872754 0.20029640213204666 0.45133336091856951 0.76735039005403693 0.41900561347233373 0.3528195894986903 0.91589751341782366
decision_type=2 2 2 2 2 2 2 2 2 2 2 2 2
left_child=1 2 3 6 5 -5 7 -1 -6 -4 -3 -2 -13
right_child=11 10 9 4 8 -7 -8 -9 -10 -11 -12 12 -14
leaf_value=-0.15084977487201726 0.047691356422864831 0.15133727350345161 -0.14902630385769516 -0.053630948688377436 0.022127664860721014 0.10351313671283043 -0.0091327833800020717 -0.040085500090800995 -0.0057198323346949569 -0.064382239052945683 0.07761191993368606 0.086561248231763671 0.058634861479654715
leaf_weight=0.60558921238407437 1.0874430686235417 0.43807616969570407 0.3857026179321098 5.0179724544286755 8.1198587287217396 0.81622757855802763 2.7410857994109392 2.5960225164890289 12.611846987158058 1.1021304307505488 0.90247458126395941 1.6695989440195262 1.5904412530362606
leaf_count=11 12 11 8 30 49 12 14 17 71 12 15 24 8
internal_value=0 -0.0081965 -0.0125301 -0.00915272 -0.00290193 -0.0316459 -0.0370959 -0.0610367 0.00518702 -0.0863252 0.101704 0.0666223 0.0729371
internal_weight=0 35.337 33.9964 32.5086 26.5659 5.8342 5.9427 3.20161 20.7317 1.48783 1.34055 4.34748 3.26004
internal_count=294 250 224 204 162 42 42 28 120 20 26 44 32
shrinkage=0.113


Tree=12
num_leaves=14
num_cat=0
split_feature=5 11 11 7 8 11 1 11 2 11 9 0 6
split_gain=1.25432 1.61957 0.451196 0.379969 0.438013 0.362119 0.410837 0.367937 0.640181 0.306473 0.144335 0.134313 0.124432
threshold=0.41106719035376682 0.77915819106608775 0.49459000568800598 0.025384520271380974 0.069721214827143205 0.53168496441549251 0.37684203539341138 0.64772487228375752 0.29911788291900571 0.42474782993232335 0.66666666666666674 0.76735039005403693 1.0000000180025095e-35
decision_type=2 2 2 2 2 2 2 2 2 2 2 2 2
left_child=1 3 9 4 12 -4 -7 -8 -9 10 -2 -5 -1
right_child=2 -3 5 11 -6 6 7 8 -10 -11 -12 -13 -14
leaf_value=0.0036856855426286644 0.055243869788160094 0.11634133857493208 -0.034800491762983665 -0.14544797020406031 0.0015854153797739271 0.059027720903267009 -0.043926836958452772 0.094207710129283417 -0.0052204537844190938 0.1445146670366243 0.0068054276761746572 -0.062174869890611426 -0.036972328443571331
leaf_weight=1.0524157695472336 3.5213406486436716 1.1005776638630766 1.7815189771354187 0.32611390459351119 7.2973583284765473 2.5543661965057236 1.4826828744262455 1.1314474567770956 3.0717639476060867 0.42760623595677305 1.0110310800373552 1.0236779935657978 11.084662500070406
leaf_count=5 35 23 12 8 43 24 10 7 18 13 9 12 75
internal_value=0 -0.0172455 0.0251916 -0.0243193 -0.0202927 0.0113958 0.0213833 0.00447168 0.0215443 0.0530664 0.0444388 -0.0822939 -0.0334468
internal_weight=0 21.8848 14.9818 20.7842 19.4344 10.0218 8.24026 5.68589 4.20321 4.95998 4.53237 1.34979 12.1371
internal_count=294 166 128 143 123 71 59 35 25 57 44 20 80
shrinkage=0.113


Tree=13
num_leaves=14
num_cat=0
split_feature=5 11 7 8 11 7 11 0 0 0 2 0 11
split_gain=1.04099 1.0173 0.456536 0.295558 0.599405 0.576167 0.212602 0.699809 0.301024 0.118237 0.103609 0.073455 0.161134
threshold=0.66306536504090297 0.98202865771588765 0.025384520271380974 0.069721214827143205 0.77915819106608775 0.015013004981698641 0.45133336091856951 0.61341275555286834 0.61341275555286834 0.76735039005403693 0.41900561347233373 0.59033361992249433 0.42474782993232335
decision_type=2 2 2 2 2 2 2 2 2 2 2 2 2
left_child=1 2 3 4 5 -1 7 -5 -8 -4 -3 12 -2
right_child=11 10 9 6 -6 -7 8 -9 -10 -11 -12 -13 -14
leaf_value=0.0092843070055377494 0.053876480186969576 0.14942416026866318 -0.14231173908051201 -0.029472806475993183 0.09054503587434877 -0.033618941558299073 0.038963297448637149 0.057664715861513866 -0.025119977340068843 -0.058890743495896299 0.075525489439127597 0.04513812840553507 0.14201210065579251
leaf_weight=5.8973039090633561 0.94537026062607699 0.35035997838713118 0.28009235160425194 1.8998342491686324 0.6510345945134749 12.403239672305061 1.2602448370307682 3.0925792176276445 3.6377192167565227 0.96237677801400423 0.78518495010212064 2.3242480345070362 0.36797354556620121
leaf_count=40 12 11 8 12 12 87 8 22 23 12 15 19 13
internal_value=0 -0.00666567 -0.0106286 -0.00773943 -0.0160031 -0.0197935 0.00809505 0.024505 -0.00863137 -0.0776965 0.0983261 0.0572088 0.0785704
internal_weight=0 31.22 30.0844 28.842 18.9516 18.3005 9.89038 4.99241 4.89796 1.24247 1.13554 3.63759 1.31334
internal_count=294 250 224 204 139 127 65 34 31 20 26 44 25
shrinkage=0.113


Tree=14
num_leaves=14
num_cat=0
split_feature=5 11 9 0 11 3 3 11 7 1 0 11 11
split_gain=0.888285 1.13454 0.366934 0.321559 0.264903 0.441419 0.41019 0.241893 0.306794 0.290775 0.118173 0.117214 0.0879927
threshold=0.41106719035376682 0.77915819106608775 0.22000000000000003 0.60700420711197478 0.64772487228375752 0.050213589858228304 0.050213589858228304 0.45133336091856951 0.020714679282958556 0.8249191861292241 0.82861429136100517 0.67688773599872754 0.91589751341782366
decision_type=2 2 2 2 2 2 2 2 2 2 2 2 2
left_child=1 2 7 12 5 -5 -6 9 -9 10 -1 -10 -2
right_child=3 -3 -4 4 6 -7 -8 8 11 -11 -12 -13 -14
leaf_value=0.002321311004589534 0.066054319387807356 0.10923728428507155 -0.059376870284595457 0.02599894966169404 -0.0044673076552665079 -0.03270944853715587 0.077328905426907651 0.013592409226781123 -0.045631302326476365 0.044288915003998529 -0.034471023179674348 -0.01607955869511506 0.028774207754269827
leaf_weight=2.9857539702206948 2.1825185157358638 0.8938153104390939 2.72889549890533 3.5961803188547474 1.4679100112989547 2.9992003422230482 1.6774217900820074 2.0120273195207101 5.2146148846950382 1.5978889912366865 1.7788140224292872 2.5528828138485551 1.2840923275798561
leaf_count=18 36 23 26 30 10 22 22 13 43 10 11 22 8
internal_value=0 -0.0151616 -0.0210537 0.0226892 0.0121706 -0.000698258 0.039155 -0.0145749 -0.0257324 0.00257481 -0.0114148 -0.0359188 0.0522451
internal_weight=0 19.7647 18.8709 13.2073 9.74071 6.59538 3.14533 16.142 9.77953 6.36246 4.76457 7.7675 3.46661
internal_count=294 166 143 128 84 52 32 117 78 39 29 65 44
shrinkage=0.113


Tree=15
num_leaves=14
num_cat=0
split_feature=5 11 10 11 0 11 0 11 0 2 11 9 0
split_gain=0.831799 1.21984 0.399016 0.369892 0.281657 0.274197 0.413124 0.25168 0.206282 0.198491 0.177748 0.0936427 0.0702836
threshold=0.51330105392746328 0.77915819106608775 0.17718120777757762 0.64772487228375752 0.82861429136100517 0.67688773599872754 0.29739252513674613 0.91589751341782366 0.76735039005403693 0.41900561347233373 0.42474782993232335 0.66666666666666674 0.92798781083676607
decision_type=2 2 2 2 2 2 2 2 2 2 2 2 2
left_child=1 2 3 4 9 8 -7 10 -4 -1 -2 -3 -9
right_child=7 11 5 -5 -6 6 -8 12 -10 -11 -12 -13 -14
leaf_value=0.003979440259088746 0.050824031344461409 0.14788793833145225 -0.14681949098826955 0.065136287814075058 -0.035980086284789103 -0.0038970830519228792 -0.078718549310127867 0.032154867540063192 -0.053383356409096736 -0.033395624068676737 0.14063640342751585 0.076074975645001944 -0.0056733856216903637
leaf_weight=10.790406711399571 2.9487953195348378 0.28620961168780801 0.46610283153131493 0.86638010665774245 4.1978609836660317 2.977609084919095 1.3785434382734818 1.1686625275760889 0.85543587827123702 2.1811715038493267 0.31105946388561267 1.2209843588061631 1.3535258425399661
leaf_count=76 35 11 11 7 31 19 17 8 12 17 13 27 10
internal_value=0 -0.00886236 -0.0151276 -0.0069034 -0.0105386 -0.0412527 -0.027575 0.0386568 -0.086338 -0.00230518 0.059394 0.0897119 0.0118544
internal_weight=0 25.2207 23.7135 18.0358 17.1694 5.67769 4.35615 5.78204 1.32154 12.9716 3.25985 1.50719 2.52219
internal_count=294 228 190 131 124 59 36 66 23 93 48 38 18
shrinkage=0.113


Tree=16
num_leaves=14
num_cat=0
split_feature=5 11 8 0 0 11 1 3 11 11 11 0 11
split_gain=0.698867 0.881149 0.3545 0.31566 0.27446 0.146039 0.194333 0.125919 0.112557 0.0936975 0.22554 0.0615261 0.0521164
threshold=0.41106719035376682 0.77915819106608775 0.069721214827143205 0.51348607409480673 0.59033361992249433 0.98202865771588765 0.25709665841008417 0.063181196419249006 0.42474782993232335 0.67688773599872754 0.45133336091856951 0.69091661859275844 0.56015369265413584
decision_type=2 2 2 2 2 2 2 2 2 2 2 2 2
left_child=1 2 7 -4 8 6 -6 9 -2 10 -1 -8 -13
right_child=4 -3 3 -5 5 -7 11 -9 -10 -11 -12 12 -14
leaf_value=-0.0037232938279829647 0.054647045961593456 0.10539111825207055 -0.06620000079482323 0.012015973401761941 -0.024542628390409681 0.068996384373478881 0.036998002672199999 -0.045913893073216867 0.13897152981066863 -0.0062397698128493651 -0.062748509384819837 0.024295838812136726 0.0040875424085147875
leaf_weight=1.6016105352901013 0.78572507575154193 0.75292820064350863 0.7521662957733487 5.3104656976647675 1.5197090250439913 0.62436508852988559 1.9422850604169051 4.6312537402845919 0.27213062613736838 2.8513877671211958 1.7083038026466963 3.225119377952069 3.2938701659440994
leaf_count=11 12 23 13 38 12 15 19 42 13 19 20 30 27
internal_value=0 -0.0142104 -0.0195531 0.00231203 0.0214537 0.015979 0.0126625 -0.0318356 0.0763393 -0.0212534 -0.0341872 0.0193448 0.0140851
internal_weight=0 17.6081 16.8552 6.06263 11.6632 10.6053 9.98098 10.7926 1.05786 6.1613 3.30991 8.46127 6.51899
internal_count=294 166 143 51 128 103 88 92 25 50 31 76 57
shrinkage=0.113


Tree=17
num_leaves=14
num_cat=0
split_feature=5 11 10 11 11 11 0 0 2 0 9 0 11
split_gain=0.54713 0.91647 0.380887 0.369564 0.22368 0.217179 0.208542 0.179465 0.170649 0.150484 0.0822696 0.0429281 0.099884
threshold=0.51330105392746328 0.77915819106608775 0.17718120777757762 0.64772487228375752 0.91589751341782366 0.67688773599872754 0.29739252513674613 0.82861429136100517 0.41900561347233373 0.76735039005403693 0.66666666666666674 0.59033361992249433 0.42474782993232335
decision_type=2 2 2 2 2 2 2 2 2 2 2 2 2
left_child=1 2 3 7 11 9 -7 8 -1 -4 -3 12 -2
right_child=4 10 5 -5 -6 6 -8 -9 -10 -11 -12 -13 -14
leaf_value=0.0042640590307813061 0.052931060652983274 0.14607574283852248 -0.14240808420032869 0.069653738851251937 0.0070891836935812547 -0.0099533993648930653 -0.066057862286534083 -0.030210953950836238 -0.032236900904625471 -0.055147650475329213 0.071996292874845727 0.044365768096549969 0.13720300286469164
leaf_weight=9.9405517680570572 0.73219674173742455 0.2347343331784929 0.36930905590997898 0.81268064677715379 2.3246737401932478 2.7360952720046048 1.2246099286712704 3.7085753940045842 1.9575844635255624 0.79687568265944719 1.0375395931769162 1.8921614871360362 0.23795767733827233
leaf_count=76 12 11 11 7 18 19 17 31 17 12 27 23 13
internal_value=0 -0.00753035 -0.0130333 -0.00463797 0.0331274 -0.0399203 -0.0273003 -0.00850653 -0.0017414 -0.0827814 0.0856639 0.0542748 0.0736011
internal_weight=0 22.8186 21.5463 16.4194 5.18699 5.12689 3.96071 15.6067 11.8981 1.16618 1.27227 2.86232 0.970154
internal_count=294 228 190 131 66 59 36 124 93 23 38 48 25
shrinkage=0.113


Tree=18
num_leaves=14
num_cat=0
split_feature=5 11 7 1 7 11 2 11 0 0 11 11 11
split_gain=0.560109 0.515212 0.334529 0.199936 0.194186 0.179627 0.0717709 0.0619252 0.0884238 0.0617726 0.0841118 0.0307466 0.0153948
threshold=0.66306536504090297 0.98202865771588765 0.025384520271380974 0.20976926485769415 0.021742116557478177 0.45133336091856951 0.41900561347233373 0.67688773599872754 0.60700420711197478 0.59033361992249433 0.42474782993232335 0.56015369265413584 0.91589751341782366
decision_type=2 2 2 2 2 2 2 2 2 2 2 2 2
left_child=1 2 3 7 11 -6 -3 8 -1 10 -2 -5 -11
right_child=9 6 -4 4 5 -7 -8 -9 -10 12 -12 -13 -14
leaf_value=-0.072379075041332855 0.054168457876915821 0.14391117934900219 -0.073227499081457967 0.01742790335859137 0.0056392347508513879 -0.025610119985065027 0.065462484424867975 -0.013266338589588157 -0.024542411389605234 0.048458237570558955 0.13577801784887567 0.0039519782500370346 0.027233365492406202
leaf_weight=0.76229564863025623 0.70274048345163387 0.20659443008480494 0.97424962744116683 4.947504626587035 4.2192987413145584 5.2981995281297714 0.53335928730666637 1.8538850420154629 1.3987932023592293 0.78655219823122025 0.20928842737339437 3.8397653303109109 0.98006282094866037
leaf_count=16 12 11 20 45 32 53 15 14 12 11 13 32 8
internal_value=0 -0.00546263 -0.00841139 -0.00558218 -0.000573326 -0.0117567 0.0873653 -0.0284182 -0.0414162 0.049013 0.0728959 0.0115393 0.0366833
internal_weight=0 24.0339 23.294 22.3197 18.3048 9.5175 0.739954 4.01497 2.16109 2.67864 0.912029 8.78727 1.76662
internal_count=294 250 224 204 162 85 26 42 28 44 25 77 19
shrinkage=0.113


Tree=19
num_leaves=14
num_cat=0
split_feature=11 8 11 1 11 7 10 9 10 0 11 3 2
split_gain=0.374388 0.449362 0.304802 0.401643 0.297272 0.241461 0.226455 0.209409 0.13707 0.135757 0.0737018 0.0653937 0.0556953
threshold=0.98202865771588765 0.069721214827143205 0.45133336091856951 0.37684203539341138 0.64772487228375752 0.024478057170235268 0.053859060085187614 1.0000000180025095e-35 0.17718120777757762 0.76735039005403693 0.38709523039848187 1.0000000180025095e-35 0.41900561347233373
decision_type=2 2 2 2 2 2 2 2 2 2 2 2 2
left_child=1 4 3 -3 6 11 -1 -6 -8 -10 -5 -4 -2
right_child=12 2 5 10 7 -7 8 -9 9 -11 -12 -13 -14
leaf_value=0.0092580919794859797 0.1390818181443062 -0.017064401760854941 -0.0059424472757582513 0.040870673356986804 0.064157915703105292 -0.037849186585117781 -0.028129045350221142 -0.0013506616943869257 -0.13800213200136044 -0.045829322376326996 0.072589568024602175 0.027998485728814224 0.064322209204340564
leaf_weight=1.962715539149946 0.17085712566040356 1.4033228820189814 1.1881524138152602 2.3687372119165961 0.74249759316444297 1.7555930556263772 7.4098499086685461 3.8747371921781451 0.28984639141708601 0.6892132448265329 1.5458525948924942 1.8588674049824474 0.49850400211289525
leaf_count=18 11 12 10 35 7 21 63 40 11 12 23 16 15
internal_value=0 -0.00222516 0.0161666 0.0348027 -0.01466 -0.00446899 -0.0252952 0.00918377 -0.0333795 -0.0731167 0.0533963 0.0147636 0.0834049
internal_weight=0 25.0894 10.1205 5.31791 14.9689 4.80261 10.3516 4.61723 8.38891 0.97906 3.91459 3.04702 0.669361
internal_count=294 268 117 70 151 47 104 47 86 23 58 26 26
shrinkage=0.113


Tree=20
num_leaves=14
num_cat=0
split_feature=5 11 8 2 0 11 0 3 11 11 11 11 0
split_gain=0.414623 0.792019 0.248113 0.16761 0.149164 0.10774 0.115195 0.085787 0.0473839 0.0441248 0.0618835 0.0489345 0.0343866
threshold=0.41106719035376682 0.77915819106608775 0.069721214827143205 0.37209302325581411 0.60700420711197478 0.98202865771588765 0.69091661859275844 0.063181196419249006 0.91589751341782366 0.56015369265413584 0.64772487228375752 0.3528195894986903 1.0000000180025095e-35
decision_type=2 2 2 2 2 2 2 2 2 2 2 2 2
left_child=1 2 7 -4 8 6 -6 12 -2 11 -11 -8 -1
right_child=4 -3 3 -5 5 -7 9 -9 -10 10 -12 -13 -14
leaf_value=-0.030387550266048023 0.053810589188037952 0.11717677686309375 0.010281292521984727 -0.054129812922077546 -0.02332774079747316 0.06202359094117102 -0.003177105773929754 -0.040793274381672406 0.021543309588460176 -0.019191978985840609 0.015896407530284731 0.032146009178452215 -0.011722046077054793
leaf_weight=2.0302281159674731 1.5701957342680528 0.5836671801516794 4.5163237927481541 0.58238656690809865 1.3467727622482923 0.47387722285930056 0.65851286333054337 3.9255319598596543 0.92253958899527777 0.98983921157196175 1.8253703941591084 2.0908321435563266 3.3231540652923286
leaf_count=25 36 23 38 13 12 15 9 42 8 10 17 21 25
internal_value=0 -0.0118627 -0.0171012 0.00292411 0.0179675 0.00990006 0.0063262 -0.0281049 0.0418688 0.0135033 0.00355919 0.0236855 -0.0188008
internal_weight=0 14.9613 14.3776 5.09871 9.87794 7.3852 6.91133 9.27891 2.49274 5.56455 2.81521 2.74935 5.35338
internal_count=294 166 143 51 128 84 69 92 44 57 27 30 50
shrinkage=0.113


Tree=21
num_leaves=14
num_cat=0
split_feature=5 11 7 8 7 11 0 0 11 11 11 2 11
split_gain=0.333822 0.310864 0.204257 0.154395 0.237876 0.101754 0.157239 0.115841 0.062234 0.0606181 0.0512524 0.0491639 0.0112076
threshold=0.66306536504090297 0.98202865771588765 0.025384520271380974 0.069721214827143205 0.015013004981698641 0.45133336091856951 0.61341275555286834 0.61341275555286834 0.67688773599872754 0.64772487228375752 0.91589751341782366 0.41900561347233373 0.3528195894986903
decision_type=2 2 2 2 2 2 2 2 2 2 2 2 2
left_child=1 2 3 4 9 6 -5 -7 -6 -1 12 -3 -2
right_child=10 11 -4 5 8 7 -8 -9 -10 -11 -12 -13 -14
leaf_value=0.0011911573581856491 0.041419030123320287 0.1360189009625522 -0.062156668516288628 -0.0081346305094528778 -0.027968099441463039 0.032289649442240345 0.042115267670757489 -0.016370133957415395 -0.0080995960340290909 0.030091609206485646 0.018796136357421184 0.05860916442446306 0.061307353192841238
leaf_weight=2.7160733696073427 0.62197946943342619 0.13632331410189991 0.81559647820540604 1.2728545474819832 6.2722613271907885 0.82735281391069326 2.1186690521426499 2.5505813553463668 2.9644830729812384 1.4066819231957195 0.89778718911111344 0.45253785816021264 0.86493203465943225
leaf_count=28 12 11 20 12 64 8 22 23 35 12 8 15 24
internal_value=0 -0.00444256 -0.00671911 -0.00447286 -0.0115176 0.00942996 0.0232562 -0.00445196 -0.0215914 0.011052 0.0401155 0.0765298 0.052988
internal_weight=0 21.5334 20.9446 20.129 13.3595 6.76946 3.39152 3.37793 9.23674 4.12276 2.3847 0.588861 1.48691
internal_count=294 250 224 204 139 65 34 31 99 40 44 26 36
shrinkage=0.113


Tree=22
num_leaves=14
num_cat=0
split_feature=5 11 11 7 1 0 11 0 6 0 11 11 0
split_gain=0.363336 0.710596 0.244492 0.165395 0.124476 0.107628 0.0815202 0.0987764 0.0597008 0.0401504 0.039363 0.0864576 0.0305599
threshold=0.41106719035376682 0.77915819106608775 0.45133336091856951 0.020714679282958556 0.8249191861292241 0.60700420711197478 0.98202865771588765 0.69091661859275844 0.21960082334441897 0.29739252513674613 0.91589751341782366 0.64772487228375752 0.59033361992249433
decision_type=2 2 2 2 2 2 2 2 2 2 2 2 2
left_child=1 2 4 -4 -1 12 7 -7 9 -5 11 -9 -2
right_child=5 -3 3 8 -6 6 -8 10 -10 -11 -12 -13 -14
leaf_value=-0.006347501806805724 0.056651980440901466 0.11894073741470335 0.006543216815692642 -0.032804502528194203 0.036123507986018308 -0.021255087448933983 0.057500128922379122 0.011813602966296823 -0.023518778453987765 -0.055600788585192441 -0.0053881983994456782 0.056243259192071182 0.029224632722820176
leaf_weight=3.8436598945409068 0.77869878767523748 0.51376721690758209 1.4543645409867147 1.9202985408192037 1.1432645246386526 1.2618207535706458 0.43765691469889123 3.4689388293772936 3.0756963418680243 2.028880569676403 1.0646460750140248 0.66675380989909161 1.5537803969345987
leaf_count=34 25 23 13 25 10 12 15 40 34 27 10 7 19
internal_value=0 -0.0114888 -0.0164651 -0.0281419 0.00338908 0.0173969 0.0103031 0.00710667 -0.0353228 -0.044516 0.0139884 0.0189765 0.0383813
internal_weight=0 13.9799 13.4662 8.47924 4.98692 9.2323 6.89982 6.46216 7.02488 3.94918 5.20034 4.13569 2.33248
internal_count=294 166 143 99 44 128 84 69 86 52 57 47 44
shrinkage=0.113


Tree=23
num_leaves=14
num_cat=0
split_feature=5 11 10 11 3 11 7 5 11 2 2 11 0
split_gain=0.332528 0.622923 0.194682 0.163198 0.152032 0.135371 0.120661 0.0855509 0.147589 0.133745 0.0639925 0.0466168 0.0240869
threshold=0.51330105392746328 0.77915819106608775 0.17718120777757762 0.64772487228375752 0.050213589858228304 0.91589751341782366 0.024478057170235268 0.20730849983476043 0.67688773599872754 0.12028869286287094 0.41900561347233373 0.45133336091856951 0.92798781083676607
decision_type=2 2 2 2 2 2 2 2 2 2 2 2 2
left_child=1 2 3 4 11 -2 -6 -4 9 -9 -3 -1 -7
right_child=5 10 7 -5 6 12 -8 8 -10 -11 -12 -13 -14
leaf_value=-0.00042333819691116293 0.047667231964843133 0.11459390914408864 -0.061951918380627143 0.051433360610854767 -0.029145145926163487 0.020667321925668437 -0.0029945472432855737 -0.03557665431821317 -0.008664395681200943 -0.13595395120380041 0.053719444240096656 0.025337396172973644 -0.0052251209692107973
leaf_weight=1.8256866512820205 2.2519675525836638 0.4681784245185544 0.9825813751667728 0.63111942075193006 4.240931641426867 0.83453694637864795 4.806429177056998 0.58823991089593652 2.2515970494132489 0.23810637660790235 0.41681707196403295 1.7633204907178879 1.0188568083103746
leaf_count=21 48 23 17 7 43 8 43 12 19 11 15 17 10
internal_value=0 -0.00654856 -0.0112714 -0.00464519 -0.00744601 0.029052 -0.0152526 -0.032922 -0.0236547 -0.0644997 0.0859231 0.0122332 0.0064336
internal_weight=0 18.213 17.328 13.2675 12.6364 4.10536 9.04736 4.06052 3.07794 0.826346 0.884995 3.58901 1.85339
internal_count=294 228 190 131 124 66 86 59 42 23 38 38 18
shrinkage=0.113


Tree=24
num_leaves=14
num_cat=0
split_feature=5 11 0 7 1 11 1 8 11 7 2 0 11
split_gain=0.323862 0.260424 0.249025 0.1861 0.202406 0.136636 0.0956869 0.0667389 0.0594974 0.0707651 0.0562942 0.0412147 0.0835391
threshold=0.66306536504090297 0.77915819106608775 0.92798781083676607 0.020714679282958556 0.8249191861292241 0.45133336091856951 0.25709665841008417 0.019609508434526818 0.64772487228375752 0.013945658280811976 0.41900561347233373 0.59033361992249433 0.42474782993232335
decision_type=2 2 2 2 2 2 2 2 2 2 2 2 2
left_child=1 3 10 6 7 -6 -1 -5 9 -8 -3 12 -2
right_child=11 2 -4 4 5 -7 8 -9 -10 -11 -12 -13 -14
leaf_value=-0.015511430038745022 0.042911078274000175 0.11018373286905842 -0.0022444812158914492 -0.017964897196516273 0.03931053543168507 -0.014787757223923618 -0.021001121173932144 -0.039148658587270027 0.046160378895278985 0.014819156310887602 0.051348889568960186 0.0306991566710576 0.13534244478683155
leaf_weight=2.1623550796648585 0.54637986328452748 0.42854148588958085 0.98818954173475504 4.0425022743584105 1.0881490325555205 1.318488368880935 0.85727424407377828 3.5814589519577567 0.60019864328205574 3.944898747606203 0.40288709057494998 1.4298856938257813 0.16183778669801541
leaf_count=22 12 23 10 45 10 13 10 50 7 45 15 19 13
internal_value=0 -0.00459675 0.0361 -0.00880539 -0.0188976 0.00967251 0.00457657 -0.0279163 0.012617 0.00842459 0.081674 0.0417405 0.064033
internal_weight=0 19.4149 1.81962 17.5953 10.0306 2.40664 7.56473 7.62396 5.40237 4.80217 0.831429 2.1381 0.708218
internal_count=294 250 48 202 118 23 84 95 62 55 38 44 25
shrinkage=0.113


end of trees

feature_importances:
relevance=133
color=50
visibility=34
proximity2fe=31
intensity=23
shape_size=21
integration=8
proximity2be=8
proximity2dp=6
uniqueness=5
wellknownness=5
choice=1

parameters:
[boosting: gbdt]
[objective: lambdarank]
[metric: ndcg]
[tree_learner: serial]
[device_type: cpu]
[data: ]
[valid: ]
[num_iterations: 28]
[learning_rate: 0.113]
[num_leaves: 14]
[num_threads: -1]
[force_col_wise: 0]
[force_row_wise: 0]
[histogram_pool_size: -1]
[max_depth: 6]
[min_data_in_leaf: 5]
[min_sum_hessian_in_leaf: 0.001]
[bagging_fraction: 1]
[pos_bagging_fraction: 1]
[neg_bagging_fraction: 1]
[bagging_freq: 0]
[bagging_seed: 3]
[feature_fraction: 1]
[feature_fraction_bynode: 1]
[feature_fraction_seed: 2]
[extra_trees: 0]
[extra_seed: 6]
[early_stopping_round: 100]
[first_metric_only: 0]
[max_delta_step: 0]
[lambda_l1: 0]
[lambda_l2: 0]
[min_gain_to_split: 0]
[drop_rate: 0.1]
[max_drop: 50]
[skip_drop: 0.5]
[xgboost_dart_mode: 0]
[uniform_drop: 0]
[drop_seed: 4]
[top_rate: 0.2]
[other_rate: 0.1]
[min_data_per_group: 100]
[max_cat_threshold: 32]
[cat_l2: 10]
[cat_smooth: 10]
[max_cat_to_onehot: 4]
[top_k: 20]
[monotone_constraints: ]
[monotone_constraints_method: basic]
[monotone_penalty: 0]
[feature_contri: ]
[forcedsplits_filename: ]
[refit_decay_rate: 0.9]
[cegb_tradeoff: 1]
[cegb_penalty_split: 0]
[cegb_penalty_feature_lazy: ]
[cegb_penalty_feature_coupled: ]
[path_smooth: 0]
[interaction_constraints: ]
[verbosity: -1]
[saved_feature_importance_type: 0]
[max_bin: 255]
[max_bin_by_feature: ]
[min_data_in_bin: 3]
[bin_construct_sample_cnt: 200000]
[data_random_seed: 1]
[is_enable_sparse: 1]
[enable_bundle: 1]
[use_missing: 1]
[zero_as_missing: 0]
[feature_pre_filter: 1]
[pre_partition: 0]
[two_round: 0]
[header: 0]
[label_column: ]
[weight_column: ]
[group_column: ]
[ignore_column: ]
[categorical_feature: ]
[forcedbins_filename: ]
[objective_seed: 5]
[num_class: 1]
[is_unbalance: 0]
[scale_pos_weight: 1]
[sigmoid: 1]
[boost_from_average: 1]
[reg_sqrt: 0]
[alpha: 0.9]
[fair_c: 1]
[poisson_max_delta_step: 0.7]
[tweedie_variance_power: 1.5]
[lambdarank_truncation_level: 20]
[lambdarank_norm: 1]
[label_gain: ]
[eval_at: 1,2]
[multi_error_top_k: 1]
[auc_mu_weights: ]
[num_machines: 1]
[local_listen_port: 12400]
[time_out: 120]
[machine_list_filename: ]
[machines: ]
[gpu_platform_id: -1]
[gpu_device_id: -1]
[gpu_use_dp: 0]

end of parameters

pandas_categorical:null
