tree
version=v3
num_class=1
num_tree_per_iteration=1
label_index=0
max_feature_idx=11
objective=lambdarank
feature_names=color intensity shape_size integration choice visibility proximity2dp proximity2fe proximity2be uniqueness wellknownness relevance
feature_infos=[0:1] [0:1] [0:1.0000000000000002] [0:1] [0:1] [0:1] [0.0027486612060900195:1.0000000000000002] [0:0.99999999999999989] [0:0.93183904056685019] [0:1] [0:0.97986577180532408] [0:1]
tree_sizes=2809 2407

Tree=0
num_leaves=26
num_cat=0
split_feature=1 11 0 3 1 11 1 8 9 11 0 11 11 11 1 11 1 11 0 2 11 0 0 1 0
split_gain=8.90208 6.97041 7.15578 2.81503 1.26349 2.41899 1.46041 1.16138 0.745987 0.719091 0.331888 0.662936 0.303347 0.268039 0.658561 0.497067 0.258033 0.198678 0.162152 0.133833 0.0920316 0.037062 0.0179571 0.00201011 0.00138726
threshold=0.13186544335975872 0.98202865771588765 0.57358709964519461 0.019986404276603895 0.58355200773909133 0.77915819106608775 0.51298240439606357 0.011559667241718212 0.22000000000000003 0.42474782993232335 0.39502600680593031 0.67688773599872754 0.91589751341782366 0.45133336091856951 0.8249191861292241 0.64772487228375752 0.6478058824532259 0.45133336091856951 0.92798781083676607 0.41900561347233373 0.53168496441549251 0.98423748947671708 0.61341275555286834 0.44088151681405091 0.76735039005403693
decision_type=2 2 2 2 2 2 2 2 2 2 2 2 2 2 2 2 2 2 2 2 2 2 2 2 2
left_child=10 2 4 12 5 6 17 20 13 -6 11 -1 23 14 16 22 -9 -2 -14 -3 -5 -17 -15 -4 -10
right_child=1 19 3 7 9 -7 -8 8 24 -11 -12 -13 18 15 -16 21 -18 -19 -20 -21 -22 -23 -24 -25 -26
leaf_value=-0.19493799366990006 0.025875130223358193 0.22599999999999995 0.073484700888133067 -0.00099277873054505971 0.10679043561243048 0.19521596283857076 -0.10838042903043689 -0.13135556736676932 -0.12704388283830914 0.22599999999999981 -0.22599999999999976 -0.086459245948811131 0.054770985887233836 -0.075333333333333266 0.04871044780621181 -0.033225150096537835 -0.042311832622394345 0.10629235013824956 -0.012337610031906959 0.17464040043929596 0.04732221631661529 0 -0.092675913736573787 0.080146651080191922 -0.12167329700223779
leaf_weight=1.5752139687538178 0.73348164558411288 1.1533695459365836 1.1238545700907734 0.98110456392168921 1.257310401648283 1.233037304133177 0.95158958807587612 0.51698029041290183 1.2616202235221854 1.3291976377367973 0.84173232316970814 1.3239557594060898 0.79318612813949552 0.97425609827041615 0.9801725074648856 0.90143680572509743 2.1180739440023899 0.84333891049027443 1.0936650633811951 1.4781215786933899 1.0339605808258057 0.81745922565460205 3.5053694769740105 1.1914319843053818 1.1966738626360893
leaf_count=15 7 12 12 10 13 13 10 5 13 13 8 13 8 9 10 9 21 9 11 15 10 8 34 12 12
internal_value=0 0.0222715 0.00374308 -0.0317965 0.107257 0.065452 0.00216963 -0.055709 -0.068764 0.168052 -0.163535 -0.145399 0.0495047 -0.0548201 -0.0303669 -0.0690822 -0.0597816 0.0688851 0.0158732 0.197151 0.0237984 -0.0174242 -0.0889041 0.0769129 -0.12443
internal_weight=0 27.4687 24.8372 18.4892 6.34796 3.76145 2.52841 14.2871 12.272 2.58651 3.7409 2.89917 4.20214 9.81375 3.61523 6.19852 2.63505 1.57682 1.88685 2.63149 2.01507 1.7189 4.47963 2.31529 2.45829
internal_count=312 276 249 184 65 39 26 141 121 26 36 28 43 96 36 60 26 16 19 27 20 17 43 24 25
shrinkage=0.113


Tree=1
num_leaves=22
num_cat=0
split_feature=1 11 5 7 1 11 11 7 11 0 11 1 0 11 11 0 5 0 0 1 0
split_gain=20.017 16.7426 16.7398 4.69122 2.96679 2.5286 3.43983 2.15401 1.72365 3.41148 1.55687 2.24219 1.10296 0.841719 5.97724 4.10831 0.229562 0.0848855 0.0504696 0.00693914 0.00119325
threshold=0.13186544335975872 0.98202865771588765 0.66306536504090297 0.025384520271380974 0.21767777825371215 0.91589751341782366 0.42474782993232335 0.023439176392828925 0.67688773599872754 0.39502600680593031 0.45133336091856951 0.8249191861292241 0.76735039005403693 0.91589751341782366 0.77915819106608775 0.51348607409480673 0.068691133825377962 0.59033361992249433 0.82861429136100517 0.41542385403513515 0.61341275555286834
decision_type=2 2 2 2 2 2 2 2 2 2 2 2 2 2 2 2 2 2 2 2 2
left_child=8 2 3 4 -2 6 17 13 -1 -10 11 18 -3 14 15 -6 -12 -4 -9 -15 -18
right_child=1 12 5 -5 7 -7 -8 10 9 -11 16 -13 -14 19 -16 -17 20 -19 -20 -21 -22
leaf_value=-0.1744236397208897 -0.08657014597199858 0.12685671305028007 0.075818356907544709 -0.11290477905425328 -0.084953547551820774 0.016595793194912639 0.20467298949336851 -0.02817149180383267 -0.051448636077909178 -0.20364456045809795 -0.03120719350812964 0.050313997513322301 0.20569607792477643 -0.021454451488083878 0.13745776379096247 0.016378350133367213 -0.062387173553357857 0.095498260737685997 -0.044982189784442246 -0.015809343818480391 -0.060066391033147391
leaf_weight=5.5410125404596302 5.9633218199014655 5.2768960595130903 5.2615489959716815 5.9396635740995398 5.9548118710517874 3.8096443712711325 4.3454796373844138 4.0804622471332568 6.6151125431060791 2.6275704503059387 4.598298221826556 6.1867429018020621 3.970928281545639 6.3272672295570356 4.6165645867586127 35.96424663066864 4.9865072667598707 5.9786967933177948 5.1694255173206329 4.9601889848709106 6.537995845079422
leaf_count=15 13 15 13 12 10 8 13 10 13 8 10 10 12 11 13 71 9 12 11 9 14
internal_value=0 0.0141763 0.00294743 -0.0154692 -0.00939935 0.0991218 0.119294 -0.00425075 -0.124591 -0.0947159 -0.0279952 -0.0023454 0.16071 0.0087088 0.0154234 0.00198365 -0.0525534 0.0862861 -0.0375664 -0.0189738 -0.0610706
internal_weight=0 129.929 120.681 101.285 95.3458 19.3954 15.5857 89.3825 14.7837 9.24268 31.5594 15.4366 9.24782 57.8231 46.5356 41.9191 16.1228 11.2402 9.24989 11.2875 11.5245
internal_count=312 276 249 203 191 46 38 178 36 21 64 31 27 114 94 81 33 25 21 20 23
shrinkage=0.113


end of trees

feature_importances:
relevance=16
color=12
intensity=10
visibility=2
proximity2fe=2
shape_size=1
integration=1
proximity2be=1
uniqueness=1

parameters:
[boosting: gbdt]
[objective: lambdarank]
[metric: ndcg]
[tree_learner: serial]
[device_type: cpu]
[data: ]
[valid: ]
[num_iterations: 28]
[learning_rate: 0.113]
[num_leaves: 28]
[num_threads: -1]
[force_col_wise: 0]
[force_row_wise: 0]
[histogram_pool_size: -1]
[max_depth: 9]
[min_data_in_leaf: 5]
[min_sum_hessian_in_leaf: 0.001]
[bagging_fraction: 1]
[pos_bagging_fraction: 1]
[neg_bagging_fraction: 1]
[bagging_freq: 0]
[bagging_seed: 3]
[feature_fraction: 1]
[feature_fraction_bynode: 1]
[feature_fraction_seed: 2]
[extra_trees: 0]
[extra_seed: 6]
[early_stopping_round: 100]
[first_metric_only: 0]
[max_delta_step: 0]
[lambda_l1: 0]
[lambda_l2: 0]
[min_gain_to_split: 0]
[drop_rate: 0.1]
[max_drop: 50]
[skip_drop: 0.5]
[xgboost_dart_mode: 0]
[uniform_drop: 0]
[drop_seed: 4]
[top_rate: 0.2]
[other_rate: 0.1]
[min_data_per_group: 100]
[max_cat_threshold: 32]
[cat_l2: 10]
[cat_smooth: 10]
[max_cat_to_onehot: 4]
[top_k: 20]
[monotone_constraints: ]
[monotone_constraints_method: basic]
[monotone_penalty: 0]
[feature_contri: ]
[forcedsplits_filename: ]
[refit_decay_rate: 0.9]
[cegb_tradeoff: 1]
[cegb_penalty_split: 0]
[cegb_penalty_feature_lazy: ]
[cegb_penalty_feature_coupled: ]
[path_smooth: 0]
[interaction_constraints: ]
[verbosity: -1]
[saved_feature_importance_type: 0]
[max_bin: 255]
[max_bin_by_feature: ]
[min_data_in_bin: 3]
[bin_construct_sample_cnt: 200000]
[data_random_seed: 1]
[is_enable_sparse: 1]
[enable_bundle: 1]
[use_missing: 1]
[zero_as_missing: 0]
[feature_pre_filter: 1]
[pre_partition: 0]
[two_round: 0]
[header: 0]
[label_column: ]
[weight_column: ]
[group_column: ]
[ignore_column: ]
[categorical_feature: ]
[forcedbins_filename: ]
[objective_seed: 5]
[num_class: 1]
[is_unbalance: 0]
[scale_pos_weight: 1]
[sigmoid: 1]
[boost_from_average: 1]
[reg_sqrt: 0]
[alpha: 0.9]
[fair_c: 1]
[poisson_max_delta_step: 0.7]
[tweedie_variance_power: 1.5]
[lambdarank_truncation_level: 20]
[lambdarank_norm: 1]
[label_gain: ]
[eval_at: 1,2]
[multi_error_top_k: 1]
[auc_mu_weights: ]
[num_machines: 1]
[local_listen_port: 12400]
[time_out: 120]
[machine_list_filename: ]
[machines: ]
[gpu_platform_id: -1]
[gpu_device_id: -1]
[gpu_use_dp: 0]

end of parameters

pandas_categorical:null
