tree
version=v3
num_class=1
num_tree_per_iteration=1
label_index=0
max_feature_idx=11
objective=lambdarank
feature_names=color intensity shape_size integration choice visibility proximity2dp proximity2fe proximity2be uniqueness wellknownness relevance
feature_infos=[0:1] [0:1] [0:1.0000000000000002] [0:1] [0:1] [0:1] [0:1.0000000000000002] [0:0.99999999999999989] [0:0.93183904056685019] [0:1] [0:0.97986577180532408] [0:1]
tree_sizes=2913 2604 2941 2527 3035 2940 3058 3056 2957 2958 3069 3068

Tree=0
num_leaves=27
num_cat=0
split_feature=1 11 5 0 11 3 2 0 11 11 11 11 11 0 0 0 11 11 5 11 2 0 0 0 11 1
split_gain=8.54742 6.50431 6.20794 2.62886 2.31436 2.00519 1.18679 0.787443 0.647138 0.775344 0.583887 0.919702 0.461621 0.363025 0.306705 0.297824 0.662936 0.247774 0.227376 0.198678 0.126475 0.111128 0.0996964 0.0596903 0.0279394 0.00687425
threshold=0.13186544335975872 0.98202865771588765 0.66306536504090297 0.57358709964519461 0.77915819106608775 0.050213589858228304 0.0060144346431435522 0.70657666276404862 0.45133336091856951 0.64772487228375752 0.91589751341782366 0.42474782993232335 0.91589751341782366 0.61341275555286834 0.60700420711197478 0.39502600680593031 0.67688773599872754 0.91589751341782366 0.20945946249560674 0.45133336091856951 0.41900561347233373 0.61341275555286834 0.86910145947767325 0.29739252513674613 0.53168496441549251 0.58355200773909133
decision_type=2 2 2 2 2 2 2 2 2 2 2 2 2 2 2 2 2 2 2 2 2 2 2 2 2 2
left_child=15 2 3 4 6 7 19 17 13 14 11 25 22 -7 -10 16 18 -5 -1 -2 -3 -16 24 -8 -9 -4
right_child=1 20 10 5 -6 8 23 12 9 -11 -12 -13 -14 -15 21 -17 -18 -19 -20 -21 -22 -23 -24 -25 -26 -27
leaf_value=-0.135599999999999 0.025875130223358064 0.22599999999999995 0.11074225147912602 -0.13135556736676934 0.19225327391349575 -0.074234373715025601 -0.045199999999999935 0.020069526027562123 -0.056499999999999946 0 0.034495711030214156 0.22599999999999976 -0.038519699670527915 0.026699628147662219 -0.16017917730601999 -0.22599999999999973 -0.086459245948811131 -0.033225150096537828 -0.22599999999999976 0.10629235013824956 0.17464040043929596 -0.11953850728738565 0.076709097296598444 -0.093282823433914586 0.04732221631661529 0.098258388648071071
leaf_weight=0.54125338792801203 0.73348164558411644 1.0451188683509818 1.0831813067197791 0.51698029041290172 1.1247866265475748 0.95158958807587424 0.54125338792800881 0.89712698385119427 0.86600542068481434 0.81745922565460194 0.70920854806900013 1.2209469601511957 0.98541438579559315 0.87192182987928391 1.1533695459365843 0.73348164558410633 1.3239557594060898 0.90143680572509766 1.0339605808258057 0.84333891049027443 1.4781215786933899 3.3676038235425949 1.1481276676058769 0.84333891049027443 1.0339605808258057 1.1733328215777874
leaf_count=5 7 11 11 5 12 10 5 9 8 8 7 12 10 9 12 7 13 9 10 9 15 33 12 9 10 12
internal_value=0 0.0241618 0.00426772 -0.025156 0.054263 -0.0491751 0.0018524 0.0034998 -0.0851518 -0.102545 0.12794 0.146997 0.0287968 -0.0259722 -0.118106 -0.161674 -0.145399 -0.0689914 -0.194938 0.0688851 0.195913 -0.129907 0.0503395 -0.0744867 0.0346614 0.104251
internal_weight=0 24.3071 21.7839 17.5972 4.0862 13.511 2.96141 5.48305 8.02795 6.20444 4.18667 3.47746 4.06463 1.82351 5.38698 3.63265 2.89917 1.41842 1.57521 1.57682 2.52324 4.52097 3.07922 1.38459 1.93109 2.25651
internal_count=280 245 219 177 42 135 30 55 80 61 42 35 41 19 53 35 28 14 15 16 26 45 31 14 19 23
shrinkage=0.113


Tree=1
num_leaves=24
num_cat=0
split_feature=11 1 4 11 11 7 11 0 2 0 9 11 0 2 11 5 5 7 0 1 0 11 0
split_gain=19.3131 20.0868 10.6945 3.8495 3.57219 2.46956 1.75379 3.46548 1.49757 1.3022 1.21171 5.69788 1.6374 1.03236 0.766222 2.11666 1.39309 0.905883 0.602638 0.416179 0.104841 0.0614367 1.79251e-05
threshold=0.98202865771588765 0.20976926485769415 0.64857682576071585 0.38709523039848187 0.42474782993232335 0.024554669465599758 0.67688773599872754 0.39502600680593031 0.99959903769045744 0.20029640213204666 0.66666666666666674 0.77915819106608775 0.70657666276404862 0.41900561347233373 0.45133336091856951 0.10452880480595676 0.10452880480595676 0.018506823200599039 0.70657666276404862 0.6478058824532259 0.60700420711197478 0.45133336091856951 0.86910145947767325
decision_type=2 2 2 2 2 2 2 2 2 2 2 2 2 2 2 2 2 2 2 2 2 2 2
left_child=1 6 3 8 -4 10 9 -8 18 -1 14 12 -12 -2 15 -5 -16 -18 -3 -7 -11 -21 -20
right_child=13 2 4 5 -6 19 7 -9 -10 20 11 -13 -14 -15 16 -17 17 -19 22 21 -22 -23 -24
leaf_value=-0.20474812561466654 0.20607850505333636 0.093025791654493664 0.061885095735262609 0.062600307082503179 0.20517913318188466 -0.084536590848112034 -0.042464011467540107 -0.20302801381627067 -0.043178664798450443 -0.10095482336378618 -0.064116045293494808 0.13429388614104126 0.024482267434388805 0.12804180078509159 -0.072459952945072625 -0.04460960921574518 -0.018762414972797636 0.043605710230945061 0.043334015968404437 -0.0504165253416844 -0.12958388837188403 -0.031422640951411354 0.0436516332767053
leaf_weight=3.3660041987895966 3.6418485343456251 4.7709891200065604 4.9150941073894483 5.2694012820720655 4.0534670948982239 4.6574458628892872 7.3469049334526062 2.2396601736545563 2.0412547141313544 2.5119337439537048 5.3842805027961713 4.2629162222146979 5.2711336016654968 5.3367984145879745 5.6996214091777793 4.2464102506637573 24.171075001358989 3.3909276723861685 4.1163452565669996 5.6053819060325623 4.669659286737442 3.5526750683784485 5.0552474707365036
leaf_count=10 11 11 12 9 12 11 13 7 5 5 9 12 10 15 13 7 48 9 9 10 12 8 12
internal_value=0 -0.0122973 0.00913028 -0.00291579 0.126649 -0.0141216 -0.114958 -0.0799758 0.0472186 -0.146753 -0.00384584 0.0238843 -0.0202873 0.159694 -0.0135165 0.0147581 -0.0216056 -0.0110893 0.0604531 -0.0570347 -0.11957 -0.0430482 0.0435091
internal_weight=0 116.598 96.4637 87.4951 8.96856 71.5113 20.1342 9.58657 15.9838 10.5476 57.6958 14.9183 10.6554 8.97865 42.7774 9.51581 33.2616 27.562 13.9426 13.8155 7.18159 9.15806 9.17159
internal_count=280 254 207 183 24 146 47 20 37 27 117 31 19 26 86 16 70 57 32 29 17 18 21
shrinkage=0.113


Tree=2
num_leaves=27
num_cat=0
split_feature=11 1 11 11 7 5 11 0 7 2 11 11 7 0 0 6 1 10 11 0 0 3 0 0 0 0
split_gain=11.2386 12.6419 5.91768 4.46615 3.84151 1.69534 0.795184 0.744486 0.588044 0.575349 0.572947 3.79466 1.90264 0.448612 0.358735 0.227133 0.13847 0.125367 0.277198 0.118413 0.0971477 0.0443797 0.0244504 0.00729302 0.000419719 0.000199416
threshold=0.98202865771588765 0.20976926485769415 0.45133336091856951 0.42474782993232335 0.023478796550872542 0.41106719035376682 0.67688773599872754 0.20029640213204666 0.024554669465599758 0.0060144346431435522 0.77915819106608775 0.91589751341782366 0.021742116557478177 0.76735039005403693 0.61341275555286834 0.2100774150633565 0.76802290272045926 0.17718120777757762 0.64772487228375752 0.60700420711197478 0.86910145947767325 0.046884078193710606 0.63252044125064555 0.70657666276404862 0.61341275555286834 0.63252044125064555
decision_type=2 2 2 2 2 2 2 2 2 2 2 2 2 2 2 2 2 2 2 2 2 2 2 2 2 2
left_child=1 6 3 5 9 8 7 -1 22 -4 12 -12 17 -2 -6 -7 -16 18 -11 -9 25 -17 24 -23 -3 -13
right_child=13 2 4 -5 14 15 -8 19 -10 10 11 20 -14 -15 16 21 -18 -19 -20 -21 -22 23 -24 -25 -26 -27
leaf_value=-0.19010378957681531 0.12680546172383997 0.026992087397913152 0.054282321820110724 0.19064577674257646 -0.039050749944444241 0.087021766789641519 -0.080852228755238675 -0.086951932893458428 -0.027023143485197972 -0.0020275419981279188 0.13090503966804842 -0.023259182438664212 -0.078041414340989546 0.19111074057067989 -0.10254603057668452 0.063026915712562859 -0.073201519536458454 -0.018745462129262917 0.035499730517191581 -0.12324450320984061 -0.0021832057945360655 0.051310010620618733 0.011553091515933247 0.043694013048222076 0.025196949561644796 -0.024520421215287611
leaf_weight=2.1172463446855527 3.6962663233280173 2.8291822373867088 2.4269043654203406 2.5507841929793349 2.5534534454345694 3.4617066234350196 7.2997220680117607 1.8016789853572843 4.6167243868112555 7.6904356032609957 2.8450512960553143 2.6355684995651245 4.6802458614110938 2.2156339511275291 4.0157087147235853 3.9745485186576825 4.2018383517861366 2.2873531728982917 3.7335181385278702 3.1636956408619881 4.244283065199852 3.5440248847007751 1.9342566728591917 2.9351910054683685 4.0351039916276932 4.0768847316503525
leaf_count=10 15 7 9 12 8 11 20 5 10 19 12 7 9 11 11 12 13 5 8 12 10 12 5 9 9 9
internal_value=0 -0.00995078 0.00859706 0.047647 -0.0171099 0.0343009 -0.107024 -0.133999 0.00563731 0.00122619 -0.00277346 0.0146283 -0.0158325 0.150905 -0.0760459 0.0619341 -0.0875414 0.00540202 0.0102369 -0.110076 -0.0155643 0.0536264 0.0227747 0.0478598 0.0259368 -0.0240252
internal_weight=0 89.6551 75.2728 29.8815 45.3912 27.3307 14.3823 7.08262 13.4153 34.6202 32.1933 13.8018 18.3916 5.9119 10.771 13.9155 8.21755 13.7113 11.424 4.96537 10.9567 10.4538 8.79854 6.47922 6.86429 6.71245
internal_count=280 254 207 87 120 75 47 27 31 88 79 38 41 26 32 44 24 32 27 17 26 33 21 21 16 16
shrinkage=0.113


Tree=3
num_leaves=23
num_cat=0
split_feature=11 1 6 7 11 11 3 7 0 11 2 11 0 0 1 2 1 0 2 3 11 11
split_gain=7.3208 6.98055 3.95515 2.33985 1.41791 1.07134 0.953122 0.899773 0.617945 1.59337 0.517753 0.588315 0.669631 0.479884 0.376494 0.323875 0.208315 0.0953262 0.0501985 0.0287039 0.0109127 0.00109807
threshold=0.98202865771588765 0.20976926485769415 0.53032803014355856 0.024554669465599758 0.45133336091856951 0.67688773599872754 0.019986404276603895 0.023478796550872542 0.70657666276404862 0.42474782993232335 0.0060144346431435522 0.64772487228375752 0.98423748947671708 0.20029640213204666 0.76802290272045926 0.41900561347233373 0.6478058824532259 0.86910145947767325 0.70769847634322391 0.043137279689637077 0.45133336091856951 0.53168496441549251
decision_type=2 2 2 2 2 2 2 2 2 2 2 2 2 2 2 2 2 2 2 2 2 2
left_child=1 5 3 4 6 13 17 10 9 -4 -6 -12 -13 -1 19 -2 -5 -3 -15 -8 -18 -10
right_child=15 2 8 16 7 -7 14 -9 21 -11 11 12 -14 18 -16 -17 20 -19 -20 -21 -22 -23
leaf_value=-0.17972730223910222 0.18097701514453515 0.083706899639443832 0.046743936634380825 -0.084900288179844019 0.054239597415610026 -0.056697830375625848 -0.027960642439282327 -0.065417173240197107 0.046344798696459848 0.18036784335089265 -0.056425660454468521 -0.009761576232883977 0.047448096029328368 -0.1154034974913299 0.036032539295181513 0.11757133687042749 -0.051751091223937208 0.054976522114086962 -0.089069976445079593 -0.0082983150299887308 -0.041257069999362017 0.043190014181063809
leaf_weight=1.5416749380528907 1.6112115569412697 2.7593165114521963 2.9054753407835943 3.0173704326152784 1.8771305307745993 5.8484999537467957 1.5195954144001005 3.3292066529393187 2.3397132009267807 1.8747063204646108 2.7563334852457073 16.414054453372959 3.106995925307273 2.4017041772603989 3.2358274757862091 2.8451528772711754 3.4116178452968597 3.1673432663083076 1.5026595592498782 2.5205864459276199 2.0113002210855484 3.5407567769289017
leaf_count=10 11 11 12 11 9 20 5 13 9 12 9 52 8 12 9 15 10 12 5 7 8 10
internal_value=0 -0.00880816 0.00658308 -0.00695598 0.00427628 -0.0902813 0.0347121 -0.0103445 0.0689741 0.099149 -0.0027539 -0.00755627 -0.00065601 -0.126347 0.00731027 0.140496 -0.0611011 0.0683527 -0.105269 -0.0156937 -0.047859 0.0444452
internal_weight=0 71.0819 59.7873 49.1267 40.6864 11.2945 13.2027 27.4837 10.6607 4.78018 24.1545 22.2774 19.5211 5.44604 7.27601 4.45636 8.44029 5.92666 3.90436 4.04018 5.42292 5.88047
internal_count=280 254 207 164 135 47 44 91 43 24 78 69 60 27 21 26 29 23 17 12 18 19
shrinkage=0.113


Tree=4
num_leaves=28
num_cat=0
split_feature=11 1 5 11 11 0 8 11 0 11 3 0 11 0 0 6 2 5 0 0 0 11 0 0 0 0 0
split_gain=5.00241 4.63479 2.54632 1.90309 1.70328 3.49265 1.61343 1.47259 1.11681 1.55876 0.422648 0.414374 0.389147 0.747649 0.303039 0.222729 0.199529 0.172253 0.160395 0.150795 0.0418269 0.114796 0.0361161 0.0122217 0.00563503 0.00503667 0.00215125
threshold=0.98202865771588765 0.20976926485769415 0.41106719035376682 0.53168496441549251 0.77915819106608775 0.63252044125064555 0.069721214827143205 0.42474782993232335 0.39502600680593031 0.67688773599872754 0.063181196419249006 0.20029640213204666 0.45133336091856951 0.61341275555286834 0.60700420711197478 0.2100774150633565 0.41900561347233373 0.10452880480595676 0.57358709964519461 0.70657666276404862 0.86910145947767325 0.64772487228375752 0.86910145947767325 0.98423748947671708 0.76735039005403693 0.70657666276404862 0.63252044125064555
decision_type=2 2 2 2 2 2 2 2 2 2 2 2 2 2 2 2 2 2 2 2 2 2 2 2 2 2 2
left_child=1 8 4 7 6 -6 10 15 9 11 18 -1 17 -14 -10 -4 -2 -8 -3 -5 -21 -22 25 -23 -12 -17 -19
right_child=16 2 3 19 5 -7 12 -9 14 -11 24 -13 13 -15 -16 22 -18 26 -20 20 21 23 -24 -25 -26 -27 -28
leaf_value=-0.17184868129993852 0.16949167354673897 -0.0053799408113114726 0.081462601773160018 -0.026810433097578072 0.1524618424753271 -0.040018341875597621 0.040614065002168104 0.17260919742717967 -0.18292455816213396 -0.011016982117858554 -0.08137712816675495 -0.079312365914470342 0.037677030319330472 -0.058879339401508503 -0.10888006570900395 0.03219872772016167 0.11231180475611613 0.00094285947246922606 -0.047155304224835666 0.019547821725289981 -0.015978824000411843 0.008342638459588915 0.051918804863912288 0.019150332404233663 -0.074392504848806371 0.039677962478442047 0.0066337264318667415
leaf_weight=1.2016080506145936 1.1718026474118226 1.5467843711376241 2.3436864614486694 1.8296932280063618 2.1258302256464949 2.7752597630023956 2.8703149408102018 1.4668789245188243 1.1095580421388149 4.1654028370976448 3.6671103835105896 1.2720349878072739 1.6145921945571897 2.7993422336876392 1.9394526034593582 2.6336823105812073 2.3261400833725929 2.0656759142875671 4.8638146221637726 3.0219023972749692 2.5222727954387665 2.9572633281350136 2.6795436218380928 2.4371022880077362 2.467240959405899 2.0404307246208191 1.4390938878059389
leaf_count=10 11 5 11 7 12 9 9 12 7 13 9 5 9 13 12 12 15 7 18 10 9 10 12 8 11 9 5
internal_value=0 -0.00743448 0.00589529 0.0330119 -0.0170892 0.0434692 -0.0298089 0.0670893 -0.0792116 -0.0532114 -0.0573649 -0.124263 0.0022318 -0.0235596 -0.135825 0.0511277 0.131467 0.020089 -0.0370755 0.00321552 0.00823797 0.00392082 0.0414597 0.0132254 -0.0785679 0.0354637 0.00327959
internal_weight=0 61.8556 52.1675 23.9325 28.2351 4.90109 23.334 11.1642 9.68806 6.63905 12.545 2.47364 10.789 4.41393 3.04901 9.69734 3.49794 6.37508 6.4106 12.7682 10.9385 7.91664 7.35366 5.39437 6.13435 4.67411 3.50477
internal_count=280 254 207 100 107 21 86 56 47 28 43 15 43 22 19 44 26 21 23 44 37 27 33 18 20 21 12
shrinkage=0.113


Tree=5
num_leaves=27
num_cat=0
split_feature=11 1 11 11 7 5 1 11 2 11 1 7 1 2 6 11 11 1 0 0 0 1 5 0 0 0
split_gain=3.80856 4.34172 2.05077 1.6821 1.41797 0.846207 0.600665 0.752955 0.486443 1.98381 1.11715 0.3345 0.305038 0.163675 0.134389 0.0852325 0.149552 0.0810198 0.0796646 0.0672239 0.0348046 0.016665 0.00299519 0.0016992 0.000886697 0.000218241
threshold=0.98202865771588765 0.20976926485769415 0.45133336091856951 0.42474782993232335 0.023478796550872542 0.41106719035376682 1.0000000180025095e-35 0.67688773599872754 0.12028869286287094 0.77915819106608775 0.51298240439606357 0.020714679282958556 0.76802290272045926 0.41900561347233373 0.2100774150633565 0.64772487228375752 0.67688773599872754 0.6478058824532259 0.60700420711197478 0.57358709964519461 0.70657666276404862 0.30847625175305093 0.13317275513406593 0.86910145947767325 0.86910145947767325 0.63252044125064555
decision_type=2 2 2 2 2 2 2 2 2 2 2 2 2 2 2 2 2 2 2 2 2 2 2 2 2 2
left_child=1 6 3 5 8 12 -1 11 9 10 21 18 19 -2 -7 -10 -17 -6 -8 -3 -16 -4 -19 -22 25 -18
right_child=13 2 4 -5 17 14 7 -9 15 -11 -12 -13 -14 -15 20 16 24 22 -20 -21 23 -23 -24 -25 -26 -27
leaf_value=-0.17349216372150625 0.16424208026481568 0.0057546861059461982 0.028150416046725676 0.16660127377082501 -0.078741889431809597 0.077810574591553522 -0.064144320853822739 -0.036724013440732277 -0.034255034281966169 0.13436234286095375 -0.05987369452253842 -0.16571952158510425 0.03485586262096433 0.10714622296522576 0.033395020133871973 0.017573756077109617 -0.01638041434149318 -0.0538201558972645 -0.10383255597165651 -0.020096198180043146 0.048023774554352472 0.043577193979658514 -0.047368464230288704 0.052652670156014388 -0.018374498092250151 -0.014881170870881092
leaf_weight=0.82488882169127276 0.95404423214495104 1.8722602725029043 2.6766007319092804 1.1819507256150235 2.1395003311336032 2.0257671773433668 1.0700653418898587 3.810815341770649 2.1005357280373564 1.6200550533831117 2.7790464125573635 0.96140566281974305 2.5283436924219131 1.9545072428882122 2.325806736946106 2.0939667895436269 2.9126151949167252 2.4597713388502598 1.6288150064647198 4.091535858809948 1.7696126550436018 1.3427041098475454 1.4667020589113238 2.3671780452132225 2.4109674617648125 2.1586415693163872
leaf_count=7 11 7 10 12 11 11 5 13 9 12 9 10 9 15 12 8 12 13 12 15 9 9 8 12 10 9
internal_value=0 -0.00695772 0.00708504 0.0362567 -0.0131675 0.0271839 -0.081985 -0.0718816 0.00128653 0.0219924 -0.00478544 -0.108485 0.00196388 0.125874 0.0524151 -0.0136415 -0.00911995 -0.0610502 -0.0880968 -0.0119806 0.0444546 0.0333039 -0.0514102 0.0506725 -0.0165904 -0.0157422
internal_weight=0 52.6196 44.3236 18.1625 26.1611 16.9805 8.29599 7.4711 20.0951 8.41841 6.79835 3.66029 8.49214 2.90855 8.48836 11.6767 9.57619 6.06597 2.69888 5.9638 6.4626 4.0193 3.92647 4.13679 7.48222 5.07126
internal_count=280 254 207 87 120 75 47 40 88 40 28 27 31 26 44 48 39 32 17 22 33 19 21 21 31 21
shrinkage=0.113


Tree=6
num_leaves=28
num_cat=0
split_feature=11 1 11 11 7 5 1 11 1 10 11 0 2 7 2 0 11 0 0 1 0 0 1 0 0 0 5
split_gain=2.98439 3.26433 1.58945 1.33479 1.11064 0.729759 0.43728 0.592918 0.336026 0.302598 0.440156 1.50508 0.3343 0.273006 0.139883 0.130959 0.097246 0.0710253 0.0642645 0.0593238 0.0491807 0.0285799 0.019806 0.0110264 0.00142477 0.000905386 0.000125035
threshold=0.98202865771588765 0.20976926485769415 0.45133336091856951 0.42474782993232335 0.023478796550872542 0.41106719035376682 1.0000000180025095e-35 0.67688773599872754 0.76802290272045926 0.061912751363057981 0.77915819106608775 0.59033361992249433 0.12028869286287094 0.020714679282958556 0.41900561347233373 0.59033361992249433 0.64772487228375752 0.57358709964519461 0.60700420711197478 0.6478058824532259 0.70657666276404862 0.98423748947671708 0.30847625175305093 0.86910145947767325 0.86910145947767325 0.63252044125064555 0.13317275513406593
decision_type=2 2 2 2 2 2 2 2 2 2 2 2 2 2 2 2 2 2 2 2 2 2 2 2 2 2 2
left_child=1 6 3 5 9 8 -1 13 17 22 12 -12 -11 18 -2 -7 -14 -3 -8 -6 -17 -18 -4 25 -22 -13 -21
right_child=14 2 4 -5 19 15 7 -9 -10 10 11 23 16 -15 -16 20 21 -19 -20 26 24 -23 -24 -25 -26 -27 -28
leaf_value=-0.16595792734960649 0.16014936120361301 0.0037645696179455118 0.024547686200124645 0.16179285657301287 -0.074059679413821328 0.026270268736252714 -0.061476571165669992 -0.034834030517906317 0.036445654889115157 -0.060485985576180894 0.12226021717739434 -0.01363124069429137 -0.029541751103068992 -0.16084373475399899 0.10254794833056946 0.074722379021294083 -0.009899808579602697 -0.024422540467658169 -0.099472125052839047 -0.048565587498774175 0.05441447857025547 0.012077760776542972 0.042564728773643923 -0.0055525282695910701 0.049923991169484733 -0.017420164686529151 -0.049964855856521967
leaf_weight=0.64043782465159793 0.79304009117185992 1.6804063096642492 2.4226704984903398 0.97409391961991865 1.8599379882216442 2.1275878138840199 0.95859898999333437 3.328146580606699 2.2978519126772881 2.3790719136595708 1.3262151405215261 1.3558443635702133 1.8491743169724939 0.78802539594471444 1.6761649362742901 1.7825931087136266 1.2734425589442253 3.5592237636446953 1.3964517377316952 2.2038093917071819 1.5831354856491091 1.8577720299363136 1.1483926475048067 2.1820353604853153 2.0976843312382698 1.9832507222890854 1.2943554371595385
leaf_count=7 11 7 10 12 11 12 5 13 9 9 12 7 9 10 15 11 5 15 12 13 9 8 9 10 12 9 8
internal_value=0 -0.00644856 0.00631814 0.0335792 -0.0126555 0.0253237 -0.0768888 -0.0680739 0.000417572 0.000936651 -0.00645468 0.0141657 -0.0256401 -0.103271 0.121048 0.0500543 -0.00899467 -0.0153826 -0.0840064 -0.0577533 0.0593164 0.00313964 0.0303417 -0.0117994 0.0518554 -0.0158817 -0.0490833
internal_weight=0 46.3502 39.2385 16.1026 23.136 15.1285 7.11166 6.47122 7.53748 17.7779 14.2068 6.84735 7.35946 3.14308 2.46921 7.591 4.98039 5.23963 2.35505 5.3581 5.46341 3.13121 3.57106 5.52113 3.68082 3.3391 3.49816
internal_count=280 254 207 87 120 75 47 40 31 88 69 38 31 27 26 44 22 22 17 32 32 13 19 26 21 16 21
shrinkage=0.113


Tree=7
num_leaves=28
num_cat=0
split_feature=11 1 11 11 7 0 2 0 11 0 10 11 0 2 2 0 8 7 11 1 0 1 0 5 0 0 0
split_gain=2.39164 2.62253 1.27898 1.07882 0.909209 0.610359 0.410567 0.319887 0.32504 0.288979 0.248631 0.334668 1.09228 0.274579 0.120981 0.117398 0.109815 0.108218 0.0779337 0.0466511 0.0180314 0.015039 0.0148924 0.00716249 0.00618123 0.00601259 0.00178259
threshold=0.98202865771588765 0.20976926485769415 0.45133336091856951 0.42474782993232335 0.023478796550872542 0.59033361992249433 0.99959903769045744 0.39502600680593031 0.67688773599872754 0.20029640213204666 0.061912751363057981 0.77915819106608775 0.59033361992249433 0.12028869286287094 0.41900561347233373 0.60700420711197478 0.089282979395787207 0.015956381001454256 0.64772487228375752 0.6478058824532259 0.98423748947671708 0.30847625175305093 0.86910145947767325 0.13317275513406593 0.51348607409480673 0.86910145947767325 0.70657666276404862
decision_type=2 2 2 2 2 2 2 2 2 2 2 2 2 2 2 2 2 2 2 2 2 2 2 2 2 2 2
left_child=1 7 3 5 10 16 17 8 9 -1 21 13 -13 -12 -2 -9 -3 26 -15 -6 -20 -4 -19 -21 -18 -14 -7
right_child=14 2 4 -5 19 6 -8 15 -10 -11 11 12 25 18 -16 -17 24 22 20 23 -22 -23 -24 -25 -26 -27 -28
leaf_value=-0.15677478436935791 0.15673427268952392 -0.022824558092311618 0.023815066612063698 0.15779299950153397 -0.070385704498908769 0.07197324795209184 -0.027931008263914182 -0.16005187932038459 -0.035986332853911375 -0.057421673641023706 -0.057664871087399212 0.11357410082073524 -0.012926704441816192 -0.02771662145853071 0.09865477350680564 -0.0956569451080512 0.012857037541267654 0.03463323030218305 -0.0076942571101794735 -0.042917371017963023 0.010503456102723466 0.040503824130011815 0.048455749671236434 -0.054039539216195143 0.0033678293704989507 -0.0049112799668301422 0.066548545275117568
leaf_weight=0.65525223966687807 0.66726614255458039 2.3028169646859133 2.2020878344774273 0.81523333117365915 1.6573192067444313 1.5910577476024628 0.89029141515493382 0.51449614949524369 2.9873973913490772 0.87034453079104424 2.0893709752708656 1.1231520902365444 3.0178561620414257 1.6511753536760805 1.4599885083734989 1.2156975921243429 2.0521481744945049 2.0995655506849289 1.1743875071406364 2.0121138598769903 1.7041942030191422 1.0037835314869883 1.8923327662050726 1.1688059605658057 1.5300916507840159 1.9783814363181589 1.5052865445613861
leaf_count=10 11 10 10 12 11 11 5 7 13 5 9 12 16 9 15 12 12 9 5 13 8 9 12 8 7 10 9
internal_value=0 -0.00596141 0.00592832 0.0314634 -0.0121072 0.0240347 0.044398 -0.0734953 -0.0576578 -0.100094 0.000912496 -0.0061664 0.0128826 -0.0237772 0.116873 -0.114806 -0.00357229 0.0534826 -0.00814638 -0.0550134 0.00307926 0.0290404 0.0411857 -0.0470041 0.00880389 -0.0097528 0.069336
internal_weight=0 41.7046 35.4615 14.6788 20.7826 13.8636 7.97853 6.24319 4.51299 1.5256 15.9444 12.7385 6.11939 6.61913 2.12725 1.73019 5.88506 7.08824 4.52976 4.83824 2.87858 3.20587 3.9919 3.18092 3.58224 4.99624 3.09634
internal_count=280 254 207 87 120 75 46 47 28 15 88 69 38 31 26 19 29 41 22 32 13 19 21 21 19 26 20
shrinkage=0.113


Tree=8
num_leaves=27
num_cat=0
split_feature=11 1 11 7 11 11 11 2 5 0 11 0 1 11 0 0 1 2 0 11 0 0 0 1 0 0
split_gain=1.94789 2.10167 1.83322 0.535504 0.491332 0.416483 0.365538 1.30703 0.284867 0.262088 0.250312 0.252272 0.199094 0.415086 0.830341 0.186621 0.130156 0.105713 0.093163 0.0677913 0.0677555 0.031462 0.0273472 0.0117417 0.00525431 0.00193012
threshold=0.98202865771588765 0.20976926485769415 0.32155356412623187 0.024554669465599758 0.45133336091856951 0.45133336091856951 0.38709523039848187 1.0000000180025095e-35 0.51330105392746328 0.39502600680593031 0.67688773599872754 0.20029640213204666 0.37684203539341138 0.77915819106608775 0.59033361992249433 0.98423748947671708 0.76802290272045926 0.41900561347233373 0.60700420711197478 0.64772487228375752 0.51348607409480673 0.86910145947767325 0.61341275555286834 0.30847625175305093 0.86910145947767325 0.76735039005403693
decision_type=2 2 2 2 2 2 2 2 2 2 2 2 2 2 2 2 2 2 2 2 2 2 2 2 2 2
left_child=1 9 -3 4 8 6 -5 -8 16 10 11 -1 20 15 -15 22 -4 -2 -11 -17 -6 -10 -14 -22 -16 -7
right_child=17 2 3 5 12 25 7 -9 21 18 -12 -13 13 14 24 19 -18 -19 -20 -21 23 -23 -24 -25 -26 -27
leaf_value=-0.15334348400397996 0.15382478784491341 0.11251546438690326 -0.0065869075455865182 -0.03995008813970681 -0.0057246491497226814 -0.060340794604479213 -0.024930410649197578 0.15439483993743816 0.06955643972415311 -0.15516075002456042 -0.035040988635411517 -0.054053508949187666 -0.055835647807659532 0.10716144138605943 -0.010882344557260131 -0.026014949338959113 0.033540156946809806 0.095261951738870948 -0.092484473764249411 0.007485453564215142 0.02256931246600101 0.046907956061620293 -0.036552749632544027 0.038144816459675483 -0.003079819307171053 -0.066603872788682281
leaf_weight=0.55177311599254497 0.56696803867816803 1.9198539406061161 2.2092683054506841 2.4992389641702166 1.0874335169792204 1.0816972479224205 2.0899354852736001 0.6904463181272148 1.4357291292399168 0.42210781108587947 2.712201327085495 0.80121554061770439 1.8817021027207357 0.9716404192149638 2.7807438857853413 1.4937397576868534 1.9372235611081121 1.2870637103915215 1.0716323088854551 1.594819400459528 2.0206610634922986 1.7231757994741201 1.8748275320976973 0.89033296331763256 1.8255463317036627 1.4989645052701235
leaf_count=10 11 9 12 12 5 8 10 12 11 7 13 5 9 12 16 9 9 15 12 8 10 12 13 9 10 11
internal_value=0 -0.00537097 0.00530455 -0.00121169 0.00725676 -0.0267743 -0.00858895 0.019601 0.0316365 -0.0697187 -0.0548455 -0.0945457 -0.00358905 -0.0106479 0.0122338 -0.0292937 0.0121603 0.113171 -0.110196 -0.00871656 0.0183425 0.0572017 -0.0462118 0.0273331 -0.00779008 -0.0639787
internal_weight=0 39.0659 33.507 31.5871 23.7268 7.86028 5.27962 2.78038 7.3054 5.55893 4.06519 1.35299 16.4214 12.423 5.57793 6.84509 4.14649 1.85403 1.49374 3.08856 3.99843 3.1589 3.75653 2.91099 4.60629 2.58066
internal_count=280 254 207 198 145 53 34 22 44 47 28 15 101 77 38 39 21 26 19 17 24 23 22 19 26 19
shrinkage=0.113


Tree=9
num_leaves=27
num_cat=0
split_feature=11 1 4 7 11 11 5 0 11 0 1 11 0 11 2 0 2 0 2 11 0 0 0 0 0 0
split_gain=1.62178 1.74785 1.05796 0.905537 0.475547 0.335083 0.227213 0.221067 0.186667 0.225442 0.163557 0.347183 0.668382 0.147446 0.126822 0.10547 0.0927287 0.0738399 0.0540968 0.0524033 0.0382582 0.0265215 0.0183677 0.00910936 0.00305643 0.000406007
threshold=0.98202865771588765 0.20976926485769415 0.64857682576071585 0.024554669465599758 0.45133336091856951 0.42474782993232335 0.51330105392746328 0.39502600680593031 0.67688773599872754 0.20029640213204666 0.37684203539341138 0.77915819106608775 0.59033361992249433 0.45133336091856951 0.99959903769045744 0.61341275555286834 0.41900561347233373 0.60700420711197478 0.12028869286287094 0.64772487228375752 0.61341275555286834 0.86910145947767325 0.63252044125064555 0.70657666276404862 0.76735039005403693 0.70657666276404862
decision_type=2 2 2 2 2 2 2 2 2 2 2 2 2 2 2 2 2 2 2 2 2 2 2 2 2 2
left_child=1 7 3 4 6 -4 14 8 9 -1 18 15 -13 -5 20 -12 -2 -9 23 -17 -3 -8 -14 -6 -15 -22
right_child=16 2 5 13 10 -7 21 17 -10 -11 11 12 22 24 -16 19 -18 -19 -20 -21 25 -23 -24 -25 -26 -27
leaf_value=-0.15040424173608136 0.15140771313070139 0.0073594831071928544 0.053198879505028919 -0.025073520722440623 0.035650732651360796 0.15145050008919786 0.067637321822590399 -0.15102899733328437 -0.035106315129661197 -0.050465506810381443 -0.051861271424472805 0.10276195078463964 -0.019374080453593328 -0.071625235021320177 -0.027656818719482848 -0.02743999549559123 0.092526799829506609 -0.090481426291399894 -0.005179487184983453 -0.0021595849770322854 0.03181848796673975 0.045908893049542564 -0.0023050754401005504 0.021229600463684047 -0.063501570331447932 0.029010199648067309
leaf_weight=0.46973421284928851 0.48650650633498904 1.297758717089901 1.7840713076293462 1.9269909150898445 0.79895036295056265 0.58974501071497787 1.3095626980066299 0.3519603465683756 2.5017055310308933 0.74587347358465195 1.7054711729288081 0.85595023818314064 1.0691043585538862 1.0371991135179996 0.73035840317606915 3.168078494258225 1.1460317242890596 0.95515969209372997 1.0079863816499712 1.56382155790925 1.7939332127571106 1.5860179886221886 3.2586803827434778 1.8646213039755821 1.3758510546758771 1.037572244182229
leaf_count=10 11 7 12 10 9 12 11 7 13 5 9 12 7 8 5 22 15 12 5 8 9 12 19 10 11 9
internal_value=0 -0.00516583 0.00524155 -0.00103076 0.00788552 0.0776083 0.0306787 -0.0668129 -0.0527576 -0.0890838 -0.00367333 -0.0102419 0.0115235 -0.0483808 0.0157485 -0.0277687 0.110074 -0.106785 0.0171174 -0.0190852 0.0234258 0.0557358 -0.00652168 0.0255553 -0.0669934 0.0307894
internal_weight=0 34.7862 29.7617 27.3879 23.0479 2.37382 7.7552 5.02443 3.71731 1.21561 15.2927 11.6211 5.18373 4.34004 4.85962 6.43737 1.63254 1.30712 3.67156 4.7319 4.12926 2.89558 4.32778 2.66357 2.41305 2.83151
internal_count=280 254 207 183 154 24 53 47 28 15 101 77 38 29 30 39 26 19 24 30 25 23 26 19 19 18
shrinkage=0.113


Tree=10
num_leaves=28
num_cat=0
split_feature=11 1 11 7 5 11 5 0 11 0 1 11 0 0 2 0 6 0 0 11 0 0 1 0 0 0 0
split_gain=1.35216 1.43621 0.810348 0.767092 0.671423 0.383728 0.208113 0.188083 0.14689 0.20312 0.108547 0.221951 0.53099 0.148643 0.0822723 0.0622578 0.0465207 0.0464884 0.0403302 0.0383591 0.0258061 0.0120079 0.00705218 0.00349944 0.00349092 0.00048917 0.000466081
threshold=0.98202865771588765 0.20976926485769415 0.45133336091856951 0.024554669465599758 0.41106719035376682 0.42474782993232335 0.13317275513406593 0.39502600680593031 0.67688773599872754 0.20029640213204666 0.37684203539341138 0.77915819106608775 0.59033361992249433 0.61341275555286834 0.41900561347233373 0.60700420711197478 0.2100774150633565 0.51348607409480673 0.61341275555286834 0.64772487228375752 0.76735039005403693 0.63252044125064555 0.30847625175305093 0.70657666276404862 0.98423748947671708 0.86910145947767325 0.86910145947767325
decision_type=2 2 2 2 2 2 2 2 2 2 2 2 2 2 2 2 2 2 2 2 2 2 2 2 2 2 2
left_child=1 7 4 10 6 16 18 8 9 -1 17 13 -13 -12 -2 -9 -6 -4 -3 24 -5 -14 -19 -18 -15 -25 -23
right_child=14 2 3 20 5 -7 -8 15 -10 -11 11 12 21 19 -16 -17 23 22 -20 -21 -22 26 -24 25 -26 -27 -28
leaf_value=-0.14788441408231381 0.14913821983333847 0.0044661471284556283 -0.0048830651433188947 -0.084127478858956065 0.065648440374054096 0.14887626839632806 -0.024532328326433185 -0.14741980056786147 -0.033966193253262715 -0.047265371941431787 -0.050722654798862829 0.098429930695436679 -0.015457887013029966 -0.014504715361888814 0.089702530886410864 -0.08737971485648037 0.036287762673012355 0.020776481191523935 0.03151686876201476 0.0045441948422946486 -0.060224907274191386 -0.0026185791424974264 0.03405777675352599 0.041110082664888178 -0.022267061352528372 0.044352921570543519 0.00014835128159925397
leaf_weight=0.40352339344099097 0.4184131030924606 1.2122978940606135 0.93832147866487803 1.0550227165222159 1.2002572324126957 0.50826632417738427 2.4633456915616989 0.29678073804825522 2.3251586202532053 0.70161191746592522 1.5851238248869757 0.7561700278893112 0.98949687182903279 1.78999565821141 1.0280825709924102 0.85834259167313576 1.6299410052597521 1.7375837899744513 1.6777335181832314 1.4628479070961473 1.272264682687819 1.4843952693045139 0.72289077565073956 0.99954002350568782 1.2609245833009481 1.4638692140579224 1.6320380289107561
leaf_count=10 11 7 5 8 11 12 15 7 13 5 9 12 7 13 15 12 12 10 9 8 11 9 9 9 9 12 10
internal_value=0 -0.00476823 0.00488263 -0.0108794 0.0284609 0.0550906 -0.000399822 -0.0633675 -0.0500871 -0.0840049 -0.0011258 -0.00659661 0.0114126 -0.0209538 0.106895 -0.102806 0.0460858 0.0165173 0.0201697 -0.0104997 -0.0710606 -0.00461294 0.0246785 0.0403496 -0.0177128 0.0430371 -0.00116957
internal_weight=0 32.4277 27.8423 16.6871 11.1553 5.80187 5.35338 4.58542 3.43029 1.10514 14.3598 10.961 4.8621 6.09889 1.4465 1.15512 5.29361 3.3988 2.89003 4.51377 2.32729 4.10593 2.46047 4.09335 3.05092 2.46341 3.11643
internal_count=280 254 207 120 87 56 31 47 28 15 101 77 38 39 26 19 44 24 16 30 19 26 19 33 22 21 19
shrinkage=0.113


Tree=11
num_leaves=28
num_cat=0
split_feature=11 1 8 7 11 7 11 11 5 11 0 0 6 11 5 2 11 0 6 11 11 0 11 0 0 11 0
split_gain=1.14088 1.20182 0.867684 1.0129 0.461184 0.308767 0.307019 0.280977 0.273926 0.325612 0.167867 0.163766 0.139114 0.11551 0.183901 0.0732326 0.0692597 0.0523715 0.0466275 0.0331074 0.0264625 0.0116507 0.0270161 0.00884716 0.00838257 0.00683416 0.00537723
threshold=0.98202865771588765 0.20976926485769415 0.069721214827143205 0.024554669465599758 0.77915819106608775 0.021742116557478177 0.45133336091856951 0.91589751341782366 0.51330105392746328 0.42474782993232335 0.76735039005403693 0.39502600680593031 0.53032803014355856 0.67688773599872754 0.20945946249560674 0.41900561347233373 0.38709523039848187 0.60700420711197478 0.2100774150633565 0.64772487228375752 0.53168496441549251 0.61341275555286834 0.45133336091856951 0.86910145947767325 0.63252044125064555 0.45133336091856951 0.98423748947671708
decision_type=2 2 2 2 2 2 2 2 2 2 2 2 2 2 2 2 2 2 2 2 2 2 2 2 2 2 2
left_child=1 11 3 4 5 12 -5 8 16 18 -8 13 19 14 -1 -2 -4 -13 -10 -3 -14 22 -18 -20 -9 -23 -21
right_child=15 2 7 6 -6 -7 10 24 9 -11 -12 17 20 -15 -16 -17 21 -19 23 26 -22 25 -24 -25 -26 -27 -28
leaf_value=-0.044365750176544087 0.14714888821414834 -0.021267010358422489 -0.018381664563534652 -0.025451060222466331 0.095136928074260704 -0.048625675908088792 -0.11596603144634973 -0.011804243169685369 0.063922192148638174 0.14657645470753231 -0.057216130830081736 -0.14424709325540674 0.044205572755442728 -0.033054761877047104 -0.14565507425089688 0.087255355518179076 0.0035289370944155854 -0.085025061528297335 0.03067426439997652 -0.0047783786910243859 0.020300491353397811 0.030785964702028944 0.032268756380289275 0.043236987852747669 0.00048800138527873362 0.020867594826034001 0.0065174801001647367
leaf_weight=0.66495820693671992 0.36236547795124241 1.1691286247223636 0.61983604356646349 1.6792131587862957 0.67510495707392681 1.4790521394461391 1.3034715168178082 0.92884743958711569 1.1076118880882861 0.4408897659741341 1.1861548675224185 0.25261488975957014 0.92921243514865648 2.176887035369873 0.34901736793108284 0.92890816461294889 1.1387385930866001 0.77758240047842264 1.5101491287350655 0.87825876101851474 1.6259856633841991 1.576488044112921 0.65954773779958475 1.3608259242027998 2.9846129789948463 2.0284934462979436 1.3894436955451965
leaf_count=5 11 9 5 10 12 9 8 7 11 12 11 7 9 13 10 15 7 12 12 5 10 9 9 12 19 13 8
internal_value=0 -0.00434978 0.00451699 -0.0174889 0.00569436 -0.00238789 -0.0627905 0.0233943 0.033072 0.0544376 -0.0879753 -0.0603751 0.00902529 -0.0477282 -0.0792302 0.104063 0.0173949 -0.0995469 0.0442272 -0.00582073 0.0289937 0.021499 0.0140697 0.0366289 -0.00242952 0.025205 0.00214271
internal_weight=0 30.8921 26.6711 12.315 8.14619 7.47108 4.16884 14.356 10.4426 4.41948 2.48963 4.22106 5.99203 3.19086 1.01398 1.29127 6.0231 1.0302 3.97859 3.43683 2.5552 5.40327 1.79829 2.87098 3.91346 3.60498 2.2677
internal_count=280 254 207 91 62 50 29 116 90 47 19 47 41 28 15 26 43 19 35 22 19 38 16 24 26 22 13
shrinkage=0.113


end of trees

feature_importances:
color=106
relevance=90
intensity=34
shape_size=23
visibility=18
proximity2fe=18
proximity2dp=7
integration=5
proximity2be=3
wellknownness=3
choice=2
uniqueness=1

parameters:
[boosting: gbdt]
[objective: lambdarank]
[metric: ndcg]
[tree_learner: serial]
[device_type: cpu]
[data: ]
[valid: ]
[num_iterations: 28]
[learning_rate: 0.113]
[num_leaves: 28]
[num_threads: -1]
[force_col_wise: 0]
[force_row_wise: 0]
[histogram_pool_size: -1]
[max_depth: 9]
[min_data_in_leaf: 5]
[min_sum_hessian_in_leaf: 0.001]
[bagging_fraction: 1]
[pos_bagging_fraction: 1]
[neg_bagging_fraction: 1]
[bagging_freq: 0]
[bagging_seed: 3]
[feature_fraction: 1]
[feature_fraction_bynode: 1]
[feature_fraction_seed: 2]
[extra_trees: 0]
[extra_seed: 6]
[early_stopping_round: 100]
[first_metric_only: 0]
[max_delta_step: 0]
[lambda_l1: 0]
[lambda_l2: 0]
[min_gain_to_split: 0]
[drop_rate: 0.1]
[max_drop: 50]
[skip_drop: 0.5]
[xgboost_dart_mode: 0]
[uniform_drop: 0]
[drop_seed: 4]
[top_rate: 0.2]
[other_rate: 0.1]
[min_data_per_group: 100]
[max_cat_threshold: 32]
[cat_l2: 10]
[cat_smooth: 10]
[max_cat_to_onehot: 4]
[top_k: 20]
[monotone_constraints: ]
[monotone_constraints_method: basic]
[monotone_penalty: 0]
[feature_contri: ]
[forcedsplits_filename: ]
[refit_decay_rate: 0.9]
[cegb_tradeoff: 1]
[cegb_penalty_split: 0]
[cegb_penalty_feature_lazy: ]
[cegb_penalty_feature_coupled: ]
[path_smooth: 0]
[interaction_constraints: ]
[verbosity: -1]
[saved_feature_importance_type: 0]
[max_bin: 255]
[max_bin_by_feature: ]
[min_data_in_bin: 3]
[bin_construct_sample_cnt: 200000]
[data_random_seed: 1]
[is_enable_sparse: 1]
[enable_bundle: 1]
[use_missing: 1]
[zero_as_missing: 0]
[feature_pre_filter: 1]
[pre_partition: 0]
[two_round: 0]
[header: 0]
[label_column: ]
[weight_column: ]
[group_column: ]
[ignore_column: ]
[categorical_feature: ]
[forcedbins_filename: ]
[objective_seed: 5]
[num_class: 1]
[is_unbalance: 0]
[scale_pos_weight: 1]
[sigmoid: 1]
[boost_from_average: 1]
[reg_sqrt: 0]
[alpha: 0.9]
[fair_c: 1]
[poisson_max_delta_step: 0.7]
[tweedie_variance_power: 1.5]
[lambdarank_truncation_level: 20]
[lambdarank_norm: 1]
[label_gain: ]
[eval_at: 1,2]
[multi_error_top_k: 1]
[auc_mu_weights: ]
[num_machines: 1]
[local_listen_port: 12400]
[time_out: 120]
[machine_list_filename: ]
[machines: ]
[gpu_platform_id: -1]
[gpu_device_id: -1]
[gpu_use_dp: 0]

end of parameters

pandas_categorical:null
