tree
version=v3
num_class=1
num_tree_per_iteration=1
label_index=0
max_feature_idx=11
objective=lambdarank
feature_names=color intensity shape_size integration choice visibility proximity2dp proximity2fe proximity2be uniqueness wellknownness relevance
feature_infos=[0:1] [0:1] [0:1.0000000000000002] [0.00085948961721993289:1] [0:1] [0:1] [0:1.0000000000000002] [0:0.99999999999999989] [0:0.93183904056685019] [0:1] [0:0.97986577180532408] [0:1]
tree_sizes=2724 2824 2813 2507 2518 2828 2836 2850 2648 2752 2757 2654 2435 2865 2991 2549 2351 2664 2882 2672 2893 2786 2682 2781

Tree=0
num_leaves=25
num_cat=0
split_feature=11 5 10 8 11 7 1 11 11 1 1 11 11 11 0 2 0 11 0 0 0 0 0 1
split_gain=10.3834 8.84979 3.27287 2.69166 1.29441 1.03119 0.649035 0.842582 0.745116 0.68841 0.517764 0.78706 0.485435 0.230574 0.146607 0.135544 0.111824 0.0679027 0.0717087 0.0403351 0.0373673 0.014189 0.0120711 0.00830587
threshold=0.77915819106608775 0.62612983742317041 0.061912751363057981 0.11894957130682277 0.42474782993232335 0.015013004981698641 0.6478058824532259 0.38709523039848187 0.45133336091856951 0.8249191861292241 1.0000000180025095e-35 0.67688773599872754 0.60601017468328566 0.64772487228375752 0.63252044125064555 0.12028869286287094 0.76735039005403693 0.45133336091856951 0.70657666276404862 0.76735039005403693 0.59033361992249433 0.60700420711197478 0.82861429136100517 0.8249191861292241
decision_type=2 2 2 2 2 2 2 2 2 2 2 2 2 2 2 2 2 2 2 2 2 2 2 2
left_child=1 2 6 16 20 13 7 -1 9 22 -7 12 19 -4 -5 -13 21 -9 -19 -12 -3 -2 -8 -10
right_child=3 4 5 14 -6 10 8 17 23 -11 11 15 -14 -15 -16 -17 -18 18 -20 -21 -22 -23 -24 -25
leaf_value=-0.056949575731131484 0.19225327391349584 0.095559934839143615 -0.084482106138738494 0.054770985887233829 0.22599999999999976 -0.22599999999999973 -0.027869772331548047 0.025875130223358418 -0.075333333333333294 0.082816248459217146 -0.11775625531967659 -0.10838042903043686 -0.2259999999999997 -0.016270199424026934 -0.013421391223571206 -0.05267995120631775 0.22599999999999973 0.09305391100709344 0.04732221631661529 -0.14791294801469407 0.066343032647681571 0.17547018011584531 -0.045199999999999955 -0.087009544590747445
leaf_weight=1.3058565966785045 1.1247866265475741 1.1490597240626803 1.3829857110977157 0.79318612813949563 1.2209469601511957 0.75775474309921254 0.97586268559098299 0.73348164558410656 1.8756929039955139 0.87192182987928379 1.1533695459365845 0.95158958807587635 1.0339605808258059 1.1664843559265134 0.81745922565460205 1.348228856921196 1.0693919658660891 0.75936133041977871 1.0339605808258057 1.1126962825655937 1.0884231850504875 1.5023946762084961 1.0825067758560181 1.3291976377367973
leaf_count=13 12 12 13 8 12 7 10 7 18 9 12 10 10 11 8 13 11 8 10 11 11 15 10 13
internal_value=0 -0.0337623 -0.0642107 0.142075 0.132415 -0.113988 -0.0197305 0.0167512 -0.0425207 -0.00133676 -0.138336 -0.126474 -0.161839 -0.0532724 0.020161 -0.075727 0.195195 0.05484 0.0666868 -0.132564 0.0813474 0.182656 -0.0369838 -0.0801759
internal_weight=0 22.3333 18.8749 5.30722 3.45843 8.90707 9.96784 3.83266 6.13518 2.93029 6.3576 5.59984 3.30003 2.54947 1.61065 2.29982 3.69657 2.5268 1.79332 2.26607 2.23748 2.62718 2.05837 3.20489
internal_count=274 220 185 54 35 87 98 38 60 29 63 56 33 24 16 23 38 25 18 23 23 27 20 31
shrinkage=0.113


Tree=1
num_leaves=26
num_cat=0
split_feature=11 5 7 3 5 1 11 11 7 9 0 0 5 11 11 11 0 0 11 0 0 0 11 0 0
split_gain=21.8633 22.5233 8.19497 5.75633 3.82865 5.42448 5.83662 3.63323 2.60424 1.15656 0.629198 0.581346 0.393711 0.4871 0.478166 0.354813 0.554261 0.377744 0.0909098 0.0677346 0.0528767 0.0423052 0.0366465 0.0230185 0.00257135
threshold=0.77915819106608775 0.62612983742317041 0.025384520271380974 0.050213589858228304 0.068691133825377962 0.20976926485769415 0.67688773599872754 0.42474782993232335 0.020714679282958556 0.66666666666666674 0.51348607409480673 0.76735039005403693 0.13317275513406593 0.53168496441549251 0.64772487228375752 0.45133336091856951 0.61341275555286834 0.61341275555286834 0.45133336091856951 0.60700420711197478 0.63252044125064555 0.59033361992249433 0.45133336091856951 0.82861429136100517 0.60700420711197478
decision_type=2 2 2 2 2 2 2 2 2 2 2 2 2 2 2 2 2 2 2 2 2 2 2 2 2
left_child=1 2 4 20 18 6 8 21 19 -5 -7 -4 15 22 -15 16 -12 -17 -1 -6 -2 -3 -14 -20 -11
right_child=3 7 11 9 5 10 -8 -9 -10 24 12 -13 13 14 -16 17 -18 -19 23 -21 -22 -23 -24 -25 -26
leaf_value=-0.07011544256373746 0.021560025713757432 0.069529290306812944 -0.20351425748476343 0.20518332067872025 -0.10063631610508621 0.049783747743096733 0.0049763931853138007 0.2045248391997197 -0.20451235551300981 0.13218970933357413 -0.0063405404731363699 -0.13447045553581474 -0.02731950867869596 0.016549576969470955 -0.029248795499375084 0.026703243862283694 0.051826232735260026 -0.019427912817266062 -0.092789443920108197 -0.079798792791607343 0.039476144502202701 0.084113506391728626 -0.015610425783405487 -0.081789224913667677 0.12845421277318922
leaf_weight=5.9268093705177298 3.9050520360469836 4.8742210268974286 2.3475475907325736 3.605669200420377 3.0772238373756426 2.9226047694683066 7.9740920066833487 3.9749612212181082 3.3376346826553336 4.1769252270460129 3.764195591211319 4.6252371221780777 13.138845339417459 10.364062905311583 4.0478807091712943 3.2921847701072693 4.7082164287567139 7.2754506170749664 5.3979225754737836 5.6479377895593643 4.5593409836292267 5.3026559948921204 4.6107900440692893 4.4163252711296082 5.3885393738746643
leaf_count=10 8 12 7 11 4 4 13 12 10 12 7 11 23 19 7 8 9 13 10 12 8 11 9 9 15
internal_value=0 -0.0202503 -0.0397031 0.103918 -0.03055 -0.0198066 -0.070035 0.112911 -0.119621 0.150644 -0.00121189 -0.157716 -0.00412273 -0.0117469 0.00368619 0.00875561 0.0259834 -0.00505646 -0.081166 -0.0871479 0.0312105 0.0771284 -0.0242779 -0.0878394 0.130085
internal_weight=0 111.027 96.875 21.6355 89.9022 74.1611 20.0369 14.1518 12.0628 13.1711 54.1242 6.97278 51.2016 32.1616 14.4119 19.04 8.47241 10.5676 15.7411 8.72516 8.46439 10.1769 17.7496 9.81425 9.56546
internal_count=274 220 185 54 167 138 39 35 26 38 99 18 95 58 26 37 16 21 29 16 16 23 32 19 27
shrinkage=0.113


Tree=2
num_leaves=26
num_cat=0
split_feature=11 5 10 3 11 11 5 2 5 1 1 11 11 11 9 2 0 11 1 0 0 11 0 7 2
split_gain=11.8844 12.6948 6.22639 4.19673 2.19676 1.95783 1.25721 1.08027 1.3797 1.00779 0.590776 1.17426 1.01476 0.624189 0.51649 0.329926 0.148011 0.134859 0.109825 0.0318654 0.026641 0.0251442 0.00544963 0.00528793 0.00241067
threshold=0.77915819106608775 0.62612983742317041 0.17718120777757762 0.050213589858228304 0.67688773599872754 0.42474782993232335 0.20730849983476043 0.41900561347233373 0.068691133825377962 0.51298240439606357 0.6478058824532259 0.38709523039848187 0.45133336091856951 0.64772487228375752 0.66666666666666674 0.12028869286287094 0.61341275555286834 0.45133336091856951 0.58355200773909133 0.63252044125064555 0.70657666276404862 0.45133336091856951 0.60700420711197478 0.024478057170235268 0.70769847634322391
decision_type=2 2 2 2 2 2 2 2 2 2 2 2 2 2 2 2 2 2 2 2 2 2 2 2 2
left_child=1 2 7 19 15 18 9 8 21 -6 11 -10 16 23 -5 -4 -12 -13 -3 -2 -19 -1 -16 -14 -9
right_child=3 5 4 14 6 -7 -8 24 10 -11 12 17 13 -15 22 -17 -18 20 -20 -21 -22 -23 -24 -25 -26
leaf_value=-0.057243215683912392 0.030049480784944922 0.087147735071350138 -0.13020097076563711 0.19009472994338222 -0.18841007704225179 0.18969447299872805 -0.037358270327277135 -0.057075057312818936 -0.031564368410412512 -0.07741867445068025 0.0087582081434837283 0.019686625555287163 -0.031775588402863458 0.022223401602332302 0.13069529657778164 -0.18875217901242203 0.039327104954793697 0.039039940612913743 0.059660304342127442 0.013914048037365572 0.053262445187667554 -0.044472037941862948 0.12411649827824597 -0.036756399085565931 -0.05287049672273559
leaf_weight=4.2224099338054648 3.036924719810485 3.8685807436704618 3.0347132384777096 2.2132831588387472 1.4786639586091022 2.4917938709259033 7.6814882159233093 4.1455482244491568 4.2223410010337821 3.5584972575306892 4.4181329458951968 3.1288633793592435 3.6734007298946407 2.8815714865922919 2.8302675783634186 2.0650787129998207 3.7300338298082352 2.7209113985300064 3.5678146183490753 3.2197784036397934 4.4032845050096512 3.6876780092716217 3.7223607301712036 10.505494281649588 3.0022212564945221
leaf_count=10 8 11 11 11 7 12 17 12 9 10 10 7 9 7 12 10 9 8 12 8 10 9 15 22 8
internal_value=0 -0.0168351 -0.0332327 0.0924407 -0.0912519 0.103007 -0.0661278 -0.0143475 -0.00819579 -0.11 0.000393892 0.0185884 -0.0100539 -0.0257221 0.142899 -0.15391 0.0227519 0.039242 0.0739599 0.021746 0.0478305 -0.0512893 0.126958 -0.035466 -0.055309
internal_weight=0 82.4885 72.5603 15.0226 17.8184 9.92819 12.7186 54.7419 47.5941 5.03716 39.684 14.4754 25.2086 17.0605 8.76591 5.09979 8.14817 10.2531 7.4364 6.2567 7.1242 7.91009 6.55263 14.1789 7.14777
internal_count=274 220 185 54 55 35 34 130 110 17 91 34 57 38 38 21 19 25 23 16 18 19 27 31 20
shrinkage=0.113


Tree=3
num_leaves=23
num_cat=0
split_feature=11 5 7 8 1 5 11 11 0 7 11 11 1 9 0 0 0 1 11 11 0 0
split_gain=7.88433 7.80265 3.29396 2.76015 1.4881 1.95288 1.40157 0.793183 1.26611 0.65674 0.567549 0.43644 0.836713 0.359147 0.339841 0.241728 0.193427 0.0213573 0.01839 0.0177948 0.00537313 4.28177e-05
threshold=0.77915819106608775 0.62612983742317041 0.025384520271380974 0.11894957130682277 0.20976926485769415 0.068691133825377962 0.42474782993232335 0.67688773599872754 0.20029640213204666 0.024554669465599758 0.38709523039848187 0.45133336091856951 0.8249191861292241 0.66666666666666674 0.61341275555286834 0.82861429136100517 0.76735039005403693 0.58355200773909133 0.45133336091856951 0.45133336091856951 0.60700420711197478 0.63252044125064555
decision_type=2 2 2 2 2 2 2 2 2 2 2 2 2 2 2 2 2 2 2 2 2 2
left_child=1 2 4 13 7 15 17 8 -1 10 -7 14 -13 -2 -12 -6 -4 -3 -17 -11 -15 -5
right_child=3 6 16 21 5 9 -8 -9 -10 19 11 12 -14 20 -16 18 -18 -19 -20 -21 -22 -23
leaf_value=-0.17699232445319227 0.1797255988505955 0.072702835774794347 -0.17741468591451956 0.024229134752520882 -0.085796860105591968 -0.028749575638128792 0.17945247758062713 -0.024289161262381044 -0.057590732921263384 -0.024915760086086435 0.010737918598572095 0.033518408933741736 -0.015228793710809985 0.12261301929669509 0.067034935319303296 -0.05253842763520486 -0.11904688657105522 0.058945944824799819 -0.040655534255504389 -0.035850437332974251 0.11513571109576516 0.024864320703498182
leaf_weight=1.4795279614627341 1.6096586398780326 2.8588495478034011 1.0664656534790986 2.6222570687532425 2.908185161650179 4.8348763138055828 1.822606064379215 4.7214410156011581 4.8555401489138603 3.5803178995847693 2.5018515586853054 7.7786763682961491 10.654228702187536 2.1577916517853737 3.0242661386728287 3.4107263311743736 2.264136902987957 2.9055219814181328 3.2454138100147247 4.0500656813383102 2.8452129364013672 2.8043383955955505
leaf_count=10 11 11 7 8 10 13 12 13 16 10 7 22 29 12 9 10 11 12 9 9 15 8
internal_value=0 -0.0149305 -0.0285033 0.0842842 -0.0221256 -0.0131768 0.0930787 -0.0593478 -0.0854765 -0.00124449 0.00656644 0.0136931 0.0053425 0.133298 0.0415475 -0.058619 -0.137736 0.0657687 -0.0467445 -0.0307197 0.118361 0.0245574
internal_weight=0 67.9627 60.3757 12.0393 57.0451 45.9886 7.58698 11.0565 6.33507 36.4243 28.7939 23.959 18.4329 6.61266 5.52612 9.56433 3.3306 5.76437 6.65614 7.63038 5.003 5.4266
internal_count=274 220 185 54 167 128 35 39 26 99 80 67 51 38 16 29 18 23 19 19 27 16
shrinkage=0.113


Tree=4
num_leaves=23
num_cat=0
split_feature=11 5 7 8 1 5 11 7 11 0 11 1 11 9 11 0 0 11 11 0 0 0
split_gain=5.55546 5.64732 2.40331 2.05806 1.16098 1.32731 1.00346 0.565976 0.368391 0.964892 0.267552 0.280516 0.668232 0.266503 0.228296 0.191105 0.149435 0.0424917 0.0408393 0.0335499 0.00511028 0.00320171
threshold=0.77915819106608775 0.62612983742317041 0.025384520271380974 0.11894957130682277 0.20976926485769415 0.068691133825377962 0.42474782993232335 0.024554669465599758 0.67688773599872754 0.20029640213204666 0.38709523039848187 0.8249191861292241 0.45133336091856951 0.66666666666666674 0.45133336091856951 0.82861429136100517 0.76735039005403693 0.45133336091856951 0.45133336091856951 0.59033361992249433 0.63252044125064555 0.60700420711197478
decision_type=2 2 2 2 2 2 2 2 2 2 2 2 2 2 2 2 2 2 2 2 2 2
left_child=1 2 4 13 8 15 19 10 9 -1 -7 18 -13 -2 -9 -6 -4 -17 -12 -3 -5 -15
right_child=3 6 16 20 5 7 -8 14 -10 -11 11 12 -14 21 -16 17 -18 -19 -20 -21 -22 -23
leaf_value=-0.16790515601867112 0.17186537486457026 0.054264600251342381 -0.16968977230598981 0.027227412374623113 -0.079016896937485329 -0.018676962912122397 0.1716953624044244 -0.0066356595163255894 -0.030047205743540195 -0.050181230264465103 0.014001170522013454 0.052428855454526704 -0.012515253157168076 0.11573400863698143 -0.047950663892640022 -0.050780030902241771 -0.11191525480248429 -0.03133702571642287 0.031971603814841799 0.072990918801729726 0.019775484919018909 0.10932205745646299
leaf_weight=1.13047346845269 1.2428866736590842 2.4549036324024192 0.82975948229432028 2.2916008234024048 2.4040601812303048 4.4187474623322514 1.4132949225604532 3.0417331382632247 4.0501630455255508 4.1621086448431015 2.1480819731950778 2.5525537505745879 9.7522076144814474 1.7388227656483648 3.8942974656820297 2.8734780550003052 1.8378123082220554 2.8676183298230171 6.5044230744242668 2.4317627549171448 2.4117531478404999 2.3226912245154381
leaf_count=10 11 12 7 8 10 13 12 10 13 16 7 9 29 12 9 10 11 9 22 11 8 15
internal_value=0 -0.0132532 -0.0253915 0.0778256 -0.0197941 -0.011503 0.0878366 -0.00122673 -0.0556976 -0.0753266 0.00659205 0.0119199 0.000957038 0.126079 -0.0298323 -0.052269 -0.129886 -0.0410685 0.0275102 0.0635834 0.0234063 0.112067
internal_weight=0 58.7675 52.4675 10.0078 49.7999 40.4572 6.29996 32.312 9.34275 5.29258 25.376 20.9573 12.3048 5.3044 6.93603 8.14516 2.66757 5.7411 8.65251 4.88667 4.70335 4.06151
internal_count=274 220 185 54 167 128 35 99 39 26 80 67 38 38 19 29 18 19 29 23 16 27
shrinkage=0.113


Tree=5
num_leaves=26
num_cat=0
split_feature=11 5 7 8 7 2 11 0 11 1 9 0 11 0 0 0 11 6 0 11 1 11 0 0 0
split_gain=4.17627 4.1889 1.78266 1.57298 1.09678 0.802814 0.783597 0.501832 0.411955 0.77801 0.210029 0.142864 0.140528 0.712038 0.258218 0.129921 0.128672 0.31239 0.12568 0.119734 0.0275651 0.0230258 0.0127784 0.00439963 0.00227972
threshold=0.77915819106608775 0.62612983742317041 0.025384520271380974 0.11894957130682277 0.014651163316868462 0.0060144346431435522 0.42474782993232335 0.57358709964519461 0.45133336091856951 0.8249191861292241 0.66666666666666674 0.82861429136100517 0.67688773599872754 0.20029640213204666 0.29739252513674613 0.82861429136100517 0.64772487228375752 0.53032803014355856 0.76735039005403693 0.53168496441549251 0.58355200773909133 0.45133336091856951 0.63252044125064555 0.61341275555286834 0.60700420711197478
decision_type=2 2 2 2 2 2 2 2 2 2 2 2 2 2 2 2 2 2 2 2 2 2 2 2 2
left_child=1 2 4 10 16 7 20 21 9 11 -2 -9 13 -7 -14 23 17 -1 -4 -19 -3 -6 -5 -10 -12
right_child=3 6 18 22 5 12 -8 8 15 -11 24 -13 14 -15 -16 -17 -18 19 -20 -21 -22 -23 -24 -25 -26
leaf_value=-0.026282798916224773 0.16574184227625771 0.069114428741607017 -0.16347845431657315 0.029831052813414801 0.01191089687345823 -0.16064256534322757 0.16562821789108478 -0.010174916065731905 -0.043566813357159839 0.051308461292227839 0.11008430754146405 -0.04809325416548868 -0.024695474205234869 -0.048301743301586791 -0.07518744577350904 -0.017896324968734636 0.030509983885693079 0.0039235614750004729 -0.10471490799374208 0.036252592144590153 0.050855272876862187 0.029642755387052272 0.017400061890427955 -0.049043392162252661 0.10417208644388454
leaf_weight=2.9330384656786901 0.99319959990680029 2.081717260181903 0.66529279015958231 2.0688093602657318 1.9039035588502946 0.89486279152333548 1.1345392819494007 2.5848707035183915 3.1844450160861015 2.2282349541783333 1.4494876377284527 2.4918888136744499 3.479412816464901 3.6956066302955151 2.0584110394120216 2.6748802289366722 3.1311307772994033 3.1664300709962845 1.5416348725557327 2.7188805192708969 2.1420929692685604 1.837717242538929 2.1565965116024017 4.5484299771487713 1.9574009031057358
leaf_count=13 11 11 7 8 7 10 12 10 9 9 12 10 13 16 10 9 11 9 11 10 12 8 8 13 15
internal_value=0 -0.0122771 -0.023351 0.0727294 -0.018328 -0.0293608 0.0822502 -0.0169822 -0.0249252 -0.00435546 0.120017 -0.0287868 -0.0555819 -0.0702014 -0.0434634 -0.0393627 0.0108316 0.00384445 -0.12243 0.0188588 0.0598544 0.02062 0.0234864 -0.0467881 0.106687
internal_weight=0 51.0974 45.7391 8.62549 43.5321 31.5827 5.35835 21.4544 17.7127 7.30499 4.40009 5.07676 10.1283 4.59047 5.53782 10.4078 11.9495 8.81835 2.20693 5.88531 4.22381 3.74162 4.22541 7.73287 3.40689
internal_count=274 220 185 54 167 124 35 75 60 29 38 20 49 26 23 31 43 32 18 19 23 15 16 22 27
shrinkage=0.113


Tree=6
num_leaves=26
num_cat=0
split_feature=11 5 7 8 0 11 8 6 6 11 11 9 11 2 0 11 11 1 0 11 11 1 11 0 0
split_gain=3.232 3.24353 1.3747 1.27663 0.769788 0.628629 0.529056 0.355778 0.333934 0.346672 0.307534 0.171938 0.166115 0.220044 0.149004 0.12637 0.260795 0.194342 0.107059 0.104937 0.0926691 0.0247956 0.00731621 0.00376947 0.00201848
threshold=0.77915819106608775 0.62612983742317041 0.025384520271380974 0.11894957130682277 0.61341275555286834 0.42474782993232335 0.089282979395787207 0.21979189466573512 1.0000000180025095e-35 0.45133336091856951 0.38709523039848187 0.66666666666666674 0.67688773599872754 0.12028869286287094 0.60700420711197478 0.38709523039848187 0.45133336091856951 0.8249191861292241 0.76735039005403693 0.45133336091856951 0.64772487228375752 0.58355200773909133 0.45133336091856951 0.63252044125064555 0.60700420711197478
decision_type=2 2 2 2 2 2 2 2 2 2 2 2 2 2 2 2 2 2 2 2 2 2 2 2 2
left_child=1 2 4 11 6 21 8 19 -1 -10 -8 -2 14 -14 -11 -9 -17 -18 -4 -6 -19 -3 -12 -5 -13
right_child=3 5 18 23 7 -7 10 15 9 12 22 24 13 -15 -16 16 17 20 -20 -21 -22 -23 -24 -25 -26
leaf_value=0.018316519751029235 0.16093094252116885 0.066388015490430746 -0.15838748519224441 0.026560476104334232 -0.040675615361778626 0.16074697067383531 -0.057263573385492705 -0.016083306554318007 -0.0087165447896471026 -0.083298638751513721 0.011492634294707104 0.1057038506439722 -0.072727075447257802 -0.02320243365035261 -0.047298638238606215 0.049735175820994418 0.032731662422820634 -0.01094364226755282 -0.098950388954106058 -0.009818865794343901 0.018522954118177459 0.047981795945965293 0.021988386823830995 0.019589350870809645 0.099695398030012899
leaf_weight=1.0183658450841928 0.81527171749621574 1.8275664970278731 0.54559025727212307 1.9357505701482298 2.9290250949561623 0.93095652200281609 0.90917981415986915 2.3896362371742716 2.2841552905738345 3.7946932213380915 1.695608988404274 1.2400202974677086 1.8192615713924167 3.0935667045414448 2.394418478012085 1.9897514283657063 2.4309512898325902 5.7799548096954823 1.3309042137116194 2.7087567411363125 1.7832545340061186 1.9125555790960789 1.6965464651584625 2.0281931683421135 1.6827802956104279
leaf_count=4 11 11 7 8 14 12 4 9 10 19 7 12 10 13 12 9 10 22 11 9 7 12 8 8 15
internal_value=0 -0.0115142 -0.0217752 0.0676691 -0.0171972 0.0776576 -0.0336774 -0.00179213 -0.0440621 -0.0488076 0.0010993 0.115044 -0.0570561 -0.0415418 -0.0693711 0.00764417 0.0123755 0.00493753 -0.116232 -0.02585 -0.003996 0.0569758 0.016742 0.0229936 0.102245
internal_weight=0 45.2647 40.5936 7.70202 38.7171 4.67108 18.7058 20.0113 14.4045 13.3861 4.30134 3.73807 11.1019 4.91283 6.18911 14.3735 11.9839 9.99416 1.87649 5.63778 7.56321 3.74012 3.39216 3.96394 2.9228
internal_count=274 220 185 54 167 35 87 80 68 64 19 38 54 23 31 57 48 39 18 23 29 23 15 16 27
shrinkage=0.113


Tree=7
num_leaves=26
num_cat=0
split_feature=11 5 7 8 1 11 1 1 11 11 9 4 9 11 0 11 0 1 0 11 11 0 0 11 0
split_gain=2.6661 2.59736 1.07037 0.99194 0.687541 0.51471 0.506517 0.393137 0.421932 0.300345 0.424876 0.212401 0.144669 0.140154 0.0943623 0.0729292 0.0313324 0.0207719 0.0180178 0.148958 0.130268 0.00494031 0.00178965 0.000887314 0.000238494
threshold=0.77915819106608775 0.62612983742317041 0.025384520271380974 0.11894957130682277 0.20976926485769415 0.42474782993232335 0.39052915034172347 0.8249191861292241 0.45133336091856951 0.67688773599872754 0.66666666666666674 1.0000000180025095e-35 0.66666666666666674 0.64772487228375752 0.76735039005403693 0.38709523039848187 0.70657666276404862 0.58355200773909133 0.63252044125064555 0.45133336091856951 0.45133336091856951 0.63252044125064555 0.60700420711197478 0.45133336091856951 0.94375032136004899
decision_type=2 2 2 2 2 2 2 2 2 2 2 2 2 2 2 2 2 2 2 2 2 2 2 2 2
left_child=1 2 4 12 9 17 15 11 -9 10 -1 18 -2 24 -4 -6 23 -3 19 -8 -20 -5 -14 -17 -10
right_child=3 5 14 21 6 -7 7 8 13 -11 -12 -13 22 -15 -16 16 -18 -19 20 -21 -22 -23 -24 -25 -26
leaf_value=-0.15287381825258708 0.15694286461688975 0.063849726775693935 -0.15405013719742469 0.029342824526618821 -0.0034399337365257337 0.1567059090320882 -0.0083483979969485901 0.048233028131697962 -0.021866243118764585 -0.021685496019435233 -0.052887438223502239 -0.070046302629488147 0.10168662959625782 0.015143622354706659 -0.093329611701580301 0.012451275391145964 0.031296507102589542 0.046088858740567208 -0.039232755239169435 -0.048870002241668507 -0.0036506586538798689 0.0211694627293528 0.095617397467165091 0.015884259774777455 -0.023499873596118572
leaf_weight=0.66089696716517154 0.67769539635628406 1.6295304447412482 0.45410871785133955 1.8591071665287018 2.2046175748109835 0.7772323815152048 2.0608937554061413 1.8028689101338367 3.4809714183211327 2.7961056530475616 3.0336341671645641 1.6301232203841216 1.0750692076981068 1.6818600408732889 1.1657149959355593 1.546668082475662 2.2057646960020065 1.7372036203742027 2.6359718292951584 2.6451145708560944 2.6193217821419239 1.9190406277775764 1.4668247904628515 2.5404466688632965 1.6976074576377866
leaf_count=10 11 11 7 8 9 12 10 9 13 13 16 10 12 7 11 7 10 12 14 9 9 8 15 12 9
internal_value=0 -0.0110009 -0.0205362 0.0644651 -0.016408 0.07382 -0.00890911 -0.0186236 -0.000413473 -0.0496269 -0.0707735 -0.0322337 0.110552 -0.0131974 -0.110352 0.0142466 0.0204428 0.0546853 -0.0260459 -0.0311244 -0.0214981 0.0251913 0.0981843 0.0145851 -0.0224018
internal_weight=0 41.0067 36.8627 6.99774 35.2429 4.14397 28.7522 20.2547 8.66331 6.49064 3.69453 11.5914 3.21959 6.86044 1.61982 8.4975 6.29288 3.36673 9.9613 4.70601 5.25529 3.77815 2.54189 4.08711 5.17858
internal_count=274 220 185 54 167 35 128 90 38 39 26 52 38 29 18 38 29 23 42 19 23 16 27 19 22
shrinkage=0.113


Tree=8
num_leaves=24
num_cat=0
split_feature=11 5 7 8 1 5 11 11 7 9 2 0 0 0 11 11 2 11 11 11 0 0 0
split_gain=2.25628 2.11412 0.851615 0.786651 0.588001 0.719684 0.430948 0.277961 0.218212 0.124005 0.0888437 0.0835291 0.0735694 0.244801 0.0510557 0.0487791 0.0381834 0.0712757 0.0899195 0.0493513 0.0221457 0.0183096 0.00178909
threshold=0.77915819106608775 0.62612983742317041 0.025384520271380974 0.11894957130682277 0.20976926485769415 0.068691133825377962 0.42474782993232335 0.67688773599872754 0.024554669465599758 0.66666666666666674 0.0060144346431435522 0.76735039005403693 0.60700420711197478 0.20029640213204666 0.45133336091856951 0.45133336091856951 0.20208500400962315 0.53168496441549251 0.45133336091856951 0.64772487228375752 0.63252044125064555 0.59033361992249433 0.60700420711197478
decision_type=2 2 2 2 2 2 2 2 2 2 2 2 2 2 2 2 2 2 2 2 2 2 2
left_child=1 2 4 9 7 10 21 12 16 -2 15 -4 13 -1 -10 -6 17 18 -7 -18 -5 -3 -11
right_child=3 6 11 20 5 8 -8 -9 14 22 -12 -13 -14 -15 -16 -17 19 -19 -20 -21 -22 -23 -24
leaf_value=-0.14832302848204179 0.15366744944212238 0.043980960769268662 -0.1503259552681061 0.035902793128905437 -0.049573844922199607 0.015964454159886378 0.15327502101118815 -0.02036746803402683 -0.0082588847198506316 0.098377574818178617 -0.067933168088728207 -0.088576848860975832 -0.056548443453057644 -0.048352589892873388 -0.033437110676675277 -0.025109722605394062 -0.014443971474731299 0.02564883056758752 -0.0055205520187768531 0.012006838116936723 0.018317784820795099 0.061467282324558781 0.091906661045401766
leaf_weight=0.54792222427204185 0.57024752954021041 1.5952535197138782 0.38275433145463345 1.827246718108654 1.8477890547364975 5.0595827996730858 0.65608651563525189 2.5588547699153423 1.8854962699115265 0.94380040094256412 1.4835262838751075 1.0391977224498987 2.0035737380385399 0.72878142818808556 2.2622145749628544 2.3827060163021088 2.1076035201549521 2.8576864227652541 4.8926811385899782 1.5728693343698981 1.8305695429444313 1.4684246759861708 1.2930431682616472
leaf_count=10 11 12 7 8 10 25 12 13 10 12 10 11 12 4 9 9 13 14 21 7 8 11 15
internal_value=0 -0.0106729 -0.0196183 0.061633 -0.0158381 -0.00864913 0.070161 -0.0482819 0.00117687 0.106629 -0.0441391 -0.105198 -0.0700572 -0.0912568 -0.0219914 -0.0357951 0.00700422 0.00991881 0.00540211 -0.00314008 0.0271023 0.0523622 0.094637
internal_weight=0 37.333 33.6132 6.46491 32.1913 26.3522 3.71976 5.83913 20.6381 2.80709 5.71402 1.42195 3.28028 1.2767 4.14771 4.2305 16.4904 12.81 9.95226 3.68047 3.65782 3.06368 2.23684
internal_count=274 220 185 54 167 128 35 39 99 38 29 18 26 14 19 19 80 60 46 20 16 23 27
shrinkage=0.113


Tree=9
num_leaves=25
num_cat=0
split_feature=11 5 7 2 0 11 5 9 0 11 11 11 0 1 0 11 5 11 5 2 0 1 0 7
split_gain=2.59064 1.74521 0.666643 0.618372 0.524627 0.375406 0.358201 0.222779 0.167802 0.162136 0.15967 0.122726 0.280946 0.155319 0.0742361 0.0643179 0.0404096 0.0380134 0.0335966 0.0138197 0.0108353 0.00739439 0.0021552 0.00135955
threshold=0.77915819106608775 0.62612983742317041 0.025384520271380974 0.99599037690457126 0.61341275555286834 0.42474782993232335 0.068691133825377962 0.66666666666666674 0.76735039005403693 0.45133336091856951 0.67688773599872754 0.45133336091856951 0.63252044125064555 0.8249191861292241 0.76735039005403693 0.64772487228375752 0.13317275513406593 0.45133336091856951 0.62612983742317041 0.41900561347233373 0.57358709964519461 0.58355200773909133 0.60700420711197478 0.024478057170235268
decision_type=2 2 2 2 2 2 2 2 2 2 2 2 2 2 2 2 2 2 2 2 2 2 2 2
left_child=1 2 4 8 7 21 17 9 18 20 16 12 -8 -13 -4 23 -11 -6 22 -9 -1 -3 -2 -15
right_child=3 5 14 -5 6 -7 11 19 -10 10 -12 13 -14 15 -16 -17 -18 -19 -20 -21 -22 -23 -24 -25
leaf_value=0.0053875512227508186 0.095471011961337379 0.054681525353235325 -0.14718560835633857 0.0098667104747229561 -0.045282392297890856 0.1501555316491876 0.061119413269628095 -0.065169291233203655 0.15086480653878581 -0.034615363487280587 -0.013281797184520942 0.02705086162978489 -0.0013602643471843589 -0.019773231328111429 -0.084682875693414511 0.010338855034073245 -0.056035129037180963 -0.022599330976821593 0.070706617928846124 -0.050957353190364776 -0.0081577884204247185 0.043012692227648322 0.087927595804426786 -0.01551526305645619
leaf_weight=1.3368606679141575 0.83634838741272566 1.2994761411100622 0.32698449632152804 1.8050445988774297 1.6887738872319453 0.55592549918219436 1.5407729446887954 1.3572344919666641 0.48351514572277654 2.0294068120419979 3.1146532446146011 1.9160785079002378 2.2771319411695004 1.4132073447108267 0.94075986836105585 1.4826453700661657 2.5225681937299669 2.1373722311109304 2.1457388326525688 2.4521682821214199 1.7298071254044771 1.4868544768542051 1.146728340536356 2.9695321880280972
leaf_count=7 12 11 7 8 10 12 9 10 11 8 17 10 13 9 11 7 19 9 8 16 10 12 15 13
internal_value=0 -0.0122375 -0.0205416 0.0659381 -0.0171462 0.0653709 -0.00262925 -0.0325445 0.0878817 -0.0242123 -0.0329962 0.00726051 0.0238543 -0.000881109 -0.100804 -0.0100058 -0.0464856 -0.0326111 0.0805059 -0.0560209 -0.00225293 0.0484547 0.091109 -0.0168882
internal_weight=0 34.5782 31.236 6.41738 29.9682 3.34226 15.4255 14.5427 4.61233 10.7333 7.66663 11.5994 3.8179 7.78146 1.26774 5.86538 4.55198 3.82615 4.12882 3.8094 3.06667 2.78633 1.98308 4.38274
internal_count=274 220 185 54 167 35 80 87 46 61 44 61 22 39 18 29 27 19 35 26 17 23 27 22
shrinkage=0.113


Tree=10
num_leaves=25
num_cat=0
split_feature=11 5 1 1 11 9 0 11 11 1 11 11 2 1 11 0 0 5 11 11 1 11 1 1
split_gain=1.24884 1.08835 0.782998 0.610197 0.322589 0.469317 0.402771 0.280709 0.291098 0.186007 0.323651 0.128729 0.0921258 0.0815011 0.0811885 0.0447156 0.0428476 0.216547 0.0311956 0.0154079 0.0146411 0.0125003 0.00593113 0.0014454
threshold=0.98202865771588765 0.62612983742317041 0.20976926485769415 0.39052915034172347 0.77915819106608775 0.22000000000000003 0.63252044125064555 0.91589751341782366 0.42474782993232335 0.8249191861292241 0.45133336091856951 0.45133336091856951 0.41900561347233373 0.30847625175305093 0.67688773599872754 0.82861429136100517 0.60700420711197478 0.20945946249560674 0.64772487228375752 0.45133336091856951 0.51298240439606357 0.45133336091856951 0.58355200773909133 0.30847625175305093
decision_type=2 2 2 2 2 2 2 2 2 2 2 2 2 2 2 2 2 2 2 2 2 2 2 2
left_child=1 2 14 11 5 9 -6 8 22 15 -11 23 -2 -13 16 19 17 -1 -12 -5 -7 -17 -3 -4
right_child=12 7 3 4 6 20 -8 -9 -10 10 18 13 -14 -15 -16 21 -18 -19 -20 -21 -22 -23 -24 -25
leaf_value=-0.039749292822381529 0.14845803071519223 0.057480171967848069 0.0044421122548169755 -0.010184367684099138 0.092936103209168827 -0.081196812732752796 -0.0053522006220072717 0.0069901899588110427 0.14757575237100359 0.048891946343017731 -0.016742332052036474 0.025324495960987511 0.085142767009603687 0.058231186337463998 -0.036923424875175817 -0.041874287638900838 -0.053962959361015618 -0.14395335209356497 0.0028823730606235966 -0.024259760390569034 -0.062013915354076403 -0.028289927803863489 0.046730667688177574 0.0095652310087099065
leaf_weight=0.61237319186330108 0.41050944384187338 1.220253960229456 1.6268204487860229 2.1070710979402119 0.74615960195660513 0.85747390892356556 1.8580237030982971 1.5059762671589849 0.47771005425602187 1.4152343440800903 4.0679336618632078 2.5095351152122021 1.0289790164679289 1.5575493574142454 2.4863228797912598 1.5547203347086906 1.6785004585981369 0.43591910507529974 1.3869256563484667 1.8783268928527834 1.2467140452936292 1.9496436789631844 1.4159379489719868 1.2385625727474689
leaf_count=4 11 11 9 14 12 11 8 8 12 9 22 14 15 8 20 10 12 10 7 9 10 9 12 7
internal_value=0 -0.00414564 -0.011722 -0.00370811 -0.0141459 -0.0199913 0.0228097 0.0470431 0.066414 -0.0126882 0.000740092 0.0250018 0.103199 0.0379266 -0.0516915 -0.0250055 -0.0651572 -0.0830812 -0.0117527 -0.0168181 -0.0698311 -0.0343167 0.0517065 0.00665658
internal_weight=0 35.8337 31.2138 26.0007 19.0682 16.464 2.60418 4.61988 3.1139 14.3599 6.87009 6.93247 1.43949 4.06708 5.21312 7.48976 2.72679 1.04829 5.45486 3.9854 2.10419 3.50436 2.63619 2.86538
internal_count=274 248 205 159 121 101 20 43 35 80 38 38 26 22 46 42 26 14 29 23 21 19 23 16
shrinkage=0.113


Tree=11
num_leaves=24
num_cat=0
split_feature=11 5 7 8 1 5 11 11 7 9 0 2 11 11 2 0 5 0 11 11 11 1 0
split_gain=1.28818 1.28631 0.528965 0.503323 0.30267 0.417348 0.254451 0.174929 0.169439 0.083104 0.0754045 0.0671442 0.0554302 0.11447 0.0446456 0.0390593 0.183469 0.031694 0.0231674 0.0166166 0.0138267 0.00938418 0.00180276
threshold=0.77915819106608775 0.62612983742317041 0.025384520271380974 0.11894957130682277 0.20976926485769415 0.068691133825377962 0.42474782993232335 0.67688773599872754 0.024554669465599758 0.66666666666666674 0.76735039005403693 0.20208500400962315 0.53168496441549251 0.45133336091856951 0.0060144346431435522 0.60700420711197478 0.20945946249560674 0.63252044125064555 0.45133336091856951 0.45133336091856951 0.64772487228375752 0.58355200773909133 0.60700420711197478
decision_type=2 2 2 2 2 2 2 2 2 2 2 2 2 2 2 2 2 2 2 2 2 2 2
left_child=1 2 4 9 7 14 21 15 11 -2 -4 12 13 -7 19 16 -1 -5 -10 -6 -13 -3 -11
right_child=3 6 10 17 5 8 -8 -9 18 22 -12 20 -14 -15 -16 -17 -18 -19 -20 -21 -22 -23 -24
leaf_value=-0.038894339995238947 0.14652832806075924 0.056765614850124893 -0.14513624176158504 0.035968980447258686 -0.04075228434656554 0.019523864763431306 0.14525876334310289 -0.015674434271551425 -0.012383468000020846 0.090513513838785184 -0.076848546479832108 -0.015949021285238257 0.025648760606483884 -0.0073754882068199166 -0.057439077034346926 -0.049116672500764562 -0.140747867929091 0.0138149690071413 -0.031437661254409749 -0.024644309647211139 -0.00050862632173389417 0.042661088466439748 0.082823828697881283
leaf_weight=0.58370300382376705 0.35407482273876545 1.1333314441144462 0.27960508014075347 1.6119728069752455 1.4707672996446517 3.9675380829721707 0.41280592628754664 2.0441004540771246 1.5056203324347726 0.66801864048466086 0.78944735694676638 1.638089293614029 2.3183926232159129 4.1154253948479891 1.1743193343281744 1.5217439429834485 0.36831714631989598 1.6880787685513496 1.775854354724288 1.8417572099715471 1.3515985757112503 1.2855810541659594 0.93301760079339147
leaf_count=4 11 11 7 8 10 25 12 13 10 12 11 13 14 21 10 12 10 8 9 9 7 12 15
internal_value=0 -0.00915967 -0.0168273 0.051554 -0.0135847 -0.00791576 0.0632627 -0.0401353 0.000317014 0.0969882 -0.0947088 0.00595614 0.010246 0.00582811 -0.0385076 -0.0603475 -0.0782994 0.0246365 -0.0226951 -0.0317963 -0.00896862 0.0492695 0.0860323
internal_weight=0 29.578 26.7463 5.25516 25.6772 21.1594 2.83172 4.51786 16.6725 1.95511 1.06905 13.391 10.4014 8.08296 4.48684 2.47376 0.95202 3.30005 3.28147 3.31252 2.98969 2.41891 1.60104
internal_count=274 220 185 54 167 128 35 39 99 38 18 80 60 46 29 26 14 16 19 19 20 23 27
shrinkage=0.113


Tree=12
num_leaves=22
num_cat=0
split_feature=11 5 7 1 1 11 1 11 0 11 11 11 2 0 11 7 11 1 0 0 0
split_gain=0.882536 0.813394 0.505573 0.37471 0.29629 0.260347 0.27679 0.325318 0.254239 0.137083 0.227619 0.123136 0.0741216 0.0708525 0.0509756 0.0281824 0.022586 0.0128225 0.010058 0.00454584 0.00323615
threshold=0.98202865771588765 0.62612983742317041 0.025384520271380974 0.20976926485769415 0.39052915034172347 0.77915819106608775 0.8249191861292241 0.45133336091856951 0.63252044125064555 0.91589751341782366 0.42474782993232335 0.67688773599872754 0.41900561347233373 0.57358709964519461 0.45133336091856951 0.015013004981698641 0.64772487228375752 0.30847625175305093 0.82861429136100517 0.59033361992249433 0.70657666276404862
decision_type=2 2 2 2 2 2 2 2 2 2 2 2 2 2 2 2 2 2 2 2 2
left_child=1 2 3 11 14 6 13 -8 -7 10 19 15 -2 -6 20 -1 -9 -16 -15 -3 -5
right_child=12 9 -4 4 5 8 7 16 -10 -11 -12 -13 -14 18 17 -17 -18 -19 -20 -21 -22
leaf_value=-0.034120571768715524 0.14477136445298774 0.041326066227732966 -0.090636303622082789 0.0025263351337420016 -0.056451772687720468 0.088572442449278144 0.053933374576938975 -0.015544863011802483 0.0029366593718770542 0.015460025413739593 0.14312068416685342 -0.017577308948629754 0.079872736259840232 -0.021298633957768029 0.022814803722652207 -0.063545766595357905 0.0020116554699518194 0.036697860282065009 -0.030156031095658432 0.051538564804883773 0.010752182206939187
leaf_weight=0.54824509657920417 0.30585972371045389 1.2095047347247596 0.9711834448389699 1.1001199204474714 1.0992631032131592 0.6025942759588353 1.2438166290521619 3.5370739810168743 1.6681015230715275 1.3939345348626377 0.35748938610777248 1.9278732594102619 0.84701176220551133 3.4868173031136394 2.1950460337102413 1.7180950936162842 1.2721944712102411 1.3858101293444636 3.0857836389914155 1.0309400390833616 1.372706726193428
leaf_count=4 11 12 18 7 10 12 9 22 8 8 12 13 15 23 14 22 7 8 19 11 9
internal_value=0 -0.00358683 -0.0105739 -0.00761102 -0.00172201 -0.0097804 -0.0156442 0.00242176 0.0256626 0.0440474 0.0593862 -0.03857 0.0970905 -0.0298982 0.0195707 -0.0564276 -0.0109006 0.0281876 -0.0254571 0.0460253 0.00709264
internal_weight=0 31.2066 27.2147 26.2435 22.0493 15.9956 13.7249 6.05309 2.2707 3.99187 2.59793 4.19421 1.15287 7.67186 6.05368 2.26634 4.80927 3.58086 6.5726 2.24044 2.47283
internal_count=274 248 205 187 148 110 90 38 20 43 35 39 26 52 38 26 29 22 42 23 16
shrinkage=0.113


Tree=13
num_leaves=26
num_cat=0
split_feature=11 5 8 10 3 1 11 11 11 0 2 0 9 11 0 1 11 0 11 0 0 0 0 11 0
split_gain=0.80399 0.886492 0.443887 0.41626 0.218762 0.218022 0.21839 0.19661 0.187801 0.207378 0.0886037 0.0770197 0.0658309 0.0294299 0.0207458 0.0154452 0.0138644 0.00859918 0.00672329 0.0780757 0.0461808 0.00185512 0.0011156 0.00180889 5.47709e-06
threshold=0.77915819106608775 0.62612983742317041 0.11894957130682277 0.17718120777757762 0.050213589858228304 0.8249191861292241 0.45133336091856951 0.42474782993232335 0.67688773599872754 0.29739252513674613 0.70769847634322391 0.76735039005403693 0.66666666666666674 0.53168496441549251 0.63252044125064555 0.6478058824532259 0.64772487228375752 0.59033361992249433 0.45133336091856951 0.82861429136100517 0.82861429136100517 0.60700420711197478 0.70657666276404862 0.45133336091856951 0.94375032136004899
decision_type=2 2 2 2 2 2 2 2 2 2 2 2 2 2 2 2 2 2 2 2 2 2 2 2 2
left_child=1 3 12 4 10 15 -7 17 11 -10 13 -5 -2 22 -4 -6 24 -3 19 -17 -20 -14 23 -1 -8
right_child=2 7 14 8 5 6 16 -9 9 -11 -12 -13 21 -15 -16 18 -18 -19 20 -21 -22 -23 -24 -25 -26
leaf_value=0.0061380565933699862 0.14324611264050771 0.038380177384848391 0.028005351469480119 -0.13738118939770422 -0.039694529459274298 0.044975417749590435 -0.013823521778985378 0.14124887382680629 -0.013817027059413086 -0.070439267567432878 -0.021927499853778436 -0.067937636810208535 0.086707299937993657 0.030081369171620069 0.0091253664280417594 -0.0028452480374257902 0.00033223948429596207 0.052879308507042685 -0.04306916052303493 -0.041452652388651777 -0.016033994025232291 0.078105063245657302 0.013832489762855504 0.012416466288255816 -0.013512241391535465
leaf_weight=1.034040562808527 0.26626186340581504 1.1241820985451338 1.4047383051365614 0.29493015434127201 1.2676110891625265 1.1602497119456527 2.2701038485392928 0.31202821864280839 2.4205063860863452 1.2537413678364826 0.89777860976755608 0.66100290883332491 0.54503220599144697 1.4663647301495073 1.5779810603708029 1.3652288317680359 1.2259667515754697 0.97558120172470797 1.597999787889421 1.3112757727503777 1.6294666733592749 0.77572072623297572 1.2784844283014538 1.3522317968308926 1.0582455070689323
leaf_count=7 11 12 8 10 12 9 13 12 17 17 8 11 12 10 8 10 7 11 9 10 9 15 9 8 9
internal_value=0 -0.00769452 0.0437064 -0.0143781 -0.00694437 -0.0152566 0.00120918 0.0575539 -0.0447459 -0.0331379 0.0108222 -0.0893628 0.0919884 0.0165523 0.0180171 -0.0283771 -0.00994063 0.0451167 -0.0259472 -0.0217598 -0.0294198 0.0816549 0.011139 0.00969585 -0.0137246
internal_weight=0 25.957 4.56973 23.5452 18.915 12.8861 5.71457 2.41179 4.63018 3.67425 6.0289 0.955933 1.58701 5.13112 2.98272 7.17158 4.55432 2.09976 5.90397 2.6765 3.22747 1.32075 3.66476 2.38627 3.32835
internal_count=274 220 54 185 130 88 38 35 55 34 42 21 38 34 16 50 29 23 38 20 18 27 24 15 22
shrinkage=0.113


Tree=14
num_leaves=27
num_cat=0
split_feature=11 5 7 1 1 1 11 11 11 0 2 11 0 2 11 3 7 11 11 5 11 11 11 0 11 0
split_gain=0.651475 0.693716 0.392792 0.264016 0.228785 0.125991 0.174327 0.0765275 0.0739762 0.0690298 0.0593034 0.0566551 0.124347 0.0488327 0.453682 0.0287189 0.0233842 0.012769 0.0116105 0.00758232 0.0445022 0.0120625 0.00227641 0.0019778 0.00152699 0.000338258
threshold=0.98202865771588765 0.62612983742317041 0.025384520271380974 0.20976926485769415 0.51298240439606357 0.8249191861292241 0.45133336091856951 0.67688773599872754 0.91589751341782366 0.76735039005403693 0.41900561347233373 0.3528195894986903 0.59033361992249433 0.0060144346431435522 0.77915819106608775 0.043137279689637077 0.015013004981698641 0.53168496441549251 0.64772487228375752 0.13317275513406593 0.45133336091856951 0.45133336091856951 0.45133336091856951 0.70657666276404862 0.91589751341782366 0.94375032136004899
decision_type=2 2 2 2 2 2 2 2 2 2 2 2 2 2 2 2 2 2 2 2 2 2 2 2 2 2
left_child=1 2 3 7 15 13 -7 16 11 -4 -2 -3 -13 19 -15 24 -1 22 25 21 -21 -6 23 -17 -5 -8
right_child=10 8 9 4 5 6 18 -9 -10 -11 -12 12 -14 14 -16 17 -18 -19 -20 20 -22 -23 -24 -25 -26 -27
leaf_value=-0.029286352712690689 0.14187053322052098 0.036821065577897501 -0.14122283086315426 0.00026358104201107098 -0.038726891269278058 0.04184833195634996 -0.011390879722269646 -0.017675880355661935 0.022063036366477086 -0.066921359418194312 0.076125733473974375 0.13953985797156973 0.052806641030758106 -0.047854579160696395 0.085077293694575895 0.0092768605887158968 -0.057361015341660083 0.028128276106910582 0.00099737202727575528 -0.0068441581649519457 -0.035440070931219224 -0.023685789525825639 0.019068968580518084 0.016133274363858398 0.0061020995234104215 -0.013914040713162377
leaf_weight=0.51144137233497056 0.23236952791921694 1.06086394842714 0.21427592227700998 0.91220099851489345 1.2280040751211327 1.0964872222393749 2.1540845585986976 1.761451761238277 1.3105915822088721 0.62641387502662838 0.71197701012715697 0.27392440347466596 0.91982528055086732 0.97147514461539664 0.49480669340118766 0.97690684348344814 1.4611122377682475 1.3826224990189073 1.1706612370908258 1.3084283396601677 1.4820234710350633 1.5279354425147176 1.2710686083883049 1.1935691284015775 1.5336474757641554 0.99037051014602173
leaf_count=4 11 12 7 8 10 9 13 13 8 11 15 12 11 10 12 7 22 10 7 10 9 9 8 9 8 9
internal_value=0 -0.00313162 -0.00996911 -0.0072459 -0.00202265 -0.0113392 0.00161445 -0.0347949 0.0434124 -0.0858594 0.0923032 0.0558226 0.0727089 -0.0213354 -0.00299582 0.0138991 -0.0500818 0.0189561 -0.00860913 -0.0261837 -0.0220316 -0.0303879 0.0152713 0.0130473 0.00392457 -0.0121856
internal_weight=0 27.8342 24.269 23.4283 19.6943 12.4243 5.4116 3.73401 3.56521 0.84069 0.944347 2.25461 1.19375 7.01267 1.46628 7.27002 1.97255 4.82417 4.31512 5.54639 2.79045 2.75594 3.44154 2.17048 2.44585 3.14446
internal_count=274 248 205 187 148 98 38 39 43 18 26 35 23 60 22 50 26 34 29 38 19 19 24 16 16 22
shrinkage=0.113


Tree=15
num_leaves=23
num_cat=0
split_feature=11 5 7 1 1 11 1 1 11 11 11 2 11 0 0 0 5 0 11 11 11 11
split_gain=0.564429 0.613597 0.327198 0.215109 0.220591 0.198214 0.199851 0.164661 0.152783 0.0673917 0.0605921 0.0534747 0.0530084 0.108936 0.0325636 0.0228732 0.14448 0.0142149 0.0100105 0.00727327 0.00217009 0.00044132
threshold=0.98202865771588765 0.62612983742317041 0.025384520271380974 0.20976926485769415 0.39052915034172347 0.77915819106608775 0.8249191861292241 0.51298240439606357 0.45133336091856951 0.67688773599872754 0.91589751341782366 0.41900561347233373 0.3528195894986903 0.59033361992249433 0.57358709964519461 0.60700420711197478 0.20945946249560674 0.70657666276404862 0.64772487228375752 0.45133336091856951 0.53168496441549251 0.45133336091856951
decision_type=2 2 2 2 2 2 2 2 2 2 2 2 2 2 2 2 2 2 2 2 2 2
left_child=1 2 3 9 17 6 14 -7 -8 15 12 -2 -3 -14 -6 16 -1 21 -10 -16 -19 -5
right_child=11 10 -4 4 5 7 8 -9 18 -11 -12 -13 13 -15 19 -17 -18 20 -20 -21 -22 -23
leaf_value=-0.02795038008207585 0.14062386179734288 0.034937271172071273 -0.081764514291375337 0.010115118857003239 -0.048176719053464566 0.0055929432994843084 0.040040218401644803 0.083569715562102742 -0.011914268261185241 -0.016192810902467349 0.022480809487858733 0.074359939963987473 0.13797089626383524 0.052129403056171635 -0.021084763472524828 -0.037283115326110894 -0.13471883698568821 0.020375210787879384 0.00059437875781404221 -0.029251146682220199 0.027142251622406841 0.013159164184839376
leaf_weight=0.49375043250621686 0.20371081022312765 1.0017854748293751 0.77394614717923005 0.92686688154936137 0.9208743728231602 1.488145329058171 1.0389915024861691 0.45046548498794425 2.9712564591318369 1.677830602042377 1.2618617732077839 0.65718386298976839 0.24122467753477372 0.86812653485685587 2.7378056799061596 1.1193127906881273 0.24074632342671975 1.122425870038569 1.1267390688881276 2.8342756149359047 1.3129282239824533 1.7685496676713226
leaf_count=4 11 12 18 7 10 8 9 12 22 13 8 15 12 11 24 12 10 9 7 18 10 12
internal_value=0 -0.00293862 -0.00953792 -0.00702343 -0.0021928 -0.00973997 -0.0153161 0.023712 0.00133752 -0.0326007 0.0420706 0.0900398 0.0537798 0.0707953 -0.0284919 -0.047451 -0.0629459 0.017766 -0.00847503 -0.0252386 0.0240234 0.0121124
internal_weight=0 26.3779 23.0049 22.231 18.6993 13.5686 11.6299 1.93861 5.13699 3.53164 3.373 0.860895 2.11114 1.10935 6.49296 1.85381 0.734497 5.13077 4.098 5.57208 2.43535 2.69542
internal_count=274 248 205 187 148 110 90 20 38 39 43 26 35 23 52 26 14 38 29 42 19 19
shrinkage=0.113


Tree=16
num_leaves=21
num_cat=0
split_feature=11 5 7 1 1 11 1 11 11 11 11 0 2 0 7 0 0 11 11 11
split_gain=0.491831 0.513552 0.271542 0.185293 0.216738 0.158619 0.180914 0.136045 0.0592711 0.0504905 0.0483698 0.0970761 0.0483248 0.031412 0.0201753 0.0157884 0.0100321 0.00843986 0.000325515 6.1821e-05
threshold=0.98202865771588765 0.62612983742317041 0.025384520271380974 0.20976926485769415 0.39052915034172347 0.77915819106608775 0.8249191861292241 0.45133336091856951 0.91589751341782366 0.67688773599872754 0.3528195894986903 0.59033361992249433 0.41900561347233373 0.57358709964519461 0.015013004981698641 0.70657666276404862 0.82861429136100517 0.64772487228375752 0.45133336091856951 0.53168496441549251
decision_type=2 2 2 2 2 2 2 2 2 2 2 2 2 2 2 2 2 2 2 2
left_child=1 2 3 9 15 6 13 -8 10 14 -3 -12 -2 -6 -1 18 -15 -9 -5 -17
right_child=12 8 -4 4 5 -7 7 17 -10 -11 11 -13 -14 16 -16 19 -18 -19 -20 -21
leaf_value=-0.024371949777571827 0.13947774560968643 0.033246170574048377 -0.077524939517471844 0.010465979555637144 -0.047401392913030208 0.020821932678450495 0.038972854781296438 -0.011227304758212516 0.019843365765879837 -0.016512310902082553 0.13651300881859579 0.050913148989649722 0.072719099629637893 -0.01971484377539514 -0.051557663983856632 0.024475979207585576 -0.029513430899676295 0.00048844997971753536 0.013145600426360739 0.025650309200982359
leaf_weight=0.47947272099555882 0.17919929622439568 0.95020135492086333 0.71245537488721211 0.88275194820016922 0.87201325967907539 1.8700719303451485 0.98819572664797295 2.8161821984685957 1.2014246424660087 1.6282129036262631 0.21313208760693647 0.82014853740110993 0.6089673584792763 2.8660291307605803 1.2767961706849744 1.0590589288622141 2.4962645377963781 1.0886678537353875 1.6815642323344944 1.2457297444343567
leaf_count=4 11 12 18 7 10 20 9 22 8 13 12 11 15 23 22 9 19 7 12 10
internal_value=0 -0.00275477 -0.00890389 -0.00660332 -0.00201088 -0.00962855 -0.0147461 0.00151775 0.0396503 -0.0308466 0.0516477 0.0685696 0.0878975 -0.0275109 -0.0441358 0.0183235 -0.0242763 -0.00796097 0.0122232 0.0251107
internal_weight=0 25.1484 21.9635 21.251 17.8665 12.9974 11.1274 4.89305 3.18491 3.38448 1.98348 1.03328 0.788167 6.23431 1.75627 4.8691 5.36229 3.90485 2.56432 2.30479
internal_count=274 248 205 187 148 110 90 38 43 39 35 23 26 52 26 38 42 29 19 19
shrinkage=0.113


Tree=17
num_leaves=24
num_cat=0
split_feature=5 11 2 8 0 10 11 9 2 11 11 11 0 1 11 11 5 0 1 11 0 0 0
split_gain=0.423367 0.227865 0.360215 0.250466 0.162582 0.148513 0.253971 0.0552917 0.0405641 0.039054 0.0740497 0.0348156 0.0552912 0.0404825 0.0282349 0.0299493 0.0973017 0.0780966 0.0186558 0.00753553 0.00210529 0.00092903 0.000135238
threshold=0.41106719035376682 0.77915819106608775 0.99599037690457126 0.069721214827143205 0.51348607409480673 0.070973154050662138 0.98202865771588765 0.22000000000000003 0.41900561347233373 0.53168496441549251 0.3528195894986903 0.45133336091856951 0.61341275555286834 0.8249191861292241 0.67688773599872754 0.45133336091856951 0.13317275513406593 0.82861429136100517 0.51298240439606357 0.64772487228375752 0.70657666276404862 0.76735039005403693 0.70657666276404862
decision_type=2 2 2 2 2 2 2 2 2 2 2 2 2 2 2 2 2 2 2 2 2 2 2
left_child=1 3 18 7 -5 9 8 14 19 10 22 13 -13 -6 15 17 -17 -1 -3 -7 -11 -9 -2
right_child=5 2 -4 4 11 6 -8 21 -10 20 -12 12 -14 -15 -16 16 -18 -19 -20 -21 -22 -23 -24
leaf_value=0.0010439170619690932 0.029104666096170705 0.13654107427056356 -0.0047658924462302124 -0.051449779761103646 0.0061550579726742218 -0.0098548138736229939 0.071121307626044392 -0.04694100307250567 -0.030133793769954016 0.017904951692466038 0.066501749904682925 0.020992444367650041 -0.010678689430523419 0.037879970620077939 -0.013028275690902152 -0.014087397336812803 -0.05603630899491055 -0.040971463636056929 0.090039557664439981 0.0045378513182558877 0.024680253305100236 -0.053109999935866924 0.027202706718245283
leaf_weight=1.1844925484620088 0.9139280049130305 0.15265658244606917 1.4271408338099718 0.63253035180969064 1.1302394624799492 0.84275378007441815 0.56587660708464671 0.83208406099583931 0.99598109442740668 1.1568587562069297 0.96519547648495052 1.1431257715448737 1.8316837488673627 0.94136991631239642 2.0669490327127278 1.3261390188708904 1.509980991046177 1.0799392648041248 0.3957609252538532 1.0349248563870788 1.1859647165983915 0.49844068347010761 0.9993651807308197
leaf_count=10 12 11 8 11 11 9 15 10 12 8 23 8 13 9 17 9 19 10 12 7 10 11 9
internal_value=0 -0.0108082 0.0251455 -0.0158184 0.00255491 0.0201574 0.00192594 -0.0280966 -0.0116999 0.0321673 0.0409841 0.00932399 0.00149153 0.0205713 -0.0241695 -0.0286843 -0.0364215 -0.0189938 0.102984 -0.00192197 0.0213347 -0.049252 0.0281112
internal_weight=0 16.1525 1.97556 14.177 5.67895 8.66085 3.43954 8.49803 2.87366 5.22131 2.87849 5.04642 2.97481 2.07161 7.1675 5.10055 2.83612 2.26443 0.548418 1.87768 2.34282 1.33052 1.91329
internal_count=274 169 31 138 52 105 43 86 28 62 44 41 21 20 65 48 28 20 23 16 18 21 21
shrinkage=0.113


Tree=18
num_leaves=26
num_cat=0
split_feature=5 11 2 8 10 11 0 9 11 2 5 11 11 0 6 0 6 11 11 1 11 1 1 0 11
split_gain=0.375252 0.212368 0.301135 0.20234 0.190684 0.240976 0.139013 0.0485194 0.0481714 0.043661 0.0408404 0.0343698 0.0427548 0.0979763 0.0271497 0.0235378 0.02057 0.031198 0.0299807 0.0183279 0.0041187 0.00146714 0.00142766 0.000936033 0.000648256
threshold=0.41106719035376682 0.77915819106608775 0.99599037690457126 0.069721214827143205 0.070973154050662138 0.98202865771588765 0.51348607409480673 0.22000000000000003 0.45133336091856951 0.41900561347233373 0.10452880480595676 0.53168496441549251 0.3528195894986903 0.59033361992249433 1.0000000180025095e-35 0.61341275555286834 0.21960082334441897 0.67688773599872754 0.45133336091856951 0.51298240439606357 0.64772487228375752 0.51298240439606357 0.58355200773909133 0.70657666276404862 0.45133336091856951
decision_type=2 2 2 2 2 2 2 2 2 2 2 2 2 2 2 2 2 2 2 2 2 2 2 2 2
left_child=1 3 19 7 11 9 -5 14 10 20 -8 12 22 -14 -1 -10 17 24 -18 -3 -6 -9 -2 -13 -16
right_child=4 2 -4 6 5 -7 8 21 15 -11 -12 23 13 -15 16 -17 18 -19 -20 -21 -22 -23 -24 -25 -26
leaf_value=0.0027851561152515006 0.034770342239128296 0.13588786270591305 -0.0017654268774355151 -0.050104811674259883 -0.01062125790371185 0.067849456207077302 0.039318151911918502 -0.051921776672037664 0.01137314625416329 -0.034088928555753045 0.0066276868462551933 0.020628709992669608 0.13547132261971956 0.043094710313282054 -0.035631478971957252 -0.0097415921792632365 -0.0033753175901105508 -0.017119746347888775 -0.028923689807269296 0.087207313840766146 0.00020288355757887213 -0.044016826892864153 0.028459432977934865 0.025215725765305671 -0.039353644184558841
leaf_weight=0.48445733636617827 0.9637396484613403 0.13613725465256599 1.4148987336084247 0.59456533362390374 0.79949921602383311 0.53512768482323725 0.88980998191982497 0.47874234837945528 1.0975536219775677 0.98309856234118331 1.0805929731577633 1.1383829666301608 0.18363399588270102 0.7270835479721427 1.0277374030556532 1.747493184171617 1.1332847471348941 1.5021404973231258 1.2156256288290024 0.35964401718229055 1.0235602064058185 0.80208404420409352 0.87174059124663472 1.1338305566459894 1.4270861764671279
leaf_count=4 9 11 8 11 9 15 9 11 8 12 11 8 12 11 10 13 10 13 9 12 7 10 12 10 19
internal_value=0 -0.0104675 0.0247897 -0.0154645 0.0192728 -0.00164268 0.00144477 -0.0267986 0.00780961 -0.0148947 0.0213903 0.0331984 0.0417047 0.0617212 -0.0229935 -0.00159601 -0.024974 -0.0299465 -0.0165973 0.100575 -0.00454402 -0.0469715 0.031773 0.0229176 -0.0377953
internal_weight=0 15.3919 1.91068 13.4812 8.3597 3.34129 5.41002 8.07116 4.81545 2.80616 1.9704 5.01841 2.7462 0.910718 6.79033 2.84505 6.30587 3.95696 2.34891 0.495781 1.82306 1.28083 1.83548 2.27221 2.45482
internal_count=274 169 31 138 105 43 52 86 41 28 20 62 44 23 65 21 61 42 19 23 16 21 21 18 29
shrinkage=0.113


Tree=19
num_leaves=24
num_cat=0
split_feature=5 10 11 11 2 8 3 11 9 11 0 2 0 11 11 11 5 0 1 1 11 0 1
split_gain=0.371262 0.196702 0.218755 0.159145 0.283992 0.170174 0.128989 0.0520039 0.041896 0.0360234 0.0411434 0.0323421 0.0280694 0.0275724 0.0221176 0.018071 0.0356941 0.0287235 0.0176521 0.0100042 0.00255409 0.00194171 0.00170283
threshold=0.41106719035376682 0.070973154050662138 0.98202865771588765 0.77915819106608775 0.99599037690457126 0.069721214827143205 0.028761003896220581 0.53168496441549251 0.22000000000000003 0.45133336091856951 0.61341275555286834 0.41900561347233373 0.61341275555286834 0.3528195894986903 0.67688773599872754 0.45133336091856951 0.13317275513406593 0.82861429136100517 0.51298240439606357 0.58355200773909133 0.64772487228375752 0.70657666276404862 0.51298240439606357
decision_type=2 2 2 2 2 2 2 2 2 2 2 2 2 2 2 2 2 2 2 2 2 2 2
left_child=3 7 11 5 18 8 -7 13 14 10 -8 20 -11 19 15 17 -17 -1 -5 -2 -3 -9 -10
right_child=1 2 -4 4 -6 6 9 21 22 12 -12 -13 -14 -15 -16 16 -18 -19 -20 -21 -22 -23 -24
leaf_value=-0.0056607794607958541 0.044638414842091259 -0.010550967986648863 0.066651103805972917 0.13523303014420865 -0.0045760163024857869 -0.059760311145505417 0.0038370294007734665 0.017727684900053744 -0.050153706699338996 0.012035590234545047 0.036387906333722658 -0.031426978305048585 -0.011595501328177476 0.061271029984234476 -0.011757466048135271 -0.018227878059071629 -0.044934699998347281 -0.032304589159299506 0.084826214924674986 0.027640617975693997 -0.0018745194041558258 0.024473653228150549 -0.041476763994161621
leaf_weight=1.0829683630727251 0.93893740884959542 0.76226107170805391 0.49980929365847249 0.12158608628669632 1.4214079463854432 0.41239004430826742 1.1831596549600365 1.0913922544568777 0.46024880203185581 1.04901690967381 0.85351013764739025 0.9556461009196936 1.6535393055528402 0.86172757198801253 1.901811539661139 1.1910127613227817 1.378750331175979 0.98800772498361755 0.32808468362782151 0.83561831200495362 1.0036045541055501 1.0878941174596548 0.77526152855716646
leaf_count=10 9 9 15 11 8 11 11 8 11 8 9 12 13 23 17 9 19 10 12 12 7 10 10
internal_value=0 0.019552 -0.00206254 -0.0106168 0.0201853 -0.0150743 0.000854999 0.0340108 -0.0256246 0.00612952 0.0174782 -0.0146819 -0.00242292 0.0446874 -0.0220207 -0.0262266 -0.0325568 -0.0183718 0.0984557 0.0366343 -0.00561983 0.0210953 -0.0447091
internal_weight=0 8.03689 3.22132 14.8008 1.87108 12.9297 5.15162 4.81557 7.77806 4.73923 2.03667 2.72151 2.70256 2.63628 6.54255 4.64074 2.56976 2.07098 0.449671 1.77456 1.76587 2.17929 1.23551
internal_count=274 105 43 169 31 138 52 62 86 41 20 28 21 44 65 48 28 20 23 21 16 18 21
shrinkage=0.113


Tree=20
num_leaves=26
num_cat=0
split_feature=10 11 8 11 0 11 10 0 2 11 0 2 1 2 8 0 0 11 0 0 0 11 11 11 2
split_gain=0.360659 0.324832 0.21755 0.132721 0.096097 0.0728713 0.112487 0.0685722 0.0567689 0.0417297 0.0384323 0.0349098 0.0306201 0.0128057 0.0152463 0.00886225 0.00754211 0.0043204 0.00510723 0.00344984 0.00198452 0.00110191 0.000177437 0.259875 2.47988e-05
threshold=0.053859060085187614 0.98202865771588765 0.069721214827143205 0.45133336091856951 0.44236970535318071 0.64772487228375752 0.17718120777757762 0.76735039005403693 0.37209302325581411 0.53168496441549251 0.61341275555286834 0.41900561347233373 0.44088151681405091 0.41900561347233373 0.021148118322094709 1.0000000180025095e-35 0.70657666276404862 0.45133336091856951 0.94375032136004899 0.29739252513674613 0.59033361992249433 0.45133336091856951 0.68736184834557201 0.77915819106608775 0.29911788291900571
decision_type=2 2 2 2 2 2 2 2 2 2 2 2 2 2 2 2 2 2 2 2 2 2 2 2 2
left_child=4 2 5 12 -1 6 13 -8 10 16 20 -3 -4 14 17 -7 -6 -2 -19 -17 -5 -16 -21 -24 -14
right_child=1 11 3 8 9 15 7 -9 -10 -11 -12 -13 24 -15 21 19 -18 18 -20 22 -22 -23 23 -25 -26
leaf_value=-0.016789279862420105 -0.0085762139066140261 0.13456449658796379 0.011941893457848411 0.0098649620641147427 0.044205136092996457 -0.014359541677880909 -0.13182968377099485 -0.048657927375347861 -0.022222035743209724 0.023064006089332588 -0.0099544259214139532 0.063627336465340481 0.037227857922855261 -0.033964468871338895 -0.029813271044225185 0.0056041322544911967 0.058432190902279822 -0.022341053828914156 -0.01022597594381253 -0.0040540559183544671 0.016877485083076991 -0.024593648472817264 -0.041365516199840892 0.082818024916415683 0.038161076826304305
leaf_weight=0.4146696338430077 1.0619967798702474 0.10888030030764539 0.99033608287572805 1.0063380105420947 0.960650105640525 1.3997131604701283 0.17724130430724461 0.44280387030448765 1.6034563989669548 1.0354835921898484 1.5825661506969484 0.4752198924543336 0.81246658787131287 0.93917339586187143 0.95167752797715377 0.46862239390611682 0.94269889825955033 1.1364726610481737 0.7295289123430847 0.98668397823348675 1.0560770682059228 1.1292542952578515 0.75900756556075044 0.30031267064623535 0.65812297374941409
leaf_count=4 10 11 11 8 24 13 10 11 15 10 13 15 9 12 10 4 9 9 9 7 8 9 10 12 11
internal_value=0 -0.00609663 -0.00875988 0.00564941 0.0341345 -0.0193572 -0.0266305 -0.0724328 -0.00450309 0.0413198 0.00329161 0.0768505 0.0273017 -0.021856 -0.0195857 -0.00715281 0.0512516 -0.0143299 -0.0176046 -0.00314134 0.0134558 -0.0269808 -0.00514442 -0.00616002 0.0376455
internal_weight=0 18.776 18.1919 7.70936 3.3535 10.4825 6.56815 0.620045 5.24844 2.93883 3.64498 0.5841 2.46093 5.9481 5.00893 3.91434 1.90335 2.928 1.866 2.51463 2.06242 2.08093 2.046 1.05932 1.47059
internal_count=274 227 201 75 47 126 80 21 44 43 29 26 31 59 47 46 33 28 18 33 16 19 29 22 20
shrinkage=0.113


Tree=21
num_leaves=25
num_cat=0
split_feature=10 11 5 7 0 11 8 11 2 11 9 0 2 1 11 0 0 8 5 11 0 11 11 7
split_gain=0.589251 0.287739 0.187876 0.148396 0.128467 0.159746 0.0741501 0.101903 0.070681 0.0472905 0.0513311 0.0353984 0.0352379 0.018914 0.0144072 0.0139518 0.00985648 0.00857956 0.00721823 0.186734 0.0399244 0.00594813 0.00099157 0.000245874
threshold=0.053859060085187614 0.98202865771588765 0.62612983742317041 0.025384520271380974 0.44236970535318071 0.32155356412623187 0.069721214827143205 0.45133336091856951 0.37209302325581411 0.64772487228375752 1.0000000180025095e-35 0.63252044125064555 0.41900561347233373 0.8249191861292241 0.91589751341782366 0.70657666276404862 0.61341275555286834 0.021148118322094709 0.20945946249560674 0.77915819106608775 0.29739252513674613 0.45133336091856951 0.45133336091856951 0.020714679282958556
decision_type=2 2 2 2 2 2 2 2 2 2 2 2 2 2 2 2 2 2 2 2 2 2 2 2
left_child=4 2 3 6 -1 -6 9 13 -5 10 17 16 -3 -8 -4 -7 -9 21 19 20 -11 -2 -19 -20
right_child=1 12 14 8 5 15 7 11 -10 18 -12 -13 -14 -15 -16 -17 -18 22 23 -21 -22 -23 -24 -25
leaf_value=-0.016024671663457456 -0.0087500374030994137 0.13389869237394711 0.039064237047882845 -0.046995525011289396 0.086717224438011747 0.042149149719535282 0.010156672054354034 0.0057045596280900588 -0.13706773026968505 0.0047819844639085656 -0.047111879088782727 -0.024829563965189864 0.059142665140996219 0.03382460364575933 0.017404927763536571 0.022818963012248936 -0.0089592353962335159 -0.027956646612493224 -0.01089029080450934 0.081488804449425703 -0.037828497156308497 -0.019504037304156698 -0.022923138836257805 -0.013229673522392339
leaf_weight=0.40900408662855925 1.0335298827849384 0.097918396320891499 0.64057104592211422 0.42716362292412746 1.0595792578533292 0.90954028657870356 0.95353743061423368 0.95337007706984889 0.15041661501163617 0.45384108275175117 1.0532677571463862 1.611026534810662 0.45299924269784242 0.78696834901347756 1.0111478674225509 1.0020353551954031 1.516102904221043 0.92281183740124118 0.99242172250524174 0.2766231057466938 0.73631010809913278 1.8014689070405436 1.0900125009939075 1.3596045095473528
leaf_count=4 10 11 11 11 9 24 11 8 7 4 22 8 15 9 8 10 13 10 7 12 10 18 9 13
internal_value=0 -0.00799795 -0.0104914 -0.0142108 0.0433504 0.0515239 -0.0121206 -0.00203436 -0.0704526 -0.0181609 -0.0245016 -0.011799 0.0724296 0.0208581 0.0258049 0.0320164 -0.0032981 -0.0195891 -0.00836295 -0.00214181 -0.0215798 -0.0155835 -0.0252308 -0.0122426
internal_weight=0 18.3211 17.7702 16.1185 3.38016 2.97115 15.5409 5.82101 0.57758 9.71989 5.90109 4.0805 0.550918 1.74051 1.65172 1.91158 2.46947 4.84782 3.8188 1.46677 1.19015 2.835 2.01282 2.35203
internal_count=274 227 201 182 47 43 164 49 18 115 69 29 26 20 19 34 21 47 46 26 14 28 19 20
shrinkage=0.113


Tree=22
num_leaves=24
num_cat=0
split_feature=10 11 2 8 11 11 11 9 0 11 0 0 11 7 5 11 0 11 5 0 0 0 0
split_gain=0.993778 0.263341 0.223741 0.255196 0.185937 0.0643856 0.0376352 0.0883837 0.0606226 0.0324097 0.0220648 0.0159582 0.0128156 0.0122706 0.00846263 0.172095 0.0372962 0.00567676 0.0133131 0.00622887 0.00496433 0.00134261 0.000672966
threshold=0.053859060085187614 0.98202865771588765 0.37209302325581411 0.069721214827143205 0.32155356412623187 0.45133336091856951 0.64772487228375752 1.0000000180025095e-35 0.76735039005403693 0.67688773599872754 0.61341275555286834 0.59033361992249433 0.42474782993232335 0.023439176392828925 0.20945946249560674 0.77915819106608775 0.29739252513674613 0.45133336091856951 0.13317275513406593 0.82861429136100517 0.59033361992249433 0.61341275555286834 0.94375032136004899
decision_type=2 2 2 2 2 2 2 2 2 2 2 2 2 2 2 2 2 2 2 2 2 2 2
left_child=4 2 3 6 -1 11 7 13 -9 -4 20 -5 -6 -2 15 16 -8 18 -15 -19 -7 -13 -16
right_child=1 -3 9 5 12 10 14 8 -10 -11 -12 21 -14 17 22 -17 -18 19 -20 -21 -22 -23 -24
leaf_value=0.082383861565059044 -0.0058452828428260765 0.068311252053644342 -0.024984761567745015 0.013834697304996974 0.018359166875916339 0.0045567198337528618 0.0038619510578927693 -0.12993877064267007 -0.045340764594337821 -0.049384148059397677 -0.0079863508513071408 0.038705624167845398 0.037744601589804951 -0.027894518541820356 -0.012719370904885957 0.080504464672699325 -0.038009724689251831 -0.032469557012721501 -0.0089534564038608998 -0.020209705444835649 0.016232360871355576 0.031630871327937224 -0.016608996740581292
leaf_weight=1.6664379290305107 0.67136528482661173 0.52238952017796592 1.0681532147573298 0.69617262482643072 0.70955681800842274 0.9009166588075459 0.44068910926580451 0.14656542950251594 0.41278266586596146 1.9906096861814149 1.4560084028635174 0.6217618172522632 1.127262642025016 0.89515314158052173 1.3219309505075219 0.25601585750700895 0.70807599526597187 1.0644253856735304 1.0067337320651859 1.0523262044880539 0.96103862999007106 0.7626531645655632 0.99586582696065296
leaf_count=13 9 26 16 7 12 8 4 10 11 15 13 11 22 10 13 12 10 9 10 9 8 9 7
internal_value=0 -0.0107435 -0.0131129 -0.00720613 0.0550523 0.0122065 -0.018887 -0.0250501 -0.0675079 -0.0408636 0.00243431 0.0277904 0.0302561 -0.0199865 -0.0101961 -0.00327555 -0.0219469 -0.0223489 -0.0178684 -0.0263747 0.010583 0.0348083 -0.0143906
internal_weight=0 17.9516 17.4292 14.3705 3.50326 5.39855 8.97193 5.24935 0.559348 3.05876 3.31796 2.08059 1.83682 4.69 3.72258 1.40478 1.14877 4.01864 1.90189 2.11675 1.86196 1.38441 2.3178
internal_count=274 227 201 170 47 56 114 68 21 31 29 27 34 47 46 26 14 38 20 18 16 20 20
shrinkage=0.113


Tree=23
num_leaves=25
num_cat=0
split_feature=11 11 5 7 2 1 3 0 0 3 0 5 11 1 0 11 0 1 0 0 1 3 7 0
split_gain=0.313041 0.33084 0.286284 0.0988673 0.0945787 0.0939776 0.0897598 0.0382299 0.0257629 0.0209831 0.0189553 0.0331088 0.0187226 0.0173672 0.0159474 0.0494295 0.0923125 0.0113316 0.00915813 0.00765743 0.00692555 0.00143946 0.000661767 0.000395086
threshold=0.77915819106608775 0.45133336091856951 0.41106719035376682 0.025384520271380974 0.29911788291900571 0.8249191861292241 0.050213589858228304 1.0000000180025095e-35 0.61341275555286834 0.050213589858228304 0.82861429136100517 0.13317275513406593 0.64772487228375752 0.51298240439606357 0.70657666276404862 0.3528195894986903 0.59033361992249433 0.8249191861292241 0.63252044125064555 0.70657666276404862 0.39052915034172347 0.063181196419249006 0.024478057170235268 0.60700420711197478
decision_type=2 2 2 2 2 2 2 2 2 2 2 2 2 2 2 2 2 2 2 2 2 2 2 2
left_child=1 2 5 6 13 10 7 -3 21 18 11 -1 17 -2 15 -4 -17 -10 -6 -9 -13 23 -19 -8
right_child=4 3 14 -5 9 -7 8 19 12 -11 -12 20 -14 -15 -16 16 -18 22 -20 -21 -22 -23 -24 -25
leaf_value=0.014583635942817821 0.13392725158445518 -0.015552017400534163 0.017770582239253218 -0.065696755814407939 0.01322766386174421 0.032537546255903674 -0.02910764138117599 0.0023410209086025873 -0.023126638249172743 0.049573603680599383 -0.026198114997782549 -0.02676720802678114 -0.030790479862098943 0.074772990689854005 0.059505995828770072 0.1363408191285119 0.039414111511634091 -0.0055025173241158689 0.027561942672264049 0.015779917581343131 -0.010609478960916012 -0.036629288466161605 -0.0098738034760860321 -0.032418234294489111
leaf_weight=0.66981158219278603 0.086251827575324014 1.4532150070663159 0.68846587254665814 0.52646315326273985 0.92382039967924412 0.74768573092296708 1.0274437145562845 1.2794059989973905 1.0089101742487403 0.41492960607865814 0.86851194803602982 0.46993319038301673 1.0514003243297336 0.23893222567858174 0.810947477351874 0.15833613347786013 0.60440231987740844 0.64334746077656757 1.4823491787537932 0.93855002615600813 1.2132040460128337 0.69129747734405089 1.4145819173427299 0.83387067157309491
leaf_count=7 11 23 12 18 8 9 9 12 9 15 10 4 7 12 9 12 11 9 8 10 14 10 13 12
internal_value=0 -0.00602716 0.0147309 -0.0179285 0.0327571 -0.00355429 -0.0154969 -0.00130614 -0.0233065 0.0261054 -0.011931 -0.00666482 -0.0177778 0.0904631 0.046814 0.0397216 0.059535 -0.0133167 0.0220585 0.00802782 -0.0151207 -0.0322261 -0.00850726 -0.0305908
internal_weight=0 17.0998 6.2313 10.8685 3.14628 3.96915 10.342 3.67117 6.67085 2.8211 3.22146 2.35295 4.11824 0.325184 2.26215 1.4512 0.762738 3.06684 2.40617 2.21796 1.68314 2.55261 2.05793 1.86131
internal_count=274 220 88 132 54 44 114 45 69 31 35 25 38 23 44 35 23 31 16 22 18 31 22 21
shrinkage=0.113


end of trees

feature_importances:
relevance=198
color=140
intensity=63
visibility=44
shape_size=33
proximity2fe=30
proximity2be=18
uniqueness=18
wellknownness=10
integration=8
proximity2dp=5
choice=1

parameters:
[boosting: gbdt]
[objective: lambdarank]
[metric: ndcg]
[tree_learner: serial]
[device_type: cpu]
[data: ]
[valid: ]
[num_iterations: 28]
[learning_rate: 0.113]
[num_leaves: 28]
[num_threads: -1]
[force_col_wise: 0]
[force_row_wise: 0]
[histogram_pool_size: -1]
[max_depth: 9]
[min_data_in_leaf: 5]
[min_sum_hessian_in_leaf: 0.001]
[bagging_fraction: 1]
[pos_bagging_fraction: 1]
[neg_bagging_fraction: 1]
[bagging_freq: 0]
[bagging_seed: 3]
[feature_fraction: 1]
[feature_fraction_bynode: 1]
[feature_fraction_seed: 2]
[extra_trees: 0]
[extra_seed: 6]
[early_stopping_round: 100]
[first_metric_only: 0]
[max_delta_step: 0]
[lambda_l1: 0]
[lambda_l2: 0]
[min_gain_to_split: 0]
[drop_rate: 0.1]
[max_drop: 50]
[skip_drop: 0.5]
[xgboost_dart_mode: 0]
[uniform_drop: 0]
[drop_seed: 4]
[top_rate: 0.2]
[other_rate: 0.1]
[min_data_per_group: 100]
[max_cat_threshold: 32]
[cat_l2: 10]
[cat_smooth: 10]
[max_cat_to_onehot: 4]
[top_k: 20]
[monotone_constraints: ]
[monotone_constraints_method: basic]
[monotone_penalty: 0]
[feature_contri: ]
[forcedsplits_filename: ]
[refit_decay_rate: 0.9]
[cegb_tradeoff: 1]
[cegb_penalty_split: 0]
[cegb_penalty_feature_lazy: ]
[cegb_penalty_feature_coupled: ]
[path_smooth: 0]
[interaction_constraints: ]
[verbosity: -1]
[saved_feature_importance_type: 0]
[max_bin: 255]
[max_bin_by_feature: ]
[min_data_in_bin: 3]
[bin_construct_sample_cnt: 200000]
[data_random_seed: 1]
[is_enable_sparse: 1]
[enable_bundle: 1]
[use_missing: 1]
[zero_as_missing: 0]
[feature_pre_filter: 1]
[pre_partition: 0]
[two_round: 0]
[header: 0]
[label_column: ]
[weight_column: ]
[group_column: ]
[ignore_column: ]
[categorical_feature: ]
[forcedbins_filename: ]
[objective_seed: 5]
[num_class: 1]
[is_unbalance: 0]
[scale_pos_weight: 1]
[sigmoid: 1]
[boost_from_average: 1]
[reg_sqrt: 0]
[alpha: 0.9]
[fair_c: 1]
[poisson_max_delta_step: 0.7]
[tweedie_variance_power: 1.5]
[lambdarank_truncation_level: 20]
[lambdarank_norm: 1]
[label_gain: ]
[eval_at: 1,2]
[multi_error_top_k: 1]
[auc_mu_weights: ]
[num_machines: 1]
[local_listen_port: 12400]
[time_out: 120]
[machine_list_filename: ]
[machines: ]
[gpu_platform_id: -1]
[gpu_device_id: -1]
[gpu_use_dp: 0]

end of parameters

pandas_categorical:null
