tree
version=v3
num_class=1
num_tree_per_iteration=1
label_index=0
max_feature_idx=11
objective=lambdarank
feature_names=color intensity shape_size integration choice visibility proximity2dp proximity2fe proximity2be uniqueness wellknownness relevance
feature_infos=[0:1] [0:1] [0:1.0000000000000002] [0:1] [0:1] [0:1] [0:1.0000000000000002] [0:0.99999999999999989] [0:0.93183904056685019] [0:1] [0:0.97986577180532408] [0:1]
tree_sizes=1569 1559 1570 1566 1580 1366 1582 1585 1584 1580 1590 1593 1586 1594 1593 1594 1592 1589

Tree=0
num_leaves=14
num_cat=0
split_feature=11 1 0 5 1 11 0 11 11 7 11 11 7
split_gain=8.57892 7.26609 4.5106 1.85095 1.36478 2.49019 1.53691 0.990158 0.912495 0.544486 0.89126 0.541782 0.516756
threshold=0.98202865771588765 0.20976926485769415 0.57358709964519461 0.41106719035376682 0.58355200773909133 0.77915819106608775 0.51348607409480673 0.56015369265413584 0.42474782993232335 0.026299892476803661 0.67688773599872754 0.3528195894986903 0.020714679282958556
decision_type=2 2 2 2 2 2 2 2 2 2 2 2 2
left_child=1 9 4 -4 5 6 -3 11 -6 10 12 -5 -1
right_child=-2 2 3 7 8 -7 -8 -9 -10 -11 -12 -13 -14
leaf_value=-0.12490351612387504 0.19648132565052559 -0.08547338400751793 -0.071047486088571823 -0.029144251146810022 0.081993348839755134 0.19225327391349567 0.080409491766795987 -0.033443592589280757 0.22599999999999981 -0.22599999999999976 -0.050198385076498625 0.071356137224625735 -0.22599999999999976
leaf_weight=1.7188960313797059 2.5717866420745841 1.4928429760038879 6.3326519690453988 0.87285388633608807 1.0408090464770794 1.1247866265475752 1.3655610792338848 3.3295413851737976 1.2209469601511955 0.84173232316970814 1.3291976377367971 3.1812919750809669 1.0339605808258057
leaf_count=17 26 15 62 9 11 12 14 33 12 8 13 32 10
internal_value=0 -0.0203057 0.0100203 -0.0262245 0.0896282 0.0498218 -0.00622525 0.012218 0.159731 -0.143249 -0.126185 0.0497185 -0.162875
internal_weight=0 24.8851 19.9613 13.7163 6.24495 3.98319 2.8584 7.38369 2.26176 4.92379 4.08205 4.05415 2.75286
internal_count=274 248 200 136 64 41 29 74 23 48 40 41 27
shrinkage=0.113


Tree=1
num_leaves=14
num_cat=0
split_feature=11 5 1 1 11 1 11 0 7 11 7 2 11
split_gain=18.9738 17.5934 8.79264 6.99371 4.64794 3.54155 3.84944 2.7637 2.53215 3.99756 2.2368 1.79287 1.28772
threshold=0.98202865771588765 0.51330105392746328 0.20976926485769415 0.41542385403513515 0.77915819106608775 0.58355200773909133 0.42474782993232335 0.62907279972415853 0.026299892476803661 0.67688773599872754 0.020714679282958556 0.41900561347233373 0.45133336091856951
decision_type=2 2 2 2 2 2 2 2 2 2 2 2 2
left_child=1 2 8 12 -5 -3 -7 -6 9 10 -1 -2 -4
right_child=11 5 3 4 7 6 -8 -9 -10 -11 -12 -13 -14
leaf_value=-0.094776930109919874 0.20894836380173742 0.040057307262583053 0.0087609078101157211 -0.055990494466904704 0.098559300851500845 0.05526873799228476 0.20640410937846787 -0.029546546685632877 -0.20339216440501898 -0.02059775819078645 -0.20439040356694357 0.10988820938322567 0.06809158736509538
leaf_weight=8.2677694410085731 4.1877325475215894 16.174998939037323 8.3584346771240252 38.764994069933891 4.3903503865003568 4.3653601109981555 4.2439472079277039 4.2146615386009216 2.6065490096807471 7.5368803739547721 3.3364424109458914 5.2673843950033188 10.58840563893318
leaf_count=17 11 40 15 80 12 11 12 8 8 13 10 15 22
internal_value=0 -0.0128831 -0.0365528 -0.0161057 -0.0393137 0.071221 0.129771 0.0358141 -0.0989038 -0.0846751 -0.126293 0.153763 0.0419177
internal_weight=0 112.849 88.0645 66.3168 47.37 24.7843 8.60931 8.60501 21.7476 19.1411 11.6042 9.45512 18.9468
internal_count=274 248 185 137 100 63 23 20 48 40 27 26 37
shrinkage=0.113


Tree=2
num_leaves=14
num_cat=0
split_feature=11 5 1 7 11 11 7 11 0 11 11 5 2
split_gain=10.6558 8.39081 5.39643 4.12687 2.00203 1.7568 1.66714 1.85331 1.39884 1.39142 2.30207 0.687494 0.585277
threshold=0.98202865771588765 0.66306536504090297 0.25709665841008417 0.023439176392828925 0.64772487228375752 0.77915819106608775 0.026299892476803661 0.67688773599872754 0.20029640213204666 0.91589751341782366 0.42474782993232335 0.51330105392746328 0.41900561347233373
decision_type=2 2 2 2 2 2 2 2 2 2 2 2 2
left_child=1 2 6 4 11 -6 7 8 -1 10 -3 -4 -2
right_child=12 9 3 -5 5 -7 -8 -9 -10 -11 -12 -13 -14
leaf_value=-0.18797577930562345 0.19089129001682958 0.064076479695111058 0.027299195098141528 -0.054419175043084106 -0.051175747553742157 0.017118057348528282 -0.18797771195914664 -0.029728395263740832 -0.078741718486206369 0.0030881643377580186 0.19015681471255519 0.083717612852758638 0.11811673578021543
leaf_weight=2.0338800549507141 2.2751183062791815 6.8477563634514791 18.081074267625812 16.886927604675293 8.90230441093445 10.462114185094832 1.6372072622179992 7.9172911942005157 5.6705431938171387 2.4891535192728034 2.5332816764712334 3.2543193623423567 3.7157166451215744
leaf_count=10 11 22 46 49 17 30 8 18 17 7 12 12 15
internal_value=0 -0.0100695 -0.0240679 -0.00745694 0.0120284 -0.0142783 -0.0794925 -0.0681229 -0.107578 0.0781948 0.0981236 0.0359048 0.145754
internal_weight=0 86.7159 74.8457 57.5867 40.6998 19.3644 17.2589 15.6217 7.70442 11.8702 9.38104 21.3354 5.99083
internal_count=274 248 207 154 105 47 53 45 27 41 34 58 26
shrinkage=0.113


Tree=3
num_leaves=14
num_cat=0
split_feature=5 11 2 11 1 7 11 11 0 0 0 2 11
split_gain=6.83966 8.17421 3.74722 5.76899 2.5182 1.46028 1.36332 1.73262 0.809554 0.574473 0.367965 0.326914 0.293362
threshold=0.66306536504090297 0.98202865771588765 0.067361668003207739 0.77915819106608775 0.51298240439606357 0.025384520271380974 0.91589751341782366 0.3528195894986903 0.98423748947671708 0.76735039005403693 0.59033361992249433 0.41900561347233373 0.67688773599872754
decision_type=2 2 2 2 2 2 2 2 2 2 2 2 2
left_child=1 2 3 4 -1 8 7 -2 12 -7 -9 -3 -4
right_child=6 11 5 -5 -6 9 -8 10 -10 -11 -12 -13 -14
leaf_value=0.031527271296500674 0.029855701914680743 0.17692063015520143 -0.062404860422521698 0.162216911027489 -0.039175217632913359 -0.17670934200967914 0.00095010154318893303 0.17965172320389275 -0.0004246023649475327 -0.084950745761025612 0.11888919071376904 0.11255227748996018 -0.037432848690704304
leaf_weight=10.933803901076322 2.7849361374974233 1.5443791635334481 10.982811275869613 2.7375979200005522 15.624613165855406 1.1781729981303204 2.052998259663581 1.8552798777818678 5.4161283373832694 3.3441352918744087 4.0520005896687508 2.8981670960783958 13.258582457900046
leaf_count=32 11 11 44 12 48 8 7 12 16 11 11 15 36
internal_value=0 -0.0132533 -0.0236242 0.00603154 -0.0100678 -0.0490426 0.0837712 0.103333 -0.039922 -0.108856 0.137973 0.134929 -0.0487467
internal_weight=0 67.9184 63.4758 29.296 26.5584 34.1798 10.7452 8.69222 29.6575 4.52231 5.90728 4.44255 24.2414
internal_count=274 233 207 92 80 115 41 34 96 19 23 26 80
shrinkage=0.113


Tree=4
num_leaves=14
num_cat=0
split_feature=11 10 11 7 6 11 0 11 7 5 11 5 0
split_gain=4.67825 4.99093 5.50944 2.37142 2.05069 0.797214 0.811289 0.652208 1.43073 0.688797 0.634051 1.53188 0.745755
threshold=0.98202865771588765 0.070973154050662138 0.77915819106608775 0.025384520271380974 0.53032803014355856 0.42474782993232335 0.70657666276404862 0.64772487228375752 0.020714679282958556 0.20945946249560674 0.38709523039848187 0.51330105392746328 0.92798781083676607
decision_type=2 2 2 2 2 2 2 2 2 2 2 2 2
left_child=1 4 3 7 10 -6 -7 8 -3 -9 11 -1 -12
right_child=-2 2 -4 -5 5 6 -8 9 -10 -11 12 -13 -14
leaf_value=-0.035566220243648368 0.12660038782800631 -0.044414008102462668 0.13875545877119622 -0.13046189702911434 0.034452449863078084 0.17118841352185366 0.066636159097935035 -0.053709189548588228 -0.17439593998700539 -0.0022648884203024544 0.0032842007214998765 0.067915122490209631 -0.056181601258188517
leaf_weight=2.8011614829301852 3.5379479862749568 5.4489470496773817 1.9454118907451619 4.7561349347233763 4.8011303618550283 1.4243187941610811 2.8319867998361588 6.4457573816180211 1.3490104675292967 6.8604848980903625 19.127100721001629 5.2506534159183502 3.134142391383647
leaf_count=10 26 21 12 19 20 12 9 15 10 20 67 23 10
internal_value=0 -0.00676837 -0.0443772 -0.058708 0.0188379 0.0660176 0.101623 -0.0417329 -0.0702081 -0.0271853 0.0047408 0.0319148 -0.00508794
internal_weight=0 66.1762 26.8057 24.8603 39.3705 9.05744 4.25631 20.1042 6.79796 13.3062 30.3131 8.05181 22.2612
internal_count=274 248 97 85 151 41 21 66 31 35 110 33 77
shrinkage=0.113


Tree=5
num_leaves=12
num_cat=0
split_feature=11 5 7 6 5 11 11 11 11 2 1
split_gain=3.61067 3.03222 2.54841 0.849535 0.908195 2.69474 0.649405 0.82267 0.372478 0.258897 0.135906
threshold=0.98202865771588765 0.66306536504090297 0.025384520271380974 0.71273283825771439 0.20945946249560674 0.77915819106608775 0.91589751341782366 0.42474782993232335 0.56015369265413584 0.41900561347233373 0.58355200773909133
decision_type=2 2 2 2 2 2 2 2 2 2 2
left_child=1 2 3 4 5 -1 7 10 -6 -2 -3
right_child=9 6 -4 -5 8 -7 -8 -9 -10 -11 -12
leaf_value=-0.035008628091176677 0.16636919515643478 0.077730249505998411 -0.11433670815501096 -0.074449257030466828 0.029108145368870308 0.11895261202273387 0.0015371459757076017 0.16566697242591699 -0.00084014888526351211 0.096688343257899309 0.03764041619313073
leaf_weight=19.12802799791098 1.0556019265204659 2.2622016817331305 3.1585513371974221 2.4386218786239615 7.8763707578182247 1.5708230845630158 1.7111457139253614 1.1623833384364841 16.230120180174708 1.9178977124392986 2.0657403245568275
leaf_count=72 11 11 19 12 35 12 7 12 57 15 11
internal_value=0 -0.00626793 -0.0160677 -0.00949783 -0.00596272 -0.0233246 0.06232 0.0812639 0.00894493 0.121425 0.0585952
internal_weight=0 57.604 50.4025 47.244 44.8053 20.6989 7.20147 5.49033 24.1065 2.9735 4.32794
internal_count=274 248 207 188 176 84 41 34 92 26 22
shrinkage=0.113


Tree=6
num_leaves=14
num_cat=0
split_feature=11 5 7 3 11 3 9 11 11 3 2 0 11
split_gain=2.86723 2.23885 1.78224 0.770284 2.05138 1.18932 0.676345 0.442488 0.682354 0.30698 0.190867 0.169614 0.163847
threshold=0.98202865771588765 0.66306536504090297 0.025384520271380974 0.050213589858228304 0.77915819106608775 0.043137279689637077 0.66666666666666674 0.91589751341782366 0.42474782993232335 0.0082590454961355159 0.41900561347233373 0.76735039005403693 0.38709523039848187
decision_type=2 2 2 2 2 2 2 2 2 2 2 2 2
left_child=1 2 3 5 6 9 -5 8 -3 -1 -2 -4 -7
right_child=10 7 11 4 -6 12 -8 -9 -10 -11 -12 -13 -14
leaf_value=0.012055872770121268 0.16102753074508147 0.052937091801136704 -0.15780715645400487 -0.022381702274862397 0.11030064523356223 0.015724363668009892 -0.071539620449825245 0.0062927095595708363 0.16020435611964745 -0.021528277381736766 0.095387473830725933 -0.090061023577352073 0.055546780046211039
leaf_weight=4.9384240359067979 0.85950743407010954 3.8046275824308387 0.62846491113305014 12.824909523129469 1.3127137385308731 1.8067575097084034 4.9545264393091193 1.6455052122473715 0.94540191069245327 11.730585545301436 1.6545046865940094 1.8942193351686001 4.8898847177624702
leaf_count=22 11 22 8 54 12 9 22 7 12 46 15 11 23
internal_value=0 -0.00576579 -0.0146606 -0.00917782 -0.0260157 0.00458045 -0.0360803 0.0567925 0.0742866 -0.0115785 0.117829 -0.106938 0.0448027
internal_weight=0 51.376 44.9805 42.4578 19.0921 23.3657 17.7794 6.39553 4.75003 16.669 2.51401 2.52268 6.69664
internal_count=274 248 207 188 88 100 76 41 34 68 26 19 32
shrinkage=0.113


Tree=7
num_leaves=14
num_cat=0
split_feature=11 5 7 1 11 7 11 1 11 11 11 1 0
split_gain=2.23301 1.8057 1.46764 0.855912 1.46153 0.832397 0.675461 0.497965 0.453235 0.385468 0.535542 0.373802 0.230442
threshold=0.98202865771588765 0.66306536504090297 0.023439176392828925 0.25709665841008417 0.67688773599872754 0.020714679282958556 0.56015369265413584 0.6478058824532259 0.77915819106608775 0.91589751341782366 0.42474782993232335 0.41542385403513515 1.0000000180025095e-35
decision_type=2 2 2 2 2 2 2 2 2 2 2 2 2
left_child=1 2 3 4 5 -1 11 -4 -8 10 -3 -5 -6
right_child=-2 9 7 6 12 -7 8 -9 -10 -11 -12 -13 -14
leaf_value=-0.051011584889294678 0.11221934140249452 0.052544253302643104 -0.099888396222985926 0.043099760223401867 0.026240665395114462 -0.16818765133205893 -0.0268907120023157 -0.038259076886608318 0.016214547434324995 0.0046117642249216559 0.15596119792698884 -0.031819588103161503 -0.021917751307089627
leaf_weight=3.0725291781127471 2.1630282048135987 3.4145030416548243 2.1499459529295546 7.8712874576449412 3.4735585115849972 1.0348522029817102 6.3812096118926984 7.5637971758842468 6.0847436115145683 1.465998977422714 0.78670975472778071 0.95337413251399983 1.9988303184509275
leaf_count=17 26 22 19 44 13 10 26 38 30 7 12 5 5
internal_value=0 -0.00524814 -0.0135916 -0.00153754 -0.0295879 -0.080534 0.0110838 -0.0518995 -0.00585065 0.0545011 0.0719099 0.0350058 0.00865045
internal_weight=0 46.2513 40.5841 30.8704 9.57977 4.10738 21.2906 9.71374 12.466 5.66721 4.20121 8.82466 5.47239
internal_count=274 248 207 150 45 27 105 57 56 41 34 49 18
shrinkage=0.113


Tree=8
num_leaves=14
num_cat=0
split_feature=11 5 11 7 11 0 11 2 3 7 5 2 2
split_gain=1.70987 1.53108 0.961147 1.07287 0.924705 0.862066 0.58841 0.557495 0.391195 0.34516 0.301904 0.22575 0.162556
threshold=0.98202865771588765 0.41106719035376682 0.77915819106608775 0.020714679282958556 0.49459000568800598 0.62907279972415853 0.42474782993232335 0.41900561347233373 0.043137279689637077 0.025384520271380974 1.0000000180025095e-35 0.29911788291900571 0.41900561347233373
decision_type=2 2 2 2 2 2 2 2 2 2 2 2 2
left_child=1 2 3 8 6 -4 11 -6 -1 10 -5 -3 -2
right_child=12 4 5 9 7 -7 -8 -9 -10 -11 -12 -13 -14
leaf_value=-0.015093885102444875 0.15301033683239931 0.019461181847359798 0.11521135981758308 -0.080041004971082033 0.019815489124312875 -0.0084818675188339781 0.15296386077775412 -0.033475392145094436 0.04464360246483276 -0.094939088109284447 -0.034380306995388688 0.062289880090853268 0.082227430033282409
leaf_weight=3.5953450277447763 0.61915566492825624 3.024112660437825 1.0983704235404723 2.2435964345931998 6.5653766095638257 2.085526816546917 0.67189806140959252 4.0547163169831038 2.2921819873154163 1.8259290847927321 10.513579796068369 3.2716290801763535 1.2520672734826803
leaf_count=15 11 20 12 10 32 8 12 22 14 19 61 23 15
internal_value=0 -0.00479342 -0.0235673 -0.0325505 0.0204564 0.0341894 0.0524451 -0.000530793 0.00816362 -0.0489876 -0.0424106 0.0417174 0.105648
internal_weight=0 41.2423 23.6545 20.4706 17.5877 3.1839 6.96764 10.6201 5.88753 14.5831 12.7572 6.29574 1.87122
internal_count=274 248 139 119 109 20 55 54 29 90 71 43 26
shrinkage=0.113


Tree=9
num_leaves=14
num_cat=0
split_feature=11 5 11 7 11 0 11 2 1 3 11 1 6
split_gain=1.41223 1.17651 0.857254 0.762342 0.69964 0.586633 0.511034 0.428531 0.336469 0.32838 0.823266 0.211249 0.168716
threshold=0.98202865771588765 0.41106719035376682 0.77915819106608775 0.021742116557478177 0.49459000568800598 0.62907279972415853 0.42474782993232335 0.20208500400962315 0.6478058824532259 0.043137279689637077 0.67688773599872754 0.37684203539341138 0.2100774150633565
decision_type=2 2 2 2 2 2 2 2 2 2 2 2 2
left_child=1 2 3 9 6 -4 12 -6 -5 10 -1 -9 -3
right_child=-2 4 5 8 7 -7 -8 11 -10 -11 -12 -13 -14
leaf_value=-0.068896616248153825 0.10218441447929635 0.070773457030171488 0.10744017142776614 -0.080293918655063856 0.052900026332077098 0.0012825782527273921 0.14977574356142523 -0.045940289509448833 -0.036719980533245093 0.031918605827536584 0.010936086063947069 -0.001206333556167108 0.026433801225473032
leaf_weight=2.6269537787884527 1.6565695004537691 1.4726215042173887 0.94721265509724561 3.524231013376264 1.661379538476466 2.2285403497517109 0.57194262323901046 1.6633848529309014 6.3220007605850697 2.1226111203432083 4.432643860578537 7.1084527969360352 4.2822465598583221
leaf_count=20 26 11 12 29 9 8 12 12 38 14 18 33 32
internal_value=0 -0.00434439 -0.0214037 -0.0304744 0.0182564 0.0329456 0.0479043 0.000277525 -0.0523163 -0.00705295 -0.0187705 -0.00968914 0.0377799
internal_weight=0 38.9642 22.2042 19.0284 16.76 3.17575 6.32681 10.4332 9.84623 9.18221 7.0596 8.77184 5.75487
internal_count=274 248 139 119 109 20 55 54 67 52 38 45 43
shrinkage=0.113


Tree=10
num_leaves=14
num_cat=0
split_feature=11 5 11 11 7 0 11 2 3 11 1 1 2
split_gain=1.19398 0.973591 0.640892 0.61844 0.54899 0.441994 0.436574 0.340847 0.326649 0.474106 0.29342 0.157393 0.145618
threshold=0.98202865771588765 0.41106719035376682 0.77915819106608775 0.49459000568800598 0.021742116557478177 0.62907279972415853 0.42474782993232335 0.20208500400962315 0.043137279689637077 0.67688773599872754 0.6478058824532259 0.37684203539341138 0.41900561347233373
decision_type=2 2 2 2 2 2 2 2 2 2 2 2 2
left_child=1 2 4 6 8 -4 -3 -5 9 -1 -6 -9 -2
right_child=12 3 5 7 10 -7 -8 11 -10 -11 -12 -13 -14
leaf_value=-0.060911258448815939 0.15012302608262351 0.036859063933310142 0.097204226181267755 0.048981477212785944 -0.075943232206913694 0.00067165519427632295 0.14764151041538409 -0.041472223110228273 0.032299534456858625 0.0029723363864949657 -0.033099005871672825 -0.0016930657329465985 0.074655346960822808
leaf_weight=2.341978378593927 0.48406585119664547 5.2960535418242207 0.84068967588245813 1.522408865392207 3.1786094545386714 2.1663575172424316 0.49683910654857744 1.5642547253519277 1.9587697722017763 4.0462191682308912 5.7035031281411648 6.7536009475588799 1.0028188927099109
leaf_count=20 11 43 12 9 29 8 12 12 14 18 38 33 15
internal_value=0 -0.00411314 -0.0204762 0.0170678 -0.0288775 0.0276596 0.0463605 -0.000176578 -0.00806985 -0.020448 -0.0484315 -0.00917393 0.0992244
internal_weight=0 35.8693 20.2361 15.6332 17.2291 3.00705 5.79289 9.84026 8.34697 6.3882 8.88211 8.31786 1.48688
internal_count=274 248 139 109 119 20 55 54 52 38 67 45 26
shrinkage=0.113


Tree=11
num_leaves=14
num_cat=0
split_feature=11 5 7 11 11 8 0 11 1 2 11 0 2
split_gain=1.00184 0.803448 0.552659 0.538644 0.406133 0.438109 0.379239 0.253295 0.240345 0.21779 0.172223 0.135633 0.126766
threshold=0.98202865771588765 0.41106719035376682 0.025384520271380974 0.49459000568800598 0.77915819106608775 0.083592597846721836 0.62907279972415853 0.3528195894986903 0.58355200773909133 0.20208500400962315 0.67688773599872754 0.76735039005403693 0.41900561347233373
decision_type=2 2 2 2 2 2 2 2 2 2 2 2 2
left_child=1 2 4 7 5 10 -6 -3 -9 -5 -1 -4 -2
right_child=12 3 11 9 6 -7 -8 8 -10 -11 -12 -13 -14
leaf_value=-0.045333309415459197 0.14788553081757519 0.017257159057251229 -0.14740787569739958 0.039894951514850049 0.094128987869643438 0.014892544685103547 0.00051125779540878949 0.053327511595744427 0.14493103616670597 -0.0078059151366519242 -0.017355911070245183 -0.066989467182046736 0.072644926965818438
leaf_weight=5.9364176760427707 0.41618465026840457 2.4194645956158629 0.36454322794452187 1.4449390955269317 0.74939044751226846 3.2691319305449715 2.1032814346253872 2.5386303775012498 0.42729537235572923 7.9285171814262867 5.3339221766218543 1.0091227367520332 0.91355148237198591
leaf_count=48 11 20 8 9 12 24 8 23 12 45 28 11 15
internal_value=0 -0.00381548 -0.0193293 0.0159102 -0.0138794 -0.0215281 0.0251044 0.0443905 0.0665247 -0.000452721 -0.0320924 -0.0883309 0.0961939
internal_weight=0 33.5247 18.7658 14.7588 17.3921 14.5395 2.85267 5.38539 2.96593 9.37346 11.2703 1.37367 1.32974
internal_count=274 248 139 109 120 100 20 55 35 54 76 19 26
shrinkage=0.113


Tree=12
num_leaves=14
num_cat=0
split_feature=11 5 7 11 8 11 0 11 0 11 2 0 2
split_gain=0.861829 0.724098 0.429592 0.418434 0.278959 0.715957 0.264764 0.195719 0.220501 0.153499 0.13817 0.120351 0.106616
threshold=0.98202865771588765 0.41106719035376682 0.025384520271380974 0.49459000568800598 0.083592597846721836 0.77915819106608775 0.70657666276404862 0.3528195894986903 0.92798781083676607 0.67688773599872754 0.70769847634322391 0.76735039005403693 0.41900561347233373
decision_type=2 2 2 2 2 2 2 2 2 2 2 2 2
left_child=1 2 4 7 5 9 -5 -3 -9 -1 -6 -4 -2
right_child=12 3 11 6 10 -7 -8 8 -10 -11 -12 -13 -14
leaf_value=-0.043056750902783755 0.14583293919301943 0.017405005153101869 -0.14378164754317074 -0.029370929809041098 0.03426433404141184 0.090378874205477605 0.01335388207953871 0.089598815233049842 0.024829879556808522 -0.016267495736931079 -0.0048240027025675007 -0.062372769684715633 0.072134045516813669
leaf_weight=5.7900133179500735 0.35676253400742897 2.2905275002121916 0.30908130877651163 2.5872853919863683 1.706109546124934 0.6644755834713586 6.5174856018275023 1.5826693770941347 1.1653795149177313 5.1696169236674905 3.5729307625442743 0.9283365118317306 0.84263850469142199
leaf_count=48 11 20 8 19 14 12 35 23 12 28 18 11 15
internal_value=0 -0.00349433 -0.0184372 0.0156717 -0.0137323 -0.023515 0.00121285 0.0417991 0.0621319 -0.0304204 0.00780878 -0.082707 0.0940558
internal_weight=0 32.2839 18.1406 14.1433 16.9031 11.6241 9.10477 5.03858 2.74805 10.9596 5.27904 1.23742 1.1994
internal_count=274 248 139 109 120 88 54 55 35 76 32 19 26
shrinkage=0.113


Tree=13
num_leaves=14
num_cat=0
split_feature=11 10 11 7 11 11 10 5 2 1 0 0 0
split_gain=0.723179 0.636332 0.486201 0.357809 0.278509 0.232198 0.920176 0.320449 0.0979222 0.0671108 0.0163274 0.0159054 0.000249705
threshold=0.98202865771588765 0.053859060085187614 0.38709523039848187 0.025384520271380974 0.42474782993232335 0.64772487228375752 0.17718120777757762 0.20945946249560674 0.41900561347233373 0.44088151681405091 0.92798781083676607 0.70657666276404862 0.44236970535318071
decision_type=2 2 2 2 2 2 2 2 2 2 2 2 2
left_child=1 4 9 5 11 6 -4 -7 -2 10 -3 12 -1
right_child=8 2 3 -5 -6 7 -8 -9 -10 -11 -12 -13 -14
leaf_value=0.0081834351876959397 0.14405543125776685 0.0054346015876419037 -0.016099127398005345 -0.077420667266166601 0.072757030728878541 -0.031340278201989411 -0.15705241473664541 0.0089243603297582044 0.069008701941024542 0.057370394479341238 0.029147066210074665 0.02653706599065794 0.010653334494499365
leaf_weight=0.97065806575119773 0.30873586633242556 0.56568033806979912 9.2386316889897024 1.1244539425242681 1.6261574763339011 3.4675510372035196 0.63184070517309088 9.2740405052900297 0.79034782573580742 1.0677981739863753 1.0761869763955474 1.051020931452513 1.1324631944298744
leaf_count=5 11 5 73 19 21 27 10 45 15 11 12 9 11
internal_value=0 -0.0031709 -0.010029 -0.0152057 0.0347705 -0.0121119 -0.025122 -0.00203343 0.0900896 0.0353187 0.0209773 0.015186 0.0095134
internal_weight=0 31.2265 26.4462 23.7365 4.7803 22.6121 9.87047 12.7416 1.09908 2.70967 1.64187 3.15414 2.10312
internal_count=274 248 202 174 46 155 83 72 26 28 17 25 16
shrinkage=0.113


Tree=14
num_leaves=14
num_cat=0
split_feature=11 8 11 7 11 0 11 0 0 11 0 6 2
split_gain=0.589335 0.448202 0.658739 0.573524 0.463517 0.214793 0.179877 0.523565 0.499266 0.143066 0.187814 0.116963 0.0751808
threshold=0.98202865771588765 0.083592597846721836 0.77915819106608775 0.015013004981698641 0.67688773599872754 0.62907279972415853 0.67688773599872754 0.29739252513674613 0.57358709964519461 0.42474782993232335 0.51348607409480673 0.53032803014355856 0.41900561347233373
decision_type=2 2 2 2 2 2 2 2 2 2 2 2 2
left_child=1 2 3 11 9 -6 8 -8 -5 -3 -11 -1 -2
right_child=12 4 -4 6 5 -7 7 -9 -10 10 -12 -13 -14
leaf_value=-0.0022155931926003711 0.13881861291031056 0.026681133132001413 0.10312337506266958 -0.15095750792054649 -0.050475558432309352 0.0022242577990809146 0.025448617662176293 -0.064601243449117773 -0.035623658608039913 0.14233276708262879 0.040584517903718809 0.029976428678418963 0.06739670567428542
leaf_weight=4.2352252826094761 0.25149615434929629 5.5224697263911349 0.59186822082847257 0.51401154464110543 1.3054727117996661 4.0551346177235246 1.9759510885924101 1.4147209264338017 7.0898419502191246 0.33197181462310232 0.76654248125851154 2.18447688780725 0.74765180191025138
leaf_count=21 11 50 12 10 15 18 13 10 61 12 8 18 15
internal_value=0 -0.00284455 -0.0141137 -0.0180983 0.0140909 -0.0106098 -0.0337684 -0.0121237 -0.0434201 0.0340895 0.0713329 0.00873861 0.0853744
internal_weight=0 29.9877 18.0061 17.4142 11.9816 5.36061 10.9945 3.39067 7.60385 6.62098 1.09851 6.4197 0.999148
internal_count=274 248 145 133 103 33 94 23 71 70 20 39 26
shrinkage=0.113


Tree=15
num_leaves=14
num_cat=0
split_feature=7 11 3 11 11 11 5 0 0 0 1 11 0
split_gain=0.675383 1.0844 0.444325 0.422087 0.347518 0.239263 0.325512 0.154171 0.102487 0.078764 0.0685509 0.075854 0.0519826
threshold=0.020714679282958556 0.77915819106608775 0.17740599947860278 0.49459000568800598 0.42474782993232335 0.98202865771588765 0.47104490973201341 0.29739252513674613 0.62907279972415853 0.92798781083676607 0.51298240439606357 0.45133336091856951 0.70657666276404862
decision_type=2 2 2 2 2 2 2 2 2 2 2 2 2
left_child=3 2 7 8 -4 6 -5 -2 -1 -8 -9 -12 -10
right_child=1 -3 4 5 -6 -7 9 10 12 -11 11 -13 -14
leaf_value=0.049310089204255447 -0.013654462422682917 0.10999311798279462 6.286480608736034e-05 0.012193293503727635 0.14005060393061822 0.065817026171997126 -0.040263878258141053 -0.074982243092029152 -0.013513662981194885 -0.0097654717068259567 -0.055648237350443767 -0.030509992664664459 0.027759005452931841
leaf_weight=3.7264278549701038 2.2567859835689834 0.74840503220912147 1.0578351020812995 7.2220926405861938 0.28811415226664383 0.69254252687096673 2.4549530558288097 0.99956638214644034 0.48729573003947768 1.9323431672528384 3.0629048687405884 3.0680164913646877 1.9448654605075715
leaf_count=30 23 23 11 38 12 15 19 19 5 10 21 27 21
internal_value=0 -0.0215195 -0.0306896 0.0133842 0.0300287 0.00129459 -0.0025544 -0.0393954 0.0375334 -0.0268311 -0.0475424 -0.0430686 0.0194898
internal_weight=0 11.4816 10.7332 18.4605 1.34595 12.3019 11.6094 9.38727 6.15859 4.3873 7.13049 6.13092 2.43216
internal_count=274 136 113 138 23 82 67 90 56 29 67 48 26
shrinkage=0.113


Tree=16
num_leaves=14
num_cat=0
split_feature=7 11 3 11 5 11 7 2 3 0 1 11 0
split_gain=0.467291 0.917243 0.36665 0.302922 0.418659 0.255643 0.641748 0.278518 0.21561 0.135909 0.0934761 0.0931616 0.826339
threshold=0.021742116557478177 0.77915819106608775 0.17740599947860278 0.49459000568800598 0.66306536504090297 0.64772487228375752 0.020714679282958556 0.20208500400962315 0.050213589858228304 1.0000000180025095e-35 0.6478058824532259 0.45133336091856951 0.82861429136100517
decision_type=2 2 2 2 2 2 2 2 2 2 2 2 2
left_child=3 2 10 -1 5 6 7 -5 9 -7 -2 -12 -13
right_child=1 -3 -4 4 -6 8 -8 -9 -10 -11 11 12 -14
leaf_value=0.030852967185067227 -0.061682480137614064 0.10485821588089539 0.022834896372791364 0.044246896556251365 -0.063904471795257003 0.031997830954009758 -0.14776600985420676 -0.024908813905435204 0.042556409451243116 -0.0037614850144179349 -0.045797767768929513 0.074642736246524843 -0.082891409717142622
leaf_weight=5.9269198942929568 2.2248376471688935 0.67476177774369794 1.2986837712815029 1.1122944951057414 1.1812350079417235 1.8234969479963163 0.43565388629212964 2.2435587192885578 2.7650416549295187 5.3067051088437438 2.921311479061842 0.76725458260625579 0.95361969154328108
leaf_count=56 29 23 23 9 7 13 10 21 22 23 21 8 9
internal_value=0 -0.0217625 -0.0322256 0.0092518 0.00064079 0.00621137 -0.0187376 -0.00198722 0.0157709 0.0053837 -0.0426386 -0.0335115 -0.0126546
internal_weight=0 8.84047 8.16571 20.7949 14.868 13.6868 3.79151 3.35585 9.89524 7.1302 6.86702 4.64219 1.72087
internal_count=274 113 90 161 105 98 40 30 58 36 67 38 17
shrinkage=0.113


Tree=17
num_leaves=14
num_cat=0
split_feature=7 11 11 8 7 11 11 5 0 0 11 11 0
split_gain=0.598224 0.547369 0.379265 0.686045 0.408969 0.372998 0.262883 0.278957 0.205359 0.155931 0.151167 0.0915645 0.123381
threshold=0.01447710360500888 0.98202865771588765 0.52837663717945071 0.021148118322094709 0.015956381001454256 0.67688773599872754 0.3528195894986903 0.66306536504090297 0.29739252513674613 0.76735039005403693 0.45133336091856951 0.91589751341782366 0.70657666276404862
decision_type=2 2 2 2 2 2 2 2 2 2 2 2 2
left_child=11 2 3 10 -4 9 -5 -8 -7 -6 -2 12 -1
right_child=1 -3 4 6 5 8 7 -9 -10 -11 -12 -13 -14
leaf_value=-0.011342097157825562 -0.070173943560186483 0.079316662835787657 -0.089137091186995837 -0.01677854161406326 -0.14365085361453148 0.02275943588183265 0.017182505255286255 0.078785694960200839 -0.024337457172619384 -0.052007572777322771 -0.023375558091455514 0.042168481046048985 0.024371269086040804
leaf_weight=1.5693921465426699 1.4480937104672249 0.82332532736472686 1.3934527710080127 2.1120341848582029 0.36454782867804147 1.6715029440820215 4.5688679656013846 1.1812982056289909 4.0383166077081114 0.67800429277122021 2.251985521055758 2.4027006989344954 5.8010293245315552
leaf_count=10 11 26 7 16 10 13 45 23 40 11 20 8 34
internal_value=0 -0.0109538 -0.0147249 -0.0015674 -0.0334008 -0.0218988 0.0173154 0.0298381 -0.0105502 -0.0840524 -0.041691 0.0230117 0.0167668
internal_weight=0 20.5314 19.7081 11.5623 8.14582 6.75237 7.8622 5.75017 5.70982 1.04255 3.70008 9.77312 7.37042
internal_count=274 222 196 115 81 74 84 68 53 21 31 52 44
shrinkage=0.113


end of trees

feature_importances:
relevance=91
color=35
proximity2fe=26
visibility=21
intensity=19
shape_size=19
integration=9
proximity2dp=4
proximity2be=4
wellknownness=3
uniqueness=1

parameters:
[boosting: gbdt]
[objective: lambdarank]
[metric: ndcg]
[tree_learner: serial]
[device_type: cpu]
[data: ]
[valid: ]
[num_iterations: 28]
[learning_rate: 0.113]
[num_leaves: 14]
[num_threads: -1]
[force_col_wise: 0]
[force_row_wise: 0]
[histogram_pool_size: -1]
[max_depth: 6]
[min_data_in_leaf: 5]
[min_sum_hessian_in_leaf: 0.001]
[bagging_fraction: 1]
[pos_bagging_fraction: 1]
[neg_bagging_fraction: 1]
[bagging_freq: 0]
[bagging_seed: 3]
[feature_fraction: 1]
[feature_fraction_bynode: 1]
[feature_fraction_seed: 2]
[extra_trees: 0]
[extra_seed: 6]
[early_stopping_round: 100]
[first_metric_only: 0]
[max_delta_step: 0]
[lambda_l1: 0]
[lambda_l2: 0]
[min_gain_to_split: 0]
[drop_rate: 0.1]
[max_drop: 50]
[skip_drop: 0.5]
[xgboost_dart_mode: 0]
[uniform_drop: 0]
[drop_seed: 4]
[top_rate: 0.2]
[other_rate: 0.1]
[min_data_per_group: 100]
[max_cat_threshold: 32]
[cat_l2: 10]
[cat_smooth: 10]
[max_cat_to_onehot: 4]
[top_k: 20]
[monotone_constraints: ]
[monotone_constraints_method: basic]
[monotone_penalty: 0]
[feature_contri: ]
[forcedsplits_filename: ]
[refit_decay_rate: 0.9]
[cegb_tradeoff: 1]
[cegb_penalty_split: 0]
[cegb_penalty_feature_lazy: ]
[cegb_penalty_feature_coupled: ]
[path_smooth: 0]
[interaction_constraints: ]
[verbosity: -1]
[saved_feature_importance_type: 0]
[max_bin: 255]
[max_bin_by_feature: ]
[min_data_in_bin: 3]
[bin_construct_sample_cnt: 200000]
[data_random_seed: 1]
[is_enable_sparse: 1]
[enable_bundle: 1]
[use_missing: 1]
[zero_as_missing: 0]
[feature_pre_filter: 1]
[pre_partition: 0]
[two_round: 0]
[header: 0]
[label_column: ]
[weight_column: ]
[group_column: ]
[ignore_column: ]
[categorical_feature: ]
[forcedbins_filename: ]
[objective_seed: 5]
[num_class: 1]
[is_unbalance: 0]
[scale_pos_weight: 1]
[sigmoid: 1]
[boost_from_average: 1]
[reg_sqrt: 0]
[alpha: 0.9]
[fair_c: 1]
[poisson_max_delta_step: 0.7]
[tweedie_variance_power: 1.5]
[lambdarank_truncation_level: 20]
[lambdarank_norm: 1]
[label_gain: ]
[eval_at: 1,2]
[multi_error_top_k: 1]
[auc_mu_weights: ]
[num_machines: 1]
[local_listen_port: 12400]
[time_out: 120]
[machine_list_filename: ]
[machines: ]
[gpu_platform_id: -1]
[gpu_device_id: -1]
[gpu_use_dp: 0]

end of parameters

pandas_categorical:null
