tree
version=v3
num_class=1
num_tree_per_iteration=1
label_index=0
max_feature_idx=11
objective=lambdarank
feature_names=color intensity shape_size integration choice visibility proximity2dp proximity2fe proximity2be uniqueness wellknownness relevance
feature_infos=[0:1] [0:1] [0:1.0000000000000002] [0.00085948961721993289:1] [0:1] [0:1] [0:1.0000000000000002] [0:0.99999999999999989] [0:0.93183904056685019] [0:1] [0:0.97986577180532408] [0:1]
tree_sizes=1577 1561 1569 1569 1573 1568 1583 1578 1572 1583 1581 1592 1593 1584 1595 1598 1594 1590 1592 1600 1595 1593 1594 1601

Tree=0
num_leaves=14
num_cat=0
split_feature=11 5 10 8 11 7 1 11 11 1 1 11 11
split_gain=10.3834 8.84979 3.27287 2.69166 1.29441 1.03119 0.649035 0.842582 0.745116 0.68841 0.517764 0.78706 0.230574
threshold=0.77915819106608775 0.62612983742317041 0.061912751363057981 0.11894957130682277 0.42474782993232335 0.015013004981698641 0.6478058824532259 0.38709523039848187 0.45133336091856951 0.8249191861292241 1.0000000180025095e-35 0.67688773599872754 0.64772487228375752
decision_type=2 2 2 2 2 2 2 2 2 2 2 2 2
left_child=1 2 6 -2 -3 12 7 -1 9 -8 -7 -12 -4
right_child=3 4 5 -5 -6 10 8 -9 -10 -11 11 -13 -14
leaf_value=-0.056949575731131484 0.1951948217171314 0.081347377679033855 -0.084482106138738494 0.020160953543843382 0.22599999999999976 -0.22599999999999973 -0.036983825580782823 0.054839950123227552 -0.080175930051997482 0.082816248459217146 -0.16183923737262051 -0.075726985577046338 -0.016270199424026934
leaf_weight=1.3058565966785045 3.6965732686221591 2.2374829091131678 1.3829857110977157 1.6106453537940977 1.2209469601511957 0.75775474309921254 2.0583694614470009 2.5268035568296909 3.2048905417323112 0.87192182987928379 3.3000264093279839 2.2998184449970722 1.1664843559265134
leaf_count=13 38 23 13 16 12 7 20 25 31 9 33 23 11
internal_value=0 -0.0337623 -0.0642107 0.142075 0.132415 -0.113988 -0.0197305 0.0167512 -0.0425207 -0.00133676 -0.138336 -0.126474 -0.0532724
internal_weight=0 22.3333 18.8749 5.30722 3.45843 8.90707 9.96784 3.83266 6.13518 2.93029 6.3576 5.59984 2.54947
internal_count=274 220 185 54 35 87 98 38 60 29 63 56 24
shrinkage=0.113


Tree=1
num_leaves=14
num_cat=0
split_feature=11 5 3 1 10 11 0 7 11 7 2 2 11
split_gain=19.7604 23.6671 8.01917 7.53573 6.65678 3.96009 2.62387 1.98899 4.11554 2.77013 1.60459 0.805562 0.242538
threshold=0.77915819106608775 0.62612983742317041 0.050213589858228304 0.20976926485769415 0.25218120780274544 0.42474782993232335 0.57358709964519461 0.026299892476803661 0.67688773599872754 0.020714679282958556 0.41900561347233373 0.20208500400962315 0.45133336091856951
decision_type=2 2 2 2 2 2 2 2 2 2 2 2 2
left_child=1 3 -2 7 6 -3 12 8 9 -1 -4 -8 -5
right_child=2 5 10 4 -6 -7 11 -9 -10 -11 -12 -13 -14
leaf_value=-0.091716888005779568 0.017557802619327503 0.075473546058716201 0.19822934252164176 0.01787882244273439 -0.11196271500153072 0.20583686933197376 -0.028652460424151427 -0.20293564528028624 -0.018830195266180582 -0.21062487033538232 0.11477054292080294 0.0066520140474475818 0.0570285343743335
leaf_weight=7.2216939777135902 8.4997383356094378 10.476210445165632 6.6331575959920865 2.9595640599727613 9.585917189717291 4.1557448357343665 37.486833423376083 2.3041444867849341 6.3638657927513114 3.8276526182889938 5.2854679822921753 10.58242145180702 6.3687753081321716
leaf_count=16 16 23 23 7 21 12 79 7 13 10 15 20 12
internal_value=0 -0.020435 0.101416 -0.0428695 -0.0247948 0.112499 -0.010237 -0.104272 -0.0912171 -0.132908 0.161218 -0.0208802 0.0446077
internal_weight=0 101.333 20.4184 86.7009 66.9835 14.632 57.3976 19.7174 17.4132 11.0493 11.9186 48.0693 9.32834
internal_count=274 220 54 185 139 35 118 46 39 26 38 99 19
shrinkage=0.113


Tree=2
num_leaves=14
num_cat=0
split_feature=11 5 7 8 6 11 7 11 11 11 11 0 2
split_gain=11.0582 10.2305 4.88636 4.63083 2.44887 2.36431 1.14349 1.9652 1.01027 0.978312 2.77437 0.80326 0.598609
threshold=0.77915819106608775 0.62612983742317041 0.025384520271380974 0.11894957130682277 0.21960082334441897 0.42474782993232335 0.020714679282958556 0.45133336091856951 0.67688773599872754 0.53168496441549251 0.45133336091856951 0.94375032136004899 0.41900561347233373
decision_type=2 2 2 2 2 2 2 2 2 2 2 2 2
left_child=1 2 4 12 6 -3 7 -1 -8 10 -6 -11 -2
right_child=3 5 -4 -5 9 -7 8 -9 -10 11 -12 -13 -14
leaf_value=-0.05710825639430217 0.17955760593591671 0.060160128429402708 -0.14465495210820192 0.020975164881241161 0.020059475174252831 0.18916906829793473 -0.09080860108378426 0.04173991184751203 -0.03835379781362222 0.059330130089164254 -0.059019773217713449 -0.00092112732103599259 0.11676149252093644
leaf_weight=6.5500843971967715 4.1445038840174657 6.9073393344879133 4.5765732750296584 6.4968908131122589 12.067460894584658 2.4599408358335495 9.3633871898055094 4.2245822548866272 9.3902703002095205 4.6908982694149 10.677321434020994 7.1046612411737442 3.6414400786161423
leaf_count=15 23 23 18 16 28 12 29 12 23 10 34 16 15
internal_value=0 -0.0167362 -0.0318525 0.0914126 -0.0237947 0.0940392 -0.0476884 -0.0183514 -0.0645436 -0.0033682 -0.0170635 0.0230398 0.150188
internal_weight=0 78.0125 68.6452 14.2828 64.0687 9.36728 29.5283 10.7747 18.7537 34.5403 22.7448 11.7956 7.78594
internal_count=274 220 185 54 167 35 79 27 52 88 62 26 38
shrinkage=0.113


Tree=3
num_leaves=14
num_cat=0
split_feature=11 5 10 8 11 5 11 8 2 11 3 0 11
split_gain=6.6137 6.72427 3.86795 3.50129 2.55587 3.83811 1.45492 1.32227 1.26099 1.45037 0.791029 0.536404 0.445784
threshold=0.77915819106608775 0.62612983742317041 0.17718120777757762 0.11894957130682277 0.67688773599872754 0.20730849983476043 0.42474782993232335 0.069721214827143205 0.70769847634322391 0.45133336091856951 0.050213589858228304 0.76735039005403693 0.64772487228375752
decision_type=2 2 2 2 2 2 2 2 2 2 2 2 2
left_child=1 2 7 -2 11 -6 -3 10 9 -9 -1 -4 -12
right_child=3 6 4 -5 5 -7 -8 8 -10 -11 12 -13 -14
leaf_value=0.010109235288907305 0.14100085374457649 0.060264746396175385 -0.19062844743696278 0.01490321540120647 -0.12684500617748176 0.010888885988576272 0.17797289556803159 0.070524562862612633 -0.052421252018255614 -0.0062311438059047316 -0.039453964076686339 -0.11072359913494705 0.010827097105590919
leaf_weight=6.8591027855873135 5.8229831680655462 5.5529373884201041 2.0796355456113806 5.4371060729026794 4.4093878492712957 6.2384037375450134 1.7676998674869535 6.3631132096052152 2.7064922451972953 6.2126984596252441 19.85042538493872 2.2157136276364326 2.5395444631576529
leaf_count=19 38 23 10 16 17 17 12 16 8 21 59 11 7
internal_value=0 -0.0135051 -0.0260839 0.0801127 -0.0758307 -0.0461485 0.0886875 -0.00939059 0.0175475 0.0326057 -0.0234654 -0.14941 -0.0337509
internal_weight=0 66.7952 59.4745 11.2601 14.9431 10.6478 7.32064 44.5314 15.2823 12.5758 29.2491 4.29535 22.39
internal_count=274 220 185 54 55 34 35 130 45 37 85 21 66
shrinkage=0.113


Tree=4
num_leaves=14
num_cat=0
split_feature=6 11 2 11 3 0 0 1 11 11 1 11 5
split_gain=4.42804 2.5267 3.9919 2.40003 2.14203 1.29074 0.969636 0.822887 0.818272 1.94725 0.887536 0.687931 0.714245
threshold=0.21979189466573512 0.98202865771588765 0.067361668003207739 0.77915819106608775 0.0082590454961355159 0.59033361992249433 0.94375032136004899 0.20976926485769415 0.45133336091856951 0.38709523039848187 0.8249191861292241 0.67688773599872754 0.20945946249560674
decision_type=2 2 2 2 2 2 2 2 2 2 2 2 2
left_child=3 2 8 4 -1 -5 -4 11 9 -2 -10 12 -6
right_child=1 -3 6 5 7 -7 -8 -9 10 -11 -12 -13 -14
leaf_value=0.067630780209090247 0.026780091710158618 0.12421223633992585 -0.07514435821523141 0.14089416060985205 -0.05944748007435878 0.012865952184883605 -0.0031893061983338071 -0.034846230769111794 0.066418214844053219 0.13126143952069538 -0.0084047187897249784 -0.05351273343364947 -0.17772471089688258
leaf_weight=2.2821662724018088 4.7907044738531201 3.3969211317598811 4.5971021205186826 1.2493784390389908 1.1848911866545704 5.151266373693943 4.9839163571596146 22.172604523599148 3.8569188565015775 4.3422081992030144 4.2603017240762711 5.1428509801626205 1.4493928998708725
leaf_count=11 21 26 23 12 4 16 16 71 10 21 13 20 10
internal_value=0 0.0323944 0.0207699 -0.025347 -0.0378981 0.0378565 -0.0377143 -0.0459393 0.0532531 0.0764553 0.0271476 -0.0775658 -0.124524
internal_weight=0 30.2281 26.8312 38.6326 32.2319 6.40064 9.58102 29.9497 17.2501 9.13291 8.11722 7.77714 2.63428
internal_count=274 130 104 144 116 28 39 105 65 42 23 34 14
shrinkage=0.113


Tree=5
num_leaves=14
num_cat=0
split_feature=11 5 7 7 2 1 2 11 11 11 0 0 11
split_gain=5.87589 5.07114 2.33571 1.094 1.20473 0.792675 0.779422 0.540583 0.278197 0.800652 0.24422 0.241163 0.18536
threshold=0.98202865771588765 0.62612983742317041 0.025384520271380974 0.020714679282958556 0.41900561347233373 0.8249191861292241 0.41900561347233373 0.45133336091856951 0.91589751341782366 0.42474782993232335 0.94375032136004899 0.76735039005403693 0.67688773599872754
decision_type=2 2 2 2 2 2 2 2 2 2 2 2 2
left_child=1 2 3 4 10 12 -2 -7 9 -3 -1 -4 -5
right_child=6 8 11 5 -6 7 -8 -9 -10 -11 -12 -13 -14
leaf_value=0.030151099043917138 0.19346474534606076 0.0656301533268554 -0.17439049713831437 -0.050923690764871597 -0.035775162633813251 0.047331448013748043 0.088754416899765737 -0.022154179600241457 0.042860045031329438 0.16866413489273857 -0.0014157534637746216 -0.10158951281455053 -0.028879225477218152
leaf_weight=10.417745120823385 1.7602419611066571 4.4189360514283162 0.90527926012873572 12.493201723322278 7.1455917395651332 2.3001437857747069 1.8741988018155098 3.7776210680603981 2.5076692849397659 1.2313899919390676 4.4732747450470915 1.6221324391663074 7.9824800156056872
leaf_count=38 11 23 7 48 28 9 15 13 8 12 16 11 35
internal_value=0 -0.0085514 -0.0217553 -0.0162463 0.002366 -0.0316926 0.139468 0.00414281 0.0741831 0.0880846 0.0206684 -0.127666 -0.0423296
internal_weight=0 59.2755 51.1175 48.5901 22.0366 26.5534 3.63444 6.07776 8.158 5.65033 14.891 2.52741 20.4757
internal_count=274 248 205 187 82 105 26 22 43 35 54 18 83
shrinkage=0.113


Tree=6
num_leaves=14
num_cat=0
split_feature=5 11 7 7 11 2 11 2 0 11 0 11 11
split_gain=3.56892 3.63762 1.71613 0.801064 1.07417 0.952067 0.529565 0.307233 0.195402 0.169739 0.587093 0.0557659 0.0375425
threshold=0.62612983742317041 0.98202865771588765 0.025384520271380974 0.014651163316868462 0.77915819106608775 0.0060144346431435522 0.56015369265413584 0.41900561347233373 0.76735039005403693 0.3528195894986903 0.59033361992249433 0.64772487228375752 0.91589751341782366
decision_type=2 2 2 2 2 2 2 2 2 2 2 2 2
left_child=1 2 3 6 5 -5 -1 -3 -4 -2 -11 -8 -12
right_child=9 7 8 4 -6 -7 11 -9 -10 10 12 -13 -14
leaf_value=0.037166679882187366 0.045121538997555596 0.16847171729474708 -0.16646855844982084 -0.013216143562240044 0.078349993296209064 -0.055564924752280129 -0.02489770231323514 0.088623811183321646 -0.093458893150599034 0.16270777231987638 0.078085115508484335 -0.0031777107901563698 0.056995739303173344
leaf_weight=5.3964546024799329 1.934587039053439 0.98790833726525229 0.70925186015665453 20.161680176854141 1.2767463661730278 10.212080892175434 2.0444025173783302 1.631474781781435 1.3765945788472891 0.9906613565981387 1.9376603029668329 5.7679731994867325 2.4289606809616089
leaf_count=23 12 11 7 75 12 49 9 15 11 12 11 19 8
internal_value=0 -0.010859 -0.0180901 -0.0134314 -0.0231864 -0.0274544 0.00994323 0.118739 -0.118284 0.0738113 0.0841716 -0.00886157 0.066354
internal_weight=0 49.5646 46.9452 44.8593 31.6505 30.3738 13.2088 2.61938 2.08585 7.29187 5.35728 7.81238 4.36662
internal_count=274 231 205 187 136 124 51 26 18 43 31 28 19
shrinkage=0.113


Tree=7
num_leaves=14
num_cat=0
split_feature=11 5 7 6 11 1 1 11 2 3 11 11 0
split_gain=2.33388 2.26921 1.33212 0.999829 2.15899 0.584462 0.508497 0.449631 0.219765 0.213336 0.190178 0.564668 0.169533
threshold=0.98202865771588765 0.62612983742317041 0.025384520271380974 0.21979189466573512 0.45133336091856951 0.39052915034172347 0.20976926485769415 0.77915819106608775 0.41900561347233373 0.050213589858228304 0.91589751341782366 0.42474782993232335 0.76735039005403693
decision_type=2 2 2 2 2 2 2 2 2 2 2 2 2
left_child=1 2 3 5 -5 6 -1 -7 -2 -6 11 -3 -4
right_child=8 10 12 4 9 7 -8 -9 -10 -11 -12 -13 -14
leaf_value=-0.024489957791151637 0.16168107318055824 0.052637636252066924 -0.16023616800032195 0.081530509585356001 0.017448473988974939 -0.04646162779056006 0.027256328116517788 -0.003916001182807465 0.087215683609751876 -0.020798444975487086 0.030046951911737521 0.1577518998358883 -0.085635131281829618
leaf_weight=5.3884228784590977 0.78526293300092143 3.403181515634059 0.5724759269505727 4.248522385954856 2.3473111614584914 12.739535894244911 4.4089404381811619 4.2232456356286994 1.4233401492238045 9.0109087526798231 1.9418639019131658 0.80738916248083104 1.213495621457696
leaf_count=27 11 23 7 18 10 52 19 20 15 41 8 12 11
internal_value=0 -0.00499152 -0.0139504 -0.00992049 0.0128104 -0.0231773 -0.00120346 -0.035869 0.113692 -0.0128943 0.0593017 0.0727936 -0.109548
internal_weight=0 50.3053 44.1529 42.3669 15.6067 26.7601 9.79736 16.9628 2.2086 11.3582 6.15243 4.21057 1.78597
internal_count=274 248 205 187 69 118 46 72 26 51 43 35 18
shrinkage=0.113


Tree=8
num_leaves=14
num_cat=0
split_feature=11 5 8 10 1 1 11 0 11 1 9 0 0
split_gain=1.81732 1.9676 1.263 1.24153 0.6773 0.749087 0.607056 0.871732 0.479781 0.476208 0.12188 0.0927319 0.0708616
threshold=0.77915819106608775 0.62612983742317041 0.11894957130682277 0.25218120780274544 0.20976926485769415 0.6478058824532259 0.67688773599872754 0.20029640213204666 0.42474782993232335 0.8249191861292241 0.66666666666666674 0.63252044125064555 0.70657666276404862
decision_type=2 2 2 2 2 2 2 2 2 2 2 2 2
left_child=1 3 10 4 6 12 7 -1 -3 -7 -2 -4 -6
right_child=2 8 11 -5 5 9 -8 -9 -10 -11 -12 -13 -14
leaf_value=-0.16612218509537968 0.15357074211075841 0.049173788745369373 0.032085882883084428 -0.087854492380249533 0.015889111332418389 -0.03282863688511737 -0.0079648640884153309 -0.0417463308435638 0.15400495136826409 0.0043703937366756937 0.097153178976341514 -0.0016874510933901556 0.036745327140609144
leaf_weight=0.94891437515616361 0.61781108751892988 3.166148796677589 1.813895560801029 2.9346245974302283 4.685848321765663 9.5908139981329459 3.6884690271690488 2.9770742543041706 0.67659587319940317 8.1102518625557405 2.3441424500197172 2.4271765872836113 3.7407807409763336
leaf_count=10 11 23 8 21 23 38 20 16 12 38 27 8 19
internal_value=0 -0.00929733 0.0523007 -0.0173574 -0.0112261 -0.0025834 -0.0408822 -0.0718081 0.0676315 -0.0157848 0.108921 0.0127573 0.0251477
internal_weight=0 40.5195 7.20303 36.6768 33.7422 26.1277 7.61446 3.92599 3.84274 17.7011 2.96195 4.24107 8.42663
internal_count=274 220 54 185 164 118 46 26 35 76 38 16 42
shrinkage=0.113


Tree=9
num_leaves=14
num_cat=0
split_feature=11 11 5 7 8 1 10 1 7 11 8 11 3
split_gain=1.72223 1.63439 2.30682 1.42168 0.882891 0.866015 0.662095 0.360653 0.23438 0.255244 0.191683 0.140775 0.195987
threshold=0.77915819106608775 0.45133336091856951 0.068691133825377962 0.024554669465599758 0.11894957130682277 0.44088151681405091 0.070973154050662138 0.8249191861292241 0.015013004981698641 0.67688773599872754 0.089282979395787207 0.3528195894986903 0.074341772731512254
decision_type=2 2 2 2 2 2 2 2 2 2 2 2 2
left_child=1 2 -1 6 -2 10 7 -3 -8 -10 -4 -7 -13
right_child=4 3 5 -5 -6 11 8 -9 9 -11 -12 12 -14
leaf_value=-0.082352842355455244 0.10475984588964592 0.024299359227128763 0.034352228693322384 -0.091800359102507223 0.019813841772746577 0.033399554116235013 -0.011465501485408819 -0.025828299261099662 -0.074167215294737479 -0.029897270994041471 -0.016041681615247147 0.056141802331382724 0.098266378388902079
leaf_weight=2.3137435335665932 2.5946868928149334 5.7586740627884918 1.4436752498149852 3.7119307266548267 3.9268192313611507 1.5321150459349153 3.9774122163653356 2.6882298346608877 2.5758513798937201 4.6926694503054023 2.8994918279349804 3.8070331234484911 2.2401785477995872
leaf_count=10 38 27 9 27 16 12 20 13 22 23 15 21 21
internal_value=0 -0.00928839 0.0209028 -0.0276526 0.053611 0.0409412 -0.0155612 0.00834622 -0.0335183 -0.0455859 0.00070933 0.0639951 0.0717468
internal_weight=0 37.641 14.2362 23.4048 6.52151 11.9225 19.6928 8.4469 11.2459 7.26852 4.34317 7.57933 6.04721
internal_count=274 220 88 132 54 78 105 40 65 45 24 54 42
shrinkage=0.113


Tree=10
num_leaves=14
num_cat=0
split_feature=11 5 10 8 2 7 11 11 0 0 9 1 1
split_gain=1.2995 1.57723 0.859187 0.741843 0.669606 0.501555 0.363454 0.28201 0.243399 0.155447 0.12738 0.0875504 0.0466699
threshold=0.77915819106608775 0.62612983742317041 0.25218120780274544 0.11894957130682277 0.37209302325581411 0.020714679282958556 0.42474782993232335 0.67688773599872754 0.94375032136004899 0.60700420711197478 0.66666666666666674 0.58355200773909133 0.44088151681405091
decision_type=2 2 2 2 2 2 2 2 2 2 2 2 2
left_child=1 2 4 10 5 8 11 -7 -1 -6 -2 -3 -5
right_child=3 6 -4 12 9 7 -8 -9 -10 -11 -12 -13 -14
leaf_value=0.027586813865395868 0.15024008845934292 0.070280387921771353 -0.081169409499051576 0.0055287549092889023 -0.088248262328087412 -0.024826799542755663 0.15095685480521481 0.016418195131252086 -0.011289581980177701 -0.038944996004251047 0.084824621043093545 0.029845863981005822 0.031230867219471176
leaf_weight=6.6513574123382657 0.47798659512773078 1.3092461060732599 2.4309811061248174 2.069575197994709 1.3075304054655128 12.115243416745214 0.53537784656509746 2.5649453587830058 2.9766747299581766 2.1746116951107979 1.8560252171009779 1.4312699101865292 1.5991584919393065
leaf_count=38 11 11 21 8 11 70 12 13 16 16 27 12 8
internal_value=0 -0.00867638 -0.0167493 0.048417 -0.0111141 -0.0044753 0.0657991 -0.0176204 0.0155675 -0.0574582 0.0982212 0.0491629 0.016732
internal_weight=0 33.4972 30.2213 6.00275 27.7904 24.3082 3.27589 14.6802 9.62803 3.48214 2.33401 2.74052 3.66873
internal_count=274 220 185 54 164 137 35 83 54 27 38 23 16
shrinkage=0.113


Tree=11
num_leaves=14
num_cat=0
split_feature=11 10 5 8 7 8 7 11 7 2 11 0 11
split_gain=1.12443 1.47975 0.682524 0.609869 0.492943 0.384004 0.213651 0.409814 0.481446 0.136934 0.208316 0.114396 0.347728
threshold=0.77915819106608775 0.070973154050662138 0.41106719035376682 0.11894957130682277 0.015013004981698641 0.069721214827143205 0.021742116557478177 0.67688773599872754 0.020714679282958556 0.70769847634322391 0.45133336091856951 0.70657666276404862 0.42474782993232335
decision_type=2 2 2 2 2 2 2 2 2 2 2 2 2
left_child=1 2 5 -2 -3 -1 7 8 -6 10 -7 12 -4
right_child=3 4 11 -5 6 9 -8 -9 -10 -11 -12 -13 -14
leaf_value=-0.022492846114638684 0.095471570970888472 -0.0070189196100002866 0.040845849493102535 0.017872834675185946 -0.044703624230669009 0.044450593384331438 -0.085212011442445987 -0.012513656125848876 -0.15841265735117085 -0.021616229448434089 0.0034726100437328998 0.026152839311186279 0.14814618205265218
leaf_weight=7.1617596261203342 2.074654428754001 3.3993442077189666 2.4792956337332721 3.4336508102715015 1.5488511910662057 2.6758696474134922 2.5873987870290875 2.4221533965319395 0.68606782192364324 1.1803654991090295 3.8824610412120819 2.9970051646232605 0.45668866485357273
leaf_count=38 38 20 23 16 12 16 28 13 10 8 21 19 12
internal_value=0 -0.00824213 0.00927013 0.0470997 -0.0425194 -0.00363594 -0.0591773 -0.0447129 -0.0796096 0.0138151 0.0201921 0.0416832 0.0575363
internal_weight=0 31.4773 20.8334 5.50831 10.6438 14.9005 7.24447 4.65707 2.23492 7.7387 6.55833 5.93299 2.93598
internal_count=274 220 137 54 83 83 63 35 22 45 37 54 35
shrinkage=0.113


Tree=12
num_leaves=14
num_cat=0
split_feature=1 11 5 0 11 3 3 11 11 0 2 11 11
split_gain=0.911269 0.685312 0.696275 0.319769 0.543926 0.552135 0.340063 0.236743 0.168798 0.360895 0.139756 0.088841 0.0602208
threshold=0.13186544335975872 0.98202865771588765 0.62612983742317041 0.76735039005403693 0.45133336091856951 0.050213589858228304 0.046884078193710606 0.64772487228375752 0.67688773599872754 0.20029640213204666 0.41900561347233373 0.45133336091856951 0.91589751341782366
decision_type=2 2 2 2 2 2 2 2 2 2 2 2 2
left_child=8 2 3 4 6 -6 -2 11 9 -1 -3 -5 -4
right_child=1 10 12 7 5 -7 -8 -9 -10 -11 -12 -13 -14
leaf_value=-0.15279580926339598 -0.011930999335296011 0.14758590716341938 0.055962848041342918 -0.057644727730518666 0.017478841670797624 -0.029672157036816547 0.048498003343330445 0.016987927553370561 -0.035309499126236307 -0.030108588362535955 0.064286873290963512 -0.026044975052163126 0.027248139042228049
leaf_weight=0.55941456276923351 1.6391181498766076 0.37780315149575361 2.7278795451857141 1.6583009753376234 5.577532544732092 7.3502614083699882 4.3313729492947459 1.3536137044429777 2.7280534422025084 0.67624383606016636 0.80557958781719208 3.6074365144595504 1.4170552156865595
leaf_count=10 11 11 35 10 30 56 28 7 20 4 15 29 8
internal_value=0 0.00655396 0.00318976 -0.00378779 0.00369861 -0.00932946 0.031908 -0.0251615 -0.0510035 -0.0856523 0.0908807 -0.0359965 0.046146
internal_weight=0 30.846 29.6626 25.5176 18.8983 12.9278 5.97049 6.61935 3.96371 1.23566 1.18338 5.26574 4.14493
internal_count=274 240 214 171 125 86 39 46 34 14 26 39 43
shrinkage=0.113


Tree=13
num_leaves=14
num_cat=0
split_feature=11 10 5 8 7 11 8 0 2 2 11 1 0
split_gain=0.751079 0.743263 0.624403 0.623816 0.515706 0.474869 0.435125 0.39862 0.150243 0.118923 0.0978434 0.15232 0.186644
threshold=0.77915819106608775 0.070973154050662138 0.41106719035376682 0.11894957130682277 0.021742116557478177 0.64772487228375752 0.069721214827143205 0.60700420711197478 0.70769847634322391 0.41900561347233373 0.3528195894986903 0.44088151681405091 0.59033361992249433
decision_type=2 2 2 2 2 2 2 2 2 2 2 2 2
left_child=1 2 6 9 5 7 -1 -3 -8 -2 -4 -12 -13
right_child=3 4 10 -5 -6 -7 8 -9 -10 -11 11 12 -14
leaf_value=-0.028644435489092634 0.11951252691151729 -0.14812591708994696 0.021263570744739269 0.010297632713889573 -0.079325641353097345 0.0078444421946025061 0.019455234634925721 -0.034163541765925835 -0.026829531664735541 0.060503714845082837 0.028557616463485418 0.14664776053375725 0.054065687852986412
leaf_weight=6.3000229084864312 1.0157718590926368 0.46407688199542318 2.2561826631426802 3.1104674264788628 2.3292694929987192 3.9481468554586172 5.869457601569593 2.52045669965446 1.0567531827837227 0.76419307012110937 1.5828507393598559 0.38566368445754029 0.99642409384250641
leaf_count=38 23 10 21 16 28 24 37 21 8 15 10 12 11
internal_value=0 -0.00720568 0.00590789 0.0408276 -0.0333244 -0.0178688 -0.00715405 -0.051884 0.0123934 0.0941782 0.0389966 0.0524906 0.0799002
internal_weight=0 27.7093 18.4474 4.89043 9.26195 6.93268 13.2262 2.98453 6.92621 1.77996 5.22112 2.96494 1.38209
internal_count=274 220 137 54 83 55 83 31 45 38 54 33 23
shrinkage=0.113


Tree=14
num_leaves=14
num_cat=0
split_feature=11 10 8 5 11 0 1 6 11 1 0 2 6
split_gain=0.726515 0.715695 0.472204 0.428918 0.282645 0.249782 0.209352 0.23162 0.410666 0.16429 0.139269 0.0830031 0.0731125
threshold=0.77915819106608775 0.17718120777757762 0.11894957130682277 0.62612983742317041 0.42474782993232335 0.39502600680593031 0.25709665841008417 0.21979189466573512 0.45133336091856951 0.6478058824532259 0.76735039005403693 0.41900561347233373 1.0000000180025095e-35
decision_type=2 2 2 2 2 2 2 2 2 2 2 2 2
left_child=1 3 11 6 -5 12 -1 9 -9 -8 -7 -2 -3
right_child=2 5 -4 4 -6 10 7 8 -10 -11 -12 -13 -14
leaf_value=-0.039515729430230649 0.11333692136738469 0.0049252517112017506 0.015001719021486662 0.031368916448600917 0.14388756409264822 -0.15255811000058561 0.010127733490716486 0.055442704529813931 -0.0016478125203762766 -0.023013409993253724 -0.064843990096987908 0.061646820329863398 -0.038746910090631324
leaf_weight=1.8909151311963928 0.90271473000757285 0.56802672892808814 3.0540508162230253 2.0693485923111434 0.33061320753768075 0.35298100858926751 2.7930168416351098 2.2113059330731613 5.9053577706217766 6.0413381243124604 0.66961626429110765 0.70762606244534254 3.5400305523071438
leaf_count=16 23 4 16 23 12 7 19 18 39 38 11 15 33
internal_value=0 -0.00727081 0.0411093 0.00187782 0.0468692 -0.0451479 -0.00385289 0.000125361 0.0139059 -0.0125357 -0.0951212 0.0906229 -0.0327083
internal_weight=0 26.3726 4.66439 21.2419 2.39996 5.13065 18.8419 16.951 8.11666 8.83435 1.0226 1.61034 4.10806
internal_count=274 220 54 165 35 55 130 114 57 57 18 38 37
shrinkage=0.113


Tree=15
num_leaves=14
num_cat=0
split_feature=11 5 10 8 7 8 11 0 11 4 11 9 1
split_gain=0.632438 0.558465 0.408623 0.398934 0.373102 0.271451 0.133582 0.124506 0.097798 0.0840414 0.127658 0.0739067 0.0712827
threshold=0.77915819106608775 0.41106719035376682 0.070973154050662138 0.11894957130682277 0.025384520271380974 0.069721214827143205 0.64772487228375752 0.76735039005403693 0.3528195894986903 1.0000000180025095e-35 0.67688773599872754 0.66666666666666674 0.44088151681405091
decision_type=2 2 2 2 2 2 2 2 2 2 2 2 2
left_child=1 4 8 11 5 9 -4 -6 -3 10 -1 -2 -10
right_child=3 2 6 -5 7 -7 -8 -9 12 -11 -12 -13 -14
leaf_value=-0.031368992875574014 0.14212745032373103 0.020762393317377031 -0.028146593517031988 0.015377553571644749 -0.14822921152146387 0.0036261337992722596 0.018266278137837835 -0.059657525113496493 0.036993059360190018 -0.056252201636327583 -0.00095902513353202763 0.075781892991380759 0.07448734157787891
leaf_weight=6.1894691957859429 0.26048012718092528 2.0265553025528771 2.2537860837765038 2.9198064673691988 0.29944984684698184 6.3539811959490171 1.2206811364740136 0.62693860288709402 1.4419309664517643 1.0718719474971301 2.464552266523242 1.2118336157873273 1.1751016119960693
leaf_count=48 11 21 21 16 7 45 7 11 10 10 17 27 23
internal_value=0 -0.00691585 0.0174683 0.0395608 -0.0185558 -0.0145384 -0.0118404 -0.0882878 0.0393979 -0.0264054 -0.0227086 0.0875197 0.0538288
internal_weight=0 25.1243 8.11806 4.39212 17.0063 16.0799 3.47447 0.926388 4.64359 9.72589 8.65402 1.47231 2.61703
internal_count=274 220 82 54 138 120 28 18 54 75 65 38 33
shrinkage=0.113


Tree=16
num_leaves=14
num_cat=0
split_feature=1 11 8 7 11 11 1 1 11 1 11 5 2
split_gain=0.482274 0.375695 0.317998 0.325229 0.544576 0.164438 0.310757 0.276537 0.252601 0.118366 0.0955624 0.242853 0.0899064
threshold=0.13186544335975872 0.98202865771588765 0.069721214827143205 0.015013004981698641 0.77915819106608775 0.45133336091856951 0.44088151681405091 0.8249191861292241 0.38709523039848187 0.6478058824532259 0.67688773599872754 0.20945946249560674 0.41900561347233373
decision_type=2 2 2 2 2 2 2 2 2 2 2 2 2
left_child=10 2 3 -2 9 6 -4 -7 -8 -5 11 -1 -3
right_child=1 12 5 4 -6 7 8 -9 -10 -11 -12 -13 -14
leaf_value=-0.027161796499258123 0.014639390970426411 0.14036041662875692 -0.012546472351064895 -0.047229091599609467 0.091943536824318994 0.021307479155331779 0.02566602500377196 -0.031181294030953346 0.089703992905707255 -0.018834240162065238 -0.028590959358959788 -0.14400137509186434 0.057039650488663607
leaf_weight=0.60207144357264342 4.9782258700579467 0.22659073420800169 1.3204410634934882 2.7915619551204109 0.51103910431265909 4.1703443452715874 1.8756854990497234 1.8503404939547179 1.3545247048605231 5.7068369225598872 2.1899169737007469 0.36478187772445381 0.61198698822408915
leaf_count=4 39 11 11 33 12 24 23 13 21 38 20 10 15
internal_value=0 0.00517743 0.00263783 -0.00854052 -0.0213487 0.0174287 0.0336393 0.00517607 0.0525191 -0.0281614 -0.0416547 -0.0712439 0.0795536
internal_weight=0 25.3976 24.559 13.9877 9.00944 10.5713 4.55065 6.02068 3.23021 8.4984 3.15677 0.966853 0.838578
internal_count=274 240 214 122 83 92 55 37 44 71 34 14 26
shrinkage=0.113


Tree=17
num_leaves=14
num_cat=0
split_feature=5 11 2 7 8 10 11 2 2 0 11 0 6
split_gain=0.4262 0.315663 0.410352 0.324509 0.275866 0.238163 0.199087 0.10872 0.0792697 0.0618307 0.0436408 0.336918 0.183499
threshold=0.41106719035376682 0.77915819106608775 0.99599037690457126 0.025384520271380974 0.069721214827143205 0.070973154050662138 0.64772487228375752 0.37209302325581411 0.70769847634322391 0.94375032136004899 0.45133336091856951 0.82861429136100517 0.21960082334441897
decision_type=2 2 2 2 2 2 2 2 2 2 2 2 2
left_child=1 3 -3 4 10 -2 -7 -5 -6 -8 11 -1 -12
right_child=5 2 -4 7 8 6 9 -9 -10 -11 12 -13 -14
leaf_value=0.025694549449640825 0.034918360811808942 0.10419567993894471 -0.001508055426472809 -0.057045731300863531 0.012942786585740251 -0.025852157513607057 0.056272770311439013 -0.14539709206970222 -0.023175936626812117 0.011007638903422544 -0.018989505530817304 -0.053681852706117805 -0.064841057215058534
leaf_weight=1.4313165256753582 5.4408622495830041 0.66258334740996283 1.6047520600259304 0.57526587694883424 4.9373038872145125 2.0477642803452913 0.5810499407816675 0.25742920651100576 0.92055175639688958 1.1439680149778724 5.0015206164680421 1.3056805310770869 1.43406037800014
leaf_count=10 62 23 8 11 37 21 15 7 8 7 46 10 9
internal_value=0 -0.0100569 0.0293817 -0.0156939 -0.0118898 0.0197898 -0.00202754 -0.0843597 0.00726679 0.0262546 -0.0241237 -0.0121718 -0.0292067
internal_weight=0 18.1305 2.26734 15.8631 15.0304 9.21364 3.77278 0.832695 5.85786 1.72502 9.17258 2.737 6.43558
internal_count=274 169 31 138 120 105 43 18 45 22 75 20 55
shrinkage=0.113


Tree=18
num_leaves=14
num_cat=0
split_feature=11 5 7 2 2 11 5 7 11 0 0 0 0
split_gain=0.345655 0.412541 0.285856 0.281262 0.267863 0.246699 0.282521 0.134716 0.133507 0.128913 0.0983756 0.0970139 0.0836477
threshold=0.77915819106608775 0.62612983742317041 0.020714679282958556 0.20208500400962315 0.29911788291900571 0.45133336091856951 0.068691133825377962 0.025384520271380974 0.3528195894986903 0.59033361992249433 0.61341275555286834 0.76735039005403693 0.63252044125064555
decision_type=2 2 2 2 2 2 2 2 2 2 2 2 2
left_child=1 2 3 -1 -2 6 -4 -7 -3 -10 -8 -9 -5
right_child=4 8 5 12 -6 7 10 11 9 -11 -12 -13 -14
leaf_value=0.024281611088804576 0.099947307717693223 0.01354938593882069 -0.040661861351441828 -0.035940070807733392 0.018311914232059055 -0.028276557129933006 0.0060697965567476911 -0.14175446690685706 0.14183361233146322 0.048918164771738631 0.053565552732724252 -0.052624029227610059 -0.0028823300486768306
leaf_weight=4.598231991752991 0.60965070244856123 0.98956678248941843 1.230297908186911 1.6731057732831685 3.2451225370168686 7.1865696760360152 1.2893460742197933 0.21898891427554179 0.25238663190975763 0.7796995141543448 0.98015875741839398 0.54154768912121654 2.3504514768719673
leaf_count=38 23 12 10 16 31 64 10 7 12 11 9 11 20
internal_value=0 -0.00544841 -0.0103496 0.00518989 0.0312229 -0.022054 0.00294377 -0.0330627 0.0432054 0.0716397 0.0265824 -0.0782882 -0.0166286
internal_weight=0 22.0904 20.0687 8.62179 3.85477 11.4469 3.4998 7.94711 2.02165 1.03209 2.2695 0.760537 4.02356
internal_count=274 220 185 74 54 111 29 82 35 23 19 18 36
shrinkage=0.113


Tree=19
num_leaves=14
num_cat=0
split_feature=11 5 7 7 8 0 6 11 11 2 11 11 11
split_gain=0.359825 0.311034 0.245538 0.172165 0.188113 0.0877144 0.087573 0.0862023 0.0746446 0.0693038 0.0397758 0.109819 0.109455
threshold=0.98202865771588765 0.62612983742317041 0.025384520271380974 0.014651163316868462 0.069721214827143205 0.76735039005403693 0.53032803014355856 0.67688773599872754 0.38709523039848187 0.41900561347233373 0.3528195894986903 0.91589751341782366 0.42474782993232335
decision_type=2 2 2 2 2 2 2 2 2 2 2 2 2
left_child=1 2 3 6 7 -4 -1 -5 -6 -2 -3 12 -12
right_child=9 10 5 4 8 -7 -8 -9 -10 -11 11 -13 -14
leaf_value=0.0015770338611195125 0.14040537642683779 0.0123784947814237 -0.13878523828936273 -0.028992859351022044 -0.033990637292413244 -0.048711553264447947 0.030468310709366474 -0.0054744283082934081 0.010374315196052369 0.058803083338390683 0.047548480822620851 0.0159132143818074 0.13860364953965873
leaf_weight=4.1876859357580676 0.17593793931882729 0.96828978601843063 0.1887237589689893 6.2266275353031215 0.54210525564849277 0.51411808060947806 1.9698048131540415 2.9247891844715923 4.5380072188563645 0.54321093740873039 0.75765278609469544 1.1182623691856861 0.21680826653027907
leaf_count=32 11 12 7 60 4 11 19 35 37 15 11 8 12
internal_value=0 -0.00234527 -0.00723037 -0.00496671 -0.0117968 -0.0728977 0.0108195 -0.0214764 0.00564007 0.0787669 0.0313154 0.0400773 0.0678074
internal_weight=0 24.1529 21.0919 20.389 14.2315 0.702842 6.15749 9.15142 5.08011 0.719149 3.06101 2.09272 0.974461
internal_count=274 248 205 187 136 18 51 95 41 26 43 31 23
shrinkage=0.113


Tree=20
num_leaves=14
num_cat=0
split_feature=11 10 8 5 11 3 11 3 0 11 2 2 5
split_gain=0.325143 0.406676 0.269362 0.203964 0.298181 0.188311 0.227709 0.240341 0.143933 0.13808 0.137347 0.11139 0.0565397
threshold=0.77915819106608775 0.17718120777757762 0.11894957130682277 0.20730849983476043 0.67688773599872754 0.050213589858228304 0.45133336091856951 0.074341772731512254 0.82861429136100517 0.38709523039848187 0.12028869286287094 0.70769847634322391 0.13317275513406593
decision_type=2 2 2 2 2 2 2 2 2 2 2 2 2
left_child=1 5 -2 -3 10 11 7 12 -8 -9 -5 -1 -7
right_child=2 3 -4 4 -6 6 8 9 -10 -11 -12 -13 -14
leaf_value=0.02649622092723522 0.080117513061010212 -0.080282348567667597 0.011714442495907161 -0.044472516670587076 0.00032229600866513503 -0.028661568274735278 -0.033361341085774501 0.010841694542934875 -0.00052965682818553891 0.06937809713364243 -0.14176623705620159 -0.01893234043761156 0.0064524186642503393
leaf_weight=4.5606258804909983 1.032129559782333 1.0722103564185084 2.5542572373524308 0.48543409444391761 2.0445514465682209 1.1495191399008018 3.8591264192946255 0.96409773919731412 3.0545904743485153 1.1035437946557065 0.2996251720469445 0.81189510691910971 1.1934302295558155
leaf_count=45 38 17 16 11 17 10 34 12 25 21 10 8 10
internal_value=0 -0.00546703 0.0314002 -0.0383118 -0.0224081 0.00220835 -0.0060574 0.0140044 -0.0188558 0.0420838 -0.0816056 0.0196311 -0.0107755
internal_weight=0 20.5986 3.58639 3.90182 2.82961 16.6968 11.3243 4.41059 6.91372 2.06764 0.785059 5.37252 2.34295
internal_count=274 220 54 55 38 165 112 53 59 33 21 53 20
shrinkage=0.113


Tree=21
num_leaves=14
num_cat=0
split_feature=11 10 5 8 7 11 8 0 9 11 1 0 0
split_gain=0.314123 0.323922 0.339842 0.202525 0.19588 0.182868 0.0712368 0.0645763 0.0487297 0.0457066 0.0803813 0.0811039 0.0332612
threshold=0.77915819106608775 0.070973154050662138 0.41106719035376682 0.11894957130682277 0.021742116557478177 0.64772487228375752 0.069721214827143205 0.94375032136004899 0.66666666666666674 0.3528195894986903 0.44088151681405091 0.59033361992249433 0.51348607409480673
decision_type=2 2 2 2 2 2 2 2 2 2 2 2 2
left_child=1 2 6 8 5 7 -1 -3 -2 -4 -11 -12 -8
right_child=3 4 9 -5 -6 -7 12 -9 -10 10 11 -13 -14
leaf_value=-0.016926913058756848 0.13694315740985699 -0.057502610967794625 0.01995277133701406 0.014396490443231411 -0.062437600132116799 0.0021934205293515853 -0.025120234904523652 -0.015954546591971732 0.064869498442643031 0.024979318252396777 0.13709730972172351 0.053128246532808759 0.0056452908556040328
leaf_weight=4.509560068836441 0.14010792269254979 1.2596704673196648 1.665531801991164 2.4991511646658182 1.4715736990037838 2.9935268517583609 0.49776865169405926 0.76944697648286808 0.82574292470235378 1.1153704263269903 0.18484161826199841 0.7151629151776433 4.5527888445649296
leaf_count=38 11 22 21 16 28 24 4 9 27 10 12 11 41
internal_value=0 -0.0055095 0.00462915 0.0313799 -0.0261811 -0.0155584 -0.00660402 -0.0417475 0.0753246 0.0338041 0.0452511 0.0703737 0.00261313
internal_weight=0 19.7352 13.241 3.465 6.49422 5.02264 9.56012 2.02912 0.965851 3.68091 2.01537 0.900005 5.05056
internal_count=274 220 137 54 83 55 83 31 38 54 33 23 45
shrinkage=0.113


Tree=22
num_leaves=14
num_cat=0
split_feature=11 10 8 3 11 5 11 0 0 0 2 0 9
split_gain=0.237052 0.336677 0.20893 0.164691 0.179388 0.236266 0.117 0.150033 0.107674 0.0914323 0.087903 0.0478102 0.0417123
threshold=0.77915819106608775 0.17718120777757762 0.11894957130682277 0.050213589858228304 0.45133336091856951 0.068691133825377962 0.67688773599872754 0.29739252513674613 0.76735039005403693 0.82861429136100517 0.70769847634322391 0.61341275555286834 0.66666666666666674
decision_type=2 2 2 2 2 2 2 2 2 2 2 2 2
left_child=1 3 12 10 5 -5 8 -8 -3 -6 -1 -7 -2
right_child=2 6 -4 4 9 11 7 -9 -10 -11 -12 -13 -14
leaf_value=0.025307279591929251 0.13556894462374827 -0.13834054068712429 0.010697349104155013 -0.034373207719819637 -0.029872376859369009 0.019495522377221106 -0.0081461213437792526 -0.063220930852852936 -0.045113613820031907 -0.0024996514536497127 -0.017017283410178854 0.050917962202353083 0.064780454115685657
leaf_weight=4.2992662501055809 0.12332714168587644 0.24335544026689548 2.4473715145140886 1.0277531454339603 3.5107502128230408 2.2448323694698051 1.9388734810054304 0.93673660661443126 0.4520389469107613 2.8016620015259832 0.73347577359527338 0.85333150532096613 0.7694408850511536
leaf_count=45 11 10 16 10 34 34 17 17 11 25 8 9 27
internal_value=0 -0.0048705 0.0277666 0.00234827 -0.00574716 0.0125758 -0.0361452 -0.0260869 -0.0777387 -0.0177234 0.0191389 0.0281502 0.0745592
internal_weight=0 19.0421 3.34014 15.4711 10.4383 4.12592 3.571 2.87561 0.695394 6.31241 5.03274 3.09816 0.892768
internal_count=274 220 54 165 112 53 55 34 21 59 53 43 38
shrinkage=0.113


Tree=23
num_leaves=14
num_cat=0
split_feature=5 11 2 10 7 11 8 4 11 2 11 0 11
split_gain=0.247273 0.22162 0.19228 0.144517 0.136219 0.131159 0.126039 0.0309604 0.047794 0.0290028 0.0289577 0.0249082 0.0228939
threshold=0.41106719035376682 0.77915819106608775 0.99599037690457126 0.070973154050662138 0.025384520271380974 0.64772487228375752 0.069721214827143205 1.0000000180025095e-35 0.67688773599872754 0.70769847634322391 0.45133336091856951 0.94375032136004899 0.3528195894986903
decision_type=2 2 2 2 2 2 2 2 2 2 2 2 2
left_child=1 4 -3 12 6 -5 7 8 -1 10 -8 -7 -2
right_child=3 2 -4 5 -6 11 9 -9 -10 -11 -12 -13 -14
leaf_value=-0.025015251859357539 0.018237663149535378 0.096657327978681568 0.0080514900656211679 -0.024964881767268434 -0.067470941971508477 0.045333731016378324 0.018290254846487459 -0.042795436909530297 -0.003393487899778135 -0.018545877704551399 -0.0012675852087540591 0.012501317469890612 0.035104823471468996
leaf_weight=4.368972581520211 1.5733230193145562 0.40988329477840912 1.3193332105875015 1.5880452074343341 0.58269172534346658 0.42682968801818766 1.5771088767796753 0.75422850681934495 1.8616628930903969 0.70332435425370921 2.497467810055241 0.95564786903560162 2.9619502065470442
leaf_count=48 21 23 8 21 18 15 16 10 17 8 21 7 41
internal_value=0 -0.00883315 0.0290541 0.0165637 -0.01414 -0.00281052 -0.0114981 -0.0211724 -0.0185548 0.00264472 0.00630249 0.0226381 0.0292535
internal_weight=0 14.0747 1.72922 7.5058 12.3455 2.97052 11.7628 6.98486 6.23064 4.7779 4.07458 1.38248 4.53527
internal_count=274 169 31 105 138 43 120 75 65 45 37 22 62
shrinkage=0.113


end of trees

feature_importances:
relevance=104
color=39
shape_size=28
visibility=27
intensity=26
proximity2fe=26
proximity2be=23
wellknownness=15
integration=10
proximity2dp=7
uniqueness=5
choice=2

parameters:
[boosting: gbdt]
[objective: lambdarank]
[metric: ndcg]
[tree_learner: serial]
[device_type: cpu]
[data: ]
[valid: ]
[num_iterations: 28]
[learning_rate: 0.113]
[num_leaves: 14]
[num_threads: -1]
[force_col_wise: 0]
[force_row_wise: 0]
[histogram_pool_size: -1]
[max_depth: 6]
[min_data_in_leaf: 5]
[min_sum_hessian_in_leaf: 0.001]
[bagging_fraction: 1]
[pos_bagging_fraction: 1]
[neg_bagging_fraction: 1]
[bagging_freq: 0]
[bagging_seed: 3]
[feature_fraction: 1]
[feature_fraction_bynode: 1]
[feature_fraction_seed: 2]
[extra_trees: 0]
[extra_seed: 6]
[early_stopping_round: 100]
[first_metric_only: 0]
[max_delta_step: 0]
[lambda_l1: 0]
[lambda_l2: 0]
[min_gain_to_split: 0]
[drop_rate: 0.1]
[max_drop: 50]
[skip_drop: 0.5]
[xgboost_dart_mode: 0]
[uniform_drop: 0]
[drop_seed: 4]
[top_rate: 0.2]
[other_rate: 0.1]
[min_data_per_group: 100]
[max_cat_threshold: 32]
[cat_l2: 10]
[cat_smooth: 10]
[max_cat_to_onehot: 4]
[top_k: 20]
[monotone_constraints: ]
[monotone_constraints_method: basic]
[monotone_penalty: 0]
[feature_contri: ]
[forcedsplits_filename: ]
[refit_decay_rate: 0.9]
[cegb_tradeoff: 1]
[cegb_penalty_split: 0]
[cegb_penalty_feature_lazy: ]
[cegb_penalty_feature_coupled: ]
[path_smooth: 0]
[interaction_constraints: ]
[verbosity: -1]
[saved_feature_importance_type: 0]
[max_bin: 255]
[max_bin_by_feature: ]
[min_data_in_bin: 3]
[bin_construct_sample_cnt: 200000]
[data_random_seed: 1]
[is_enable_sparse: 1]
[enable_bundle: 1]
[use_missing: 1]
[zero_as_missing: 0]
[feature_pre_filter: 1]
[pre_partition: 0]
[two_round: 0]
[header: 0]
[label_column: ]
[weight_column: ]
[group_column: ]
[ignore_column: ]
[categorical_feature: ]
[forcedbins_filename: ]
[objective_seed: 5]
[num_class: 1]
[is_unbalance: 0]
[scale_pos_weight: 1]
[sigmoid: 1]
[boost_from_average: 1]
[reg_sqrt: 0]
[alpha: 0.9]
[fair_c: 1]
[poisson_max_delta_step: 0.7]
[tweedie_variance_power: 1.5]
[lambdarank_truncation_level: 20]
[lambdarank_norm: 1]
[label_gain: ]
[eval_at: 1,2]
[multi_error_top_k: 1]
[auc_mu_weights: ]
[num_machines: 1]
[local_listen_port: 12400]
[time_out: 120]
[machine_list_filename: ]
[machines: ]
[gpu_platform_id: -1]
[gpu_device_id: -1]
[gpu_use_dp: 0]

end of parameters

pandas_categorical:null
