tree
version=v3
num_class=1
num_tree_per_iteration=1
label_index=0
max_feature_idx=11
objective=lambdarank
feature_names=color intensity shape_size integration choice visibility proximity2dp proximity2fe proximity2be uniqueness wellknownness relevance
feature_infos=[0:1] [0:1] [0:1.0000000000000002] [0:1] [0:1] [0.039388713822962551:1] [0:1.0000000000000002] [0:0.99999999999999989] [0:0.93183904056685019] [0:1] [0:0.26644295277397417] [0:1]
tree_sizes=3034 2411 2727 3037 2932 3054 2947 3069

Tree=0
num_leaves=28
num_cat=0
split_feature=5 11 10 1 0 0 11 2 11 0 11 11 0 11 11 5 5 2 11 0 11 0 0 11 11 2 2
split_gain=8.9994 4.45747 7.06962 3.26995 2.09558 1.32567 0.979618 0.487128 0.430498 0.321588 0.740721 0.320398 0.293691 0.549829 0.463116 0.262623 0.227376 0.128179 0.111974 0.0808654 0.124508 0.140192 0.0382252 0.0157978 0.0154403 0.00324261 0.000371047
threshold=0.35778948929255661 0.98202865771588765 0.070973154050662138 0.20976926485769415 0.59033361992249433 0.57358709964519461 0.64772487228375752 0.12028869286287094 0.42474782993232335 0.33068404049053274 0.67688773599872754 0.45133336091856951 0.63252044125064555 0.45133336091856951 0.82410117069730793 0.13317275513406593 0.20945946249560674 0.41900561347233373 0.45133336091856951 0.70657666276404862 0.82410117069730793 0.92798781083676607 0.61341275555286834 0.82410117069730793 0.53168496441549251 0.20208500400962315 0.41900561347233373
decision_type=2 2 2 2 2 2 2 2 2 2 2 2 2 2 2 2 2 2 2 2 2 2 2 2 2 2 2
left_child=3 2 4 9 8 7 25 11 -2 10 16 -5 13 15 18 -7 -1 -3 -14 23 21 24 -15 -6 -21 -4 -27
right_child=1 17 6 5 19 12 -8 -9 -10 -11 -12 -13 14 22 -16 -17 -18 -19 -20 20 -22 -23 -24 -25 -26 26 -28
leaf_value=-0.135599999999999 0.13060885689869245 0.22599999999999995 -0.11379953648756752 0.025875130223358474 0.066343032647681585 0.048710447806211817 0.025875130223358425 -0.045199999999999928 0.22599999999999981 -0.22599999999999973 -0.080833825822637886 0.12965342167018701 -0.12593756511167906 -0.056499999999999925 -0.0069160564510644517 -0.033507848000251153 -0.22599999999999976 0.17464040043929596 -0.075333333333333252 0.026912446353935221 0.011133833882453412 0.086884436423848466 -0.087009544590747445 0.088017155879143091 0.04732221631661529 -0.12298909089996453 -0.11998733194095518
leaf_weight=0.54125338792801203 1.1733328215777856 1.069391965866088 1.1126962825655935 0.73348164558410489 1.0884231850504873 0.98017250746488538 0.73348164558410633 0.54125338792800892 1.2452200576663017 0.73348164558410633 1.348228856921196 0.7879442498087883 1.4669632911682136 0.86600542068481456 0.79318612813949574 1.0044456049799919 1.0339605808258057 1.4781215786933899 0.90143680572509755 0.87285388633608807 0.98541438579559315 1.2321052476763725 1.3291976377367973 0.70920854806900013 1.0339605808258057 0.94998300075531017 1.1776426434516907
leaf_count=5 12 11 11 7 11 10 7 5 12 7 13 8 14 8 8 10 10 15 9 9 10 13 13 7 10 9 12
internal_value=0 0.0601392 0.0319917 -0.068431 0.0910904 -0.0331728 -0.0920491 0.0468681 0.179722 -0.1591 -0.142316 0.0796218 -0.0556615 -0.036005 -0.0816488 0.00709851 -0.194938 0.1962 -0.106677 0.0548929 0.0461752 0.0571759 -0.0749736 0.074894 0.0379795 -0.118743 -0.121328
internal_weight=0 14.8618 12.3143 13.061 8.34052 9.40409 3.9738 2.06268 2.41855 3.65692 2.92344 1.52143 7.34141 4.17982 3.16159 1.98462 1.57521 2.54751 2.3684 5.92197 4.12433 3.13892 2.1952 1.79763 1.90681 3.24032 2.12763
internal_count=276 149 123 127 84 92 39 20 24 35 28 15 72 41 31 20 15 26 23 60 42 32 21 18 19 32 21
shrinkage=0.113


Tree=1
num_leaves=22
num_cat=0
split_feature=5 11 1 7 5 2 11 11 7 11 7 1 11 2 2 11 2 11 0 11 0
split_gain=19.8978 22.7103 11.7264 4.68423 3.72925 2.11385 1.90896 2.56839 1.75999 2.19682 2.04894 1.08674 1.07396 0.964972 0.255925 0.113601 0.0997033 0.0900306 0.0150671 0.0039245 0.000142255
threshold=0.66306536504090297 0.98202865771588765 0.20976926485769415 0.024554669465599758 0.068691133825377962 0.99959903769045744 0.82410117069730793 0.42474782993232335 0.026299892476803661 0.67688773599872754 0.020714679282958556 0.6478058824532259 0.38709523039848187 0.41900561347233373 0.99558941459502837 0.64772487228375752 0.70769847634322391 0.45133336091856951 0.92798781083676607 0.45133336091856951 0.59033361992249433
decision_type=2 2 2 2 2 2 2 2 2 2 2 2 2 2 2 2 2 2 2 2 2
left_child=1 2 8 4 19 12 7 20 9 10 16 -5 18 -3 15 -14 -1 -13 -6 -4 -2
right_child=6 13 3 11 5 -7 -8 -9 -10 -11 -12 17 14 -15 -16 -17 -18 -19 -20 -21 -22
leaf_value=-0.088573796836375923 0.099481911930500766 0.20398498469531068 -0.065166533763794332 -0.10890736634785268 0.05477146913321098 -0.05439806824250544 0.034500776213668198 0.20484751513652585 -0.20340036709889242 -0.047279353068619655 -0.20384278225607272 -0.036813659628621404 0.0094757936345384146 0.12724765070690863 -0.013056869278003628 0.025199842412960822 -0.11653483032000718 -0.058786336570012976 0.046012715022990022 -0.060802499930978436 0.098642385994077902
leaf_weight=5.3413032591342979 4.8074184060096758 3.4587557911872846 5.5742293894290906 5.7606969177722904 4.5795650482177717 5.9071113318204871 3.3708244264125815 4.083001270890235 2.2668261975049964 6.8120722770690909 3.2746695727109909 5.2263768315315247 30.508983299136162 5.297061875462532 5.7674131989479056 7.2637410163879386 2.3425736427307129 4.3738154768943787 5.5436649322509766 4.9838536083698273 5.5556008517742157
leaf_count=12 12 11 10 11 9 12 7 12 7 13 10 10 57 15 10 12 5 8 13 9 11
internal_value=0 -0.0173163 -0.0318263 -0.0135897 -0.00121025 0.00976005 0.111072 0.128939 -0.109632 -0.0976713 -0.128996 -0.0701069 0.0168224 0.157561 0.00911429 0.0124995 -0.0970982 -0.0468243 0.049975 -0.0631065 0.0990318
internal_weight=0 114.283 105.527 85.4895 70.1286 59.5705 17.8168 14.446 20.0374 17.7706 10.9585 15.3609 53.6634 8.75582 43.5401 37.7727 7.68388 9.60019 10.1232 10.5581 10.363
internal_count=276 234 208 161 132 113 42 35 47 40 27 29 101 26 79 69 17 18 22 19 23
shrinkage=0.113


Tree=2
num_leaves=25
num_cat=0
split_feature=5 11 1 7 5 0 11 1 11 0 11 11 6 7 2 10 11 0 0 11 0 11 0 0
split_gain=11.3743 12.52 6.81806 3.00351 1.8484 1.1066 1.05426 0.946293 0.945508 1.20736 0.925043 0.498172 4.89143 1.91362 0.441449 0.370476 1.33067 0.303195 0.178213 0.129791 0.109179 0.0275209 0.0228878 0.00106751
threshold=0.66306536504090297 0.98202865771588765 0.20976926485769415 0.024554669465599758 0.068691133825377962 0.59033361992249433 0.42474782993232335 1.0000000180025095e-35 0.67688773599872754 0.20029640213204666 0.45133336091856951 0.45133336091856951 0.2100774150633565 0.024478057170235268 0.41900561347233373 0.096476509763918292 0.64772487228375752 0.70657666276404862 0.70657666276404862 0.82410117069730793 0.76735039005403693 0.45133336091856951 0.60700420711197478 0.92798781083676607
decision_type=2 2 2 2 2 2 2 2 2 2 2 2 2 2 2 2 2 2 2 2 2 2 2 2
left_child=1 2 7 4 21 6 -2 -1 9 -9 -5 12 -6 15 -3 18 -17 -14 -13 -7 -12 -4 -11 -19
right_child=5 14 3 10 11 19 -8 8 -10 22 20 13 17 -15 -16 16 -18 23 -20 -21 -22 -23 -24 -25
leaf_value=-0.18717505304457049 0.093806559032790393 0.18739445348939526 -0.058011544598554572 -0.020115450467804403 -0.077868417562752548 0.082696135865365797 0.19006776544954704 -0.18812442096833124 -0.050876139287169039 -0.097772496405108322 -0.073854452585748659 0.038459810580634128 0.082947046866213542 -0.058617441325331386 0.12235157184181034 -0.061893076164335356 0.029882284365166649 0.048137268718870134 0.013892728489022772 0.051149410196830912 -0.1014295470397694 -0.044509949050811487 -0.08158578849970502 0.04533661546227525
leaf_weight=1.3802647665143002 3.3434594422578794 2.0923930630087844 3.9531464129686347 3.9338281452655774 4.4048829674720791 3.7429510354995728 2.5690867379307747 2.0452542677521688 5.0606724172830582 1.5682856887578962 3.5671703964471817 6.4134947806596818 4.8876399993896467 5.8078311681747428 3.6684032529592514 3.2701415270566923 5.2656747400760651 2.9332346022129059 9.1489790678024274 3.0000818073749542 3.7722555249929428 3.7625314742326736 3.8629183769226074 4.2642796486616135
leaf_count=7 12 11 10 10 11 11 12 10 13 5 8 16 10 13 15 9 12 9 20 7 11 9 12 13
internal_value=0 -0.0148703 -0.0265547 -0.0112683 -0.000214022 0.0999495 0.135633 -0.0983715 -0.0885948 -0.114126 -0.0643293 0.00830278 0.0240715 -0.000391988 0.145976 0.0136407 -0.00527761 0.0612273 0.0240171 0.0686605 -0.0880273 -0.0514275 -0.0862598 0.046478
internal_weight=0 85.0633 79.3025 65.3851 54.1118 12.6556 5.91255 13.9174 12.5371 7.47646 11.2733 46.3962 16.49 29.9061 5.7608 24.0983 8.53582 12.0852 15.5625 6.74303 7.33943 7.71568 5.4312 7.19751
internal_count=276 234 208 161 132 42 24 47 40 27 29 113 43 70 26 57 21 32 36 18 19 19 17 22
shrinkage=0.113


Tree=3
num_leaves=28
num_cat=0
split_feature=5 11 11 11 5 0 11 0 11 2 11 11 0 3 0 11 5 11 0 0 11 0 11 5 0 0 0
split_gain=10.3405 5.56076 2.59162 2.89027 2.41906 1.75358 1.51252 1.01038 0.986029 1.12741 0.742296 1.06262 0.736652 0.472321 0.349771 0.274887 0.19575 0.183285 0.751812 0.231664 0.0960918 0.0872901 0.069041 0.0288025 0.0144724 0.011344 0.00354487
threshold=0.41106719035376682 0.98202865771588765 0.49459000568800598 0.53168496441549251 0.13317275513406593 0.70657666276404862 0.42474782993232335 0.82861429136100517 0.82410117069730793 0.37209302325581411 0.45133336091856951 0.67688773599872754 0.57358709964519461 0.028761003896220581 0.60700420711197478 0.45133336091856951 0.10452880480595676 0.64772487228375752 0.98423748947671708 0.98423748947671708 0.45133336091856951 0.70657666276404862 0.45133336091856951 0.20945946249560674 0.76735039005403693 0.92798781083676607 0.59033361992249433
decision_type=2 2 2 2 2 2 2 2 2 2 2 2 2 2 2 2 2 2 2 2 2 2 2 2 2 2 2
left_child=1 4 6 -4 7 14 21 16 9 10 -6 12 -12 -11 -5 -9 20 18 -7 -19 -1 26 -18 -13 -14 -23 -2
right_child=2 -3 3 5 8 17 -8 15 -10 13 11 23 24 -15 -16 -17 22 19 -20 -21 -22 25 -24 -25 -26 -27 -28
leaf_value=0.0064544814933116066 0.082997716219249423 0.17626791762156668 -0.079077743168718267 0.063050291407135153 -0.017282696849574543 0.037555118489193448 0.17946272608203473 -0.073703987000440563 -0.0088083300857722258 -0.17995388495096454 -0.17713348993344927 -0.030009258233651748 -0.083574906107517152 -0.088506158342670921 0.11936736549377078 -0.028350911475904465 0.034777349755660408 0.010357204356577256 -0.042247469086143394 0.054233663868366852 -0.018586777685199708 0.054236134065987873 0.0084716107701779519 -0.047292398692378758 -0.094502198575378824 0.064296816307181842 0.077297771867114728
leaf_weight=3.4636970460414904 2.6369529291987384 1.5188860855996598 3.1072054579854038 2.8167068883776691 3.1490673646330931 3.3050174266099912 1.8647020906209952 3.2938138619065276 3.0240337699651709 1.7470929697155944 1.4919435642659644 1.7430892735719679 3.2932675257325172 1.2281643450260162 2.8160357400774956 3.5409850999712944 2.3672938495874405 3.6873530745506287 2.7714829072356224 2.6343332231044769 4.4974559023976326 2.3457310348749161 2.7584839463233948 4.1929290443658829 2.919768363237381 3.6702447384595871 2.9538469389081001
leaf_count=10 12 11 12 7 10 10 12 10 8 11 10 5 8 5 15 9 7 10 9 7 13 9 8 13 11 13 11
internal_value=0 -0.0362008 0.0462634 0.021578 -0.0437565 0.0389236 0.0849973 -0.0149935 -0.0689002 -0.0780941 -0.0667335 -0.0781493 -0.105832 -0.142205 0.0912055 -0.0502074 0.00339729 0.015171 0.00115728 0.0286411 -0.00769196 0.0698209 0.0206207 -0.0422173 -0.0887101 0.060374 0.0799862
internal_weight=0 44.23 34.6096 21.1381 42.7111 18.0309 13.4715 19.9217 22.7894 19.7653 16.7901 13.641 7.70498 2.97526 5.63274 6.8348 13.0869 12.3982 6.0765 6.32169 7.96115 11.6068 5.12578 5.93602 6.21304 6.01598 5.5908
internal_count=276 149 127 70 138 58 57 57 81 73 57 47 29 16 22 19 38 36 19 17 23 45 15 18 19 22 23
shrinkage=0.113


Tree=4
num_leaves=27
num_cat=0
split_feature=5 11 11 11 9 8 1 11 11 3 0 11 1 6 0 0 0 11 0 5 11 0 11 0 0 0
split_gain=5.32598 3.64257 2.22267 2.03374 1.70256 1.45256 1.40796 1.1969 0.744698 0.457332 0.448535 0.272593 0.256675 0.251523 0.189198 0.158048 0.15671 0.154707 0.669697 0.170281 0.0469068 0.0116422 0.0097541 0.00957737 0.00456329 0.00156731
threshold=0.41106719035376682 0.98202865771588765 0.49459000568800598 0.53168496441549251 1.0000000180025095e-35 0.069721214827143205 0.25709665841008417 0.42474782993232335 0.67688773599872754 0.043137279689637077 0.20029640213204666 0.64772487228375752 0.20976926485769415 0.53032803014355856 0.98423748947671708 0.82861429136100517 0.70657666276404862 0.45133336091856951 0.61341275555286834 0.10452880480595676 0.45133336091856951 0.92798781083676607 0.45133336091856951 0.92798781083676607 0.59033361992249433 0.76735039005403693
decision_type=2 2 2 2 2 2 2 2 2 2 2 2 2 2 2 2 2 2 2 2 2 2 2 2 2 2
left_child=1 4 7 -4 5 15 -5 16 10 -7 -6 13 -10 -8 21 20 24 19 -19 -11 -1 -13 -17 -18 -2 -12
right_child=2 -3 3 6 8 9 11 -9 12 17 25 14 -14 -15 -16 22 23 18 -20 -21 -22 -23 -24 -25 -26 -27
leaf_value=-0.026108363095838312 0.080203216459581506 0.16764080308078369 -0.08025114924373429 0.10992660728074967 -0.16855055485452142 -0.033812082395981893 -0.034791052136895075 0.17186154005998158 -0.061085824134187935 0.046566324200143276 -0.083376154645196446 0.02183685769515183 -0.0078306641826269736 0.014944372214328153 0.054737166939087305 -0.06847805372231025 0.053698925383245014 0.053804031889918377 -0.025319094733399973 0.004649512643700413 -0.04763649697074343 0.011052230012185799 -0.058980539651313023 0.043407675675068827 0.073148442867890157 -0.088631146063076746
leaf_weight=2.7337357401847857 2.2537987232208252 1.1688477024435986 2.6173317581415203 2.2583987675607196 1.1505913659930209 3.0836382508277884 2.2808351367712003 1.4559274315834052 4.2767285369336605 3.0796538889408094 1.0380549356341364 2.1458710730075836 1.583513021469116 3.014290064573288 2.2141005247831345 2.777136355638504 1.9220555052161215 2.1259315386414528 3.8208698034286499 2.0688237547874451 2.4510727673768997 3.160831406712532 2.7461521029472351 2.892229326069355 2.4363570809364319 2.4009013175964355
leaf_count=10 12 11 12 15 10 12 9 12 20 10 5 7 5 10 7 10 9 8 13 7 8 10 9 13 11 11
internal_value=0 -0.0286215 0.0364668 0.0116945 -0.0351134 -0.0190409 0.0276589 0.076453 -0.0733913 0.00468341 -0.107478 0.0131618 -0.0466956 -0.00647879 0.0269901 -0.0504549 0.0618379 0.0153822 0.00296676 0.0297228 -0.0362856 0.0154132 -0.0637559 0.0475164 0.0765385 -0.0870449
internal_weight=0 36.5057 28.652 17.6917 35.3368 24.887 15.0743 10.9604 10.4498 14.1789 4.58955 12.8159 5.86024 5.29513 7.5208 10.7081 9.50444 11.0953 5.9468 5.14848 5.18481 5.3067 5.52329 4.81428 4.69016 3.43896
internal_count=276 149 127 70 138 87 58 57 51 50 26 43 25 19 24 37 45 38 21 17 18 17 19 22 23 16
shrinkage=0.113


Tree=5
num_leaves=28
num_cat=0
split_feature=5 11 11 11 2 8 2 1 11 11 2 0 3 11 6 0 11 0 0 5 0 0 0 11 11 0 0
split_gain=5.07816 2.04289 1.47808 1.60833 1.37542 1.21255 1.12403 0.910321 0.887547 0.44606 0.619355 0.322665 0.306991 0.226004 0.307305 0.259873 0.220376 0.123052 0.0862958 0.0806477 0.0693168 0.0395678 0.0174616 0.0952719 0.0465716 0.00184388 0.000247199
threshold=0.41106719035376682 0.82410117069730793 0.49459000568800598 0.53168496441549251 0.37209302325581411 0.069721214827143205 0.99959903769045744 0.25709665841008417 0.42474782993232335 0.67688773599872754 0.067361668003207739 0.76735039005403693 0.028761003896220581 0.64772487228375752 0.53032803014355856 0.98423748947671708 0.45133336091856951 0.61341275555286834 0.70657666276404862 0.10452880480595676 0.92798781083676607 1.0000000180025095e-35 0.82861429136100517 0.45133336091856951 0.45133336091856951 0.59033361992249433 0.92798781083676607
decision_type=2 2 2 2 2 2 2 2 2 2 2 2 2 2 2 2 2 2 2 2 2 2 2 2 2 2 2
left_child=1 4 8 -4 5 9 -3 -5 18 10 22 -12 -6 14 -9 20 19 -18 25 -7 -15 -11 23 -1 -24 -2 -20
right_child=2 6 3 7 12 16 -8 13 -10 21 11 -13 -14 15 -16 -17 17 -19 26 -21 -22 -23 24 -25 -26 -27 -28
leaf_value=-0.026751739495001887 0.074841363813690873 0.1611871981509955 -0.071745678465009233 0.10429437640624076 -0.16667946898870173 0.03020233525682841 0.012680895646836454 -0.033368489931530562 0.16563921818683666 -0.026975521040606808 -0.16186949046605853 -0.081464549096247521 -0.079007931078555402 0.032875456838881545 0.02575749822605845 0.066652913766280464 0.0054203897205822513 -0.029489132140377506 0.050218545826217258 -0.00059939163057858773 0.0061291010928914104 -0.0040902574248417459 -0.062899135470169315 -0.059073628603073858 -0.040972222688343059 0.069998029781150634 0.048431742784367147
leaf_weight=2.4137750007212251 1.9250389412045477 0.93666106089949552 2.2387074269354335 1.8947083577513684 1.1496514789760106 2.6790732294321042 2.1324206814169884 1.9725065901875476 1.1719493530690677 3.1188284382224074 0.91975165531039182 2.0752341784536839 0.91661149263381947 2.327466107904911 2.6046076342463493 2.0285882577300072 2.095221646130085 3.3519954420626163 1.6092738807201383 1.8246928527951238 2.641477569937706 1.3967060744762418 2.4842093288898468 2.2498668730258942 2.4633466899394989 2.0970827788114548 2.5636918544769287
leaf_count=10 12 11 12 15 11 10 8 9 12 13 10 11 5 7 10 7 8 13 9 7 10 5 10 8 9 11 13
internal_value=0 -0.0296864 0.0381311 0.0169452 -0.0389224 -0.03214 0.0580039 0.0316863 0.0736588 -0.0503715 -0.0612875 -0.106157 -0.127788 0.0198007 0.000277164 0.0325712 -0.000770774 -0.0160615 0.060505 0.0177231 0.0186572 -0.0198968 -0.0473056 -0.0423447 -0.0519819 0.0723161 0.0491208
internal_weight=0 32.208 25.0751 15.7081 29.139 27.0727 3.06908 13.4694 9.36704 17.1217 12.6062 2.99499 2.06626 11.5746 4.57711 6.99753 9.95098 5.44722 8.19509 4.50377 4.96894 4.51553 9.6112 4.66364 4.94756 4.02212 4.17297
internal_count=276 149 127 70 130 114 19 58 57 76 58 21 16 43 19 24 38 21 45 17 17 18 37 18 19 23 22
shrinkage=0.113


Tree=6
num_leaves=27
num_cat=0
split_feature=5 11 11 11 2 2 8 1 11 11 3 1 11 0 6 11 0 5 1 0 0 11 11 0 3 0
split_gain=3.5249 1.30769 1.19024 1.12796 1.07048 1.04681 0.924737 0.788392 0.710264 0.574723 0.384231 0.15782 0.155195 0.600001 0.194142 0.094954 0.241919 0.077202 0.0680541 0.0359677 0.0333125 0.0879724 0.0182186 0.0036745 0.00149943 0.000836243
threshold=0.41106719035376682 0.49459000568800598 0.53168496441549251 0.82410117069730793 0.99959903769045744 0.067361668003207739 0.069721214827143205 0.25709665841008417 0.42474782993232335 0.67688773599872754 0.028761003896220581 0.20976926485769415 0.64772487228375752 0.98423748947671708 0.53032803014355856 0.45133336091856951 0.61341275555286834 0.10452880480595676 0.44088151681405091 0.92798781083676607 0.82861429136100517 0.45133336091856951 0.45133336091856951 0.76735039005403693 0.046884078193710606 0.59033361992249433
decision_type=2 2 2 2 2 2 2 2 2 2 2 2 2 2 2 2 2 2 2 2 2 2 2 2 2 2
left_child=3 8 -3 5 -5 6 20 -4 18 10 -7 -11 14 19 -9 17 -17 -8 24 -14 21 -1 -22 -12 -2 -20
right_child=1 2 7 4 -6 9 15 12 -10 11 23 -13 13 -15 -16 16 -18 -19 25 -21 22 -23 -24 -25 -26 -27
leaf_value=-0.02150107806517083 0.0447481025795059 -0.068467132686835269 0.099484629135005914 0.15586959396597014 -0.0015246088676487194 -0.1562699755084356 0.033043031449208587 -0.030958062182120539 0.16069655923681878 -0.052884174250797472 -0.069978235519857296 -0.005985959305494659 -0.0074823854700067803 0.076968786296130312 0.018831445458587365 0.029311846939108828 -0.023042807262368601 0.0013796127293767379 0.070318363785762131 0.012523946977553284 -0.058605117348313265 -0.054263083322836629 -0.044049542551560801 -0.079173234162049563 0.049449711827547545 0.06684540634801571
leaf_weight=2.1825719662010759 2.2534852214157599 1.9793518632650364 1.6168050952255715 0.76706039998680275 1.9659305363893509 1.0879035117104634 2.4360306411981565 1.7494137100875358 0.96285736747086037 3.3525771591812372 0.79867681488394748 1.2608040571212766 2.1892783939838409 2.0132247433066368 2.3343748077750206 1.8152943328022955 2.9721894226968288 1.6487571373581884 1.7105311378836632 2.4112397693097591 2.1854655854403973 2.01069525629282 2.2067442536354065 1.8185056373476982 1.4068994894623759 1.835039060562849
leaf_count=10 13 12 15 11 8 14 10 9 12 20 5 5 7 7 10 8 13 7 12 10 10 8 9 11 9 11
internal_value=0 0.0334773 0.0128659 -0.0263769 0.0426508 -0.0336957 -0.0179765 0.025939 0.069543 -0.0666852 -0.0998286 -0.0400672 0.0148234 0.0255185 -0.00249739 0.0076069 -0.00319123 0.0202626 0.0573631 0.0030034 -0.0444145 -0.0372106 -0.0512921 -0.0763672 0.0465552 0.0685209
internal_weight=0 22.4625 14.2937 28.5092 2.73299 25.7762 17.4577 12.3143 8.16881 8.31847 3.70509 4.61338 10.6975 6.61374 4.08379 8.87227 4.78748 4.08479 7.20595 4.60052 8.58548 4.19327 4.39221 2.61718 3.66038 3.54557
internal_count=276 127 70 149 19 130 75 58 57 55 30 25 43 24 19 38 21 17 45 17 37 18 19 16 22 23
shrinkage=0.113


Tree=7
num_leaves=28
num_cat=0
split_feature=5 11 2 11 11 2 8 11 2 3 11 2 11 3 2 0 5 0 0 1 0 0 11 11 3 0 0
split_gain=3.63657 0.922104 0.874471 0.817462 1.24657 0.790388 0.656567 0.57774 0.440578 0.406719 0.311295 0.373096 0.253931 0.242161 0.220163 0.0833442 0.0676658 0.0529661 0.052111 0.0483196 0.0246432 0.0212474 0.0643293 0.0158442 0.00154849 0.00017752 0.000158622
threshold=0.41106719035376682 0.82410117069730793 0.99959903769045744 0.49459000568800598 0.64772487228375752 0.37209302325581411 0.069721214827143205 0.42474782993232335 0.20208500400962315 0.050213589858228304 0.67688773599872754 0.067361668003207739 0.45133336091856951 0.028761003896220581 0.12028869286287094 0.98423748947671708 0.10452880480595676 0.92798781083676607 0.98423748947671708 0.44088151681405091 1.0000000180025095e-35 0.82861429136100517 0.45133336091856951 0.45133336091856951 0.046884078193710606 0.61341275555286834 0.59033361992249433
decision_type=2 2 2 2 2 2 2 2 2 2 2 2 2 2 2 2 2 2 2 2 2 2 2 2 2 2 2
left_child=1 5 -3 7 8 6 10 19 -5 17 11 21 16 -7 -13 -10 -8 -6 -11 24 -12 22 -1 -23 -2 -14 -21
right_child=3 2 -4 4 9 13 12 -9 15 18 20 14 25 -15 -16 -17 -18 -19 -20 26 -22 23 -24 -25 -26 -27 -28
leaf_value=-0.02293989307315953 0.043388191452705664 0.15168582785089857 -0.002236389767717133 0.01813812505978523 0.038075284964778279 -0.15707806330167029 0.030190909628695115 0.15652493232395717 -0.064588813400570474 0.095302693983916081 -0.022585069967944672 -0.073261748746135599 -0.021029309883094809 -0.06670815418117837 -0.15200015842544751 -0.028892151945758858 -0.00087849898529560413 0.013655884833280511 0.066238329073800006 0.065722363242189941 -0.0026608024123904012 -0.055854127329810939 -0.052272624520866326 -0.04168785042322258 0.048447592752121488 -0.022427936089818717 0.064121644251296642
leaf_weight=1.9876050986349671 2.0262341424822834 0.64156517293304127 1.7759109660983086 2.1047952547669393 2.3734404891729355 0.78644641116261371 2.2184309810399991 0.80414938926696766 1.7780198156833649 1.4045065753161907 2.5550081953406325 1.6279311515390875 2.0408867597579956 0.73015972599387169 0.62851824518293131 1.5749711729586124 1.5004774332046511 2.1722203269600868 1.7936789318919182 1.5316758900880814 1.1491852849721911 2.0204082392156124 1.8370646759867668 2.0121320635080338 1.2483404241502287 2.6810008771717548 1.6335234977304935
leaf_count=10 13 11 8 10 7 11 10 12 12 15 13 11 8 5 10 9 7 10 7 12 5 10 8 9 9 13 11
internal_value=0 -0.027878 0.0386125 0.0357145 0.0189771 -0.0346388 -0.0292608 0.0662173 -0.0223841 0.0481281 -0.0444292 -0.0546937 -0.00442961 -0.11357 -0.0951938 -0.0478213 0.0176553 0.0264061 0.0790022 0.0549403 -0.0164038 -0.0430628 -0.037029 -0.0487855 0.0453169 -0.0218234 0.0648963
internal_weight=0 26.1927 2.41748 20.4456 13.2016 23.7753 22.2586 7.24392 5.45779 7.74385 13.8179 10.1137 8.4408 1.51661 2.25645 3.35299 3.71891 4.54566 3.19819 6.43977 3.70419 7.85721 3.82467 4.03254 3.27457 4.72189 3.1652
internal_count=276 149 19 127 70 130 114 57 31 39 76 58 38 16 21 21 17 17 22 45 18 37 18 19 22 21 23
shrinkage=0.113


end of trees

feature_importances:
relevance=73
color=57
shape_size=20
visibility=19
intensity=12
integration=8
proximity2fe=5
proximity2dp=4
proximity2be=4
wellknownness=2
uniqueness=1

parameters:
[boosting: gbdt]
[objective: lambdarank]
[metric: ndcg]
[tree_learner: serial]
[device_type: cpu]
[data: ]
[valid: ]
[num_iterations: 28]
[learning_rate: 0.113]
[num_leaves: 28]
[num_threads: -1]
[force_col_wise: 0]
[force_row_wise: 0]
[histogram_pool_size: -1]
[max_depth: 9]
[min_data_in_leaf: 5]
[min_sum_hessian_in_leaf: 0.001]
[bagging_fraction: 1]
[pos_bagging_fraction: 1]
[neg_bagging_fraction: 1]
[bagging_freq: 0]
[bagging_seed: 3]
[feature_fraction: 1]
[feature_fraction_bynode: 1]
[feature_fraction_seed: 2]
[extra_trees: 0]
[extra_seed: 6]
[early_stopping_round: 100]
[first_metric_only: 0]
[max_delta_step: 0]
[lambda_l1: 0]
[lambda_l2: 0]
[min_gain_to_split: 0]
[drop_rate: 0.1]
[max_drop: 50]
[skip_drop: 0.5]
[xgboost_dart_mode: 0]
[uniform_drop: 0]
[drop_seed: 4]
[top_rate: 0.2]
[other_rate: 0.1]
[min_data_per_group: 100]
[max_cat_threshold: 32]
[cat_l2: 10]
[cat_smooth: 10]
[max_cat_to_onehot: 4]
[top_k: 20]
[monotone_constraints: ]
[monotone_constraints_method: basic]
[monotone_penalty: 0]
[feature_contri: ]
[forcedsplits_filename: ]
[refit_decay_rate: 0.9]
[cegb_tradeoff: 1]
[cegb_penalty_split: 0]
[cegb_penalty_feature_lazy: ]
[cegb_penalty_feature_coupled: ]
[path_smooth: 0]
[interaction_constraints: ]
[verbosity: -1]
[saved_feature_importance_type: 0]
[max_bin: 255]
[max_bin_by_feature: ]
[min_data_in_bin: 3]
[bin_construct_sample_cnt: 200000]
[data_random_seed: 1]
[is_enable_sparse: 1]
[enable_bundle: 1]
[use_missing: 1]
[zero_as_missing: 0]
[feature_pre_filter: 1]
[pre_partition: 0]
[two_round: 0]
[header: 0]
[label_column: ]
[weight_column: ]
[group_column: ]
[ignore_column: ]
[categorical_feature: ]
[forcedbins_filename: ]
[objective_seed: 5]
[num_class: 1]
[is_unbalance: 0]
[scale_pos_weight: 1]
[sigmoid: 1]
[boost_from_average: 1]
[reg_sqrt: 0]
[alpha: 0.9]
[fair_c: 1]
[poisson_max_delta_step: 0.7]
[tweedie_variance_power: 1.5]
[lambdarank_truncation_level: 20]
[lambdarank_norm: 1]
[label_gain: ]
[eval_at: 1,2]
[multi_error_top_k: 1]
[auc_mu_weights: ]
[num_machines: 1]
[local_listen_port: 12400]
[time_out: 120]
[machine_list_filename: ]
[machines: ]
[gpu_platform_id: -1]
[gpu_device_id: -1]
[gpu_use_dp: 0]

end of parameters

pandas_categorical:null
