tree
version=v3
num_class=1
num_tree_per_iteration=1
label_index=0
max_feature_idx=11
objective=lambdarank
feature_names=color intensity shape_size integration choice visibility proximity2dp proximity2fe proximity2be uniqueness wellknownness relevance
feature_infos=[0:1] [0:1] [0:1.0000000000000002] [0:1] [0:1] [0:1] [0:1.0000000000000002] [0:0.99999999999999989] [0:0.93183904056685019] [0:1] [0.0034899325515066891:0.97986577180532408] [0.30313914065104453:1]
tree_sizes=1563 1558 1569 1571 1570 1572 1578 1576 1578

Tree=0
num_leaves=14
num_cat=0
split_feature=6 11 0 3 1 11 1 8 9 11 11 0 11
split_gain=8.90208 6.97041 7.15578 2.81503 1.26349 2.41899 1.46041 1.16138 0.745987 0.719091 0.502439 0.788362 0.303347
threshold=0.10860180758575484 0.98202865771588765 0.57358709964519461 0.019986404276603895 0.58355200773909133 0.77915819106608775 0.51298240439606357 0.011559667241718212 0.22000000000000003 0.42474782993232335 0.67688773599872754 0.39502600680593031 0.91589751341782366
decision_type=2 2 2 2 2 2 2 2 2 2 2 2 2
left_child=10 2 4 12 5 6 -2 -5 -9 -6 -1 -12 -4
right_child=1 -3 3 7 9 -7 -8 8 -10 -11 11 -13 -14
leaf_value=-0.2259999999999992 0.068885078543997627 0.19715105892884102 0.076912898802381516 0.023798380241051253 0.10679043561243048 0.19521596283857076 -0.10838042903043689 -0.054820117709642534 -0.12442953342696039 0.22599999999999981 -0.093000219248163526 -0.22599999999999976 0.015873203624829451
leaf_weight=1.1422112584114104 1.5768205560743873 2.6314911246299735 2.3152865543961552 2.0150651447474948 1.257310401648283 1.233037304133177 0.95158958807587612 9.8137483485043031 2.4582940861582747 1.3291976377367973 1.7569584697484972 0.84173232316970814 1.8868511915206907
leaf_count=11 16 27 24 20 13 13 10 96 25 13 17 8 19
internal_value=0 0.0222715 0.00374308 -0.0317965 0.107257 0.065452 0.00216963 -0.055709 -0.068764 0.168052 -0.163535 -0.13608 0.0495047
internal_weight=0 27.4687 24.8372 18.4892 6.34796 3.76145 2.52841 14.2871 12.272 2.58651 3.7409 2.59869 4.20214
internal_count=312 276 249 184 65 39 26 141 121 26 36 25 43
shrinkage=0.113


Tree=1
num_leaves=14
num_cat=0
split_feature=11 1 5 1 11 0 1 11 2 0 11 7 11
split_gain=20.2134 21.7339 14.2758 6.36635 4.04781 4.57834 3.10606 2.70865 1.97851 1.80062 3.43569 1.51071 1.5885
threshold=0.98202865771588765 0.20976926485769415 0.66306536504090297 0.41542385403513515 0.77915819106608775 0.63252044125064555 0.6478058824532259 0.67688773599872754 0.41900561347233373 0.59033361992249433 0.42474782993232335 0.026299892476803661 0.67688773599872754
decision_type=2 2 2 2 2 2 2 2 2 2 2 2 2
left_child=1 11 3 7 6 -6 -5 -3 -2 10 -4 12 -1
right_child=8 2 9 4 5 -7 -8 -9 -10 -11 -12 -13 -14
leaf_value=-0.14240179936234448 0.20963420937568272 0.050555496543428079 0.070242108121782457 -0.09266432777004785 0.1064116408966955 -0.064839132613883355 -0.028707870863590935 -0.028050185804926828 0.10778510330494034 0.060402705751058022 0.20510502418818002 -0.20410484420546376 -0.069862126877145922
leaf_weight=9.2276340723037737 4.6565555930137617 21.76358333975077 5.3181643187999725 13.975779086351393 4.9564100801944715 3.3345518708229065 31.664066880941391 7.535801798105239 5.1059423387050629 8.581021212041378 4.4140233844518661 2.6615248918533316 6.6202490925788871
leaf_count=24 12 48 13 27 13 9 82 15 15 20 13 8 13
internal_value=0 -0.0127154 0.00781192 -0.0120625 -0.0350978 0.0375361 -0.0482925 0.0303381 0.156366 0.0981376 0.131409 -0.125329 -0.112099
internal_weight=0 120.053 101.543 83.2302 53.9308 8.29096 45.6398 29.2994 9.7625 18.3132 9.73219 18.5094 15.8479
internal_count=312 285 240 194 131 22 109 63 27 46 26 45 37
shrinkage=0.113


Tree=2
num_leaves=14
num_cat=0
split_feature=11 5 3 10 3 11 8 11 1 11 1 2 11
split_gain=12.9063 16.826 5.61081 5.08625 3.28259 2.90915 2.22011 1.98794 2.37831 1.81205 1.6585 0.996932 0.749392
threshold=0.77915819106608775 0.66306536504090297 0.050213589858228304 0.17718120777757762 0.050213589858228304 0.45133336091856951 0.021148118322094709 0.67688773599872754 1.0000000180025095e-35 0.42474782993232335 0.8249191861292241 0.12028869286287094 0.45133336091856951
decision_type=2 2 2 2 2 2 2 2 2 2 2 2 2
left_child=1 3 -2 4 12 10 -7 11 -9 -3 -6 -5 -1
right_child=2 9 -4 7 5 6 -8 8 -10 -11 -12 -13 -14
leaf_value=-0.0018823763081270227 0.02530042877527296 0.082683316510464358 0.14372053953911926 -0.10508775986705085 -0.025183332417358439 -0.040748722279298016 -0.12024406340921928 -0.18922569007811346 -0.045526619721985975 0.18935825570051953 0.078365315105884847 -0.19318332593545115 0.045047328649520366
leaf_weight=11.693286910653116 11.122109815478327 8.3124319612979871 9.449660509824751 4.5169023126363781 6.5468213856220263 11.859001427888872 7.2151591777801505 1.677890010178088 11.908738598227499 2.6917209997773162 2.8283436298370361 2.575550377368927 6.9136767983436576
leaf_count=34 28 25 40 12 21 40 24 8 27 13 10 11 19
internal_value=0 -0.0208219 0.0796968 -0.0418763 -0.0213492 -0.045486 -0.0708193 -0.0885866 -0.0632728 0.108777 0.00605571 -0.137079 0.015555
internal_weight=0 78.7395 20.5718 67.7354 47.0563 28.4493 19.0742 20.6791 13.5866 11.0042 9.37517 7.09245 18.607
internal_count=312 244 68 206 148 95 64 58 35 38 31 23 53
shrinkage=0.113


Tree=3
num_leaves=14
num_cat=0
split_feature=5 11 11 10 0 1 11 2 7 1 11 0 2
split_gain=8.16615 4.92738 4.56069 4.62805 2.75591 2.20272 3.56675 2.00949 0.668698 1.12649 0.747841 0.780438 0.623343
threshold=0.2629668647751674 0.77915819106608775 0.98202865771588765 0.070973154050662138 0.98423748947671708 0.8249191861292241 0.45133336091856951 0.71130713712911009 0.020714679282958556 1.0000000180025095e-35 0.45133336091856951 0.51348607409480673 0.41900561347233373
decision_type=2 2 2 2 2 2 2 2 2 2 2 2 2
left_child=1 5 3 7 -5 8 -7 -2 10 -10 -1 -12 -4
right_child=2 -3 12 4 -6 6 -8 -9 9 -11 11 -13 -14
leaf_value=-0.074861436559012409 0.070164602265199438 0.11597525480380218 0.18532175308098428 -0.086568696843169465 0.01625649732710038 0.092245262525379637 -0.063204562919825721 0.0092898869091384527 -0.17720198826864064 -0.064188821990553799 -0.055917259973919511 0.042302295741018986 0.10219032624089744
leaf_weight=2.8599801659584072 17.301150269806389 2.5201234742999068 2.006615310907363 6.6034155711531621 6.7106496244668961 3.4467946588993064 4.1587758734822273 11.544467769563196 1.1861970052123094 22.275754772126675 1.814218685030937 2.3989136219024658 2.7034235373139381
leaf_count=7 66 13 12 25 18 10 14 37 8 74 4 9 15
internal_value=0 -0.0370566 0.0321476 0.0203658 -0.034742 -0.0471681 0.00724428 0.0458016 -0.060721 -0.0699026 -0.0302651 7.9313e-06 0.137607
internal_weight=0 40.6608 46.8697 42.1597 13.3141 38.1406 7.60557 28.8456 30.5351 23.462 7.07311 4.21313 4.71004
internal_count=312 139 173 146 43 126 24 103 102 82 20 13 27
shrinkage=0.113


Tree=4
num_leaves=14
num_cat=0
split_feature=5 11 8 2 6 7 2 11 11 2 9 0 7
split_gain=5.54774 5.9164 4.10454 3.28455 2.83395 2.62255 1.29568 0.953694 1.43969 1.10505 0.483807 0.477101 0.45523
threshold=0.66306536504090297 0.77915819106608775 0.069721214827143205 0.71130713712911009 0.2100774150633565 0.014922315161307207 0.37209302325581411 0.67688773599872754 0.60601017468328566 0.12028869286287094 0.66666666666666674 0.92798781083676607 0.026299892476803661
decision_type=2 2 2 2 2 2 2 2 2 2 2 2 2
left_child=1 2 5 10 6 -1 -4 8 -7 -9 -3 -5 -8
right_child=-2 3 4 11 -6 7 12 9 -10 -11 -12 -13 -14
leaf_value=-0.0045296145330351104 0.081277379387261817 0.17624004930303155 -0.0048734950301400582 0.035107056875856718 0.053275499352109568 -0.070665217474272068 -0.066079584638119318 -0.08324839579889691 -0.18010010413908459 0.005467850750607961 0.10212647772010428 -0.028492690015346191 -0.16967036521635115
leaf_weight=12.692588344216345 9.435606971383093 1.5099841766059379 4.5948793068528184 2.9400670826435089 11.228814192116261 17.439730100333698 1.2761615812778475 3.1254065707325926 1.6831670589745034 4.2047500163316727 4.4077245891094208 3.0879938900470734 0.94117856770753849
leaf_count=42 46 12 16 9 36 65 5 10 11 13 28 11 8
internal_value=0 -0.0110932 -0.0262019 0.0612348 0.0183919 -0.0467538 -0.0391079 -0.0670136 -0.0802975 -0.0323587 0.121038 0.00252682 -0.11005
internal_weight=0 69.1324 57.1867 11.9458 18.041 39.1456 6.81222 26.4531 19.1229 7.33016 5.91771 6.02806 2.21734
internal_count=312 266 206 60 65 141 29 99 76 23 40 20 13
shrinkage=0.113


Tree=5
num_leaves=14
num_cat=0
split_feature=5 11 2 7 11 11 6 11 11 7 11 2 0
split_gain=4.78762 4.73405 2.01655 1.938 1.62194 1.39626 1.1377 1.27057 1.02212 0.960132 0.623642 0.456102 0.203834
threshold=0.51330105392746328 0.77915819106608775 0.99959903769045744 0.025384520271380974 0.91589751341782366 0.42474782993232335 0.21979189466573512 0.45133336091856951 0.64772487228375752 0.020714679282958556 0.67688773599872754 0.41900561347233373 0.76735039005403693
decision_type=2 2 2 2 2 2 2 2 2 2 2 2 2
left_child=1 3 11 6 5 -2 9 -8 -9 -1 -11 -3 -5
right_child=4 2 -4 12 -6 -7 7 8 -10 10 -12 -13 -14
leaf_value=-0.0014826144475542798 0.065919971958214696 0.13916239874084776 -0.0080541793221461586 -0.16325840227094277 0.0079842813440174371 0.17853426748390847 0.045929758654959969 -0.032023181320819327 0.048607034828532854 -0.06482572459618037 -0.022952344549685848 0.069876034637926132 -0.096283314779849125
leaf_weight=7.2574956491589573 7.3254631012678129 2.9182390123605719 2.9042401984333992 0.75854265317320768 5.1222751140594474 1.7397180721163747 5.3862056359648731 11.92006106302142 2.4141049906611434 12.480595324188473 7.1398742608726016 2.0763640962541103 2.4684398733079433
leaf_count=25 37 25 9 8 19 13 20 47 8 51 23 15 12
internal_value=0 -0.0144548 0.0668207 -0.0273395 0.0588119 0.087532 -0.0214748 -0.000861478 -0.0184438 -0.0365988 -0.049588 0.110359 -0.112027
internal_weight=0 57.7242 7.89884 49.8253 14.1875 9.06518 46.5983 19.7204 14.3342 26.878 19.6205 4.9946 3.22698
internal_count=312 243 49 194 69 50 174 75 55 99 74 40 20
shrinkage=0.113


Tree=6
num_leaves=14
num_cat=0
split_feature=11 8 11 5 10 10 11 11 6 7 0 2 11
split_gain=2.96647 3.46055 2.06956 1.41007 1.33657 0.646946 0.707118 0.410265 0.978609 0.860356 0.430381 0.344075 0.310967
threshold=0.98202865771588765 0.069721214827143205 0.77915819106608775 0.66306536504090297 0.053859060085187614 0.25218120780274544 0.64772487228375752 0.45133336091856951 0.2100774150633565 0.024478057170235268 0.92798781083676607 0.41900561347233373 0.91589751341782366
decision_type=2 2 2 2 2 2 2 2 2 2 2 2 2
left_child=1 2 4 7 -1 6 -6 8 -3 10 -9 -2 -5
right_child=11 3 -4 12 5 -7 -8 9 -10 -11 -12 -13 -14
leaf_value=0.022838828410603258 0.16625288984809802 -0.023157910223506422 0.10318789794624303 0.082007682537112409 -0.049286069841102641 -0.081526068278189368 -0.0093326241213191937 0.037931595566845271 0.057831679998590076 -0.045933183655951955 -0.016025102596964887 0.083885258157527995 0.027570341957223951
leaf_weight=4.5927399545907965 1.0195740237832061 2.9441588819027 1.4667187705636013 5.3332397229969493 16.393803168088205 4.619428999722003 8.6361572891473752 5.0950263217091543 5.3977206014096737 4.0350725203752509 2.9985715970396996 1.7749424241483212 1.7895068973302839
leaf_count=20 12 12 13 38 74 22 25 18 22 22 11 15 8
internal_value=0 -0.00502982 -0.0282548 0.025026 -0.033885 -0.0426716 -0.0355008 0.00995796 0.0292474 -0.00330899 0.0179413 0.113937 0.0683309
internal_weight=0 63.3021 35.7088 27.5933 34.2421 29.6494 25.03 20.4705 8.34188 12.1287 8.0936 2.79452 7.12275
internal_count=312 285 154 131 141 121 99 85 34 51 29 27 46
shrinkage=0.113


Tree=7
num_leaves=14
num_cat=0
split_feature=5 11 2 2 11 11 11 11 8 0 0 2 1
split_gain=3.83269 1.32558 2.66001 1.39429 1.09987 1.15435 0.971739 0.806011 0.796886 0.791158 0.508928 0.311427 0.202632
threshold=0.41106719035376682 0.77915819106608775 0.99959903769045744 0.0060144346431435522 0.49459000568800598 0.42474782993232335 0.64772487228375752 0.67688773599872754 0.069721214827143205 1.0000000180025095e-35 0.63252044125064555 0.20208500400962315 0.37684203539341138
decision_type=2 2 2 2 2 2 2 2 2 2 2 2 2
left_child=1 3 -3 8 5 -2 11 10 -1 -9 -5 -6 -8
right_child=4 2 -4 7 6 -7 12 9 -10 -11 -12 -13 -14
leaf_value=-0.037070921882304458 0.050142223912659677 0.12632185851939004 -0.038382658581833769 -0.1693216746914212 0.017739611501057885 0.16870684111624407 0.077402570069167662 -0.0029765267663964734 0.0098586295654193457 -0.07549407464837378 -0.079306994565858713 -0.032947536262279795 0.033271790771928308
leaf_weight=9.2313774935901218 7.3842248097062129 2.1193391364067784 3.0596946179866791 1.13166988827288 2.3717002049088469 1.2220654543489216 1.6254020240157823 3.5285792797803879 9.2494087852537614 4.2166642583906651 2.7533128336071968 4.4555931650102139 7.2747525498270988
leaf_count=40 47 25 9 11 10 13 15 13 40 22 17 23 27
internal_value=0 -0.0237902 0.0290169 -0.032873 0.0345018 0.066978 0.0167304 -0.0635249 -0.0135833 -0.0424565 -0.105528 -0.0153396 0.0413312
internal_weight=0 35.29 5.17903 30.111 24.3337 8.60629 15.7274 11.6302 18.4808 7.74524 3.88498 6.82729 8.90015
internal_count=312 177 34 143 135 60 75 63 80 35 28 33 42
shrinkage=0.113


Tree=8
num_leaves=14
num_cat=0
split_feature=11 5 7 8 11 5 2 11 6 6 0 11 0
split_gain=2.08595 2.18059 1.72493 0.824272 1.10759 0.939872 0.244002 0.200359 0.718414 0.36032 0.173672 0.777653 0.13252
threshold=0.98202865771588765 0.66306536504090297 0.025384520271380974 0.069721214827143205 0.77915819106608775 0.20945946249560674 0.41900561347233373 0.45133336091856951 0.2100774150633565 0.2100774150633565 0.59033361992249433 0.42474782993232335 0.76735039005403693
decision_type=2 2 2 2 2 2 2 2 2 2 2 2 2
left_child=1 2 3 4 5 -1 -2 9 -9 -5 11 -3 -4
right_child=6 10 12 7 -6 -7 -8 8 -10 -11 -12 -13 -14
leaf_value=-0.047007319030098492 0.16063644954390427 0.033817424618986132 -0.15711949261274902 -0.0079169487766585431 0.090687983205925041 -0.0047263861889256329 0.080997735389458675 0.036481412887637871 -0.025012916806052013 0.046873678255028188 0.043624613178532251 0.16218187911656537 -0.093513065660861858
leaf_weight=12.332427890971308 0.75178996007889431 1.570715676993131 0.55670642200857323 2.3758921772241619 1.119890822097658 14.7338496344164 1.4175004120916128 4.3370961621403676 5.5047907270491123 4.3180584013462067 3.2349805794656277 0.97777430806308974 1.6817303858697414
leaf_count=54 12 13 8 12 13 75 15 18 25 22 20 13 12
internal_value=0 -0.00446647 -0.0125297 -0.00768449 -0.0194348 -0.0239912 0.108597 0.0123445 0.00208624 0.0274268 0.0610048 0.0830668 -0.109332
internal_weight=0 52.7439 46.9604 44.722 28.1862 27.0663 2.16929 16.5358 9.84189 6.69395 5.78347 2.54849 2.23844
internal_count=312 285 239 219 142 129 27 77 43 34 46 26 20
shrinkage=0.113


end of trees

feature_importances:
relevance=42
shape_size=14
color=13
intensity=10
visibility=9
proximity2fe=8
proximity2dp=6
proximity2be=6
wellknownness=4
integration=3
uniqueness=2

parameters:
[boosting: gbdt]
[objective: lambdarank]
[metric: ndcg]
[tree_learner: serial]
[device_type: cpu]
[data: ]
[valid: ]
[num_iterations: 28]
[learning_rate: 0.113]
[num_leaves: 14]
[num_threads: -1]
[force_col_wise: 0]
[force_row_wise: 0]
[histogram_pool_size: -1]
[max_depth: 6]
[min_data_in_leaf: 5]
[min_sum_hessian_in_leaf: 0.001]
[bagging_fraction: 1]
[pos_bagging_fraction: 1]
[neg_bagging_fraction: 1]
[bagging_freq: 0]
[bagging_seed: 3]
[feature_fraction: 1]
[feature_fraction_bynode: 1]
[feature_fraction_seed: 2]
[extra_trees: 0]
[extra_seed: 6]
[early_stopping_round: 100]
[first_metric_only: 0]
[max_delta_step: 0]
[lambda_l1: 0]
[lambda_l2: 0]
[min_gain_to_split: 0]
[drop_rate: 0.1]
[max_drop: 50]
[skip_drop: 0.5]
[xgboost_dart_mode: 0]
[uniform_drop: 0]
[drop_seed: 4]
[top_rate: 0.2]
[other_rate: 0.1]
[min_data_per_group: 100]
[max_cat_threshold: 32]
[cat_l2: 10]
[cat_smooth: 10]
[max_cat_to_onehot: 4]
[top_k: 20]
[monotone_constraints: ]
[monotone_constraints_method: basic]
[monotone_penalty: 0]
[feature_contri: ]
[forcedsplits_filename: ]
[refit_decay_rate: 0.9]
[cegb_tradeoff: 1]
[cegb_penalty_split: 0]
[cegb_penalty_feature_lazy: ]
[cegb_penalty_feature_coupled: ]
[path_smooth: 0]
[interaction_constraints: ]
[verbosity: -1]
[saved_feature_importance_type: 0]
[max_bin: 255]
[max_bin_by_feature: ]
[min_data_in_bin: 3]
[bin_construct_sample_cnt: 200000]
[data_random_seed: 1]
[is_enable_sparse: 1]
[enable_bundle: 1]
[use_missing: 1]
[zero_as_missing: 0]
[feature_pre_filter: 1]
[pre_partition: 0]
[two_round: 0]
[header: 0]
[label_column: ]
[weight_column: ]
[group_column: ]
[ignore_column: ]
[categorical_feature: ]
[forcedbins_filename: ]
[objective_seed: 5]
[num_class: 1]
[is_unbalance: 0]
[scale_pos_weight: 1]
[sigmoid: 1]
[boost_from_average: 1]
[reg_sqrt: 0]
[alpha: 0.9]
[fair_c: 1]
[poisson_max_delta_step: 0.7]
[tweedie_variance_power: 1.5]
[lambdarank_truncation_level: 20]
[lambdarank_norm: 1]
[label_gain: ]
[eval_at: 1,2]
[multi_error_top_k: 1]
[auc_mu_weights: ]
[num_machines: 1]
[local_listen_port: 12400]
[time_out: 120]
[machine_list_filename: ]
[machines: ]
[gpu_platform_id: -1]
[gpu_device_id: -1]
[gpu_use_dp: 0]

end of parameters

pandas_categorical:null
